2239 128
0 0.0 -0.001157 -0.0 -0.003682 0.0 -0.0 0.001368 -0.0 0.0 0.003987 -0.0 -0.004509 0.0 -0.0 0.0 -0.0 0.0 -0.0 -0.0 -0.011491 -0.0 0.064228 -0.0 0.0 -0.0 -0.046766 -0.0 0.0 0.342446 0.0 0.216786 -0.0 0.0 0.035496 0.0 -0.0 -0.0 0.037468 0.155412 -0.0 0.038725 0.0 0.694054 -0.010876 -0.0 -0.0 -5e-06 0.0 0.0 0.0 -1e-05 -0.008691 -0.0 -0.071995 -5.8e-05 3.3e-05 0.130423 -0.0 -0.0 -8e-06 0.000599 0.002387 -0.092844 -0.0 -0.00041 0.000491 -0.00091 -0.0 4e-06 -0.0 -0.0 0.000267 -0.000958 0.0 0.0 0.0 0.000596 0.001821 -0.0 -0.000827 0.000955 -0.0 0.0 0.0 -0.002617 0.0 -0.0 0.0 0.0 -0.001234 -0.000734 -0.0 -0.0 -0.002106 -0.0 -0.0 0.00228 0.0 -0.003528 0.004377 0.0 -0.001718 0.001181 0.0 0.0 0.002546 -0.001455 -0.0 -0.0 -0.001056 -0.0 0.267521 -0.0 -0.001436 0.0 -0.124174 -0.09741 0.0 -0.0 -0.290176 0.0 -0.0 0.180048 0.0 -0.0 -0.0 -0.273913 0.0
1 -0.0 0.0 -0.0 0.0 -0.0 0.0 -0.0 0.0 -0.0 0.0 -0.0 0.0 -0.0 0.0 -0.0 0.0 -0.0 -0.0 0.0 -0.0 0.0 -0.0 0.0 -0.0 0.0 -0.0 -0.0 -0.0 -0.0 -0.0 0.0 0.0 0.0 0.0 0.0 0.0 0.0 -0.0 0.0 -0.0 0.0 0.0 0.0 -0.0 -0.0 -0.005751 0.0 0.010641 0.0 -0.0 -0.0 -0.0 0.0 -0.0 -0.0 -0.0 0.0 -0.0 -0.0 0.0 0.0 0.0 0.0 -0.0 0.0 0.0 -0.0 -0.0 0.0 -2e-06 -0.0 0.0 0.0 0.119032 0.025491 -0.438305 9e-06 4e-06 3.4e-05 -0.0 1e-06 -3e-06 -0.096679 0.093037 0.0 -0.0 -0.020373 0.069383 1.6e-05 0.0 1e-06 0.624859 -0.0 -3e-06 -2e-06 -0.0 -3e-06 -2e-06 -1e-06 -1e-06 -0.0 -1e-06 1e-06 0.0 0.0 0.0 -0.0 0.0 -0.61522 1e-06 -0.027345 -0.0 -0.0 0.0 0.0 -0.0 0.0 -0.0 0.0 -0.0 0.0 -0.0 0.0 -0.0 -0.0 -0.0 -0.0 0.0
2 -0.0 0.0 0.0 0.0 -0.0 0.0 -0.0 0.0 -0.0 -0.0 -0.0 0.0 0.0 0.0 -0.0 -0.0 0.0 0.0 -0.0 -0.0 0.0 0.0 -0.0 0.0 -0.0 0.0 0.0 0.0 0.0 0.0 -0.0 0.0 0.0 0.0 0.0 0.0 -0.0 -0.0 -0.0 0.0 -0.0 0.0 -0.0 -0.0 0.0 -0.548174 -0.0 -0.000452 -0.0 0.0 0.0 0.0 -0.0 -0.0 0.0 -0.0 -0.0 -0.0 -0.0 -0.0 -0.0 -0.0 0.0 -0.0 0.0 0.0 0.0 -0.0 -0.0 -0.0 -0.0 0.0 -0.0 0.01458 0.334665 -0.005158 0.0 0.0 1e-06 -0.0 -0.0 1e-06 0.046544 -0.07864 0.0 0.0 0.030949 -0.144629 1e-06 -0.0 0.0 -0.006218 0.0 0.0 0.0 0.0 0.0 0.0 0.0 0.0 0.0 0.0 -0.0 -0.0 -0.0 -0.0 0.0 0.0 0.002569 -0.0 -0.74632 -0.0 0.0 0.0 0.0 -0.0 0.0 -0.0 0.0 -0.0 0.0 -0.0 -0.0 -0.0 -0.0 -0.0 -0.0 0.0
3 -0.005332 0.001036 0.006054 0.009389 -0.005906 0.003657 0.000821 0.004426 -0.003053 -0.011764 0.00065 -0.008066 -0.00458 0.005824 -0.018005 0.003519 -0.006517 0.007083 0.010568 -0.008782 -0.006377 0.001373 0.019146 -0.024817 0.010877 -0.005302 -0.018672 -1.1e-05 -0.010385 -0.035076 -0.008584 0.000593 0.034555 -0.004074 0.001205 0.10076 0.001113 0.009794 0.07052 0.226579 0.02812 0.050405 0.037264 -0.279974 -0.018296 -0.05626 8.3e-05 -0.000361 -0.0159 0.01654 0.000168 0.044233 0.023674 -0.100726 0.001594 -0.000955 -0.21676 -0.03884 0.004543 -0.000154 -0.001183 0.002702 -0.081719 0.000884 -0.000145 0.00131 -0.003011 -0.052221 0.000984 -0.028736 -0.003044 -0.000572 -0.00168 0.009876 0.010762 -0.002413 0.008566 0.02461 -0.000331 -0.015055 0.010502 0.008099 -0.034195 0.063204 -0.025563 0.019476 -0.027906 0.129745 -0.001895 -0.001861 -0.023235 0.021347 -0.052883 -0.004083 0.000338 -0.014215 0.002263 0.021429 -0.006418 0.001483 -0.071849 -0.003539 -0.000301 0.026854 0.031856 0.072135 -0.005 -0.126369 -0.002379 0.00094 -0.640606 -0.010071 0.018553 0.003439 0.192966 -0.120837 0.122396 -0.205939 0.138278 -0.153507 0.062937 -0.0028 -0.024856 -0.002063 -0.117316 -0.157293 -0.237046 0.223215
4 -0.000684 0.0 -0.000631 -0.0 -0.008343 0.009283 -0.0 -0.002268 0.015125 0.0 -0.064644 -0.0 -0.063924 0.328657 0.046478 -0.0 0.07905 0.215755 0.051136 0.0 -0.286999 -0.0 0.0 -0.163875 0.0 -0.0 -0.043352 0.0 0.0 -0.151106 -0.0 0.0 0.086541 0.0 -0.0 0.030424 0.0 0.0 0.0 0.025569 0.0 0.007275 -0.0 0.0 -0.0 0.0 -0.0 -0.0 -0.103088 -0.0 0.0 -0.0 -0.073083 0.0 -0.0 0.0 0.0 0.0 0.0 -0.0 0.0 -0.0 -0.0 -0.0 0.0 0.0 0.0 0.0 0.0 -0.045891 0.000837 -0.0 -0.0 1e-06 0.0 1e-06 0.0 -0.0 -0.009545 0.0 0.0 -0.0 0.0 -0.0 0.0 -0.0 0.0 0.0 0.009338 -0.0 -0.0 1e-06 0.0 -0.0 0.017754 0.0 0.0 0.17667 0.0 -0.0 -0.040854 -1e-06 -0.0 0.0 0.0 0.0 0.0 0.507901 0.0 0.0 0.0 0.0 0.0 0.0 0.169764 0.0 0.0 0.059297 0.044914 0.0 0.0 -0.0 -0.0 0.161243 -0.3652 -0.0 0.0 0.423745
5 -0.0 0.0 -0.0 0.0 -0.0 0.0 -0.0 0.0 -0.0 -0.0 -0.0 0.0 -0.0 0.0 -0.0 0.0 -0.0 0.0 0.0 0.0 -0.0 -0.0 0.0 -0.0 0.0 -0.0 0.0 -0.0 0.0 -0.0 0.0 0.0 0.0 -0.0 -0.0 0.0 0.0 0.0 0.0 0.0 0.0 0.0 -0.0 0.0 -0.0 -0.007992 -0.0 0.156842 -0.0 -0.0 -0.0 -0.0 -1e-06 -0.0 -0.0 0.0 0.0 -0.0 -0.0 0.0 0.0 0.0 0.0 -0.0 0.0 0.0 0.0 -0.0 0.0 -6e-06 -0.0 0.0 0.0 0.027593 0.233405 0.020662 -0.0 -0.0 -3e-06 0.0 0.0 -1e-06 -0.043981 0.092494 0.0 -0.0 -0.086031 0.646746 -5e-06 0.0 0.0 0.232106 -0.0 -1e-06 -2e-06 -0.0 -1e-06 -5e-06 -0.0 -0.0 -1e-06 -0.0 0.0 0.0 0.0 0.0 -0.0 -1e-06 -0.654282 1e-06 -0.039249 -0.0 -0.0 0.0 2e-06 -0.0 0.0 -2e-06 1e-06 -0.0 0.0 -0.0 0.0 -0.0 -0.0 -0.0 -0.0 0.0
6 -0.0 0.0 -0.0 0.0 -0.0 0.0 -0.0 0.0 -0.0 0.0 -0.0 0.0 -0.0 0.0 -0.0 0.0 -0.0 0.0 0.0 -0.0 -0.0 -0.0 0.0 -0.0 0.0 -0.0 0.0 -0.0 -0.0 0.0 0.0 -0.0 -0.0 0.0 -0.0 -0.0 0.0 -0.0 0.0 -0.0 0.0 0.0 0.0 0.0 -0.0 -0.011233 0.0 -0.118253 0.0 0.0 -0.0 -0.0 0.0 -0.0 -0.0 -0.0 0.0 0.0 -0.0 0.0 0.0 0.0 0.0 0.0 0.0 0.0 0.0 0.0 0.0 0.0 0.0 0.0 0.0 0.067152 -0.031174 -0.068967 1e-06 1e-06 5e-06 0.0 1e-06 -2e-06 -0.089309 0.018133 -0.0 0.0 0.049208 0.099627 1e-06 0.0 0.0 0.0643 -0.0 -0.0 -0.0 -0.0 -0.0 -0.0 -0.0 -0.0 -0.0 -0.0 0.0 0.0 0.0 0.0 0.0 0.0 -0.972619 1e-06 -0.069841 -0.0 -0.0 0.0 0.0 -0.0 0.0 -0.0 0.0 -0.0 0.0 -0.0 0.0 -0.0 -0.0 -0.0 -0.0 0.0
7 -0.0 0.0 0.0 -0.0 -0.0 0.0 0.0 0.0 -0.0 -0.0 0.0 -0.0 -0.0 0.0 -0.0 0.002675 -0.0 0.0 0.0 -0.0 -0.0 0.0 -0.000132 -0.0 -0.001801 0.0 -0.0 0.0 0.0 -0.0 0.0 0.048808 0.0 0.0 0.033826 -0.0 -0.0 -0.0 -0.0 0.0 -0.0 -0.0 -0.0 0.0 -0.080598 -0.0 0.0 -0.0 0.0 0.330442 0.0 0.0 -0.0 0.0 0.0 0.0 0.0 0.61108 0.0 0.0 0.0 -0.0 0.0 0.0 0.0 -0.0 -0.0 -0.077533 -0.0 0.0 0.0 0.0 -0.0 -0.0 0.0 0.0 0.0 -0.0 0.0 0.0 0.0 0.058829 -2e-06 -0.0 0.0 -0.0 0.0 0.0 0.0 0.0 -0.0 -0.0 0.022836 -0.0 0.0 0.0 0.0 -0.0 -0.0 -0.0 0.0 0.0 -0.0 0.671073 0.0 0.0 -0.0 -0.0 -0.0 0.0 -0.0 -0.0 -0.1989 0.0 -0.0 -0.0 0.0 -0.0 0.0 -0.0 -0.00774 -0.0 -0.0 0.0 0.0 -0.086044 -0.0 0.0
8 0.0 0.0 -0.0 -0.0 0.0 -0.0 0.0 -0.0 0.0 0.0 0.0 -0.0 0.0 -0.0 0.0 -0.0 -0.0 -0.0 -0.0 0.0 -0.0 0.0 -0.0 0.0 -0.0 0.0 0.0 0.0 -0.0 -0.0 0.0 0.0 -0.0 -0.0 0.0 -0.0 -0.0 0.0 -0.0 0.0 0.0 0.0 -1e-06 -0.0 0.0 -0.0 0.00064 0.0 -0.0 -0.0 0.002119 2.1e-05 0.0 2.5e-05 -0.072237 0.041628 2e-06 0.0 -0.0 0.002637 0.017313 -0.018261 -0.000259 0.0 0.031329 0.016435 -0.018383 0.0 -0.274654 -0.0 -1e-06 -0.003637 0.03744 0.0 -0.0 -2e-06 -0.173469 0.039977 7e-06 0.194219 0.857667 -0.0 5e-06 0.0 0.2362 -0.0 0.0 0.0 2e-06 -0.003533 -0.018952 -1e-06 -0.0 -0.065613 -5e-06 0.0 -0.078284 0.0 0.014358 0.023706 3e-06 -0.103194 -0.148687 -0.0 -0.0 -0.00113 -0.012723 0.0 0.0 0.089062 -0.0 0.000408 -0.0 0.027301 -0.0 2.4e-05 -1e-06 -0.0 0.0 -2e-06 0.0 -0.0 0.0 0.0 -0.0 -0.0 -0.0 0.0
9 0.0 0.0 -0.0 -0.0 0.0 -0.0 -0.0 0.0 0.0 0.0 0.0 -0.0 0.0 -0.0 0.0 -0.0 -0.0 -0.0 -0.0 -0.0 0.0 0.0 -0.0 0.0 -0.0 -0.0 0.0 -0.0 0.0 0.0 0.0 0.0 0.0 0.0 0.0 -0.0 -0.0 0.0 -0.0 0.0 0.0 -0.0 -0.0 -0.0 -0.0 0.0 -0.0 0.0 0.0 0.0 0.0 0.0 0.0 -0.0 -0.0 0.0 0.0 -0.0 0.002644 -0.0 0.0 -0.0 0.0 -0.004447 0.0 -0.0 -0.0 0.0 0.0 0.0 0.0 -0.0 0.0 -0.0 -0.0 0.0 -0.0 -0.0 0.0 0.0 -0.0 -0.0 0.0 -0.0 0.0 0.999861 -1e-06 0.0 0.0 -0.0 -0.0 0.0 -0.0 -0.0 -0.0 0.014645 -0.0 0.0 -0.0 -0.0 -0.0 -0.0 0.0 0.0 0.006132 0.0 -0.0 -0.0 -0.0 -0.0 -0.0 -0.0 0.0 0.0 -0.0 -0.0 0.0 -0.0 0.0 -0.0 0.0 -0.0 0.0 -0.0 -0.0 -0.0 -0.0 0.0
10 -0.0 0.0 -0.0 0.0 -0.0 0.0 -0.0 0.0 -0.0 -0.0 -0.0 0.0 -0.0 0.0 -0.0 0.0 -0.0 0.0 0.0 -0.0 -0.0 -0.0 0.0 -0.0 0.0 -0.0 0.0 -0.0 0.0 -0.0 0.0 0.0 0.0 -0.0 -0.0 0.0 0.0 0.0 0.0 0.0 0.0 -0.0 -0.0 0.0 -0.0 -0.007048 -0.0 -0.008412 -0.0 -0.0 -0.0 -0.0 -1e-06 -0.0 -0.0 -0.0 0.0 -0.0 -0.0 0.0 0.0 0.0 0.0 -0.0 0.0 0.0 0.0 0.0 0.0 -9e-06 -1e-06 0.0 -0.0 -0.127866 0.155262 -0.112477 3e-06 2e-06 1.1e-05 0.0 1e-06 -2e-06 -0.09401 0.123669 0.0 -0.0 -0.068106 0.358554 8e-06 1e-06 2e-06 0.835816 -0.0 -4e-06 -5e-06 -0.0 -3e-06 -8e-06 -1e-06 -1e-06 -2e-06 -1e-06 1e-06 0.0 0.0 0.0 -0.0 -1e-06 -0.299933 0.0 -0.029883 -0.0 -0.0 0.0 3e-06 -0.0 0.0 -2e-06 1e-06 -0.0 0.0 -0.0 0.0 -0.0 -0.0 -0.0 -0.0 0.0
11 -0.0 0.0 0.0 0.0 -0.0 0.0 -0.0 0.0 -0.0 -0.0 -0.0 0.0 -0.0 0.0 -0.0 0.0 0.0 0.0 -0.0 -0.0 -0.0 0.0 -0.0 0.0 -0.0 0.0 0.0 0.0 0.0 0.0 -0.0 0.0 -0.0 0.0 0.0 0.0 -0.0 -0.0 -0.0 0.0 -0.0 0.0 -0.0 -0.0 0.0 -0.528239 -0.0 -0.000439 -0.0 0.0 0.0 0.0 -0.0 -0.0 0.0 -0.0 -0.0 -0.0 -0.0 -0.0 -0.0 -0.0 0.0 -0.0 0.0 0.0 0.0 -0.0 -0.0 -0.0 -0.0 0.0 -0.0 0.014545 0.333842 -0.005156 0.0 0.0 1e-06 -0.0 -0.0 1e-06 0.046523 -0.078614 0.0 0.0 0.030943 -0.144633 1e-06 -0.0 0.0 -0.006227 0.0 0.0 0.0 0.0 0.0 0.0 0.0 0.0 0.0 0.0 -0.0 -0.0 -0.0 -0.0 0.0 0.0 0.002612 -0.0 -0.760927 -0.0 0.0 0.0 0.0 -0.0 0.0 -0.0 0.0 -0.0 0.0 -0.0 -0.0 -0.0 -0.0 -0.0 -0.0 0.0
12 -0.001241 -0.000351 0.00182 0.002999 -0.001515 0.001054 0.000132 0.001228 -0.000597 -0.00491 0.000366 -0.000585 -0.001388 0.001079 -0.003926 0.000965 -0.001437 0.001212 0.002473 0.003168 -0.001603 -0.0015 0.00478 -0.003626 0.002675 -0.00284 -0.003526 1.3e-05 0.006167 -0.002055 -0.009176 0.000553 0.000329 -0.001926 0.000237 -0.012233 0.000322 -0.000633 0.004374 0.016434 0.006491 -0.021178 0.01453 -0.001589 -0.003212 -0.014182 5e-06 -0.000926 0.026171 0.003175 8.5e-05 3.5e-05 -0.02328 -0.009972 0.000162 -8.1e-05 -0.020078 -0.010591 0.001202 -4.7e-05 -0.000726 7.8e-05 -0.007103 0.000176 -0.000251 0.000558 -0.002274 -0.015654 4.8e-05 -0.022352 -0.000231 0.008334 -0.008382 -0.027224 -0.714845 0.006075 0.033689 0.090043 -0.00212 -0.058694 0.03916 0.002355 -0.081319 0.138719 -0.090559 0.005695 -0.054192 0.260936 0.001384 -0.00204 -0.091321 0.015144 -0.015347 -0.007087 0.004164 -0.003863 0.006673 0.023642 -0.015828 0.010383 -0.05629 -0.004971 0.002672 0.007748 0.008931 0.026822 -0.002045 -0.020707 -0.001846 -8.6e-05 -0.579595 -0.021874 0.002672 0.001283 0.008005 -0.014283 0.023241 -0.040315 0.03193 -0.040308 0.015459 -0.000869 0.002994 0.001025 -0.027012 -0.040342 -0.054581 0.054858
13 0.0 0.0 -0.0 0.0 0.0 -0.0 0.0 -0.0 0.0 -0.0 0.0 -0.0 0.0 -0.0 0.0 -0.0 0.0 0.0 -0.0 -0.0 -0.0 -0.0 -0.0 0.0 -0.0 -1e-06 0.0 -0.0 -5e-06 -0.0 1e-05 -0.0 -0.0 -5e-06 0.0 -0.0 -0.0 -1e-06 1e-05 -0.0 -2e-05 0.0 5e-05 2.5e-05 0.0 0.0 0.00041 -0.0 0.0 -0.0 -0.001126 0.000721 -0.0 0.000415 -0.001044 -0.000376 -0.000481 0.0 0.0 -0.008113 -0.058479 -0.004131 -0.00067 -0.0 0.024363 0.009265 0.006541 -0.0 -0.005276 0.0 -0.0 -0.027227 -0.010122 -2e-06 0.0 -1.1e-05 -0.295719 -0.628701 2e-06 0.065825 -0.010715 0.0 0.0 -0.0 -0.209393 0.0 -0.0 -0.0 0.0 -0.175508 -0.642764 1e-06 0.0 -0.030522 -0.0 0.0 -0.061743 0.0 -0.097559 -0.001853 2e-06 -0.062258 0.040165 0.0 -0.0 0.008012 -0.009384 -0.0 -0.0 -0.002926 -0.0 -0.00097 0.0 0.00518 -0.0 0.000371 5.3e-05 -0.0 0.0 -0.000241 0.0 -0.0 3.6e-05 0.0 -0.0 -0.0 -1e-05 0.0
14 -0.003809 0.002004 0.004227 0.014906 -0.004203 0.002696 0.001934 0.003186 -0.002159 -0.018015 0.000485 -0.015196 -0.003465 0.004094 -0.012773 0.001742 -0.004626 0.004891 0.007412 -0.018759 -0.004151 0.005643 0.0095 -0.0185 0.005227 -0.005941 -0.011961 -6e-06 -0.016992 -0.024238 -0.017248 0.0003 0.023935 -0.004449 0.000456 0.068402 0.000667 0.019313 0.125884 0.155334 0.032451 0.022963 0.062256 -0.521596 -0.009877 -0.011391 0.000205 -0.000109 -0.016663 0.0086 0.000345 0.079414 0.015821 -0.185005 0.003445 -0.002134 -0.374483 -0.020805 0.002172 -8.5e-05 -0.002063 0.005221 -0.153743 0.000208 -4.8e-05 0.002262 -0.003495 -0.025165 0.002223 -0.010832 -0.00169 -0.000517 -0.002411 0.004445 -0.009692 -0.001835 0.014837 0.042726 -0.001207 -0.025559 0.01808 0.004314 -0.011074 0.02004 -0.044161 0.009491 -0.008689 0.040236 -0.000493 -0.003245 -0.040167 0.009046 -0.026266 -0.007541 0.000692 -0.006942 0.004699 0.021019 -0.012226 0.004661 -0.05306 -0.007334 -0.000808 0.01474 0.015691 0.126058 -0.008923 -0.085914 -0.000935 0.00196 -0.142843 -0.015528 0.008602 0.00693 0.118934 -0.212774 0.206559 -0.137897 0.096767 -0.276931 0.031419 -0.001665 -0.041897 8.2e-05 -0.08208 -0.077375 -0.402143 0.156943
15 0.0 0.001407 -0.0 -0.002046 0.0 -0.0 0.000725 -0.0 0.0 0.010119 -0.0 -0.009914 0.0 -0.0 0.0 -0.0 0.0 -0.0 0.0 -0.038631 -0.0 0.020787 -0.0 0.0 -0.0 0.019986 0.0 0.0 -0.044046 0.0 -0.029865 0.0 -0.0 0.015233 0.0 -0.0 -0.0 0.041396 0.135973 -0.0 0.018596 -0.0 -0.057509 -0.78699 -0.0 0.0 -1.9e-05 -0.0 0.0 0.0 7.7e-05 0.104565 -0.0 -0.167842 -4.5e-05 5e-06 -0.402905 0.0 0.0 -0.000487 0.001095 0.004998 -0.163136 -0.0 0.000184 0.001544 -0.010498 0.0 0.000927 -0.0 0.0 -0.00866 -0.001679 0.0 -0.0 0.0 0.001325 0.004131 -0.0 -0.001294 0.002018 -0.0 0.0 0.0 -0.005648 0.0 -0.0 0.0 -0.0 -0.002999 -0.000647 -0.0 -0.0 -0.004767 -0.0 -0.0 0.005222 0.0 -0.007438 0.008449 0.0 -0.004058 0.00304 0.0 0.0 -0.028616 0.000525 0.0 -0.0 -0.000283 -0.0 0.100473 -0.0 -0.000549 0.0 -0.099826 0.033451 0.0 -0.0 -0.132861 0.0 -0.0 -0.112724 0.0 -0.0 -0.0 -0.265145 0.0
16 -0.0 0.0 -0.0 0.0 -0.0 0.0 -0.0 0.0 -0.0 -0.0 -0.0 0.0 -0.0 0.0 -0.0 0.0 -0.0 0.0 0.0 0.0 -0.0 -0.0 0.0 -0.0 0.0 -0.0 0.0 -0.0 0.0 -0.0 0.0 0.0 0.0 -0.0 -0.0 0.0 0.0 0.0 0.0 0.0 0.0 -0.0 0.0 0.0 -0.0 -0.007675 0.0 -0.055325 -0.0 0.0 0.0 -0.0 -1e-06 -0.0 0.0 0.0 -0.0 -0.0 -0.0 -0.0 -0.0 -0.0 -0.0 -0.0 0.0 -0.0 -0.0 -0.0 -0.0 -1.2e-05 -1e-06 -0.0 -0.0 -0.461355 -0.008739 -0.154412 4e-06 2e-06 1.7e-05 -0.0 -0.0 4e-06 0.138055 0.133143 1e-06 -0.0 -0.01406 -0.021074 1.2e-05 1e-06 2e-06 0.684754 -0.0 -3e-06 -4e-06 -0.0 -2e-06 -6e-06 -1e-06 -1e-06 -1e-06 -1e-06 1e-06 0.0 0.0 0.0 -0.0 -1e-06 -0.503438 1e-06 -0.018599 -0.0 -0.0 0.0 2e-06 -0.0 0.0 -2e-06 1e-06 -0.0 0.0 -0.0 0.0 -0.0 -0.0 -0.0 -0.0 0.0
17 -0.0 0.0 0.0 0.0 -0.0 0.0 -0.0 0.0 -0.0 -0.0 -0.0 0.0 -0.0 0.0 -0.0 0.0 -0.0 0.0 0.0 0.0 -0.0 -0.0 0.0 -0.0 0.0 -0.0 -0.0 0.0 -0.0 0.0 0.0 0.0 -0.0 -0.0 0.0 0.0 -0.0 -0.0 0.0 0.0 0.0 0.0 0.0 0.0 0.0 -0.386764 -0.0 -0.000329 -0.0 0.0 0.0 0.0 -0.0 -0.0 0.0 -0.0 -0.0 -0.0 -0.0 -0.0 -0.0 -0.0 0.0 -0.0 0.0 0.0 0.0 -0.0 -0.0 -0.0 -0.0 0.0 -0.0 0.012919 0.296544 -0.004588 0.0 0.0 1e-06 -0.0 -0.0 1e-06 0.041456 -0.070107 0.0 0.0 0.027636 -0.129342 1e-06 -0.0 0.0 -0.005615 0.0 0.0 0.0 0.0 0.0 0.0 0.0 0.0 0.0 0.0 -0.0 -0.0 -0.0 -0.0 0.0 0.0 0.002823 -0.0 -0.85914 -0.0 0.0 0.0 0.0 -0.0 0.0 -0.0 0.0 -0.0 0.0 -0.0 -0.0 -0.0 -0.0 -0.0 -0.0 0.0
18 -0.001307 -0.000411 0.001874 0.00356 -0.001619 0.001185 0.000192 0.001309 -0.000562 -0.005838 0.000377 -0.000702 -0.001509 0.001111 -0.004151 0.001082 -0.001572 0.001151 0.002509 0.003769 -0.001653 -0.001551 0.004965 -0.004313 0.00282 -0.003287 -0.00344 1.3e-05 0.006663 -0.002008 -0.00928 0.000763 -4.4e-05 -0.003011 0.000403 -0.011421 0.000298 -0.001294 0.007539 0.016095 0.008603 -0.021321 0.016881 -0.001812 -0.003391 -0.002165 -1e-06 -0.000639 0.024916 0.003559 8.8e-05 0.00024 -0.022402 -0.012288 0.000174 -7.4e-05 -0.021935 -0.011064 0.001263 -4.7e-05 -0.00072 0.000117 -0.00914 0.000182 -0.000354 0.000656 -0.002707 -0.016556 4.6e-05 -0.023241 -0.000336 0.009929 -0.00989 -0.026243 -0.69003 0.006139 0.039778 0.106137 -0.0022 -0.068981 0.045908 0.002433 -0.081072 0.138436 -0.105786 0.005574 -0.054152 0.259586 0.001308 -0.001965 -0.106176 0.015103 -0.015761 -0.008142 0.004084 -0.003871 0.007841 0.023363 -0.018244 0.012087 -0.055176 -0.005559 0.003002 0.007626 0.008738 0.030623 -0.00228 -0.022743 -0.001482 -0.00013 -0.596677 -0.026392 0.003204 0.001401 0.009889 -0.018888 0.032943 -0.039384 0.037223 -0.047382 0.015897 -0.000781 0.003248 0.001587 -0.028833 -0.04168 -0.065171 0.058065
19 -0.0 0.0 0.0 0.0 -0.0 0.0 -0.0 0.0 -0.0 -0.0 -0.0 0.0 -0.0 0.0 -0.0 0.0 -0.0 -0.0 0.0 0.0 0.0 -0.0 0.0 -0.0 0.0 -0.0 -0.0 0.0 -0.0 -0.0 0.0 0.0 0.0 -0.0 0.0 0.0 -0.0 -0.0 0.0 0.0 0.0 0.0 -0.0 -0.0 0.0 -0.453933 -0.0 -0.000378 -0.0 0.0 0.0 0.0 -0.0 -0.0 0.0 -0.0 -0.0 -0.0 -0.0 -0.0 -0.0 -0.0 0.0 -0.0 0.0 0.0 0.0 -0.0 -0.0 -0.0 -0.0 0.0 -0.0 0.013488 0.309456 -0.0048 0.0 0.0 1e-06 -0.0 -0.0 1e-06 0.043289 -0.073188 0.0 0.0 0.028829 -0.134879 1e-06 -0.0 0.0 -0.005831 0.0 0.0 0.0 0.0 0.0 0.0 0.0 0.0 0.0 0.0 -0.0 -0.0 -0.0 -0.0 0.0 0.0 0.002733 -0.0 -0.819562 -0.0 0.0 0.0 0.0 -0.0 0.0 -0.0 0.0 -0.0 0.0 -0.0 -0.0 -0.0 -0.0 -0.0 -0.0 0.0
20 -0.002851 0.002047 0.003328 0.016341 -0.003188 0.002016 0.002227 0.002397 -0.001646 -0.020349 0.00045 -0.016219 -0.002654 0.003081 -0.009578 0.001828 -0.003562 0.003731 0.005623 -0.019094 -0.003219 0.004716 0.010046 -0.013541 0.005697 -0.004724 -0.008595 -6e-06 -0.020852 -0.017435 -0.018255 0.000263 0.016823 -0.003725 0.000579 0.048248 0.000591 0.021295 0.127997 0.107265 0.031038 0.014897 0.060012 -0.559293 -0.009618 -0.010069 0.00017 -5.7e-05 -0.013461 0.008726 0.000272 0.083733 0.010153 -0.186015 0.002297 -0.001435 -0.393496 -0.020307 0.002409 -0.000165 -0.000908 0.005273 -0.160951 0.000408 -0.000157 0.002116 -0.005723 -0.027327 0.001792 -0.005605 -0.000907 -0.002099 -0.002506 0.002495 -0.003018 -0.001029 0.01169 0.033398 -0.000946 -0.019648 0.014222 0.004335 -0.006349 0.01148 -0.03477 0.010285 -0.004983 0.022881 4.7e-05 -0.003232 -0.029793 0.004952 -0.027799 -0.006676 0.000923 -0.007423 0.004689 0.017979 -0.009941 0.004512 -0.036908 -0.004841 -0.000798 0.013851 0.016854 0.099229 -0.006851 -0.061108 -0.00044 0.001081 -0.100539 -0.011575 0.009711 0.005105 0.081888 -0.219196 0.207836 -0.094923 0.068945 -0.273911 0.033047 -0.001492 -0.046574 0.00034 -0.059677 -0.082539 -0.422212 0.11631
21 -0.0 0.0 0.0 0.0 -0.0 0.0 -0.0 0.0 -0.0 0.0 -0.0 0.0 -0.0 0.0 -0.0 0.0 -0.0 0.0 0.0 0.0 -0.0 -0.0 0.0 -0.0 0.0 -0.0 -0.0 -0.0 -0.0 -0.0 0.0 -0.0 0.0 0.0 0.0 -0.0 0.0 -0.0 0.0 -0.0 0.0 0.0 0.0 0.0 -0.0 -0.027269 0.0 -0.031601 0.0 -0.0 -0.0 0.0 0.0 0.0 -0.0 0.0 -0.0 -0.0 -0.0 0.0 0.0 0.0 0.0 -0.0 0.0 0.0 0.0 -0.0 0.0 -2e-06 -0.0 0.0 0.0 0.353792 -0.079438 -0.529031 1e-05 4e-06 3.9e-05 -0.0 0.0 -1e-06 0.049119 0.196038 0.0 0.0 -0.005206 -0.016595 1.8e-05 0.0 1e-06 0.64089 -1e-06 -3e-06 -2e-06 -0.0 -3e-06 -2e-06 -2e-06 -2e-06 -0.0 -2e-06 2e-06 1e-06 0.0 0.0 -0.0 0.0 -0.359948 1e-06 -0.073868 -0.0 -0.0 0.0 0.0 -0.0 0.0 -0.0 0.0 -0.0 1e-06 -0.0 0.0 -0.0 -0.0 -2e-06 -0.0 0.0
22 -0.005251 -0.00029 0.004035 0.002395 -0.006572 0.00611 0.000211 0.004435 0.003174 -0.00422 0.000388 -0.000442 -0.008178 0.004518 -0.017429 0.004903 -0.009623 0.001116 -0.012508 0.002126 0.000394 0.001167 0.057472 -0.047965 0.032715 -0.002824 0.005266 9e-06 0.004249 -0.002431 0.003107 0.007409 -0.015231 -0.047203 0.007026 0.015634 0.000368 -0.021755 0.060188 0.0126 0.023993 -0.036119 0.004733 -0.007931 -0.068534 -0.019314 -0.000755 -3.7e-05 0.052091 0.056049 -0.000406 0.005081 0.004275 -0.011288 0.004019 0.002813 0.037152 -0.179892 0.000687 0.000121 -0.003507 0.001513 -0.037976 -0.005266 -0.003616 0.006901 -0.000973 -0.154846 -0.001867 -0.093353 -0.006923 0.012742 -0.001771 0.018632 0.0707 -3.8e-05 0.008757 0.044381 -0.053535 -0.027767 0.015878 0.032239 -0.040679 0.167275 -0.039196 0.014731 -0.060648 0.269947 -0.062138 0.003062 -0.04789 0.039489 -0.176798 0.002329 -0.010181 -0.019605 0.000259 0.041684 -0.008505 0.00717 -0.068516 -0.007778 0.008965 0.145577 0.036057 0.048152 -0.004644 -0.134948 -0.012782 0.006117 -0.20699 -0.075647 0.013137 0.008592 0.053193 -0.038082 0.152597 -0.004605 0.457009 -0.092553 0.200925 -0.000926 0.012964 0.036327 -0.128321 -0.525207 -0.065175 0.249291
23 0.0 0.036661 -0.0 -0.009978 0.0 -0.0 0.027585 -0.0 0.0 -0.226623 0.0 -0.057416 -0.0 -0.0 -0.0 -0.0 -0.0 -0.0 -0.0 0.355069 -0.0 0.007291 0.0 -0.0 0.0 0.609666 -0.0 0.0 0.109408 -0.0 0.019204 0.0 0.0 -0.01586 -0.0 -0.0 -0.0 0.041743 0.010401 -0.0 0.047062 -0.0 -0.03621 0.042305 0.0 -0.0 4e-06 0.0 -0.0 0.0 -1.3e-05 -0.033306 0.0 0.048791 3e-06 -3e-06 -0.017842 0.0 0.0 -4e-05 0.00011 0.000496 -0.017171 -0.0 -4.6e-05 0.000196 -0.001165 0.0 9.2e-05 0.0 0.0 -0.00073 -0.000244 0.0 -0.0 -0.0 -2.8e-05 1.2e-05 -0.0 0.000106 5.6e-05 0.0 0.0 -0.0 -0.000249 0.0 -0.0 0.0 -0.0 -0.000369 0.000302 -0.0 -0.0 -0.000483 -0.0 -0.0 0.000526 0.0 -0.000749 0.000964 0.0 -0.000487 0.000372 0.0 0.0 -0.00307 -1.3e-05 0.0 -0.0 -8.3e-05 -0.0 0.026194 -0.0 -0.000161 0.0 0.001028 -0.011331 0.0 -0.0 -0.021744 0.0 -0.0 -0.189054 -0.0 0.0 0.0 -0.620013 0.0
24 -0.000909 -0.000101 0.000528 0.001357 -0.001085 0.001069 4e-05 0.000752 0.00057 -0.002301 -4e-05 -0.000211 -0.001416 0.000761 -0.002917 0.000255 -0.001517 -1.8e-05 -0.00213 0.000948 0.000321 0.000556 0.003322 -0.008161 0.001895 -0.002336 0.000649 2e-06 0.002216 3.6e-05 0.001596 0.000371 -0.002941 -0.042327 0.000265 0.003098 6.9e-05 -0.011791 0.032855 0.002912 0.016346 -0.007308 0.005059 -0.003722 -0.003669 -0.043697 -0.000395 0.001648 0.006123 0.003123 -0.000388 0.003769 0.001168 -0.009241 0.002133 0.001379 0.018975 -0.010217 0.000597 -0.00011 -0.002311 0.000359 -0.02201 -0.000407 -0.002486 0.0045 -0.001927 -0.009138 -0.001589 -0.034529 -0.002315 0.010297 -0.003075 0.033802 0.194875 0.00885 0.011964 0.042968 -0.015263 -0.029128 0.017713 0.001621 -0.143277 0.390454 -0.043346 0.002669 -0.143354 0.693453 -0.019009 0.001137 -0.05226 0.083641 -0.010062 0.00039 -0.003847 -0.002939 0.001169 -0.002804 -0.009895 0.006751 -0.013303 -0.007665 0.007154 0.0085 0.006041 0.035242 -0.004008 -0.025723 -0.023222 0.002969 -0.481693 -0.038126 0.001124 0.004791 0.020573 0.002302 0.101863 -0.010202 0.081391 -0.061046 0.01136 -0.000174 0.007495 0.005793 -0.023565 -0.03006 -0.038635 0.044327
25 -0.008591 -0.000181 0.006009 0.001267 -0.010866 0.010585 0.000142 0.007313 0.006054 -0.002333 0.000536 -0.000324 -0.01388 0.007497 -0.028674 0.000971 -0.016917 0.001353 -0.024708 0.00104 0.002065 0.000716 0.011451 -0.086148 0.006093 -0.001515 0.012767 5e-06 0.002891 -0.004369 0.001729 0.001491 -0.027118 -0.025784 0.000786 0.041048 0.000197 -0.013757 0.03027 0.011851 0.009949 -0.052364 0.004934 -0.004814 -0.014088 -0.00233 -0.00074 0.000116 0.088057 0.009641 -0.000598 -0.001209 -0.002696 -0.004214 0.002542 0.001158 0.018175 -0.043732 0.005842 0.0003 -0.002139 0.001318 -0.022918 -0.004777 -0.001511 0.004252 -0.000323 -0.028517 -0.001191 -0.108146 -0.010754 0.006902 -0.001435 0.004155 0.023168 0.000967 0.005481 0.025783 -0.066141 -0.01598 0.009403 0.008179 -0.015314 0.040163 -0.023279 0.024692 -0.01598 0.071894 -0.071718 0.001267 -0.026932 0.009576 -0.036133 0.000491 -0.011608 -0.029016 0.000877 0.095329 -0.004377 0.002863 -0.117977 -0.004442 0.004401 0.037939 0.057711 0.03158 -0.002632 -0.221879 -0.002325 0.003572 -0.036118 -0.03693 0.00166 0.006214 0.032938 -0.017125 0.07703 0.02933 0.78505 -0.048699 0.040073 -0.000496 0.007208 0.066565 -0.210001 -0.102185 -0.034244 0.408417
26 0.0 -1.6e-05 -0.0 -0.000151 0.0 -0.0 -5.8e-05 -0.0 0.0 0.000996 -0.0 0.000536 0.0 -0.0 0.0 0.0 0.0 -0.0 -0.0 0.001239 -0.0 -0.003393 0.0 0.0 0.0 -0.00844 -0.0 0.0 0.199452 -0.0 -0.623831 0.0 -0.0 0.002748 0.0 -0.0 -0.0 -0.005183 0.014752 -0.0 0.009727 0.0 0.068842 0.004566 -0.0 -0.0 -5.6e-05 0.0 0.0 0.0 0.00017 -0.003704 0.0 -0.005251 -2e-05 -1.4e-05 -0.036231 0.0 0.0 -1e-06 0.00013 0.000889 -0.0497 -0.0 0.000915 -0.001751 0.019049 -0.0 -0.002046 -0.0 -0.0 0.021688 0.000547 -0.0 0.0 -0.0 1.8e-05 -0.000899 0.0 -0.001678 -0.001045 0.0 -0.0 0.0 0.004208 -0.0 0.0 -0.0 0.0 0.006556 -0.005497 0.0 0.0 0.01172 0.0 -0.0 -0.012788 -0.0 0.017937 -0.018563 -0.0 0.00551 -0.003252 -0.0 0.0 -0.032708 0.004751 0.0 0.0 0.002524 0.0 -0.405243 0.0 0.001013 -0.0 0.196273 -0.385759 0.0 -0.0 -0.440639 0.0 -0.0 0.102856 0.0 -0.0 -0.0 -0.051907 0.0
27 -0.0 0.0 -0.0 0.0 -0.0 0.0 -0.0 0.0 -0.0 -0.0 -0.0 0.0 -0.0 0.0 -0.0 0.0 -0.0 0.0 0.0 -0.0 -0.0 -0.0 0.0 -0.0 0.0 -0.0 0.0 -0.0 0.0 -0.0 0.0 0.0 0.0 -0.0 -0.0 0.0 0.0 0.0 0.0 0.0 0.0 -0.0 -0.0 0.0 -0.0 -0.001692 -0.0 -0.00178 -0.0 0.0 -0.0 -0.0 -0.0 -0.0 0.0 -0.0 -0.0 0.0 0.0 0.0 1e-06 0.0 -0.0 -0.0 -0.0 -0.0 0.0 -0.0 0.0 1.3e-05 1e-06 -0.0 0.0 0.324904 -0.006476 0.742135 -1.5e-05 -8e-06 -5.3e-05 0.0 -1e-06 -0.0 -0.017788 -0.077302 -1e-06 -0.0 0.00605 0.038592 -1.3e-05 -1e-06 -3e-06 0.578946 -0.0 -3e-06 -5e-06 -0.0 -3e-06 -9e-06 -2e-06 -2e-06 -2e-06 -3e-06 2e-06 0.0 0.0 0.0 -0.0 -1e-06 -0.024119 0.0 -0.006838 -0.0 -0.0 0.0 2e-06 0.0 0.0 -2e-06 1e-06 -0.0 0.0 -0.0 0.0 -0.0 -0.0 -0.0 -0.0 0.0
28 0.0 0.0 -0.0 -0.0 0.0 -0.0 -0.0 -0.0 0.0 0.0 -0.0 -0.0 0.0 -0.0 0.0 -0.000338 0.0 -0.0 -0.0 -0.0 0.0 0.0 -0.013667 0.0 -0.005485 -0.0 0.0 -0.0 -0.0 0.0 -0.0 -0.015321 -0.0 0.0 0.006296 0.0 -0.0 -0.0 0.0 -0.0 -0.0 0.0 -0.0 0.0 -0.012948 0.0 -0.0 0.0 -0.0 0.020345 -0.0 -0.0 0.0 -0.0 -0.0 -0.0 -0.0 -0.02796 -0.0 0.0 0.0 0.0 0.0 0.0 0.0 -0.0 -0.0 -0.761727 -0.0 -0.0 0.0 0.0 -0.0 -0.0 -0.0 0.0 0.0 -0.0 0.0 -0.0 0.0 0.039775 -1e-06 -0.0 0.0 -0.0 0.0 0.0 0.0 0.0 -0.0 -0.0 -0.618891 0.0 -0.0 -0.0 -0.0 0.0 0.0 0.0 -0.0 -0.0 0.0 -0.093748 -0.0 0.0 -0.0 -0.0 -0.0 0.0 -0.0 -0.0 -0.120311 0.0 -0.0 -0.0 0.0 -0.0 -0.0 0.0 0.091743 -0.0 0.0 -0.0 -0.0 -0.040359 -0.0 0.0
29 -0.004077 -0.001335 0.006271 0.01005 -0.005135 0.00365 0.000757 0.004114 -0.002096 -0.016733 0.001375 -0.002097 -0.004712 0.003664 -0.01324 0.003513 -0.005197 0.004332 0.008597 0.011274 -0.005733 -0.004595 0.015777 -0.012805 0.008737 -0.007398 -0.011032 4.5e-05 0.018945 -0.007275 -0.025805 0.002357 0.001216 -0.005366 0.001135 -0.035688 0.000931 -0.001882 0.012386 0.049383 0.013417 -0.066823 0.049228 -0.009006 -0.010594 0.00459 2.1e-05 -0.000554 0.07584 0.011468 0.000199 0.001039 -0.072784 -0.032623 0.000407 -0.000215 -0.061566 -0.034522 0.003855 -3.4e-05 -0.001206 0.000606 -0.028838 0.00063 -0.000736 0.001238 -0.004713 -0.052535 0.000158 -0.05237 0.000583 0.017952 -0.017535 -0.020688 -0.559031 0.004701 0.071736 0.191049 -0.00787 -0.123145 0.08197 0.007813 -0.066356 0.112939 -0.188391 0.018093 -0.044376 0.210574 0.006573 -0.003184 -0.187367 0.012992 -0.050071 -0.014628 0.014497 -0.01204 0.014059 0.085585 -0.031968 0.020843 -0.171018 -0.009336 0.004612 0.023157 0.027321 0.067142 -0.004646 -0.065444 -0.001175 -0.000161 -0.507583 -0.064965 0.010588 0.003076 0.014051 -0.056503 0.073521 -0.113591 0.098651 -0.119037 0.050762 -0.002459 0.008178 0.004135 -0.087644 -0.130527 -0.178789 0.179238
30 1e-06 0.0 0.0 -0.0 0.0 1e-06 -0.0 -0.0 -0.0 0.0 1e-06 0.0 -1e-06 -4e-06 4e-06 -0.0 -9e-06 -3e-06 6e-06 -0.0 -7e-06 -0.0 -0.0 -5e-06 -0.0 0.0 5.7e-05 0.0 -0.0 -0.000154 -0.0 -0.0 -0.001241 0.0 0.0 -0.000812 -0.0 -0.0 0.0 0.002855 -0.0 -0.00264 0.0 -0.0 0.0 0.0 -0.0 0.0 0.000312 0.0 -0.0 -0.0 -0.036265 0.0 -0.0 0.0 -0.0 0.0 -0.0 -0.0 0.0 -0.0 -0.0 0.0 0.0 0.0 -0.0 -0.0 -0.0 0.064544 -0.702608 -0.0 -0.0 0.0 0.0 1e-06 1e-06 -0.0 0.015358 -1e-06 -5e-06 0.0 -0.0 -0.0 -1e-06 -0.0 0.0 0.0 0.047531 -0.0 0.0 -4e-06 0.0 1.2e-05 -0.702201 -0.0 -3e-06 0.052854 0.0 0.0 -0.046467 -3e-06 -1e-06 0.0 0.0 -0.0 -0.0 0.008593 -0.0 0.0 -0.0 0.0 -0.0 0.0 -0.012813 0.0 -0.0 -0.008233 0.001789 -0.0 0.0 -0.0 0.0 6.9e-05 -0.000358 -0.0 -0.0 0.000315
31 -0.002851 0.002047 0.003328 0.016341 -0.003188 0.002016 0.002227 0.002397 -0.001646 -0.020349 0.00045 -0.016219 -0.002654 0.003081 -0.009578 0.001828 -0.003562 0.003731 0.005623 -0.019094 -0.003219 0.004716 0.010046 -0.013541 0.005697 -0.004724 -0.008595 -6e-06 -0.020852 -0.017435 -0.018255 0.000263 0.016823 -0.003725 0.000579 0.048248 0.000591 0.021295 0.127997 0.107265 0.031038 0.014897 0.060012 -0.559293 -0.009618 -0.010069 0.00017 -5.7e-05 -0.013461 0.008726 0.000272 0.083733 0.010153 -0.186015 0.002297 -0.001435 -0.393496 -0.020307 0.002409 -0.000165 -0.000908 0.005273 -0.160951 0.000408 -0.000157 0.002116 -0.005723 -0.027327 0.001792 -0.005605 -0.000907 -0.002099 -0.002506 0.002495 -0.003018 -0.001029 0.01169 0.033398 -0.000946 -0.019648 0.014222 0.004335 -0.006349 0.01148 -0.03477 0.010285 -0.004983 0.022881 4.7e-05 -0.003232 -0.029793 0.004952 -0.027799 -0.006676 0.000923 -0.007423 0.004689 0.017979 -0.009941 0.004512 -0.036908 -0.004841 -0.000798 0.013851 0.016854 0.099229 -0.006851 -0.061108 -0.00044 0.001081 -0.100539 -0.011575 0.009711 0.005105 0.081888 -0.219196 0.207836 -0.094923 0.068945 -0.273911 0.033047 -0.001492 -0.046574 0.00034 -0.059677 -0.082539 -0.422212 0.11631
32 0.0 0.0 -0.0 -0.0 0.0 0.0 0.0 0.0 0.0 0.0 -0.0 -0.0 0.0 0.0 0.0 -0.0 -0.0 -0.0 -0.0 -0.0 0.0 -0.0 0.0 -0.0 -0.0 0.0 -0.0 -0.41114 0.0 -0.0 0.0 -0.0 0.0 -0.0 -0.0 0.0 -0.639676 -0.0 -0.0 0.0 0.0 0.0 -0.0 -0.0 -0.0 0.0 0.0 0.0 0.0 -0.0 0.0 -0.0 0.0 0.0 -0.0 0.0 0.0 -0.0 0.0 -0.0 0.0 -0.0 0.0 -0.0 -0.0 0.0 -0.0 0.0 0.0 0.0 0.0 0.0 -0.0 -0.0 -0.0 0.0 -0.0 -0.0 0.0 0.0 -0.0 -0.0 0.0 -0.0 0.0 -0.0 0.0 -0.0 0.0 -0.0 0.0 -0.0 0.0 0.0 0.0 -0.0 -0.0 -0.0 0.0 -0.0 0.0 0.0 -0.0 -0.0 -0.0 -0.0 0.0 0.0 0.0 0.0 0.0 0.0 -0.0 -0.0 -0.0 0.0 -0.0 0.0 -0.0 0.0 -0.0 -0.649445 0.0 -0.0 -0.0 -0.0 -0.0 0.0
33 -0.004024 -0.001168 0.006126 0.009519 -0.004882 0.003387 0.000543 0.003986 -0.001984 -0.015487 0.00142 -0.002116 -0.004587 0.003443 -0.012782 0.003139 -0.004994 0.004115 0.007976 0.010429 -0.005332 -0.004072 0.014944 -0.012357 0.008536 -0.006662 -0.010258 0.000129 0.0183 -0.007604 -0.025841 0.002302 0.00078 -0.005293 0.001005 -0.033716 0.002743 -0.00268 0.011991 0.046989 0.007643 -0.064066 0.045978 -0.003942 -0.010188 0.003317 -5e-06 -0.000769 0.072654 0.011407 0.000228 0.006963 -0.069628 -0.041244 0.000459 -0.000273 -0.05712 -0.032684 0.003902 -3.3e-05 -0.001583 0.000569 -0.029524 0.000632 -0.000672 0.001195 -0.004378 -0.049773 0.000156 -0.050098 0.000219 0.021602 -0.021009 -0.018873 -0.532122 0.004144 0.087526 0.233145 -0.007691 -0.151171 0.100518 0.007578 -0.064394 0.109763 -0.231095 0.016802 -0.043283 0.205616 0.006075 -0.003314 -0.230718 0.013558 -0.046991 -0.018174 0.013383 -0.012003 0.017616 0.08121 -0.040871 0.02798 -0.163467 -0.012903 0.006807 0.023671 0.027102 0.067759 -0.005046 -0.062432 -0.001524 -0.000294 -0.485625 -0.068443 0.00982 0.003575 0.013568 -0.057354 0.074228 -0.109302 0.094888 -0.1185 0.047726 -0.006982 0.008349 0.00361 -0.082917 -0.126699 -0.171896 0.172546
34 -0.005893 -0.001264 0.005764 0.01213 -0.00732 0.006225 0.000948 0.004809 0.002619 -0.021224 0.000979 -0.002693 -0.009241 0.005105 -0.019957 0.001714 -0.010015 0.001357 -0.008168 0.010874 -0.001949 -0.000614 0.020987 -0.050057 0.013043 -0.008194 0.004966 3.6e-05 0.012918 -0.006241 0.008711 0.002079 -0.015748 -0.155469 0.000603 0.01982 0.00164 -0.03469 0.182492 0.009079 0.057684 -0.037438 0.024616 -0.022885 -0.017825 -0.022334 -0.000462 0.000109 0.031256 0.021842 -0.000353 0.025699 0.009727 -0.08055 0.001576 0.000446 0.084207 -0.04894 0.007231 0.000146 -0.000797 0.003046 -0.11575 0.001758 -0.00406 0.004295 0.001465 -0.064069 -0.001967 -0.071752 -0.005692 0.019893 -0.0062 0.004598 0.054016 0.004458 0.02874 0.081497 -0.0111 -0.052832 0.033181 0.009933 -0.037504 0.078991 -0.076227 0.020966 -0.032318 0.148663 -0.017405 0.003449 -0.084316 0.012717 -0.05921 -0.000143 -0.002424 -0.019529 0.003304 0.047383 -0.012596 0.010548 -0.033023 -0.006983 0.004943 0.032616 0.043666 0.044912 -0.002716 -0.141857 -0.002252 0.002232 -0.216612 -0.206607 0.018003 0.006342 0.054629 -0.10524 0.446249 0.027961 0.469733 -0.267658 0.067601 -0.004151 0.033428 0.037489 -0.132747 -0.191424 -0.25466 0.270308
35 -0.007439 -0.000725 0.010762 0.005319 -0.009451 0.007064 0.000424 0.007543 -0.002827 -0.008909 0.002259 -0.00122 -0.008826 0.006227 -0.023992 0.001866 -0.009101 0.006329 0.013653 0.005818 -0.010027 -0.001431 0.008826 -0.027433 0.004622 -0.004514 -0.017432 2.3e-05 0.013678 -0.012313 -0.015849 0.001253 0.000783 -0.005441 0.000274 -0.07109 0.00052 -0.001975 0.014964 0.098153 0.01001 -0.127508 0.029314 -0.005967 -0.007812 -0.00901 -1.8e-05 -0.000719 0.162894 0.007018 0.000139 -0.003411 -0.133141 -0.021843 0.000664 -0.00024 -0.025211 -0.02346 0.002198 -6e-06 -0.001584 0.000335 -0.019016 0.000241 -0.000946 0.001548 -0.004226 -0.027702 -7e-05 -0.100536 0.000963 0.016955 -0.015673 -0.015786 -0.443935 0.003969 0.062995 0.169041 -0.015136 -0.109876 0.07323 0.004899 -0.054412 0.094699 -0.169558 0.009647 -0.037661 0.183503 0.009843 -0.003828 -0.171942 0.012354 -0.027615 -0.012868 0.026487 -0.006595 0.012414 0.161563 -0.029397 0.019242 -0.323266 -0.009441 0.004737 0.016251 0.015167 0.055008 -0.004141 -0.129862 -0.001827 0.000301 -0.368183 -0.045813 0.00474 0.003114 0.0175 -0.030379 0.051491 -0.199175 0.237703 -0.079462 0.028533 -0.00137 0.007928 0.014121 -0.166197 -0.072286 -0.099384 0.333415
36 -0.001161 -0.000325 0.001614 0.002702 -0.001388 0.000994 0.000101 0.001146 -0.000524 -0.004387 0.000314 -0.000485 -0.001264 0.001002 -0.00362 0.003385 -0.001263 0.001049 0.002212 0.002927 -0.001377 -0.001499 0.01443 -0.003483 0.008279 -0.002847 -0.003402 1.2e-05 0.004985 -0.001945 -0.007748 0.002569 0.000136 -0.001895 0.001997 -0.013542 0.000267 -0.001232 0.004036 0.017801 0.006177 -0.022377 0.013748 -0.001654 -0.009161 -0.030486 2.4e-05 -0.001379 0.031977 0.007734 0.000101 7.9e-05 -0.026762 -0.00496 0.000218 -0.000107 -0.01798 -0.03435 0.001948 -7.2e-05 -0.001116 9e-05 -0.008465 -0.001815 -0.000404 0.000766 -0.002175 -0.047286 -1.2e-05 -0.021476 -9.5e-05 0.008914 -0.008568 -0.024729 -0.705363 0.004254 0.035596 0.095184 -0.002707 -0.061887 0.041155 0.007754 -0.083929 0.143206 -0.09491 0.015457 -0.056134 0.267524 0.001786 -0.001667 -0.095037 0.018254 -0.049033 -0.00725 0.004768 -0.013008 0.0067 0.026684 -0.016408 0.010497 -0.065198 -0.005591 0.003093 0.028077 0.026186 0.034206 -0.00255 -0.020279 -0.002691 -2e-06 -0.561178 -0.024013 0.006016 0.001695 0.003697 -0.018289 0.029153 -0.041806 0.031444 -0.040627 0.04787 -0.000702 0.003242 0.001146 -0.026129 -0.123905 -0.052028 0.051879
37 0.0 0.0 -0.0 -0.0 0.0 -0.0 0.0 0.0 0.0 -0.0 -0.0 -0.0 0.0 -0.0 0.0 0.000105 0.0 -0.0 -0.0 -0.0 0.0 -0.0 -0.024793 0.0 0.006512 -0.0 0.0 -0.0 -0.0 0.0 -0.0 -0.003596 -0.0 0.0 0.01712 0.0 -0.0 0.0 -0.0 -0.0 0.0 -0.0 0.0 -0.0 0.156195 0.0 -0.0 0.0 -0.0 0.131979 -0.0 -0.0 0.0 -0.0 -0.0 -0.0 -0.0 -0.04154 -0.0 -0.0 0.0 -0.0 -0.0 -0.0 -0.0 0.0 0.0 0.608079 0.0 0.0 0.0 0.0 -0.0 -0.0 0.0 0.0 0.0 -0.0 0.0 -0.0 0.0 0.052502 -1e-06 -0.0 0.0 -0.0 0.0 0.0 0.0 0.0 -0.0 -0.0 -0.749588 0.0 -0.0 -0.0 -0.0 0.0 0.0 0.0 0.0 0.0 -0.0 0.078481 0.0 0.0 -0.0 -0.0 -0.0 0.0 -0.0 -0.0 -0.014387 0.0 -0.0 -0.0 0.0 -0.0 -0.0 0.0 0.116277 -0.0 0.0 -0.0 -0.0 -0.034807 -0.0 0.0
38 -0.0 0.0 -0.0 0.0 -0.0 0.0 -0.0 0.0 -0.0 -0.0 -0.0 0.0 -0.0 0.0 -0.0 0.0 -0.0 0.0 0.0 -0.0 -0.0 -0.0 0.0 -0.0 0.0 -0.0 -0.0 -0.0 0.0 -0.0 0.0 0.0 0.0 -0.0 -0.0 0.0 0.0 0.0 0.0 0.0 0.0 -0.0 0.0 0.0 -0.0 -0.06007 0.0 -0.031474 -0.0 0.0 -0.0 0.0 -0.0 -0.0 0.0 -0.0 -0.0 -0.0 -0.0 0.0 0.0 0.0 0.0 0.0 0.0 0.0 0.0 0.0 0.0 -1e-06 -0.0 0.0 1e-06 0.477909 -0.206153 -0.390874 7e-06 2e-06 2.7e-05 -0.0 1e-06 -4e-06 -0.146908 0.189541 -0.0 -0.0 -0.07266 0.275747 1.2e-05 0.0 0.0 0.621383 -0.0 -4e-06 -3e-06 -0.0 -3e-06 -3e-06 -2e-06 -2e-06 -1e-06 -2e-06 2e-06 0.0 0.0 0.0 -0.0 -0.0 -0.133421 0.0 -0.170233 -0.0 -0.0 0.0 1e-06 -0.0 0.0 -1e-06 0.0 -0.0 0.0 -0.0 0.0 -0.0 -0.0 -0.0 -0.0 0.0
39 -0.004156 -0.001272 0.006398 0.010087 -0.005094 0.003554 0.000681 0.004151 -0.002075 -0.016697 0.001476 -0.002238 -0.004779 0.003592 -0.013325 0.003358 -0.005189 0.004275 0.00843 0.011107 -0.005638 -0.004788 0.015729 -0.012863 0.008876 -0.007243 -0.010865 4.7e-05 0.019043 -0.007789 -0.025753 0.00242 0.001322 -0.005363 0.000978 -0.035577 0.000978 -0.001709 0.01244 0.049273 0.013412 -0.066952 0.049293 -0.008862 -0.010338 0.003855 2.1e-05 -0.000553 0.07601 0.011545 0.000198 0.00095 -0.072937 -0.032488 0.000404 -0.000214 -0.060971 -0.035043 0.004045 -3.3e-05 -0.001199 0.000606 -0.028785 0.000672 -0.000732 0.00123 -0.004671 -0.052741 0.000155 -0.0524 0.000586 0.017855 -0.017424 -0.020712 -0.55945 0.004713 0.071286 0.189853 -0.007875 -0.122377 0.081458 0.007893 -0.066424 0.113051 -0.187216 0.017924 -0.04442 0.210769 0.006583 -0.003162 -0.186206 0.012992 -0.049819 -0.014531 0.014503 -0.012497 0.013961 0.085425 -0.031753 0.020686 -0.171362 -0.009262 0.00457 0.023687 0.028321 0.066954 -0.004626 -0.065957 -0.001172 -0.00016 -0.507836 -0.065117 0.010489 0.003064 0.014224 -0.056516 0.073477 -0.114097 0.098972 -0.118703 0.05031 -0.002581 0.009093 0.003479 -0.086977 -0.132435 -0.178416 0.180087
40 -0.004366 -0.001111 0.003689 0.009337 -0.00557 0.004912 0.00096 0.003635 0.002536 -0.016715 0.000462 -0.002278 -0.006926 0.003899 -0.014826 0.000901 -0.007845 0.000803 -0.00912 0.007555 -0.000155 0.002507 0.013895 -0.040686 0.008585 -0.007686 0.004787 8e-05 0.010903 -0.003949 0.004512 0.001237 -0.013452 -0.198049 0.001005 0.016434 0.003182 -0.038925 0.1893 0.008853 0.045845 -0.030677 0.01373 -0.01794 -0.011541 -0.010659 -0.001169 0.000182 0.034586 0.012646 -0.001055 0.03014 0.000162 -0.078672 0.002313 0.000663 0.111067 -0.034145 0.017243 0.000532 -0.002017 0.003412 -0.130375 0.003304 -0.010421 0.008874 -0.002283 -0.041241 -0.003094 -0.056969 -0.004929 0.038381 -0.013167 0.006088 0.051505 0.00436 0.064252 0.178046 -0.021589 -0.115831 0.073365 0.007419 -0.04372 0.093066 -0.167304 0.047003 -0.037404 0.175973 -0.024922 0.007408 -0.18561 0.016331 -0.042072 -0.00236 -0.00382 -0.043237 0.010068 0.041189 -0.034045 0.033206 -0.043635 -0.019402 0.013984 0.029583 0.097185 0.059052 -0.004517 -0.110396 -0.003324 0.002467 -0.165003 -0.219415 0.00805 0.011129 0.030021 -0.059467 0.490296 0.016746 0.375604 -0.288074 0.046105 -0.007976 0.03606 0.031007 -0.102989 -0.127732 -0.221944 0.204613
41 -0.006637 -0.000647 0.009493 0.004539 -0.008046 0.005802 0.000293 0.006675 -0.003058 -0.007563 0.002019 -0.000967 -0.007243 0.005633 -0.020825 0.005838 -0.007356 0.006425 0.012648 0.005113 -0.008459 -0.001944 0.025354 -0.02022 0.0134 -0.004431 -0.018426 2e-05 0.011781 -0.012219 -0.015283 0.004356 0.002789 -0.002714 0.002311 -0.0876 0.000452 -0.001244 0.006155 0.110075 0.006509 -0.139194 0.027647 -0.005014 -0.021281 -0.024374 7.4e-05 -0.001174 0.205973 0.015273 0.000213 -0.003481 -0.165848 -0.010942 0.000822 -0.000396 -0.026487 -0.073034 0.003405 -2.1e-05 -0.002511 0.000347 -0.018484 -0.003292 -0.000864 0.001718 -0.003051 -0.077825 -5.6e-05 -0.09115 0.002574 0.014302 -0.012754 -0.01263 -0.407156 0.001826 0.053664 0.144543 -0.018137 -0.093831 0.062545 0.015728 -0.049923 0.086014 -0.14492 0.026155 -0.034159 0.16371 0.014504 -0.003159 -0.145916 0.013486 -0.085143 -0.01119 0.031798 -0.021764 0.010015 0.184475 -0.024988 0.015179 -0.39582 -0.009171 0.004436 0.058148 0.044447 0.065718 -0.004851 -0.110223 -0.002377 0.000693 -0.308411 -0.042411 0.007943 0.003927 -0.020559 -0.032261 0.043626 -0.227178 0.175371 -0.072474 0.084878 -0.001188 0.007722 0.008659 -0.148508 -0.212174 -0.088243 0.295184
42 -0.0 0.0 -0.0 0.0 -0.0 0.0 -0.0 0.0 -0.0 0.0 -0.0 0.0 -0.0 0.0 -0.0 0.0 -0.0 0.0 0.0 -0.0 -0.0 -0.0 0.0 -0.0 0.0 -0.0 0.0 -0.0 0.0 -0.0 0.0 -0.0 0.0 -0.0 -0.0 0.0 0.0 0.0 0.0 0.0 0.0 -0.0 -0.0 0.0 0.0 -5.6e-05 -0.0 0.000422 0.0 -0.0 -0.0 -0.0 0.0 -0.0 -0.0 -0.0 -0.0 -0.0 -0.0 0.0 0.0 0.0 -0.0 -0.0 0.0 0.0 0.0 -0.0 0.0 2e-05 2e-06 0.0 0.0 0.295146 -0.015909 0.784803 -1.5e-05 -7e-06 -5.6e-05 0.0 -1e-06 -0.0 -0.014143 -0.087307 -1e-06 0.0 0.01288 -0.010762 -1.4e-05 -0.0 -1e-06 0.537097 -0.0 -3e-06 -4e-06 -0.0 -3e-06 -6e-06 -1e-06 -1e-06 -1e-06 -2e-06 1e-06 0.0 0.0 0.0 -0.0 -0.0 -0.011935 0.0 -0.000363 -0.0 -0.0 0.0 1e-06 0.0 0.0 -0.0 0.0 -0.0 0.0 -0.0 0.0 -0.0 -0.0 -0.0 -0.0 0.0
43 -0.0 0.0 0.0 0.0 -0.0 0.0 -0.0 0.0 -0.0 -0.0 -0.0 0.0 -0.0 0.0 -0.0 0.0 -0.0 0.0 0.0 0.0 -0.0 -0.0 0.0 -0.0 0.0 -0.0 -0.0 -0.0 -0.0 0.0 0.0 0.0 -0.0 -0.0 0.0 -0.0 0.0 -0.0 0.0 -0.0 0.0 0.0 0.0 0.0 -0.0 -0.243744 0.0 -0.000402 0.0 0.0 -0.0 0.0 0.0 0.0 0.0 -0.0 -0.0 -0.0 -0.0 0.0 0.0 0.0 0.0 -0.0 0.0 0.0 0.0 -0.0 -0.0 0.0 0.0 0.0 -0.0 0.009591 0.229501 -0.000788 0.0 0.0 0.0 -0.0 -0.0 0.0 0.010594 -0.017078 0.0 0.0 0.005693 -0.028513 0.0 0.0 0.0 -0.000622 -0.0 0.0 0.0 -0.0 0.0 0.0 0.0 -0.0 0.0 0.0 0.0 0.0 0.0 -0.0 0.0 0.0 0.001528 -0.0 -0.94158 -0.0 0.0 0.0 0.0 -0.0 0.0 -0.0 0.0 -0.0 0.0 -0.0 0.0 -0.0 -0.0 -0.0 -0.0 0.0
44 -0.008062 -0.000164 0.005624 0.001232 -0.010241 0.009975 0.000114 0.006862 0.005679 -0.002173 0.000333 -0.000341 -0.013069 0.006843 -0.026874 0.00023 -0.015829 0.001315 -0.022907 0.000952 0.00152 0.000788 0.003062 -0.078884 0.001616 -0.001401 0.010731 5.7e-05 0.002526 -0.003109 0.001347 0.00036 -0.030099 -0.025268 2.9e-05 0.034862 0.001851 -0.002286 0.028451 0.011925 0.006559 -0.045166 0.00379 0.000114 -0.003879 -0.0051 -0.001135 0.000759 0.066098 0.003404 -0.000825 0.004412 0.013089 -0.017617 0.0019 0.000322 0.015556 -0.010223 0.003238 0.000235 -0.002212 0.000916 -0.019698 0.000298 -0.002734 0.003148 -0.000123 -0.008079 -0.001583 -0.141665 -0.012762 0.009127 -0.002434 0.01115 0.09051 0.007838 0.012253 0.039414 -0.087343 -0.026858 0.016542 0.001957 -0.057961 0.130517 -0.039916 0.008472 -0.053739 0.247033 -0.101633 0.001568 -0.047385 0.026205 -0.008906 -0.00085 -0.021182 -0.00789 0.001788 0.050569 -0.010381 0.008061 -0.068469 -0.007662 0.005405 0.008886 0.017878 0.02568 -0.002402 -0.214664 -0.006509 0.002204 -0.113741 -0.032201 0.001103 0.005676 0.087422 -0.012289 0.070299 0.015688 0.748513 -0.045497 0.010279 -0.004397 0.005815 0.060806 -0.201211 -0.02664 -0.033136 0.388461
45 0.0 0.0 -0.0 0.0 0.0 -0.0 -0.0 -0.0 0.0 0.0 0.0 0.0 0.0 -0.0 0.0 -0.0 0.0 -0.0 -0.0 -0.0 0.0 0.0 -0.0 0.0 -0.0 0.0 0.0 0.0 -0.0 0.0 -0.0 0.0 -0.0 0.0 0.0 -0.0 -0.0 0.0 -0.0 -0.0 -0.0 0.0 -0.0 -0.0 0.0 -0.412643 -0.0 -0.000363 -0.0 0.0 0.0 0.0 -0.0 -0.0 0.0 -0.0 -0.0 -0.0 -0.0 -0.0 -0.0 -0.0 0.0 -0.0 0.0 0.0 0.0 -0.0 -0.0 -0.0 -0.0 0.0 -0.0 0.013877 0.318883 -0.004911 0.0 0.0 1e-06 -0.0 -0.0 1e-06 0.044501 -0.07522 0.0 0.0 0.029743 -0.13861 1e-06 -0.0 0.0 -0.006017 0.0 0.0 0.0 0.0 0.0 0.0 0.0 0.0 0.0 0.0 -0.0 -0.0 -0.0 -0.0 0.0 0.0 0.002784 -0.0 -0.836685 -0.0 0.0 0.0 0.0 -0.0 0.0 -0.0 0.0 -0.0 0.0 -0.0 -0.0 -0.0 -0.0 -0.0 -0.0 0.0
46 -0.004527 -0.000959 0.003304 0.008662 -0.005799 0.005385 0.000869 0.003773 0.003102 -0.01561 0.0002 -0.002057 -0.007483 0.003809 -0.015292 0.000379 -0.00832 0.000553 -0.01155 0.006823 0.000507 0.002753 0.006072 -0.044162 0.003434 -0.009139 0.006203 1e-05 0.013703 -0.002038 0.007328 0.000398 -0.014268 -0.220358 1.6e-05 0.0154 0.000477 -0.031579 0.168196 0.011416 0.060174 -0.038283 0.027101 -0.022647 -0.006637 -0.017737 -0.001451 0.00037 0.027895 0.006545 -0.001329 0.02187 0.016403 -0.08323 0.004626 0.001949 0.104454 -0.016824 0.001992 0.000387 -0.002636 0.0029 -0.113802 0.00024 -0.009966 0.011189 -0.003177 -0.017149 -0.004591 -0.084731 -0.006577 0.033897 -0.008858 0.010217 0.068074 0.006366 0.040786 0.127095 -0.030914 -0.08387 0.05137 0.003101 -0.054554 0.132846 -0.121501 0.006039 -0.051031 0.244697 -0.040948 0.005709 -0.145643 0.026769 -0.017429 0.002064 -0.0085 -0.005364 0.006043 0.022161 -0.026017 0.023909 -0.028029 -0.016822 0.013483 0.012258 0.012456 0.081498 -0.007271 -0.123058 -0.006226 0.005828 -0.219722 -0.18382 0.003349 0.01303 0.054864 -0.004122 0.479593 0.013816 0.425083 -0.287754 0.020122 -0.00123 0.036867 0.034684 -0.112891 -0.053841 -0.210066 0.218381
47 0.0 0.0 0.0 -0.0 -0.0 0.0 -0.0 0.0 0.0 0.0 0.0 0.0 0.0 -0.0 0.0 -0.0 -0.0 -0.0 -0.0 0.0 -0.0 -0.0 0.0 -0.0 -0.0 0.0 3e-06 0.0 -0.0 1.3e-05 -0.0 0.0 4.6e-05 -0.0 -0.0 1e-05 -0.0 -0.0 0.0 -7.8e-05 -0.0 6.5e-05 0.0 -0.0 -0.0 -0.0 -0.0 -0.0 0.00012 -0.0 -0.0 0.0 0.003942 0.0 -0.0 0.0 -0.0 -0.0 -0.0 -0.0 0.0 -0.0 -0.0 -0.0 0.0 -0.0 -0.0 0.0 -1e-06 -0.049175 0.68302 0.0 -0.0 -0.0 -0.0 -4e-06 2e-06 -1e-06 -0.10978 -0.0 -2e-06 0.0 0.0 -2e-06 -1e-06 -0.0 0.0 2e-06 0.231311 -0.0 0.0 -5e-06 0.0 1.2e-05 -0.681468 -0.0 -3e-06 0.029884 0.0 0.0 -0.014057 -2e-06 -2e-06 0.0 0.0 -0.0 -0.0 0.001531 -0.0 0.0 -0.0 0.0 -0.0 0.0 -0.001417 0.0 -0.0 -0.000737 0.000136 -0.0 0.0 -0.0 0.0 3e-06 -2e-05 -0.0 -0.0 1.8e-05
48 -0.0 0.0 -0.0 0.0 -0.0 0.0 -0.0 0.0 -0.0 0.0 -0.0 0.0 -0.0 0.0 -0.0 0.0 -0.0 0.0 0.0 -0.0 -0.0 -0.0 0.0 -0.0 0.0 -0.0 0.0 -0.0 0.0 -0.0 0.0 -0.0 0.0 0.0 -0.0 -0.0 0.0 -0.0 0.0 -0.0 0.0 0.0 0.0 0.0 0.0 -0.008603 0.0 0.048079 0.0 0.0 -0.0 -0.0 0.0 -0.0 -0.0 -0.0 0.0 0.0 -0.0 0.0 0.0 0.0 0.0 0.0 0.0 -0.0 0.0 0.0 -0.0 -0.0 -0.0 -0.0 -0.0 -0.250926 0.005846 -0.110584 3e-06 1e-06 1.2e-05 -0.0 0.0 1e-06 0.046964 -0.092497 0.0 0.0 0.090279 0.202263 7e-06 0.0 1e-06 0.477675 -0.0 -2e-06 -2e-06 -0.0 -2e-06 -2e-06 -1e-06 -1e-06 -0.0 -1e-06 0.0 0.0 0.0 0.0 -0.0 0.0 -0.795799 1e-06 -0.033103 -0.0 -0.0 0.0 0.0 0.0 0.0 -0.0 0.0 -0.0 0.0 -0.0 0.0 -0.0 -0.0 -0.0 -0.0 0.0
49 -0.0 0.0 0.0 0.0 -0.0 -0.0 -0.0 0.0 -0.0 -0.0 0.0 0.0 -0.0 0.0 -0.0 0.007293 -0.0 0.0 0.0 0.0 -0.0 -0.0 -0.033942 -0.0 -0.096884 0.0 -0.0 0.0 0.0 -0.0 -0.0 -0.56242 0.0 -0.0 0.290997 -0.0 -0.0 0.0 -0.0 0.0 0.0 -0.0 0.0 -0.0 0.084528 0.0 0.0 -0.0 0.0 0.006966 0.0 0.0 -0.0 0.0 0.0 0.0 0.0 0.023395 0.0 0.0 -0.0 -0.0 -0.0 -0.0 -0.0 0.0 0.0 0.065056 0.0 0.0 -0.0 -0.0 0.0 0.0 -0.0 -0.0 -0.0 0.0 -0.0 0.0 -0.0 -0.015626 0.0 0.0 -0.0 0.0 -0.0 -0.0 -0.0 -0.0 0.0 0.0 0.111706 -0.0 0.0 0.0 0.0 -0.0 -0.0 0.0 -0.0 -0.0 0.0 -0.168777 -0.0 -0.0 0.0 0.0 0.0 -0.0 -0.0 -0.0 -0.633102 0.0 -0.0 0.0 -0.0 0.0 -0.0 0.0 0.248803 -0.0 0.0 0.0 0.0 -0.269277 -0.0 0.0
50 0.0 -0.0 -0.0 -0.0 0.0 0.0 0.0 0.0 0.0 0.0 -0.0 0.0 0.0 -0.0 0.0 0.0 0.0 -0.0 -0.0 -0.0 -0.0 0.0 -0.0 0.0 -0.0 0.0 0.0 0.0 0.0 0.0 -0.0 0.0 0.0 0.0 0.0 -0.0 -0.0 0.0 -0.0 0.0 0.0 -0.0 -0.0 -0.0 -0.0 0.0 -0.0 0.0 -0.0 0.0 0.0 -0.0 0.0 -0.0 -0.0 0.0 -0.0 0.0 -0.441714 0.0 0.0 0.0 0.0 -0.541005 -0.0 0.0 0.0 -0.0 -0.0 0.0 -0.0 -0.0 0.0 -0.0 -0.0 0.0 -0.0 -0.0 0.0 0.0 -0.0 -0.0 0.0 -0.0 0.0 0.003505 -0.0 -0.0 -0.0 0.0 0.0 -0.0 0.0 0.0 0.0 -0.524628 -0.0 0.0 0.0 0.0 0.0 0.0 -0.0 -0.0 0.486781 0.0 -0.0 -0.0 -0.0 -0.0 -0.0 -0.0 -0.0 0.0 -0.0 -0.0 0.0 -0.0 0.0 -0.0 0.0 -0.0 0.0 -0.0 -0.0 -0.0 -0.0 0.0
51 0.0 -0.0 0.0 -0.0 0.0 -0.0 0.0 -0.0 0.0 0.0 0.0 -0.0 0.0 -0.0 0.0 -0.0 0.0 0.0 -0.0 -0.0 0.0 0.0 -0.0 0.0 -0.0 0.0 0.0 0.0 -0.0 0.0 -0.0 -0.0 -0.0 0.0 0.0 -0.0 -0.0 0.0 -0.0 -0.0 -0.0 -0.0 -0.0 -0.0 0.0 -0.009295 0.0 -7.8e-05 0.0 -0.0 0.0 -0.0 0.0 0.0 -0.0 0.0 0.0 0.0 -0.0 -0.0 -0.0 -0.0 0.0 0.0 -0.0 -0.0 -0.0 0.0 -0.0 3e-06 0.0 -0.0 -0.0 0.001242 0.378503 0.041404 -1e-06 -0.0 -6e-06 0.0 1e-06 -6e-06 -0.228365 0.398457 0.0 -0.0 -0.175434 0.781352 -4e-06 0.0 -0.0 0.030818 -0.0 -0.0 -0.0 -0.0 -0.0 -1e-06 -0.0 -0.0 -0.0 -0.0 0.0 0.0 0.0 0.0 -0.0 -0.0 -0.002545 0.0 -0.042088 -0.0 0.0 0.0 0.0 -0.0 0.0 -0.0 0.0 -0.0 0.0 -0.0 0.0 -0.0 -0.0 -0.0 -0.0 0.0
52 0.0 -0.0 -0.0 -0.0 0.0 -0.0 0.0 -0.0 0.0 0.0 0.0 -0.0 0.0 -0.0 0.0 -0.0 0.0 -0.0 -0.0 -0.0 0.0 0.0 -0.0 0.0 -0.0 0.0 0.0 -0.0 -0.0 0.0 -0.0 -0.0 -0.0 0.0 -0.0 -0.0 -0.0 0.0 0.0 -0.0 0.0 -0.0 0.0 0.0 -0.0 0.685674 0.0 0.000426 0.0 -0.0 -0.0 -0.0 0.0 0.0 -0.0 0.0 0.0 0.0 -0.0 0.0 0.0 0.0 -0.0 -0.0 -0.0 0.0 0.0 0.0 0.0 -0.0 -0.0 0.0 -0.0 0.001288 0.027587 -0.000996 0.0 0.0 0.0 -0.0 -0.0 0.0 0.008488 -0.014783 0.0 0.0 0.006008 -0.029385 0.0 -0.0 0.0 -0.001611 0.0 0.0 0.0 0.0 0.0 0.0 0.0 0.0 0.0 0.0 -0.0 -0.0 -0.0 -0.0 0.0 0.0 0.002202 -0.0 -0.72656 -0.0 0.0 0.0 0.0 -0.0 0.0 -0.0 0.0 -0.0 0.0 -0.0 0.0 -0.0 -0.0 -0.0 -0.0 0.0
53 -0.005753 0.000985 0.00651 0.008969 -0.006368 0.003948 0.000792 0.004777 -0.003295 -0.011242 0.00069 -0.007739 -0.004923 0.00628 -0.019431 0.003378 -0.007019 0.007656 0.011398 -0.008433 -0.006894 0.00144 0.01841 -0.02683 0.010378 -0.00514 -0.020215 -1.1e-05 -0.009428 -0.038093 -0.008225 0.000567 0.037698 -0.003848 0.001075 0.109299 0.001066 0.009498 0.067714 0.247 0.026925 0.054984 0.036649 -0.268231 -0.017963 -0.049372 8.5e-05 -0.000376 -0.016421 0.01608 0.000171 0.041712 0.025769 -0.097046 0.001665 -0.000996 -0.207401 -0.03813 0.00436 -0.000139 -0.001245 0.002611 -0.078544 0.000833 -0.000163 0.001308 -0.002844 -0.049906 0.001006 -0.030554 -0.003249 -0.000394 -0.00166 0.009589 0.002506 -0.002269 0.008492 0.024475 -0.000384 -0.014979 0.010435 0.007886 -0.034868 0.064443 -0.025421 0.01866 -0.028421 0.132556 -0.002032 -0.00185 -0.023251 0.021633 -0.050779 -0.004012 0.000399 -0.013603 0.002171 0.023375 -0.006294 0.00132 -0.078255 -0.003566 -0.000378 0.026375 0.030531 0.071976 -0.005005 -0.136893 -0.002502 0.001019 -0.624321 -0.009569 0.017638 0.003467 0.209002 -0.115803 0.116947 -0.223721 0.149616 -0.148191 0.060559 -0.002683 -0.023449 -0.002266 -0.126928 -0.150859 -0.227225 0.241047
54 -0.006637 -0.000647 0.009493 0.004539 -0.008046 0.005802 0.000293 0.006675 -0.003058 -0.007563 0.002019 -0.000967 -0.007243 0.005633 -0.020825 0.005838 -0.007356 0.006425 0.012648 0.005113 -0.008459 -0.001944 0.025354 -0.02022 0.0134 -0.004431 -0.018426 2e-05 0.011781 -0.012219 -0.015283 0.004356 0.002789 -0.002714 0.002311 -0.0876 0.000452 -0.001244 0.006155 0.110075 0.006509 -0.139194 0.027647 -0.005014 -0.021281 -0.024374 7.4e-05 -0.001174 0.205973 0.015273 0.000213 -0.003481 -0.165848 -0.010942 0.000822 -0.000396 -0.026487 -0.073034 0.003405 -2.1e-05 -0.002511 0.000347 -0.018484 -0.003292 -0.000864 0.001718 -0.003051 -0.077825 -5.6e-05 -0.09115 0.002574 0.014302 -0.012754 -0.01263 -0.407156 0.001826 0.053664 0.144543 -0.018137 -0.093831 0.062545 0.015728 -0.049923 0.086014 -0.14492 0.026155 -0.034159 0.16371 0.014504 -0.003159 -0.145916 0.013486 -0.085143 -0.01119 0.031798 -0.021764 0.010015 0.184475 -0.024988 0.015179 -0.39582 -0.009171 0.004436 0.058148 0.044447 0.065718 -0.004851 -0.110223 -0.002377 0.000693 -0.308411 -0.042411 0.007943 0.003927 -0.020559 -0.032261 0.043626 -0.227178 0.175371 -0.072474 0.084878 -0.001188 0.007722 0.008659 -0.148508 -0.212174 -0.088243 0.295184
55 -0.0 -1.3e-05 0.0 1.4e-05 -0.0 0.0 -2e-06 0.0 -0.0 -0.000149 0.0 7.9e-05 -0.0 0.0 -0.0 0.0 -0.0 0.0 0.0 0.00031 0.0 0.00172 -0.0 -0.0 -0.0 0.002589 0.0 -0.0 -0.089207 0.0 0.600864 -0.0 0.0 -0.011414 -0.0 0.0 0.0 0.023949 -0.036825 0.0 0.021731 -0.0 -0.065127 -0.013305 -0.0 0.0 -1.9e-05 0.0 -0.0 0.0 7.8e-05 0.000927 0.0 0.01112 2e-06 -1.5e-05 -0.129433 0.0 0.0 -0.000162 0.000204 0.0011 -0.043145 -0.0 0.000529 -0.000583 0.007726 -0.0 -0.000911 -0.0 -0.0 0.010272 0.000304 -0.0 -0.0 -0.0 -0.000871 -0.002779 0.0 0.000422 -0.001582 0.0 -0.0 0.0 0.004774 -0.0 0.0 -0.0 0.0 0.003751 -0.001179 0.0 0.0 0.007927 0.0 -0.0 -0.008735 -0.0 0.012933 -0.01389 -0.0 0.0039 -0.002167 -0.0 0.0 -0.043018 0.005485 0.0 0.0 0.002913 0.0 -0.539475 0.0 0.001856 -0.0 0.246739 -0.365296 0.0 -0.0 -0.334379 0.0 -0.0 0.071918 0.0 -0.0 -0.0 -0.01844 0.0
56 0.008236 -0.0 0.179224 0.0 0.00932 -0.028752 -0.0 -0.026398 0.139188 0.0 -0.203731 0.0 -0.347826 -0.045131 0.067073 0.0 -0.010286 -0.033949 0.035978 0.0 0.325162 -0.0 -0.0 -0.069128 0.0 0.0 0.11502 -0.0 0.0 0.025218 0.0 -0.0 0.005146 0.0 0.0 -0.205107 -0.0 -0.0 -0.0 0.094983 0.0 0.143519 -0.0 0.0 0.0 0.0 -0.0 -0.0 -0.134674 -0.0 0.0 -0.0 -0.002545 -0.0 0.0 -0.0 0.0 0.0 -0.0 -0.0 0.0 -0.0 -0.0 0.0 0.0 0.0 -0.0 0.0 -0.0 -0.003138 0.001165 0.0 0.0 0.0 0.0 -0.0 0.0 -0.0 -0.00356 0.0 0.0 -0.0 0.0 -0.0 0.0 -0.0 0.0 0.0 0.003802 -0.0 -0.0 -0.0 0.0 -0.0 0.005306 0.0 0.0 -0.001802 -0.0 -0.0 -0.096939 -3e-06 -0.0 0.0 0.0 0.0 -0.0 0.146401 0.0 0.0 0.0 0.0 -0.0 0.0 0.031483 -0.0 0.0 0.094168 -0.00017 0.0 -0.0 0.0 -0.0 -0.176038 0.117847 0.0 0.0 0.689478
57 -0.0 0.0 -0.0 0.0 -0.0 0.0 -0.0 0.0 -0.0 -0.0 -0.0 0.0 -0.0 0.0 -0.0 0.0 -0.0 0.0 0.0 -0.0 -0.0 -0.0 0.0 -0.0 0.0 -0.0 0.0 -0.0 0.0 -0.0 0.0 -0.0 0.0 -0.0 0.0 -0.0 0.0 -0.0 0.0 -0.0 0.0 -0.0 0.0 0.0 0.0 0.005218 0.0 -0.000698 0.0 -0.0 -0.0 0.0 0.0 -0.0 0.0 0.0 -0.0 0.0 -0.0 0.0 0.0 0.0 0.0 0.0 0.0 -0.0 0.0 0.0 0.0 2e-06 0.0 -0.0 -0.0 -0.012874 -0.201362 0.016376 -0.0 -0.0 -3e-06 0.0 1e-06 -4e-06 -0.162702 0.342168 -0.0 0.0 0.534821 0.578584 -3e-06 0.0 -0.0 0.035068 -0.0 -0.0 -0.0 -0.0 -0.0 -1e-06 -0.0 -0.0 -0.0 -0.0 0.0 0.0 0.0 0.0 -0.0 -0.0 -0.014334 0.0 -0.439559 -0.0 0.0 0.0 0.0 0.0 0.0 -0.0 0.0 -0.0 0.0 -0.0 0.0 -0.0 -0.0 -0.0 -0.0 0.0
58 -0.002851 0.002047 0.003328 0.016341 -0.003188 0.002016 0.002227 0.002397 -0.001646 -0.020349 0.00045 -0.016219 -0.002654 0.003081 -0.009578 0.001828 -0.003562 0.003731 0.005623 -0.019094 -0.003219 0.004716 0.010046 -0.013541 0.005697 -0.004724 -0.008595 -6e-06 -0.020852 -0.017435 -0.018255 0.000263 0.016823 -0.003725 0.000579 0.048248 0.000591 0.021295 0.127997 0.107265 0.031038 0.014897 0.060012 -0.559293 -0.009618 -0.010069 0.00017 -5.7e-05 -0.013461 0.008726 0.000272 0.083733 0.010153 -0.186015 0.002297 -0.001435 -0.393496 -0.020307 0.002409 -0.000165 -0.000908 0.005273 -0.160951 0.000408 -0.000157 0.002116 -0.005723 -0.027327 0.001792 -0.005605 -0.000907 -0.002099 -0.002506 0.002495 -0.003018 -0.001029 0.01169 0.033398 -0.000946 -0.019648 0.014222 0.004335 -0.006349 0.01148 -0.03477 0.010285 -0.004983 0.022881 4.7e-05 -0.003232 -0.029793 0.004952 -0.027799 -0.006676 0.000923 -0.007423 0.004689 0.017979 -0.009941 0.004512 -0.036908 -0.004841 -0.000798 0.013851 0.016854 0.099229 -0.006851 -0.061108 -0.00044 0.001081 -0.100539 -0.011575 0.009711 0.005105 0.081888 -0.219196 0.207836 -0.094923 0.068945 -0.273911 0.033047 -0.001492 -0.046574 0.00034 -0.059677 -0.082539 -0.422212 0.11631
59 -0.004134 -0.000885 0.003748 0.008459 -0.005248 0.004627 0.000734 0.003475 0.002012 -0.015169 0.000502 -0.001849 -0.006418 0.00378 -0.01416 0.001039 -0.007357 0.001206 -0.00736 0.006931 -0.0006 -0.000704 0.014999 -0.035664 0.00915 -0.007362 0.003118 3.6e-05 0.008482 -0.002923 0.00601 0.001696 -0.012169 -0.125996 0.001052 0.01358 0.001091 -0.027462 0.13227 0.007668 0.050496 -0.026007 0.019525 -0.01387 -0.013168 -0.052043 -0.000372 0.000369 0.023368 0.016091 -0.000301 0.019756 0.007765 -0.059783 0.001416 0.000489 0.056336 -0.035253 0.005125 3.2e-05 -0.001012 0.002009 -0.08211 0.001276 -0.003501 0.003832 0.000102 -0.045984 -0.001708 -0.072013 -0.005505 0.017004 -0.006018 0.009986 0.13797 0.011921 0.027243 0.07752 -0.010924 -0.050732 0.032003 0.006902 -0.092132 0.194967 -0.073962 0.014791 -0.078675 0.367779 -0.018125 0.002545 -0.081787 0.029509 -0.042527 -0.000839 -0.003544 -0.013259 0.003409 0.023462 -0.012999 0.010236 -0.026668 -0.006992 0.005045 0.023311 0.029617 0.043704 -0.003086 -0.103987 -0.005694 0.001876 -0.527525 -0.147551 0.012113 0.005152 0.057766 -0.056862 0.341782 0.003916 0.337861 -0.204362 0.049095 -0.002752 0.022579 0.025451 -0.098575 -0.134701 -0.185797 0.194605
60 -0.007065 0.001175 0.008349 0.012546 -0.00806 0.005115 0.001427 0.005912 -0.003794 -0.016198 0.001082 -0.010918 -0.006526 0.00774 -0.024011 0.004638 -0.009053 0.009164 0.013431 -0.010907 -0.00867 0.002718 0.025269 -0.034401 0.014351 -0.004663 -0.021678 -1.5e-05 -0.012724 -0.043652 -0.010809 0.000751 0.040796 -0.006684 0.001549 0.121691 0.001469 0.011415 0.099809 0.266948 0.027629 0.053178 0.046578 -0.376614 -0.024228 -0.025103 0.000109 -0.000118 -0.0193 0.022028 0.000189 0.057875 0.025584 -0.133121 0.002079 -0.001207 -0.266112 -0.051153 0.005989 -0.000113 -0.001088 0.003885 -0.117624 0.00118 -0.000295 0.001787 -0.003721 -0.068842 0.001276 -0.017007 -0.002254 -0.000121 -0.002237 0.005031 0.007104 -0.000993 0.010471 0.030156 -0.002067 -0.01821 0.012769 0.010878 -0.01785 0.033248 -0.03092 0.025701 -0.014599 0.067563 -0.000752 -0.00216 -0.027826 0.010801 -0.069781 -0.004833 0.00222 -0.018773 0.003218 0.046035 -0.007629 0.002924 -0.087432 -0.004117 -0.000566 0.034754 0.04203 0.078329 -0.005364 -0.157573 -0.001195 0.001272 -0.281675 -0.024937 0.024647 0.004306 0.212358 -0.165896 0.172314 -0.228823 0.194265 -0.20363 0.083056 -0.003695 -0.030153 0.002272 -0.151271 -0.207504 -0.31233 0.293767
61 -0.0 0.0 -0.0 0.0 -0.0 0.0 -0.0 0.0 -0.0 0.0 -0.0 0.0 -0.0 0.0 -0.0 0.0 -0.0 0.0 0.0 -0.0 -0.0 -0.0 0.0 -0.0 0.0 -0.0 0.0 -0.0 0.0 -0.0 0.0 0.0 0.0 -0.0 -0.0 0.0 0.0 0.0 0.0 0.0 0.0 -0.0 -0.0 0.0 -0.0 -0.00066 -0.0 -0.006775 0.0 0.0 0.0 -0.0 0.0 -0.0 0.0 -0.0 -0.0 0.0 0.0 0.0 0.0 0.0 0.0 0.0 0.0 0.0 0.0 0.0 0.0 1.5e-05 1e-06 0.0 1e-06 0.478675 -0.020887 0.343221 -7e-06 -3e-06 -2.4e-05 0.0 0.0 -1e-06 -0.047712 -0.036139 -0.0 0.0 0.003773 -0.030738 -1e-06 0.0 0.0 0.802929 -0.0 -4e-06 -5e-06 -0.0 -4e-06 -6e-06 -2e-06 -2e-06 -1e-06 -2e-06 2e-06 0.0 0.0 0.0 -0.0 -0.0 -0.057852 0.0 -0.002081 -0.0 -0.0 0.0 1e-06 -0.0 0.0 -1e-06 0.0 -0.0 0.0 -0.0 0.0 -0.0 -0.0 -0.0 -0.0 0.0
62 -0.0 0.0 0.0 0.0 -0.0 0.0 -0.0 0.0 -0.0 -0.0 -0.0 0.0 0.0 0.0 0.0 -0.0 0.0 -0.0 -0.0 -0.0 0.0 0.0 -0.0 0.0 -0.0 0.0 0.0 0.0 0.0 0.0 -0.0 0.0 0.0 0.0 0.0 0.0 -0.0 0.0 -0.0 0.0 -0.0 0.0 -0.0 -0.0 0.0 -0.562671 -0.0 -0.000461 -0.0 0.0 0.0 0.0 -0.0 -0.0 0.0 -0.0 -0.0 -0.0 -0.0 -0.0 -0.0 -0.0 0.0 -0.0 0.0 0.0 0.0 -0.0 -0.0 -0.0 -0.0 0.0 -0.0 0.014625 0.335692 -0.005171 0.0 0.0 1e-06 -0.0 -0.0 1e-06 0.04665 -0.078812 0.0 0.0 0.031015 -0.144913 1e-06 -0.0 0.0 -0.006223 0.0 0.0 0.0 0.0 0.0 0.0 0.0 0.0 0.0 0.0 -0.0 -0.0 -0.0 -0.0 0.0 0.0 0.002538 -0.0 -0.734899 -0.0 0.0 0.0 0.0 -0.0 0.0 -0.0 0.0 -0.0 0.0 -0.0 -0.0 -0.0 -0.0 -0.0 -0.0 0.0
63 -0.0 0.0 -0.0 0.0 -0.0 0.0 -0.0 0.0 -0.0 0.0 -0.0 0.0 -0.0 0.0 -0.0 0.0 -0.0 0.0 0.0 -0.0 -0.0 -0.0 0.0 -0.0 0.0 -0.0 0.0 -0.0 0.0 -0.0 -0.0 -0.0 -0.0 0.0 -0.0 -0.0 -0.0 -0.0 0.0 -0.0 -0.0 0.0 0.0 -0.0 -0.0 -0.000912 0.0 0.067924 0.0 0.0 -0.0 -0.0 0.0 -0.0 -0.0 -0.0 -0.0 -0.0 -0.0 0.0 -0.0 -0.0 -0.0 -0.0 -0.0 -0.0 -0.0 -0.0 -0.0 -3e-06 -0.0 -0.0 -0.0 -0.474764 0.016159 -0.102982 3e-06 2e-06 1.2e-05 0.0 1e-06 0.0 0.007487 0.023269 0.0 0.0 -0.000182 -0.024391 9e-06 0.0 1e-06 0.42767 -0.0 -2e-06 -2e-06 -0.0 -1e-06 -1e-06 -0.0 -0.0 -0.0 -0.0 0.0 0.0 0.0 0.0 0.0 0.0 -0.758289 1e-06 -0.004732 -0.0 -0.0 0.0 0.0 -0.0 0.0 -0.0 0.0 -0.0 0.0 -0.0 0.0 -0.0 -0.0 -0.0 -0.0 0.0
64 -0.005927 -0.001245 0.005621 0.012071 -0.007369 0.006297 0.000957 0.004795 0.002601 -0.021526 0.000902 -0.002477 -0.009179 0.005302 -0.019982 0.001541 -0.010462 0.002034 -0.009486 0.010485 -0.001537 -0.001005 0.020746 -0.050293 0.012973 -0.008967 0.005289 2.5e-05 0.012749 -0.005652 0.008642 0.001843 -0.016107 -0.155954 0.00097 0.020424 0.001568 -0.035129 0.18281 0.00896 0.057655 -0.038089 0.024858 -0.023308 -0.018722 -0.022301 -0.000466 0.00011 0.032096 0.021844 -0.000355 0.026408 0.00996 -0.081283 0.00159 0.000449 0.084197 -0.048567 0.007119 0.000148 -0.000808 0.003054 -0.116021 0.00173 -0.004089 0.00433 0.001442 -0.061912 -0.001979 -0.07175 -0.005702 0.02003 -0.006269 0.004614 0.053907 0.004456 0.029047 0.082354 -0.011157 -0.053377 0.03353 0.00975 -0.037565 0.079162 -0.077027 0.020174 -0.03238 0.148967 -0.017482 0.003468 -0.085152 0.012763 -0.057613 -0.000174 -0.002453 -0.018951 0.003362 0.04733 -0.012748 0.010681 -0.032776 -0.00706 0.004998 0.032352 0.042121 0.04524 -0.002743 -0.139402 -0.002265 0.002246 -0.216752 -0.20708 0.018291 0.006387 0.05506 -0.10538 0.447138 0.028342 0.468848 -0.268459 0.067303 -0.003927 0.03243 0.038464 -0.132794 -0.188704 -0.255817 0.26973
65 -0.0 0.0 0.0 0.0 -0.0 0.0 -0.0 0.0 -0.0 0.0 -0.0 0.0 -0.0 0.0 -0.0 0.0 -0.0 -0.0 0.0 -0.0 0.0 -0.0 0.0 -0.0 0.0 -0.0 -0.0 -0.0 -0.0 -0.0 0.0 0.0 -0.0 -0.0 0.0 -0.0 0.0 -0.0 0.0 -0.0 0.0 -0.0 0.0 0.0 -0.0 -0.108758 0.0 0.01321 0.0 0.0 -0.0 0.0 0.0 0.0 0.0 0.0 -0.0 -0.0 -0.0 0.0 1e-06 0.0 0.0 -0.0 0.0 -0.0 0.0 -0.0 0.0 2e-06 0.0 0.0 -0.0 0.140039 0.122106 -0.126423 2e-06 1e-06 7e-06 -0.0 2e-06 -5e-06 -0.214167 0.40512 -1e-06 0.0 0.172989 0.655511 2e-06 -0.0 -2e-06 0.201314 -0.0 -1e-06 -1e-06 -0.0 -2e-06 -1e-06 -1e-06 -1e-06 -0.0 -2e-06 1e-06 0.0 0.0 1e-06 -0.0 -0.0 -0.080546 0.0 -0.469966 -0.0 -0.0 0.0 0.0 0.0 0.0 -0.0 0.0 -0.0 0.0 -0.0 0.0 -0.0 -0.0 -0.0 -0.0 0.0
66 5.9e-05 0.0 -0.000226 -0.0 0.001151 -0.002566 -0.0 0.000224 0.001354 0.0 -0.000552 0.0 0.002259 -0.00454 0.004739 -0.0 0.000604 -0.004111 -0.001451 -0.0 -0.000699 0.0 -0.0 0.03268 0.0 0.0 -0.049731 -0.0 0.0 0.607838 0.0 0.0 -0.276431 -0.0 0.0 -0.089837 -0.0 -0.0 0.0 -0.214098 -0.0 -0.084703 0.0 0.0 0.0 -0.0 0.0 0.0 0.045093 -0.0 -0.0 0.0 0.049833 -0.0 0.0 -0.0 0.0 0.0 -0.0 0.0 -0.0 0.0 -0.0 0.0 -0.0 -0.0 -0.0 -0.0 -0.0 0.103575 0.005863 0.0 0.0 -1e-06 -0.0 -2e-06 0.0 -0.0 -0.001939 0.0 0.0 -0.0 -0.0 0.0 0.0 -0.0 0.0 -0.0 0.002903 0.0 0.0 -1e-06 0.0 0.0 -0.000555 0.0 -0.0 -0.025312 -0.0 -0.0 -0.038621 -1e-06 -0.0 0.0 0.0 0.0 -0.0 0.145426 0.0 0.0 0.0 0.0 -0.0 0.0 0.468465 0.0 -0.0 -0.343401 0.136451 -0.0 0.0 -0.0 0.0 0.028837 -0.198584 -0.0 0.0 0.23361
67 -0.001671 -0.0016 0.00131 0.011214 -0.002144 0.00199 0.001706 0.001408 0.000949 -0.020896 0.000154 -0.00297 -0.002761 0.001482 -0.005759 0.000196 -0.002982 0.0004 -0.003573 0.009517 0.000161 0.004692 0.002417 -0.016121 0.001351 -0.00928 0.002266 5e-06 0.019928 -0.001097 0.009711 0.000228 -0.004535 -0.269394 3.4e-05 0.005701 0.000167 -0.03752 0.235379 0.005541 0.070343 -0.01988 0.029869 -0.030156 -0.00271 -0.002273 -0.001648 2.4e-05 0.005234 0.002766 -0.001443 0.031652 0.005624 -0.114572 0.004209 0.001259 0.155277 -0.006764 0.00057 0.000726 -0.001897 0.004264 -0.155621 8e-06 -0.012631 0.012436 -0.001528 -0.00679 -0.005054 -0.02261 -0.001999 0.040526 -0.00872 0.001967 0.004553 0.000106 0.046251 0.136979 -0.008169 -0.089172 0.054324 0.001279 -0.006294 0.014286 -0.125812 0.001841 -0.005677 0.026161 -0.010246 0.008947 -0.152235 0.004115 -0.006785 0.004224 -0.002003 -0.00163 0.006812 0.012574 -0.026753 0.027891 -0.011967 -0.017745 0.01335 0.004705 0.003737 0.088534 -0.006366 -0.042912 -0.000648 0.005115 -0.024908 -0.261324 0.001466 0.015147 0.012699 -0.051529 0.622385 0.005903 0.14579 -0.378064 0.008023 -0.000421 0.050521 0.012241 -0.040923 -0.020916 -0.278424 0.07947
68 -0.005875 -0.001314 0.005672 0.01202 -0.007323 0.006241 0.001041 0.004752 0.002596 -0.021472 0.000928 -0.002612 -0.009176 0.005388 -0.020117 0.001449 -0.010292 0.001934 -0.009225 0.010555 -0.001546 -0.001278 0.021066 -0.0502 0.012948 -0.008244 0.005147 3.8e-05 0.01282 -0.005871 0.008676 0.001942 -0.015924 -0.155739 0.000786 0.020149 0.001621 -0.035423 0.182684 0.009115 0.057877 -0.03775 0.024794 -0.023116 -0.018433 -0.02204 -0.000463 0.000109 0.031724 0.022426 -0.000354 0.026009 0.009836 -0.080853 0.001582 0.000447 0.084128 -0.04926 0.007242 0.000147 -0.0008 0.00305 -0.115929 0.001875 -0.004084 0.004317 0.001433 -0.063422 -0.001972 -0.072019 -0.005715 0.019968 -0.006239 0.004589 0.053593 0.004433 0.028891 0.081914 -0.011121 -0.053097 0.033352 0.00991 -0.037372 0.078757 -0.076616 0.020918 -0.032213 0.148203 -0.017437 0.003456 -0.084721 0.012698 -0.058717 -0.000156 -0.002409 -0.019229 0.00333 0.048086 -0.012664 0.010609 -0.032649 -0.007017 0.004968 0.032633 0.043093 0.045046 -0.002727 -0.140309 -0.002253 0.002238 -0.215901 -0.206817 0.018358 0.006361 0.055301 -0.105242 0.446716 0.027827 0.468993 -0.268145 0.068664 -0.004094 0.032477 0.03715 -0.133337 -0.190839 -0.255235 0.270087
69 -0.003732 -0.000767 0.002795 0.006676 -0.004942 0.0044 0.000545 0.002987 0.002885 -0.011705 5.5e-05 -0.001386 -0.006309 0.003354 -0.013018 0.000518 -0.006606 -0.000149 -0.00935 0.005598 -6e-05 0.002122 0.011835 -0.038163 0.006938 -0.006476 0.005077 2.2e-05 0.008078 -0.002264 0.004559 -5.3e-05 -0.012591 -0.202027 -0.000168 0.014015 0.001564 -0.026784 0.1352 0.007187 0.044471 -0.023991 0.014416 -0.020371 -0.010309 -0.035352 -0.001146 0.000796 0.03191 0.010643 -0.001083 0.023296 0.01234 -0.06319 0.003192 0.00172 0.092638 -0.027812 0.005983 0.000357 -0.00177 0.002399 -0.09639 0.001225 -0.009796 0.009357 -0.003529 -0.034037 -0.003189 -0.071311 -0.005391 0.029954 -0.007243 0.01338 0.143658 0.012175 0.035084 0.107154 -0.036 -0.070467 0.043163 0.005512 -0.079494 0.215952 -0.100361 0.020336 -0.076032 0.390448 -0.044937 0.006204 -0.121628 0.036174 -0.036018 0.002828 -0.008932 -0.017048 0.004799 0.02156 -0.022815 0.024176 -0.022582 -0.015446 0.012795 0.023588 0.040849 0.045785 -0.004605 -0.107457 -0.011359 0.004035 -0.355977 -0.150469 0.005341 0.010024 0.042458 0.018784 0.405161 0.020548 0.380328 -0.231212 0.039767 -0.004252 0.029366 0.030896 -0.095772 -0.108059 -0.16012 0.186327
70 0.005564 -0.0 -0.017121 0.0 0.190936 0.318935 0.0 0.072748 -0.053803 -0.0 0.068325 0.0 -0.104514 0.10625 -0.108739 0.0 0.149255 -0.175494 -0.194516 -0.0 -0.145081 0.0 0.0 0.062872 0.0 0.0 0.145071 -0.0 0.0 0.05231 0.0 -0.0 -0.031626 0.0 0.0 -0.154199 -0.0 -0.0 -0.0 0.047724 0.0 0.109304 -0.0 0.0 0.0 0.0 -0.0 -0.0 -0.056179 -0.0 -0.0 0.0 0.02582 -0.0 0.0 -0.0 -0.0 0.0 -0.0 0.0 -0.0 0.0 0.0 0.0 -0.0 -0.0 -0.0 -0.0 -0.0 0.012305 0.000229 0.0 0.0 -0.0 -0.0 -0.0 -0.0 0.0 0.001394 -0.0 -0.0 -0.0 -0.0 0.0 -0.0 -0.0 0.0 -0.0 -0.001183 0.0 0.0 -0.0 -0.0 0.0 -0.00265 0.0 -0.0 -0.049959 -0.0 -0.0 -0.044876 -1e-06 -0.0 0.0 0.0 -0.0 -0.0 -0.115026 -0.0 -0.0 -0.0 -0.0 -0.0 -0.0 -0.029463 -0.0 0.0 0.027906 -0.089321 0.0 -0.0 0.0 -0.0 0.242286 0.178346 0.0 0.0 0.716973
71 -0.005131 -0.001011 0.007123 0.006989 -0.006166 0.004519 0.000508 0.005179 -0.002388 -0.011508 0.001465 -0.001528 -0.005753 0.004143 -0.015976 0.003055 -0.005428 0.004888 0.009839 0.008047 -0.006218 -0.002294 0.013815 -0.01556 0.006835 -0.007156 -0.013652 1.2e-05 0.024233 -0.008583 -0.031684 0.002058 0.003504 -0.003987 0.000577 -0.071382 0.000272 0.000603 0.008515 0.09015 0.014416 -0.121494 0.045891 -0.007219 -0.014156 -0.046518 0.000139 -0.001342 0.14612 0.010412 0.000499 -0.006286 -0.115221 -0.028827 0.001999 -0.000901 -0.039077 -0.040854 0.000435 -0.000119 -0.005824 0.000249 -0.023551 -0.000732 -0.001884 0.003752 -0.005979 -0.041142 -0.000468 -0.079381 0.00066 0.028772 -0.025151 -0.011314 -0.410357 0.001047 0.105074 0.28554 -0.012447 -0.188268 0.125984 0.008317 -0.047536 0.081893 -0.295555 0.004548 -0.032369 0.15613 0.007686 -0.009486 -0.3066 0.014981 -0.044785 -0.022751 0.021561 -0.003749 0.02033 0.131346 -0.054125 0.033717 -0.294917 -0.021249 0.010448 0.03068 0.007845 0.12092 -0.009705 -0.085303 -0.002711 0.002148 -0.262053 -0.077112 0.003607 0.008501 -0.00805 -0.04479 0.061651 -0.182306 0.13862 -0.130863 0.046336 -0.000715 0.015352 0.007027 -0.11626 -0.113243 -0.140879 0.228337
72 0.0 0.0 -0.0 -0.0 0.0 0.0 0.0 0.0 0.0 0.0 -0.0 0.0 0.0 -0.0 0.0 -0.0 -0.0 0.0 -0.0 -0.0 -0.0 0.0 -0.0 0.0 -0.0 0.0 0.0 0.0 -0.0 0.0 -0.0 -0.0 0.0 0.0 0.0 -0.0 0.0 0.0 -0.0 0.0 0.0 -0.0 -0.0 -0.0 0.0 0.0 -0.0 0.0 0.0 -0.0 0.0 -0.0 0.0 -0.0 -0.0 0.0 0.0 -0.0 0.280316 -0.0 0.0 0.0 0.0 -0.579396 -0.0 0.0 0.0 -0.0 -0.0 -0.0 -0.0 0.0 0.0 0.0 0.0 -0.0 0.0 0.0 -0.0 -0.0 0.0 0.0 -0.0 0.0 -0.0 -0.015345 0.0 0.0 0.0 -0.0 -0.0 0.0 -0.0 -0.0 -0.0 0.681198 0.0 -0.0 -0.0 0.0 0.0 0.0 -0.0 -0.0 0.348507 0.0 -0.0 -0.0 -0.0 -0.0 -0.0 -0.0 -0.0 0.0 -0.0 -0.0 0.0 -0.0 0.0 -0.0 0.0 -0.0 0.0 -0.0 -0.0 -0.0 -0.0 0.0
73 -0.008731 -0.000185 0.00597 0.001305 -0.011057 0.010913 0.000145 0.007461 0.006234 -0.00241 0.000489 -0.00039 -0.014261 0.007624 -0.029133 0.000198 -0.017489 0.001128 -0.025435 0.000969 0.002476 0.000682 0.002494 -0.088814 0.001332 -0.001506 0.013593 1.4e-05 0.002822 -0.004738 0.001461 0.000323 -0.031182 -0.027028 7.5e-05 0.050469 0.000505 -0.008869 0.028367 0.006378 0.006582 -0.047272 0.005609 -0.002657 -0.002936 -0.001532 -0.000838 0.00016 0.071186 0.002237 -0.000788 -0.000182 -0.002033 -0.009969 0.001593 0.000264 0.015381 -0.009221 0.010936 0.000329 -0.001671 0.001136 -0.02244 0.00117 -0.001653 0.002947 -6.8e-05 -0.006409 -0.001092 -0.106593 -0.011821 0.007392 -0.002348 0.003171 0.027668 0.002256 0.010018 0.032112 -0.055805 -0.02088 0.013035 0.001803 -0.018719 0.039009 -0.031085 0.024735 -0.016379 0.074689 -0.061076 0.001069 -0.034639 0.007862 -0.007608 -0.000794 -0.012061 -0.023443 0.001731 0.085833 -0.006555 0.004676 -0.096183 -0.005015 0.003576 0.008194 0.05288 0.027051 -0.002137 -0.225969 -0.001542 0.001813 -0.032309 -0.032306 0.000756 0.005181 0.040783 -0.011656 0.072221 0.039078 0.79789 -0.046507 0.008468 -0.001237 0.006442 0.067932 -0.21217 -0.021907 -0.03412 0.413763
74 -0.0 0.000232 0.0 -0.004157 -0.0 0.0 0.002796 0.0 -0.0 0.002598 0.0 -0.009083 -0.0 0.0 -0.0 0.0 -0.0 0.0 0.0 -0.06557 0.0 -0.009194 0.0 0.0 0.0 -0.102481 0.0 -0.0 0.433827 -0.0 0.110038 -0.0 0.0 -0.019913 -0.0 0.0 0.0 -0.015662 -0.17295 0.0 0.088063 -0.0 -0.578897 0.032922 0.0 0.0 3.1e-05 -0.0 -0.0 -0.0 -0.000112 0.019258 0.0 0.069825 4.3e-05 -1e-06 0.115077 -0.0 -0.0 -0.000372 0.000494 0.004273 -0.153998 -0.0 0.001464 0.000322 -0.000955 -0.0 0.000188 -0.0 0.0 -0.005162 -0.000409 0.0 0.0 0.0 0.000666 0.002149 -0.0 -0.000211 0.000856 0.0 0.0 0.0 -0.002594 0.0 -0.0 0.0 -0.0 -0.001474 0.000186 -0.0 -0.0 -0.004426 -0.0 -0.0 0.006208 0.0 -0.010542 0.014733 0.0 -0.008008 0.006231 0.0 0.0 -0.060668 0.0008 0.0 -0.0 -0.000946 -0.0 0.366764 -0.0 -0.002457 0.0 -0.075305 -0.100936 0.0 -0.0 -0.357853 0.0 -0.0 0.126192 0.0 -0.0 0.0 -0.263378 0.0
75 -0.0 0.0 0.0 0.0 -0.0 -0.0 -0.0 0.0 -0.0 0.0 -0.0 0.0 -0.0 0.0 -0.0 0.0 -0.0 0.0 0.0 -0.0 -0.0 -0.0 0.0 0.0 0.0 -0.0 -0.0 -0.0 0.0 0.0 0.0 -0.0 -0.0 0.0 -0.0 -0.0 0.0 -0.0 0.0 -0.0 0.0 0.0 0.0 0.0 -0.0 -0.005076 0.0 -0.042088 0.0 0.0 -0.0 -0.0 0.0 -0.0 -0.0 -0.0 -0.0 0.0 -0.0 0.0 0.0 0.0 0.0 0.0 -0.0 -0.0 -0.0 -0.0 -0.0 -1e-06 -0.0 -0.0 -0.0 -0.215412 -0.009647 -0.066002 2e-06 1e-06 7e-06 0.0 0.0 -0.0 -0.01654 0.096802 -0.0 0.0 0.442719 0.053227 5e-06 0.0 1e-06 0.23188 -0.0 -1e-06 -1e-06 -0.0 -1e-06 -1e-06 -0.0 -0.0 -0.0 -0.0 0.0 0.0 0.0 0.0 0.0 0.0 -0.827482 1e-06 -0.019468 -0.0 -0.0 0.0 0.0 -0.0 0.0 -0.0 0.0 -0.0 0.0 -0.0 0.0 -0.0 -0.0 -0.0 -0.0 0.0
76 -0.0 0.0 0.0 0.0 -0.0 0.0 -0.0 0.0 -0.0 -0.0 -0.0 0.0 -0.0 0.0 -0.0 0.0 -0.0 0.0 0.0 0.0 -0.0 -0.0 0.0 -0.0 0.0 -0.0 -0.0 0.0 0.0 -0.0 0.0 0.0 0.0 0.0 0.0 0.0 -0.0 0.0 -0.0 0.0 -0.0 -0.0 -0.0 0.0 -0.0 0.086228 0.0 -1.3e-05 -0.0 -0.0 0.0 -0.0 -0.0 0.0 0.0 -0.0 0.0 -0.0 -0.0 -0.0 -0.0 -0.0 -0.0 -0.0 0.0 0.0 0.0 -0.0 -0.0 -0.0 -0.0 0.0 -0.0 0.009598 0.222581 -0.00331 0.0 0.0 1e-06 -0.0 -0.0 1e-06 0.031003 -0.052529 0.0 0.0 0.02061 -0.097501 0.0 -0.0 0.0 -0.004435 0.0 0.0 0.0 0.0 0.0 0.0 0.0 0.0 0.0 0.0 -0.0 -0.0 -0.0 -0.0 0.0 0.0 0.003027 -0.0 -0.96397 -0.0 0.0 0.0 0.0 -0.0 0.0 -0.0 0.0 -0.0 0.0 -0.0 0.0 -0.0 -0.0 -0.0 -0.0 0.0
77 0.000638 0.0 -0.005534 -0.0 0.001127 0.004101 0.0 -0.001807 0.001112 0.0 -0.005599 0.0 -0.001323 0.002642 0.009623 -0.0 0.010031 -0.015261 -0.006465 -0.0 0.021907 0.0 -0.0 0.02341 -0.0 0.0 0.026862 0.0 -0.0 -0.509903 0.0 -0.0 0.118408 0.0 -0.0 -0.266766 -0.0 -0.0 -0.0 -0.415665 -0.0 -0.075327 0.0 0.0 0.0 -0.0 0.0 0.0 0.058165 0.0 -0.0 0.0 0.011864 0.0 0.0 -0.0 -0.0 -0.0 -0.0 0.0 -0.0 0.0 0.0 -0.0 -0.0 -0.0 -0.0 -0.0 -0.0 0.18839 0.010425 0.0 0.0 -2e-06 -0.0 -5e-06 0.0 -0.0 4.1e-05 -0.0 -0.0 0.0 -0.0 0.0 -0.0 0.0 0.0 -1e-06 0.00137 0.0 0.0 -3e-06 -0.0 0.0 -0.012495 -0.0 -0.0 -0.236862 -0.0 -0.0 -0.049564 -1e-06 -0.0 0.0 -0.0 -0.0 -0.0 -0.109048 0.0 -0.0 0.0 0.0 -0.0 0.0 0.358816 0.0 -0.0 -0.376071 0.156874 -0.0 0.0 -0.0 0.0 -0.094647 0.032015 -0.0 0.0 0.244024
78 -0.001716 -0.001189 0.001064 0.008083 -0.002096 0.002061 0.001591 0.001469 0.001097 -0.015668 8.6e-05 -0.002817 -0.002902 0.001327 -0.005619 3.5e-05 -0.0031 0.000273 -0.004608 0.005954 0.000766 0.007132 0.000497 -0.017163 0.000248 -0.008793 0.003226 1e-06 0.025249 -0.000793 0.003108 4.1e-05 -0.004194 -0.278961 -2e-05 0.004815 3.5e-05 -0.034187 0.195051 0.008162 0.055994 -0.026846 0.042209 -0.032474 -0.000697 -0.00045 -0.004686 5e-06 0.005309 0.000575 -0.004645 0.005213 0.006326 -0.108097 0.010218 0.002636 0.15463 -0.001764 0.000173 0.002248 -0.004087 0.00544 -0.146084 -2e-05 -0.024749 0.027027 -0.012707 -0.001269 -0.010168 -0.02175 -0.00212 0.065133 -0.014305 0.001118 -1e-05 3e-06 0.068744 0.217502 -0.013676 -0.140938 0.085631 0.000316 -0.001967 0.004662 -0.204857 0.000499 -0.001836 0.008628 -0.015359 0.009724 -0.259077 0.002177 -0.001402 0.006805 -0.003109 -0.000442 0.015572 0.013892 -0.049413 0.051385 -0.017535 -0.033234 0.024867 0.001309 0.001067 0.152798 -0.012834 -0.042992 -0.000293 0.01163 -0.006028 -0.22108 0.000182 0.032307 0.005966 0.024943 0.562752 0.003671 0.151796 -0.368324 0.001673 -8.7e-05 0.054955 0.013453 -0.041419 -0.004242 -0.227086 0.079293
79 3.9e-05 0.0 -0.000652 -0.0 0.002602 -0.004108 -0.0 0.004193 0.007303 0.0 -0.000652 0.0 0.000993 -0.002614 -0.008717 -0.0 0.035082 -0.028394 -0.032196 -0.0 0.000421 -0.0 -0.0 -0.134041 -0.0 -0.0 -0.335603 0.0 -0.0 0.02201 -0.0 -0.0 0.069801 0.0 0.0 -0.284225 -0.0 -0.0 -0.0 -0.081875 0.0 0.118634 -0.0 0.0 0.0 0.0 -0.0 -0.0 -0.275269 -0.0 0.0 -0.0 -0.099647 0.0 -0.0 0.0 0.0 0.0 0.0 -0.0 0.0 -0.0 -0.0 0.0 0.0 0.0 0.0 0.0 0.0 -0.160712 -0.007825 -0.0 -0.0 2e-06 0.0 5e-06 0.0 -0.0 -0.003516 0.0 0.0 -0.0 0.0 -0.0 0.0 -0.0 -0.0 1e-06 0.001983 -0.0 -0.0 4e-06 0.0 -0.0 0.024514 0.0 0.0 0.56679 1e-06 0.0 0.194743 6e-06 0.0 -0.0 -0.0 -0.0 0.0 -0.412403 -0.0 -0.0 0.0 -0.0 -0.0 -0.0 -0.016966 0.0 -0.0 -0.161779 0.004422 -0.0 0.0 -0.0 0.0 -0.112048 -0.240156 -0.0 -0.0 0.145126
80 -0.005697 0.000802 0.006861 0.008651 -0.006435 0.004013 0.000919 0.004788 -0.003313 -0.010891 0.000948 -0.007526 -0.005124 0.006256 -0.019235 0.013166 -0.007236 0.00774 0.011313 -0.007382 -0.00707 0.001309 0.067451 -0.026133 0.037814 -0.003391 -0.018108 -1.1e-05 -0.009066 -0.035146 -0.007887 0.002568 0.034083 -0.002136 0.006139 0.094457 0.001047 0.011058 0.05942 0.215127 0.020196 0.039709 0.035689 -0.270995 -0.069727 -0.018031 0.000221 -0.000181 -0.011088 0.057448 0.000275 0.042295 0.016688 -0.088772 0.002562 -0.001519 -0.187791 -0.13908 0.002081 -8.1e-05 -0.001943 0.002869 -0.080623 -0.002408 -0.000281 0.001596 -0.001185 -0.178102 0.001408 -0.012147 -0.001826 -0.000438 -0.000364 0.005385 -0.0073 -0.003 0.00627 0.019456 -0.00235 -0.011598 0.008114 0.02959 -0.012099 0.022902 -0.019991 0.020475 -0.009815 0.044919 -0.000113 -0.001299 -0.017515 0.01051 -0.190966 -0.003106 0.002424 -0.018064 0.001314 0.04283 -0.004797 0.00092 -0.083037 -0.004361 -0.000829 0.097759 0.036303 0.075326 -0.005158 -0.122154 -0.001413 0.001991 -0.182489 -0.02438 0.055887 0.004555 0.163589 -0.130945 0.126561 -0.192814 0.139261 -0.150852 0.227826 -0.002635 -0.019506 0.000279 -0.120324 -0.557834 -0.223367 0.234658
81 -0.001684 -0.001184 0.001048 0.007576 -0.002061 0.002032 0.001592 0.001444 0.001074 -0.014539 8.6e-05 -0.002771 -0.002858 0.001305 -0.005518 3.4e-05 -0.003078 0.000262 -0.004507 0.005543 0.000757 0.008503 0.000486 -0.016899 0.000242 -0.007793 0.003193 2e-06 0.022393 -0.000816 0.006252 4.3e-05 -0.004397 -0.271123 -1.9e-05 0.005879 8.7e-05 -0.009779 0.211018 0.006945 0.047212 -0.025104 0.030113 -0.018709 -0.00069 -0.000471 -0.007632 1.5e-05 0.002601 0.000589 -0.006382 0.026434 0.007551 -0.136712 0.011053 0.00201 0.165673 -0.001686 0.000169 0.002988 -0.005798 0.006813 -0.150156 -2e-05 -0.030194 0.028853 -0.009892 -0.001242 -0.011758 -0.021007 -0.002365 0.070951 -0.010011 0.001449 0.001339 -3.8e-05 0.062201 0.200633 -0.016683 -0.132871 0.078094 0.000309 -0.002071 0.004918 -0.186426 0.000488 -0.001954 0.008946 -0.018558 0.017428 -0.250439 0.002523 -0.001369 0.011066 -0.004277 -0.000431 0.013685 0.012289 -0.055217 0.062718 -0.013902 -0.041505 0.03024 0.001294 0.001042 0.147199 -0.011425 -0.041887 -0.000327 0.011894 -0.005351 -0.233309 0.000174 0.039592 0.006653 -0.005292 0.569678 0.004489 0.148443 -0.367208 0.001634 -0.000214 0.053841 0.013165 -0.040428 -0.004145 -0.22424 0.077595
82 -0.001355 -0.000344 0.001985 0.002919 -0.001654 0.001154 0.00013 0.001343 -0.000651 -0.004781 0.000399 -0.000573 -0.001515 0.001176 -0.004285 0.000943 -0.001567 0.001323 0.0027 0.003086 -0.001753 -0.001434 0.004677 -0.003952 0.0026 -0.002786 -0.003853 1.2e-05 0.006184 -0.002232 -0.00907 0.00054 0.000373 -0.001876 0.000214 -0.013517 0.000314 -0.000587 0.004295 0.018086 0.00634 -0.023255 0.014404 -0.001563 -0.00323 -0.016179 5e-06 -0.000968 0.028903 0.003138 8.6e-05 -0.000154 -0.025576 -0.009853 0.000172 -8.5e-05 -0.019511 -0.010561 0.001175 -4.7e-05 -0.000755 7.4e-05 -0.006984 0.000167 -0.000249 0.000566 -0.002249 -0.015238 4.2e-05 -0.024439 -0.000243 0.008279 -0.008309 -0.027229 -0.716551 0.006083 0.033342 0.089174 -0.002324 -0.058186 0.038834 0.002329 -0.081501 0.139132 -0.089883 0.005555 -0.054406 0.262234 0.001514 -0.002095 -0.090773 0.015319 -0.014999 -0.007042 0.004575 -0.003763 0.006599 0.025983 -0.015732 0.010269 -0.061843 -0.004969 0.00266 0.007728 0.008714 0.026969 -0.002063 -0.022616 -0.001936 -6.9e-05 -0.575139 -0.021469 0.00257 0.001302 0.008592 -0.013858 0.022511 -0.044225 0.034932 -0.039693 0.01514 -0.000847 0.003029 0.00113 -0.029554 -0.039388 -0.053269 0.059956
83 -0.019777 0.0 0.227579 0.0 0.024763 0.099395 0.0 -0.097086 -0.028587 -0.0 -0.147246 -0.0 0.353765 -0.084363 0.051645 -0.0 -0.010606 0.164476 0.057549 0.0 -0.208886 -0.0 0.0 -0.194739 0.0 -0.0 0.02486 -0.0 0.0 0.066264 0.0 0.0 -0.025629 0.0 0.0 -0.087673 -0.0 -0.0 -0.0 0.01866 0.0 0.040943 -0.0 0.0 0.0 0.0 -0.0 0.0 0.003771 0.0 -0.0 0.0 0.032338 -0.0 0.0 -0.0 -0.0 -0.0 -0.0 0.0 -0.0 0.0 0.0 0.0 -0.0 -0.0 -0.0 -0.0 -0.0 0.031767 0.000926 0.0 0.0 -0.0 -0.0 -1e-06 -0.0 0.0 0.002565 -0.0 -0.0 0.0 -0.0 0.0 -0.0 0.0 0.0 -0.0 -0.002256 0.0 0.0 -1e-06 -0.0 0.0 -0.007142 -0.0 -0.0 -0.125764 -0.0 -0.0 -0.043387 -1e-06 -0.0 0.0 0.0 -0.0 -0.0 -0.102325 -0.0 -0.0 -0.0 -0.0 -0.0 -0.0 -0.059025 -0.0 0.0 0.047477 -0.040851 0.0 -0.0 0.0 -0.0 -0.309422 0.184033 0.0 0.0 0.689737
84 -0.0 0.0 -0.0 0.0 -0.0 0.0 -0.0 0.0 -0.0 -0.0 -0.0 0.0 -0.0 0.0 -0.0 0.0 -0.0 0.0 0.0 -0.0 -0.0 -0.0 0.0 -0.0 0.0 -0.0 -0.0 -0.0 0.0 -0.0 0.0 0.0 0.0 -0.0 -0.0 0.0 0.0 -0.0 0.0 0.0 0.0 0.0 0.0 0.0 -0.0 0.01363 0.0 -0.000552 -0.0 0.0 -0.0 0.0 -0.0 -0.0 0.0 -0.0 -0.0 -0.0 0.0 0.0 0.0 0.0 0.0 0.0 0.0 -0.0 0.0 0.0 -0.0 1e-06 0.0 0.0 -0.0 -0.013494 -0.302586 0.022385 -1e-06 -0.0 -4e-06 0.0 1e-06 -5e-06 -0.182008 0.319737 -0.0 -0.0 -0.134171 0.646083 -3e-06 -0.0 -1e-06 0.038402 -0.0 -0.0 -0.0 -0.0 -0.0 -1e-06 -0.0 -0.0 -0.0 -0.0 0.0 0.0 0.0 0.0 -0.0 -0.0 -0.00569 0.0 -0.579035 -0.0 0.0 0.0 0.0 0.0 0.0 -0.0 0.0 -0.0 0.0 -0.0 0.0 -0.0 -0.0 -0.0 -0.0 0.0
85 -0.00413 -0.00133 0.006384 0.010049 -0.005109 0.003577 0.000783 0.004153 -0.002045 -0.016869 0.001484 -0.002333 -0.004733 0.003685 -0.01343 0.00322 -0.005147 0.0043 0.008261 0.010974 -0.005495 -0.005031 0.015807 -0.013011 0.008836 -0.007027 -0.010804 5.4e-05 0.019018 -0.007713 -0.025874 0.002499 0.00132 -0.005374 0.001098 -0.035639 0.000972 -0.00192 0.012424 0.049472 0.013637 -0.067006 0.049402 -0.008789 -0.010381 0.004163 2.1e-05 -0.000553 0.076278 0.011964 0.000199 0.001033 -0.072941 -0.032544 0.000406 -0.000215 -0.061168 -0.035341 0.004097 -3.3e-05 -0.001204 0.000604 -0.028783 0.000744 -0.000737 0.001236 -0.004696 -0.053205 0.000156 -0.052774 0.000561 0.017925 -0.017492 -0.020677 -0.558643 0.004701 0.071552 0.190561 -0.007872 -0.122832 0.081761 0.007929 -0.066315 0.112867 -0.187911 0.018051 -0.044347 0.210433 0.006576 -0.003175 -0.186895 0.012979 -0.0501 -0.014584 0.01453 -0.012393 0.014012 0.086128 -0.03187 0.020765 -0.17123 -0.0093 0.00459 0.023617 0.028166 0.067115 -0.004639 -0.066055 -0.001173 -0.00016 -0.507017 -0.065352 0.01034 0.003074 0.014507 -0.056638 0.07374 -0.114511 0.098779 -0.119059 0.050892 -0.002571 0.008732 0.002877 -0.087579 -0.132407 -0.178845 0.180163
86 -0.002567 -0.00019 0.003617 0.001484 -0.003111 0.002253 6.3e-05 0.002565 -0.001182 -0.002419 0.000669 -0.000303 -0.00284 0.002164 -0.008033 0.000649 -0.00278 0.002387 0.005007 0.001592 -0.003283 -0.000564 0.00325 -0.007266 0.001642 -0.001652 -0.007553 7e-06 0.00448 -0.003846 -0.005825 0.000365 0.000891 -0.001098 1.7e-05 -0.03181 0.000186 -0.000168 0.00264 0.040272 0.003867 -0.049837 0.009014 -0.000703 -0.002988 -0.051952 1e-06 -0.001963 0.068094 0.002341 7.8e-05 -0.001576 -0.054753 -0.006397 0.000309 -0.000135 -0.009598 -0.009088 0.000556 -6.3e-05 -0.001179 -1.2e-05 -0.004018 -5.9e-05 -0.000189 0.000646 -0.001658 -0.009833 -7.3e-05 -0.053046 -0.000573 0.006661 -0.006483 -0.02636 -0.733942 0.005624 0.025234 0.068501 -0.004664 -0.045779 0.030708 0.001838 -0.082208 0.14241 -0.072282 0.002971 -0.056454 0.278278 0.002196 -0.002631 -0.075197 0.018596 -0.010396 -0.005752 0.009312 -0.00207 0.004926 0.053566 -0.013177 0.008028 -0.13491 -0.004812 0.002512 0.006934 0.004777 0.023695 -0.002007 -0.044505 -0.003831 0.000241 -0.505881 -0.013732 0.001177 0.001449 0.01373 -0.006973 0.012355 -0.094568 0.071894 -0.025314 0.010722 -0.000501 0.002542 0.002467 -0.05872 -0.026731 -0.028814 0.116251
87 -0.004146 -0.001313 0.006328 0.01001 -0.005099 0.003566 0.000749 0.004109 -0.002085 -0.01688 0.001435 -0.002189 -0.004725 0.003788 -0.013457 0.003167 -0.005148 0.004401 0.008264 0.010891 -0.00545 -0.005274 0.015798 -0.012927 0.008814 -0.007283 -0.010696 4.8e-05 0.019005 -0.00752 -0.025881 0.002318 0.001174 -0.00538 0.001108 -0.035358 0.000966 -0.002057 0.012503 0.049298 0.013518 -0.06715 0.04945 -0.008989 -0.010756 0.003877 2.1e-05 -0.000552 0.076363 0.01196 0.000199 0.001215 -0.072805 -0.032791 0.000406 -0.000215 -0.061151 -0.035245 0.004062 -3.3e-05 -0.001202 0.000606 -0.028851 0.000756 -0.000737 0.001236 -0.004706 -0.052231 0.000157 -0.052607 0.000566 0.017955 -0.017527 -0.020692 -0.558965 0.004705 0.071691 0.190924 -0.007867 -0.123058 0.08191 0.007871 -0.066347 0.11292 -0.188244 0.017879 -0.044367 0.210524 0.00657 -0.003174 -0.187206 0.01298 -0.049435 -0.01461 0.01451 -0.012305 0.014041 0.085914 -0.031922 0.020804 -0.171045 -0.009312 0.004597 0.023691 0.027946 0.067134 -0.004641 -0.064962 -0.001173 -0.000161 -0.506831 -0.065269 0.010774 0.003073 0.014712 -0.056568 0.073537 -0.114021 0.098905 -0.119027 0.051046 -0.002544 0.008387 0.003286 -0.087457 -0.132065 -0.178893 0.180012
88 -0.007199 0.001168 0.00873 0.012821 -0.008149 0.005069 0.001439 0.006057 -0.004199 -0.016639 0.001224 -0.011111 -0.006501 0.007892 -0.024319 0.004699 -0.009181 0.00981 0.014342 -0.010886 -0.008988 0.002098 0.025582 -0.032877 0.014535 -0.004692 -0.022801 -1.5e-05 -0.011926 -0.044359 -0.013777 0.000768 0.041969 -0.003312 0.001595 0.118033 0.001487 0.013859 0.089806 0.270463 0.024079 0.048835 0.050652 -0.381962 -0.024412 -0.013585 0.000132 -0.000201 -0.014945 0.02196 0.000222 0.057517 0.018183 -0.133142 0.002023 -0.001247 -0.277808 -0.052132 0.006063 -0.00012 -0.001066 0.003819 -0.115952 0.001196 -0.000324 0.001714 -0.00418 -0.069739 0.001445 -0.015395 -0.001698 -0.000287 -0.002543 0.003591 -0.019546 -0.001047 0.011699 0.033162 -0.002634 -0.020053 0.014126 0.011134 -0.016494 0.030163 -0.034018 0.026023 -0.013121 0.061279 0.00066 -0.002482 -0.030621 0.009736 -0.070648 -0.005343 0.003765 -0.01901 0.003587 0.052625 -0.008253 0.003305 -0.100664 -0.004113 -0.000708 0.035574 0.042556 0.0798 -0.005465 -0.154439 -0.001035 0.001141 -0.274672 -0.017612 0.024871 0.004133 0.208908 -0.162456 0.155453 -0.239762 0.174751 -0.200003 0.084095 -0.003742 -0.031431 0.000316 -0.151456 -0.21015 -0.31556 0.29611
89 0.0 0.0 -0.0 -0.0 0.0 -0.0 0.0 0.0 0.0 0.0 -0.0 -0.0 0.0 -0.0 0.0 0.007025 0.0 -0.0 -0.0 -0.0 0.0 0.0 0.508728 -0.0 -0.105201 0.0 -0.0 0.0 0.0 -0.0 -0.0 -0.133958 0.0 -0.0 0.116255 -0.0 -0.0 -0.0 -0.0 0.0 0.0 -0.0 0.0 0.0 -0.038913 -0.0 0.0 -0.0 0.0 -0.221154 0.0 0.0 -0.0 0.0 0.0 0.0 0.0 0.181654 0.0 0.0 0.0 -0.0 0.0 0.0 0.0 -0.0 -0.0 -0.012142 -0.0 0.0 0.0 0.0 -0.0 -0.0 0.0 0.0 0.0 -0.0 0.0 -0.0 -0.0 -0.009514 0.0 0.0 0.0 -0.0 -0.0 -0.0 0.0 0.0 -0.0 -0.0 -0.02198 0.0 -0.0 0.0 -0.0 -0.0 -0.0 -0.0 0.0 0.0 -0.0 0.053561 0.0 -0.0 -0.0 0.0 -0.0 0.0 0.0 0.0 0.4263 -0.0 0.0 0.0 -0.0 0.0 -0.0 0.0 0.611185 -0.0 0.0 -0.0 0.0 -0.237339 -0.0 0.0
90 -0.001875 -0.001664 0.001701 0.014333 -0.002345 0.002033 0.001545 0.001542 0.000879 -0.026311 0.000286 -0.003413 -0.00294 0.001716 -0.006418 0.000402 -0.003367 0.000739 -0.00357 0.011761 -8.7e-05 -0.000221 0.006683 -0.016599 0.00419 -0.010348 0.001869 1.4e-05 0.015607 -0.001769 0.009961 0.000654 -0.004977 -0.250241 0.000371 0.006785 0.000511 -0.050341 0.24247 0.00418 0.076529 -0.016624 0.027328 -0.033234 -0.005819 -0.008934 -0.000557 4.3e-05 0.007126 0.007128 -0.000513 0.035328 0.003837 -0.103637 0.001751 0.000526 0.131728 -0.015806 0.00267 0.000226 -0.000614 0.003957 -0.157499 0.000608 -0.006479 0.006143 0.001593 -0.020126 -0.002688 -0.02394 -0.001971 0.028633 -0.008309 0.002408 0.016889 0.001142 0.039463 0.110177 -0.004689 -0.071387 0.044714 0.003163 -0.01459 0.030521 -0.101995 0.007336 -0.012361 0.057161 -0.006698 0.005473 -0.11483 0.005929 -0.018722 0.000875 -0.001095 -0.006728 0.004642 0.014292 -0.017588 0.016584 -0.011965 -0.010212 0.00738 0.010626 0.015236 0.049963 -0.003098 -0.045303 -0.000915 0.002451 -0.078961 -0.271908 0.005455 0.008058 0.01694 -0.089052 0.625476 0.006479 0.150078 -0.367304 0.021811 -0.00129 0.045271 0.011944 -0.043084 -0.060501 -0.317395 0.0864
91 0.0 -1.7e-05 -0.0 -9.6e-05 0.0 -0.0 3.1e-05 -0.0 0.0 0.000316 -0.0 7.5e-05 0.0 -0.0 0.0 0.0 0.0 -0.0 -0.0 0.000262 -0.0 0.00079 0.0 0.0 0.0 -0.001971 -0.0 0.0 0.001251 0.0 -0.003902 0.0 0.0 -0.624661 -0.0 -0.0 0.0 0.028306 -0.072346 -0.0 -0.01325 0.0 0.069886 -0.059869 -0.0 0.0 -2e-06 -0.0 0.0 0.0 1.3e-05 0.030982 -0.0 -0.064742 -2.2e-05 1.8e-05 0.100428 -0.0 -0.0 -8.9e-05 0.000387 0.002364 -0.093081 -0.0 0.000619 -0.000322 0.005613 -0.0 -0.00058 -0.0 -0.0 0.004018 0.000629 -0.0 -0.0 -0.0 -0.002515 -0.006715 0.0 0.004011 -0.002953 0.0 -0.0 -0.0 0.006851 -0.0 0.0 -0.0 -0.0 0.001074 0.005289 -0.0 0.0 0.001937 0.0 -0.0 -0.001875 -0.0 0.002605 -0.001629 0.0 -0.000356 0.000578 0.0 0.0 -0.024922 0.001377 0.0 0.0 0.000319 0.0 0.055985 -0.0 -0.001514 0.0 0.567899 0.455464 -0.0 -0.0 -0.190515 0.0 -0.0 0.022677 0.0 -0.0 -0.0 -0.021106 0.0
92 -0.0 0.0 0.0 0.0 -0.0 0.0 -0.0 0.0 -0.0 -0.0 -0.0 0.0 -0.0 0.0 -0.0 0.0 -0.0 -0.0 0.0 -0.0 0.0 -0.0 0.0 -0.0 0.0 -0.0 -0.0 -0.0 -0.0 0.0 0.0 0.0 -0.0 -0.0 0.0 -0.0 0.0 -0.0 0.0 -0.0 0.0 0.0 0.0 0.0 0.0 -0.221743 0.0 -0.000216 0.0 0.0 -0.0 0.0 0.0 0.0 0.0 0.0 -0.0 -0.0 0.0 0.0 0.0 0.0 0.0 -0.0 0.0 -0.0 -0.0 -0.0 -0.0 1e-06 0.0 0.0 -0.0 0.008805 0.277103 0.006829 -0.0 -0.0 -1e-06 0.0 0.0 -1e-06 -0.032379 0.058393 0.0 -0.0 -0.019983 0.117886 -1e-06 0.0 -0.0 0.005266 -0.0 -0.0 -0.0 -0.0 -0.0 -0.0 -0.0 -0.0 -0.0 -0.0 0.0 -0.0 0.0 0.0 -0.0 0.0 0.001453 -0.0 -0.924735 -0.0 0.0 0.0 0.0 0.0 0.0 -0.0 0.0 -0.0 0.0 -0.0 0.0 -0.0 -0.0 -0.0 -0.0 0.0
93 -0.0 0.0 0.0 0.0 -0.0 0.0 -0.0 0.0 -0.0 -0.0 -0.0 0.0 -0.0 0.0 -0.0 0.0 -0.0 -0.0 0.0 -0.0 -0.0 -0.0 0.0 -0.0 0.0 -0.0 -0.0 -0.0 -0.0 0.0 0.0 -0.0 -0.0 -0.0 -0.0 -0.0 0.0 -0.0 0.0 -0.0 0.0 -0.0 0.0 0.0 -0.0 -0.134315 0.0 0.000537 0.0 0.0 -0.0 0.0 0.0 -0.0 0.0 0.0 -0.0 -0.0 0.0 0.0 0.0 0.0 0.0 0.0 0.0 -0.0 -0.0 -0.0 -0.0 1e-06 0.0 0.0 -0.0 0.004742 0.196591 0.011629 -0.0 -0.0 -2e-06 0.0 0.0 -2e-06 -0.090318 0.190113 -0.0 0.0 0.403013 0.252526 -1e-06 0.0 -0.0 0.011146 -0.0 -0.0 -0.0 -0.0 -0.0 -0.0 -0.0 -0.0 -0.0 -0.0 0.0 0.0 0.0 0.0 -0.0 0.0 -0.003135 0.0 -0.820079 -0.0 0.0 0.0 0.0 0.0 0.0 -0.0 0.0 -0.0 0.0 -0.0 0.0 -0.0 -0.0 -0.0 -0.0 0.0
94 0.0 0.0 -0.0 -0.0 0.0 0.0 0.0 -0.0 0.0 0.0 -0.0 -0.0 0.0 -0.0 0.0 -0.040834 0.0 -0.0 -0.0 -0.0 0.0 0.0 0.205982 0.0 0.365025 -0.0 -0.0 -0.0 0.0 -0.0 0.0 0.315953 0.0 0.0 -0.022593 -0.0 -0.0 0.0 -0.0 0.0 0.0 -0.0 0.0 -0.0 0.537646 0.0 -0.0 0.0 -0.0 0.294791 -0.0 -0.0 0.0 -0.0 -0.0 -0.0 -0.0 -0.109144 -0.0 -0.0 -0.0 0.0 -0.0 -0.0 -0.0 0.0 -0.0 -0.065307 0.0 -0.0 -0.0 -0.0 0.0 0.0 -0.0 -0.0 -0.0 0.0 -0.0 0.0 -0.0 -0.009086 0.0 0.0 -0.0 0.0 -0.0 -0.0 -0.0 -0.0 0.0 0.0 0.148974 -0.0 0.0 0.0 0.0 -0.0 -0.0 0.0 -0.0 -0.0 0.0 -0.098879 -0.0 -0.0 0.0 0.0 0.0 -0.0 -0.0 -0.0 -0.189051 -0.0 -0.0 0.0 -0.0 0.0 -0.0 0.0 0.210921 -0.0 -0.0 0.0 0.0 -0.466798 -0.0 0.0
95 0.0 0.0 0.0 0.0 0.0 -0.0 -0.0 -0.0 0.0 -0.0 0.0 0.0 0.0 -0.0 0.0 -0.0 -0.0 -0.0 -0.0 -0.0 -0.0 -0.0 -0.0 0.0 -0.0 -0.0 -0.0 0.0 0.0 -0.0 -0.0 -0.0 -0.0 0.0 0.0 -0.0 -0.0 -0.0 2e-06 -0.0 -4e-06 0.0 6e-06 -0.0 0.0 0.0 0.026451 -0.0 0.0 -0.0 0.014433 -0.000215 -1e-06 -0.000203 0.464466 -0.320169 1.2e-05 0.0 0.0 0.027071 -0.049172 0.094468 0.001946 0.0 -0.049005 0.035221 0.041979 -0.0 0.464615 0.0 0.0 0.011036 0.00433 -0.0 0.0 -1e-06 -0.054224 0.023739 -0.0 0.006068 0.034191 -0.0 0.0 0.0 0.019245 -0.0 0.0 0.0 0.0 0.001296 -0.005309 -0.0 -0.0 -0.04188 0.0 0.0 -0.028345 -0.0 0.051094 0.030457 1.2e-05 -0.347641 -0.462208 -0.0 -0.0 -0.003944 -0.050703 -0.0 0.0 0.295516 -0.0 0.001469 -0.0 0.108397 -0.0 9.9e-05 -4e-06 -0.0 0.0 -1.6e-05 0.0 -0.0 3e-06 0.0 -0.0 -0.0 -0.0 0.0
96 -0.0 0.0 0.0 0.0 -0.0 0.0 -0.0 0.0 -0.0 -0.0 -0.0 0.0 -0.0 0.0 -0.0 0.0 -0.0 0.0 0.0 -0.0 -0.0 -0.0 0.0 0.0 0.0 -0.0 -0.0 -0.0 -0.0 0.0 -0.0 0.0 -0.0 -0.0 0.0 -0.0 0.0 -0.0 0.0 -0.0 0.0 -0.0 0.0 0.0 -0.0 0.084568 0.0 -0.000161 0.0 0.0 -0.0 0.0 0.0 -0.0 0.0 -0.0 -0.0 -0.0 -0.0 0.0 0.0 0.0 0.0 -0.0 0.0 -0.0 0.0 -0.0 -0.0 -0.0 0.0 0.0 -0.0 0.006088 0.14347 -0.001576 0.0 0.0 0.0 -0.0 -0.0 0.0 0.016199 -0.027256 0.0 0.0 0.011606 -0.050183 0.0 -0.0 0.0 -0.002347 0.0 0.0 0.0 0.0 0.0 0.0 0.0 0.0 0.0 0.0 -0.0 -0.0 -0.0 -0.0 0.0 0.0 0.002365 -0.0 -0.984152 -0.0 0.0 0.0 0.0 -0.0 0.0 -0.0 0.0 -0.0 0.0 -0.0 -0.0 -0.0 -0.0 -0.0 -0.0 0.0
97 -0.0 0.0 0.0 0.0 -0.0 0.0 -0.0 0.0 0.0 -0.0 -0.0 0.0 0.0 0.0 0.0 0.0 0.0 0.0 -0.0 -0.0 0.0 0.0 -0.0 0.0 -0.0 0.0 0.0 0.0 0.0 0.0 -0.0 0.0 0.0 0.0 0.0 0.0 -0.0 0.0 -0.0 0.0 -0.0 0.0 -0.0 -0.0 0.0 -0.56397 -0.0 -0.000462 -0.0 0.0 0.0 0.0 -0.0 -0.0 0.0 -0.0 -0.0 -0.0 -0.0 -0.0 -0.0 -0.0 0.0 -0.0 0.0 0.0 0.0 -0.0 -0.0 -0.0 -0.0 0.0 -0.0 0.014628 0.335762 -0.005171 0.0 0.0 1e-06 -0.0 -0.0 1e-06 0.046653 -0.078816 0.0 0.0 0.031016 -0.144917 1e-06 -0.0 0.0 -0.006223 0.0 0.0 0.0 0.0 0.0 0.0 0.0 0.0 0.0 0.0 -0.0 -0.0 -0.0 -0.0 0.0 0.0 0.002535 -0.0 -0.733869 -0.0 0.0 0.0 0.0 -0.0 0.0 -0.0 0.0 -0.0 0.0 -0.0 -0.0 -0.0 -0.0 -0.0 -0.0 0.0
98 -0.006637 -0.000647 0.009493 0.004539 -0.008046 0.005802 0.000293 0.006675 -0.003058 -0.007563 0.002019 -0.000967 -0.007243 0.005633 -0.020825 0.005838 -0.007356 0.006425 0.012648 0.005113 -0.008459 -0.001944 0.025354 -0.02022 0.0134 -0.004431 -0.018426 2e-05 0.011781 -0.012219 -0.015283 0.004356 0.002789 -0.002714 0.002311 -0.0876 0.000452 -0.001244 0.006155 0.110075 0.006509 -0.139194 0.027647 -0.005014 -0.021281 -0.024374 7.4e-05 -0.001174 0.205973 0.015273 0.000213 -0.003481 -0.165848 -0.010942 0.000822 -0.000396 -0.026487 -0.073034 0.003405 -2.1e-05 -0.002511 0.000347 -0.018484 -0.003292 -0.000864 0.001718 -0.003051 -0.077825 -5.6e-05 -0.09115 0.002574 0.014302 -0.012754 -0.01263 -0.407156 0.001826 0.053664 0.144543 -0.018137 -0.093831 0.062545 0.015728 -0.049923 0.086014 -0.14492 0.026155 -0.034159 0.16371 0.014504 -0.003159 -0.145916 0.013486 -0.085143 -0.01119 0.031798 -0.021764 0.010015 0.184475 -0.024988 0.015179 -0.39582 -0.009171 0.004436 0.058148 0.044447 0.065718 -0.004851 -0.110223 -0.002377 0.000693 -0.308411 -0.042411 0.007943 0.003927 -0.020559 -0.032261 0.043626 -0.227178 0.175371 -0.072474 0.084878 -0.001188 0.007722 0.008659 -0.148508 -0.212174 -0.088243 0.295184
99 -0.007339 0.001264 0.008905 0.012969 -0.00818 0.005047 0.001292 0.006101 -0.004296 -0.01657 0.001278 -0.011159 -0.006675 0.007928 -0.024573 0.004759 -0.009383 0.009896 0.014619 -0.010939 -0.009114 0.002064 0.025806 -0.033248 0.014824 -0.004668 -0.022941 -2.2e-05 -0.012951 -0.045109 -0.011272 0.00065 0.042437 -0.003557 0.001314 0.123466 0.001539 0.014226 0.090817 0.269892 0.024024 0.053218 0.050824 -0.385627 -0.024685 -0.023132 0.000126 -0.000141 -0.023609 0.02237 0.000213 0.057998 0.022885 -0.134294 0.002013 -0.001239 -0.279648 -0.052377 0.006187 -0.000124 -0.001028 0.003858 -0.116903 0.001211 -0.000247 0.001664 -0.004015 -0.07008 0.001441 -0.014072 -0.001932 -0.001073 -0.001925 0.004518 0.003295 -0.001192 0.009038 0.026125 -0.002149 -0.015656 0.011161 0.011173 -0.014614 0.026856 -0.02717 0.026174 -0.011798 0.054342 0.00019 -0.002236 -0.023503 0.009432 -0.070862 -0.004879 0.002836 -0.019565 0.003067 0.048218 -0.007038 0.002378 -0.091682 -0.003689 -0.000961 0.035814 0.043759 0.079623 -0.00542 -0.155606 -0.000957 0.001138 -0.255087 -0.015125 0.02572 0.004073 0.214334 -0.165545 0.157646 -0.238778 0.175751 -0.198827 0.084482 -0.003866 -0.031368 0.000242 -0.151443 -0.213602 -0.317458 0.299066
100 -0.0 0.0 0.0 0.0 -0.0 0.0 -0.0 0.0 -0.0 -0.0 -0.0 0.0 0.0 -0.0 0.0 -0.0 0.0 -0.0 -0.0 -0.0 -0.0 0.0 -0.0 0.0 -0.0 0.0 0.0 0.0 0.0 0.0 -0.0 0.0 0.0 0.0 0.0 0.0 -0.0 0.0 -0.0 0.0 -0.0 0.0 -0.0 -0.0 0.0 -0.582694 -0.0 -0.000474 -0.0 0.0 0.0 0.0 -0.0 -0.0 0.0 -0.0 -0.0 -0.0 -0.0 -0.0 -0.0 -0.0 0.0 -0.0 0.0 0.0 0.0 -0.0 -0.0 -0.0 -0.0 0.0 -0.0 0.014663 0.336563 -0.005177 0.0 0.0 1e-06 -0.0 -0.0 1e-06 0.046697 -0.078882 0.0 0.0 0.031039 -0.144991 1e-06 -0.0 0.0 -0.006217 0.0 0.0 0.0 0.0 0.0 0.0 0.0 0.0 0.0 0.0 -0.0 -0.0 -0.0 -0.0 0.0 0.0 0.002492 -0.0 -0.718691 -0.0 0.0 0.0 0.0 -0.0 0.0 -0.0 0.0 -0.0 0.0 -0.0 0.0 -0.0 -0.0 -0.0 -0.0 0.0
101 -0.0 0.0 -0.0 0.0 -0.0 0.0 -0.0 0.0 -0.0 0.0 -0.0 0.0 -0.0 0.0 -0.0 0.0 -0.0 0.0 0.0 -0.0 -0.0 -0.0 0.0 -0.0 0.0 -0.0 0.0 -0.0 0.0 -0.0 0.0 0.0 0.0 -0.0 -0.0 0.0 0.0 0.0 0.0 0.0 0.0 -0.0 -0.0 0.0 -0.0 -0.007401 -0.0 -0.012454 -0.0 0.0 0.0 -0.0 -0.0 -0.0 0.0 -0.0 -0.0 0.0 0.0 0.0 0.0 0.0 0.0 0.0 0.0 0.0 0.0 0.0 0.0 9e-06 1e-06 0.0 1e-06 0.56234 -0.040326 0.007485 -1e-06 -1e-06 0.0 0.0 0.0 -2e-06 -0.068598 0.010615 -0.0 -0.0 -0.007986 -0.00221 6e-06 -0.0 -0.0 0.819435 -0.0 -5e-06 -5e-06 -0.0 -5e-06 -6e-06 -3e-06 -3e-06 -1e-06 -3e-06 2e-06 0.0 0.0 0.0 -0.0 -0.0 -0.072344 0.0 -0.016937 -0.0 -0.0 0.0 1e-06 -0.0 0.0 -1e-06 0.0 -0.0 0.0 -0.0 0.0 -0.0 -0.0 -0.0 -0.0 0.0
102 -0.032481 -0.0 -0.00234 0.0 -0.212406 -0.193451 -0.0 -0.078472 0.141977 -0.0 -0.096256 -0.0 0.161281 0.142528 -0.034622 0.0 0.148206 -0.237489 -0.240776 -0.0 -0.082874 0.0 0.0 0.209032 -0.0 0.0 0.021857 -0.0 -0.0 0.029666 0.0 -0.0 -0.002785 0.0 0.0 -0.143919 -0.0 -0.0 -0.0 0.052331 0.0 0.112582 -0.0 0.0 0.0 0.0 -0.0 -0.0 -0.056864 -0.0 0.0 0.0 0.018638 -0.0 0.0 -0.0 -0.0 0.0 -0.0 0.0 -0.0 0.0 0.0 0.0 -0.0 -0.0 -0.0 -0.0 -0.0 0.028647 0.001249 0.0 0.0 -0.0 -0.0 -1e-06 -0.0 0.0 0.001482 -0.0 -0.0 -0.0 -0.0 0.0 -0.0 0.0 0.0 -0.0 -0.001148 0.0 0.0 -1e-06 -0.0 0.0 -0.005426 -0.0 -0.0 -0.120542 -0.0 -0.0 -0.06673 -2e-06 -0.0 0.0 0.0 -0.0 -0.0 -0.083298 -0.0 0.0 -0.0 -0.0 -0.0 -0.0 -0.050947 -0.0 0.0 0.075554 -0.10687 0.0 -0.0 0.0 -0.0 0.272987 -0.076499 0.0 0.0 0.691697
103 -0.004264 -0.00113 0.006457 0.010159 -0.005041 0.003444 0.000421 0.00414 -0.002126 -0.016451 0.001502 -0.002062 -0.004868 0.003468 -0.013225 0.003421 -0.005244 0.004294 0.008532 0.011144 -0.005751 -0.004703 0.015516 -0.012625 0.009072 -0.007772 -0.010755 3.2e-05 0.019134 -0.008105 -0.025578 0.002182 0.001258 -0.005348 0.000713 -0.035052 0.00101 -0.001381 0.012556 0.048666 0.012961 -0.067108 0.049227 -0.009074 -0.010399 0.00258 2.1e-05 -0.000551 0.07579 0.010887 0.000196 0.000932 -0.072841 -0.032527 0.000401 -0.000212 -0.060249 -0.034787 0.004073 -3.3e-05 -0.001187 0.000608 -0.028801 0.000587 -0.00072 0.001215 -0.00461 -0.051151 0.000153 -0.051664 0.000629 0.017725 -0.017289 -0.020792 -0.561205 0.004742 0.070755 0.188433 -0.007866 -0.12146 0.080845 0.007823 -0.066665 0.113455 -0.185803 0.01732 -0.04458 0.211496 0.006581 -0.003131 -0.184795 0.013017 -0.048448 -0.014419 0.014426 -0.012896 0.013852 0.083836 -0.031503 0.020512 -0.171505 -0.009176 0.004522 0.024196 0.028995 0.066649 -0.004599 -0.065208 -0.001169 -0.00016 -0.509123 -0.064878 0.010945 0.003043 0.014042 -0.056303 0.07291 -0.113317 0.099491 -0.117955 0.04895 -0.002643 0.010061 0.004407 -0.085331 -0.133243 -0.177676 0.180333
104 -0.0 0.0 -0.0 0.0 -0.0 0.0 -0.0 0.0 -0.0 -0.0 -0.0 0.0 -0.0 0.0 -0.0 0.0 -0.0 0.0 0.0 -0.0 -0.0 -0.0 0.0 -0.0 0.0 -0.0 -0.0 -0.0 0.0 -0.0 0.0 0.0 0.0 -0.0 -0.0 0.0 0.0 0.0 0.0 0.0 0.0 -0.0 0.0 0.0 -0.0 -0.006713 -0.0 -0.005581 -0.0 0.0 -0.0 0.0 0.0 0.0 -0.0 -0.0 0.0 -0.0 -0.0 0.0 0.0 0.0 0.0 0.0 0.0 0.0 -0.0 0.0 0.0 3e-06 0.0 -0.0 -0.0 0.004616 0.309284 0.035671 -1e-06 -0.0 -5e-06 0.0 1e-06 -6e-06 -0.226683 0.397239 0.0 -0.0 -0.176749 0.806632 -4e-06 0.0 -0.0 0.041033 -0.0 -0.0 -0.0 -0.0 -0.0 -1e-06 -0.0 -0.0 -0.0 -0.0 0.0 0.0 0.0 0.0 -0.0 -0.0 -0.018149 0.0 -0.099406 -0.0 0.0 0.0 0.0 -0.0 0.0 -0.0 0.0 -0.0 0.0 -0.0 0.0 -0.0 -0.0 -0.0 -0.0 0.0
105 -0.002823 0.002052 0.003272 0.016292 -0.003152 0.00201 0.002274 0.002376 -0.001628 -0.020314 0.000439 -0.016277 -0.002636 0.003041 -0.009466 0.001618 -0.003522 0.003679 0.005555 -0.019262 -0.003153 0.005012 0.008836 -0.013444 0.004978 -0.004847 -0.008436 -5e-06 -0.019961 -0.017171 -0.018377 0.000257 0.016615 -0.003555 0.000496 0.047508 0.000512 0.021589 0.128477 0.106209 0.030989 0.013826 0.061958 -0.560816 -0.008652 -0.008411 0.000176 -5.3e-05 -0.013507 0.007793 0.000281 0.082823 0.009993 -0.18731 0.002401 -0.0015 -0.394027 -0.018255 0.002119 -0.000151 -0.000963 0.005304 -0.161541 0.000344 -0.000189 0.002168 -0.005747 -0.023919 0.001857 -0.005459 -0.000886 -0.001919 -0.002594 0.002305 -0.004286 -0.00096 0.012036 0.03439 -0.000969 -0.020232 0.01463 0.003858 -0.00595 0.010725 -0.035761 0.008959 -0.004645 0.021349 8.1e-05 -0.003327 -0.030826 0.004668 -0.024372 -0.006788 0.000946 -0.006467 0.004742 0.017884 -0.010058 0.004398 -0.036963 -0.004863 -0.00098 0.012395 0.014693 0.102964 -0.007088 -0.060373 -0.000414 0.001142 -0.08987 -0.011089 0.00852 0.005259 0.080545 -0.219463 0.207095 -0.094017 0.06821 -0.276305 0.029065 -0.00129 -0.046229 0.000441 -0.05913 -0.072375 -0.423212 0.115057
106 0.0 0.0 0.0 0.0 0.0 -0.0 -0.0 -0.0 0.0 -0.0 0.0 0.0 0.0 -0.0 0.0 0.0 0.0 0.0 -0.0 -0.0 -0.0 0.0 0.0 0.0 0.0 -0.0 -0.0 -0.0 1e-06 -0.0 -1e-06 0.0 -0.0 1e-06 0.0 -0.0 0.0 -6e-06 1.2e-05 -0.0 -0.0 0.0 5.6e-05 -1.2e-05 -0.0 -0.0 0.262812 0.0 -0.0 0.0 -0.62954 0.000503 -0.0 0.000225 -0.005975 0.003027 -0.000198 0.0 0.0 0.192526 -0.031331 0.179478 0.00454 0.0 -0.057748 0.043088 0.028039 -0.0 -0.027387 -0.0 0.0 -0.045136 -0.048405 0.0 -0.0 -0.0 -0.006984 0.010444 -0.0 0.044226 0.013643 -0.0 0.0 -0.0 -0.027177 0.0 -0.0 -0.0 -0.0 0.024931 0.003921 1e-06 0.0 0.146789 2e-06 0.0 0.021724 0.0 -0.08985 -0.076298 -2e-06 0.067966 -0.085972 -0.0 0.0 -0.037159 -0.415187 0.0 -0.0 -0.260489 0.0 0.000886 0.0 0.399949 -0.0 0.000751 -9.4e-05 -0.0 0.0 -0.000202 0.0 -0.0 3.2e-05 0.0 -0.0 -0.0 -4e-06 0.0
107 -0.001828 -0.000515 0.002743 0.003764 -0.002234 0.001517 0.000213 0.00182 -0.000891 -0.00612 0.000612 -0.000652 -0.001991 0.001553 -0.005795 0.019621 -0.002054 0.001958 0.003603 0.004576 -0.002517 -0.001969 0.080177 -0.005217 0.04465 -0.003134 -0.005109 1.6e-05 0.007569 -0.003522 -0.010695 0.014071 0.001183 -0.001769 0.011532 -0.024121 0.000375 0.000215 0.001891 0.029397 0.008072 -0.037703 0.019466 -0.005716 -0.063409 -0.023898 0.0001 -0.000897 0.052635 0.051641 0.000175 0.002306 -0.040565 -0.009408 0.000505 -0.000198 -0.019092 -0.182057 -0.00038 -6.5e-05 -0.001519 0.000197 -0.01083 -0.002356 -0.000936 0.001186 -0.001456 -0.260937 -0.000192 -0.025457 0.000564 0.008374 -0.006734 -0.009641 -0.309543 0.000743 0.03096 0.08358 -0.004367 -0.054252 0.035992 0.041141 -0.035904 0.061725 -0.083274 0.007803 -0.024074 0.114005 0.003032 -0.001307 -0.084191 0.009325 -0.269747 -0.005803 0.007966 -0.00785 0.00551 0.048001 -0.01449 0.00953 -0.100501 -0.005625 0.002952 0.131027 0.01443 0.040381 -0.002853 -0.029714 -0.001693 0.000557 -0.231154 -0.036464 0.024051 0.002511 -0.002132 -0.032679 0.040438 -0.059181 0.046956 -0.055861 0.271029 -0.000987 0.005428 0.00215 -0.04008 -0.686206 -0.072229 0.080604
108 -0.006637 -0.000647 0.009493 0.004539 -0.008046 0.005802 0.000293 0.006675 -0.003058 -0.007563 0.002019 -0.000967 -0.007243 0.005633 -0.020825 0.005838 -0.007356 0.006425 0.012648 0.005113 -0.008459 -0.001944 0.025354 -0.02022 0.0134 -0.004431 -0.018426 2e-05 0.011781 -0.012219 -0.015283 0.004356 0.002789 -0.002714 0.002311 -0.0876 0.000452 -0.001244 0.006155 0.110075 0.006509 -0.139194 0.027647 -0.005014 -0.021281 -0.024374 7.4e-05 -0.001174 0.205973 0.015273 0.000213 -0.003481 -0.165848 -0.010942 0.000822 -0.000396 -0.026487 -0.073034 0.003405 -2.1e-05 -0.002511 0.000347 -0.018484 -0.003292 -0.000864 0.001718 -0.003051 -0.077825 -5.6e-05 -0.09115 0.002574 0.014302 -0.012754 -0.01263 -0.407156 0.001826 0.053664 0.144543 -0.018137 -0.093831 0.062545 0.015728 -0.049923 0.086014 -0.14492 0.026155 -0.034159 0.16371 0.014504 -0.003159 -0.145916 0.013486 -0.085143 -0.01119 0.031798 -0.021764 0.010015 0.184475 -0.024988 0.015179 -0.39582 -0.009171 0.004436 0.058148 0.044447 0.065718 -0.004851 -0.110223 -0.002377 0.000693 -0.308411 -0.042411 0.007943 0.003927 -0.020559 -0.032261 0.043626 -0.227178 0.175371 -0.072474 0.084878 -0.001188 0.007722 0.008659 -0.148508 -0.212174 -0.088243 0.295184
109 9.8e-05 0.0 -8.6e-05 -0.0 0.000274 -0.000495 -0.0 -0.000398 4.3e-05 0.0 0.000117 0.0 0.000978 0.000166 0.000926 -0.0 0.001785 0.001175 -0.00104 -0.0 -0.000721 -0.0 -0.0 0.005617 0.0 0.0 -5.2e-05 -0.0 -0.0 0.040929 -0.0 -0.0 0.173508 0.0 -0.0 0.07213 0.0 0.0 0.0 -0.1732 0.0 0.114008 -0.0 0.0 0.0 -0.0 -0.0 -0.0 -0.080714 -0.0 -0.0 0.0 0.744499 -0.0 1e-06 -0.0 0.0 0.0 -0.0 0.0 -0.0 0.0 0.0 0.0 -0.0 0.0 0.0 0.0 0.0 -0.106761 -0.017408 -0.0 -0.0 1e-06 0.0 3e-06 -0.0 0.0 0.011808 -0.0 -0.0 -0.0 -0.0 -0.0 -0.0 -0.0 -0.0 0.0 -0.010153 0.0 -0.0 1e-06 0.0 0.0 0.000408 0.0 0.0 0.107717 0.0 -0.0 -0.251335 -8e-06 -1e-06 0.0 0.0 0.0 -0.0 0.135933 -0.0 0.0 -0.0 0.0 0.0 -0.0 -0.368858 0.0 -0.0 -0.326167 0.090229 -0.0 0.0 -0.0 0.0 0.006862 -0.039432 -0.0 -0.0 0.042529
