70 128
38 -0.53525805 -0.242126 -0.011421112 0.09307506 0.14259613 0.05318521 0.014606104 -0.20914295 0.42104384 -0.2849606 0.09347692 0.10342317 0.28977418 0.055016987 -0.38541117 -0.2670063 -0.04402089 -0.122787744 -0.07547079 0.18122089 0.12581168 -0.22069459 0.55468976 0.38856572 -0.037363317 0.3348016 -0.10770743 0.005244356 -0.06783895 -0.17693277 -0.006647076 -0.036551755 0.1216378 -0.03276777 0.026624868 -0.3527967 -0.21769714 0.1732376 0.10614893 -0.24206954 -0.17940286 -0.26275405 0.16762619 0.083457574 -0.1627015 0.28041905 0.28382805 -0.06066172 0.4109804 0.062832676 -0.45996252 -0.0738599 -0.35855561 -0.26264867 -0.24622291 -0.083445504 0.050492838 -0.19700544 -0.08916588 0.20416442 -0.28266698 -0.057973254 -0.079814285 0.047542118 -0.20643568 0.17573585 0.118404865 0.2657039 0.00038787574 0.063236095 -0.38974178 -0.07336418 -0.1863426 -0.38409784 -0.053790726 -0.07673316 0.45067477 0.022678193 -0.20073037 -0.2259057 -0.057152882 0.15054856 0.009993489 -0.19393171 -0.4391594 -0.07548834 0.41134554 -0.08788781 -0.33606678 0.013526921 -0.24361092 -0.45372778 0.15229358 0.24867083 -0.053436533 -0.06619385 0.11366263 0.02015944 0.14341708 0.37676615 0.0009490673 0.08829803 -0.2661844 -0.2727148 0.3446225 -0.12365222 -0.008224464 -0.043065544 -0.2513714 -0.036546636 0.08445317 0.25103757 0.041436385 -0.21307632 -0.09062926 -0.35841203 0.014217354 -0.0043906863 -0.32450128 -0.10193783 0.13692324 -0.08223154 0.16773993 -0.06268248 -0.20709066 0.29491323 -0.53887874 0.034656014
39 -0.4471463 -0.13516872 -0.08677678 0.050395783 0.095833085 0.13584113 0.027239032 -0.14334403 0.42100888 -0.22657289 0.047497924 0.1714315 0.21757735 0.09101603 -0.3195237 -0.22662374 -0.16543524 -0.08679651 -0.17508812 0.190042 0.20130156 -0.17207818 0.60268664 0.29724038 -0.09077069 0.34920576 -0.12849882 0.018404262 -0.07726301 -0.24958368 -0.021563435 -0.08496353 0.113375366 -0.12595424 0.08470242 -0.30005997 -0.23990153 0.2242346 0.09379934 -0.2655245 -0.20079352 -0.114176966 0.19879614 -0.010866852 -0.14313442 0.2769597 0.2996915 -0.033425495 0.43300295 0.069662414 -0.511141 -0.06838455 -0.33832458 -0.17313634 -0.22350892 -0.07838853 0.034208793 -0.21883583 -0.07284117 0.16070648 -0.21439272 0.011380653 -0.05765665 -0.07013575 -0.26621965 0.17408553 0.077398494 0.29363757 0.00816088 0.072114795 -0.2980898 -0.052683692 -0.12498947 -0.4154354 0.08281255 -0.01038374 0.4192424 -0.041251678 -0.15500799 -0.184944 0.030387219 0.19557329 0.004169198 -0.16981763 -0.48292366 -0.11212693 0.3691259 -0.08082846 -0.2182896 0.036281087 -0.17437747 -0.39422026 0.12787065 0.27430364 -0.049696386 -0.047779765 0.16700086 -0.064865075 0.12124864 0.35082743 0.07451013 0.16390888 -0.36478195 -0.26932347 0.36881623 -0.043570995 0.039990794 0.0610535 -0.31883863 -0.08311104 0.05800205 0.23206642 0.026280012 -0.16784488 -0.15308942 -0.3085645 0.09980271 -0.099238746 -0.3334118 -0.19104834 0.13937114 -0.0005831754 0.17033643 -0.08432498 -0.10762556 0.27488226 -0.4866456 0.10950927
37 -0.60406905 -0.2067804 -0.1049066 0.15631172 0.22698407 0.15051928 0.0049119024 -0.30647513 0.36385268 -0.33682027 0.0627371 0.16831754 0.3219514 0.00978765 -0.5124355 -0.31225085 -0.055524394 -0.028907197 -0.12042655 0.29387143 0.18742535 -0.182725 0.6359592 0.41244787 -0.04612474 0.3268359 -0.08849284 -0.09596617 -0.12679562 -0.2767754 -0.08739965 -0.06517403 0.038033478 -0.045633864 0.022196252 -0.34282443 -0.2461133 0.18324761 0.13698867 -0.23847021 -0.2411268 -0.21206702 0.13768248 0.11378913 -0.1558525 0.19787608 0.2557473 -0.0127509115 0.4711002 0.051833767 -0.4639876 -0.10027262 -0.3113779 -0.13904244 -0.17302182 -0.14543025 -0.047663625 -0.22491166 -0.05515429 0.23503353 -0.31611282 0.03670012 -0.10555872 -0.009254748 -0.22590041 0.15862803 0.18407382 0.25813425 0.068094134 0.10108671 -0.3254725 -0.048948355 -0.15157083 -0.36739168 -0.03575207 -0.06229402 0.43087247 -0.016151171 -0.12502073 -0.16757767 0.0065464596 0.12100535 -0.0018287726 -0.19280152 -0.40439954 -0.0910768 0.32485777 -0.044925407 -0.2071204 0.0067740805 -0.23574114 -0.4139439 0.08929454 0.2596607 -0.05338858 -0.047533307 0.10867113 -0.012664821 0.11193069 0.2781917 -0.056247856 0.12540337 -0.21345457 -0.3305766 0.26563886 -0.014039842 -0.055008892 -0.015908616 -0.272044 -0.026682628 0.029083313 0.25019673 0.0804185 -0.15597977 -0.09878048 -0.3322758 0.037380714 -0.12591498 -0.25421125 -0.09071844 0.099004805 -0.04417966 0.13683951 -0.07204366 -0.16394787 0.31889752 -0.4425593 0.07163738
68 0.009538925 -0.099330485 0.038857933 0.031700987 -0.009940063 0.20517705 0.12652679 0.15557571 -0.0709673 -0.25650084 -0.16681166 -0.12694575 0.46750635 -0.15665893 -0.30382013 -0.18834637 -0.055333007 -0.13682082 -0.0059942557 -0.24295397 0.05009463 -0.07960977 0.3029053 0.09174914 -0.14692613 0.08881945 -0.32419124 -0.29449996 -0.1796516 0.084728405 0.07936325 -0.039725237 -0.0535568 -0.2431526 -0.056185886 -0.10086986 -0.037132245 0.24380714 -0.10723125 -0.11935096 -0.033723097 -0.009390344 0.128188 -0.14518693 -0.15987068 -0.3128024 0.1330986 -0.13918471 0.18694761 0.28591168 -0.16294935 -0.23866323 -0.21452944 0.0047388687 0.08793776 -0.2472957 -0.07607421 -0.1716941 0.29457423 -0.02026372 -0.024667332 0.10943443 0.03472702 -0.063044555 -0.1235555 0.084336266 0.03512168 0.11845104 -0.013961826 0.21131085 -0.25091276 0.12862502 -0.12713696 -0.22057018 0.11346976 -0.19047983 0.2739603 0.021512754 -0.09645279 -0.07973258 0.04875906 -0.03820432 -0.051554322 -0.14998287 0.23752175 0.41682103 0.2685104 -0.17155446 -0.20765328 0.047387525 -0.28970188 -0.15366997 -0.010602541 -0.08661737 0.005150597 0.04731931 0.12528542 -0.53782743 0.27550194 0.21783316 0.042842153 -0.31060362 0.15396595 0.1622026 0.07066258 -0.27282324 0.12280875 0.021114789 -0.005940736 0.06440936 -0.25451407 -0.11632124 -0.02221378 0.030585892 -0.19902489 -0.14593455 0.2892413 0.25047493 0.07899137 -0.007261074 0.31482178 0.3445245 0.10111462 -0.49716428 -0.20209827 0.60206383 0.18301317 -0.0610079
67 -0.043551713 -0.06790967 -0.009158794 0.08729311 0.105984055 0.20588285 -0.032956246 0.018051466 -0.087729506 -0.31648827 -0.14509566 -0.080678806 0.3559249 -0.2217213 -0.30413562 -0.20244005 0.016423075 -0.069519565 -0.03969592 -0.10462684 0.07737622 -0.10485308 0.25887227 0.0041440474 -0.08963562 0.055499062 -0.20362854 -0.27146232 -0.15277176 -0.10371637 0.019461775 -0.06268639 -0.10926721 -0.18822087 -0.12675972 -0.08444795 -0.08034502 0.19361436 -0.06809771 -0.063199654 -0.10709479 -0.0014585282 0.14743884 -0.07283719 -0.22081752 -0.29794344 0.11792462 -0.12132705 0.2131318 0.2166464 -0.18864085 -0.16483957 -0.23019263 -0.0039164876 0.10562391 -0.3866254 -0.11919417 -0.12882066 0.22312042 0.00081596395 -0.053631283 0.14637542 -0.003443087 -0.03100405 -0.1914826 0.06799895 0.06993944 0.071760185 -0.036718648 0.17210048 -0.1755947 0.1795162 -0.036443606 -0.20093246 0.089390755 -0.15199225 0.32072487 -0.013784853 -0.027206007 -0.08043784 0.08480335 -0.058893614 -0.11732285 -0.09719925 0.16321397 0.4302902 0.27709833 -0.21239437 -0.12125663 -0.03517375 -0.2490522 -0.18514863 -0.040094655 -0.09287913 -0.016113734 0.072020024 0.1677636 -0.5123059 0.28748837 0.13970232 -0.0023417084 -0.3643351 0.099972 0.13215531 0.09830453 -0.27263635 0.17211795 -0.050412826 -0.04432942 0.022679254 -0.35385984 -0.038581047 -0.066053174 0.06704609 -0.19099115 -0.10261552 0.33010322 0.13620248 0.098456495 -0.00091344997 0.29342395 0.3153754 0.037021156 -0.5890121 -0.26037043 0.67140305 0.16184677 -0.10734496
69 -0.10243832 -0.18951368 0.03573097 0.011218127 0.025710946 0.11135263 0.1430958 0.090788625 0.034195025 -0.3724836 -0.2237764 -0.14344557 0.41662043 -0.22306158 -0.3903331 -0.20021111 -0.024728602 -0.14816318 -0.09660599 -0.34162527 0.018681638 -0.10336784 0.27358842 -0.021407207 -0.11749229 0.05068474 -0.27179334 -0.27665585 -0.090050034 0.0013758184 0.05615317 0.042449195 -0.09000067 -0.23097987 -0.0002447651 -0.12978971 -0.047068298 0.26761174 -0.086241126 -0.050201956 0.025136167 -0.078007214 0.14192809 -0.106403396 -0.23920335 -0.26640382 0.2100199 -0.18711314 0.21474044 0.27283338 -0.1994436 -0.18284081 -0.22729662 -0.11213286 0.01089395 -0.25095356 -0.01825705 -0.16680464 0.20834497 -0.018588316 0.009198081 0.13511892 -0.0057125273 0.029548278 -0.15904461 0.11554684 0.07553409 0.1061287 -0.0148027055 0.15212688 -0.18308784 0.1118634 -0.18410732 -0.26602906 0.14087418 -0.1812566 0.29455844 -0.07916372 -0.05956964 -0.2129033 0.09868195 0.0024161541 -0.11672241 -0.14476477 0.17320698 0.27754492 0.22437432 -0.07293339 -0.23322816 0.079155214 -0.32306963 -0.1717822 0.05852264 0.0012824438 0.03312486 -0.032154318 0.1125202 -0.50288624 0.20435181 0.2613761 0.07638845 -0.27639076 0.12584193 0.23364717 0.11878741 -0.30645773 0.1802705 -0.009383499 -0.10925463 0.015272478 -0.3073835 -0.030801948 -0.053227916 0.085586354 -0.2036741 -0.10174443 0.3737124 0.255068 0.07923226 0.046497103 0.29403532 0.3630361 0.07789801 -0.39993054 -0.26037478 0.62518823 0.1607662 -0.048352536
27 -0.3047831 -0.43428013 -0.16082744 -0.2612322 -0.32539928 0.22992122 -0.12041089 -0.06442281 0.42478508 -0.061988614 0.3155649 0.13070919 0.13682209 0.10549342 -0.42227435 -0.27162907 -0.04379328 -0.22427501 0.16463001 -0.078807995 -0.062127415 -0.015721072 0.12110357 0.40913266 -0.17433576 0.34472615 -0.08267887 0.08523935 -0.00027262233 -0.1475236 -0.2358492 -0.2124394 0.13150229 -0.080167174 0.05983914 -0.35065034 -0.13439877 0.14342546 0.047353614 -0.093982354 -0.0852714 0.005877318 0.04000082 -0.10091371 -0.13312232 0.33789822 0.1526998 0.019492824 0.22484365 -0.07636915 -0.4806004 0.013645699 -0.16298199 -0.34598902 -0.27259952 -0.056644697 0.13922633 -0.17433651 -0.035736855 0.18225785 -0.21304578 -0.08446021 -0.06360117 -0.009519665 -0.37753102 -0.103532344 -0.055702817 0.39870092 -0.20053966 0.022586158 -0.447451 0.034243174 -0.14301041 -0.26835808 -0.057351 -0.0865678 0.4056425 0.0390682 -0.14806233 -0.17971864 -0.041672718 -0.007205643 0.085105956 -0.15534493 -0.13237706 0.22962308 0.21709976 -0.16220441 -0.250462 -0.006473447 -0.15497747 -0.3213301 -0.11510435 0.021891117 0.08783635 0.037478287 -0.008090808 -0.03309886 0.16488028 0.10530522 -0.13656792 0.010891173 -0.17954804 0.05003999 0.47389737 -0.027521653 0.1848138 -0.027459605 -0.27738556 0.09720254 0.13175628 0.09161395 -0.10070851 -0.18028983 -0.07273121 -0.2129727 0.23412 -0.074269556 -0.22718202 -0.12896702 0.2363064 0.22328493 0.075897165 -0.28176138 -0.04834739 0.45813015 -0.30543774 -0.15778702
23 0.06615593 0.020694537 -0.3537857 -0.4310274 0.15306307 -0.2623505 0.2437773 0.5707894 0.3086544 -0.0037557962 0.39610893 -0.3355673 0.16367185 0.014834796 -0.22158349 -0.19277506 0.051971644 -0.02857459 -0.14013329 -0.16196492 0.024464922 -0.08764758 0.20715812 0.38450253 -0.002774723 0.26151448 -0.25686365 0.16469496 -0.0515106 0.34022945 0.06417751 -0.027424818 -0.15330224 0.18630819 0.013935306 -0.18117546 -0.30146754 0.23479104 -0.054670207 -0.2799803 -0.21670681 -0.13832551 -0.04425284 0.04598101 -0.11718234 -0.28023848 0.110769846 0.023107218 0.09084755 0.13290042 -0.21704611 -0.020627333 -0.22645807 -0.38077295 -0.0003880167 -0.358642 0.17349721 -0.18230519 0.2645335 -0.23802996 -0.18321797 0.16655904 -0.25943774 0.20197329 0.024512371 0.067070015 0.09156172 0.23306182 0.1689264 0.4319842 -0.24004099 0.41557312 0.026255453 -0.3636354 -0.38030848 -0.27371398 0.20433623 0.1814853 -0.042040393 0.3761006 0.08273843 -0.036188148 -0.0630046 -0.09065808 0.14013056 0.40516385 0.39832857 -0.06898318 -0.4557532 0.09827481 -0.18894537 -0.06544533 -0.13160332 -0.28369042 -0.051623367 0.16770718 0.19205354 -0.083323576 0.25846425 0.26000723 -0.049982008 -0.12820514 -0.033080548 0.13324456 0.33517477 -0.25330776 0.2901055 -0.15248935 0.25813338 0.18027401 0.044727135 -0.18160005 -0.026862804 0.12402512 -0.03516991 -0.09459106 -0.06688178 0.24426231 0.22912535 -0.026578296 0.4609094 0.106783845 -0.020915015 -0.17073172 -0.25269994 0.39881065 -0.13619347 -0.18074064
29 -0.30942714 -0.38209036 -0.10003556 -0.121429324 -0.1798362 0.17284566 -0.00047518738 -0.16554374 0.55123025 -0.02887875 0.23373389 0.24933016 0.027996896 0.110883966 -0.41208455 -0.21586178 -0.10915194 -0.20070669 0.08486384 -0.061280858 -0.041625004 -0.03433867 0.16224243 0.30074802 -0.20554677 0.31484023 -0.0007640892 -0.042140875 0.04256759 -0.25573915 -0.26577747 -0.22952302 0.25560042 -0.0260721 0.1176785 -0.24362893 -0.18920338 0.19590075 0.16379085 -0.0799558 -0.031934224 0.010025302 0.050283298 -0.078041725 -0.103188775 0.32142064 0.25486466 -0.032370456 0.31274092 -0.04001197 -0.4991585 -0.0638859 -0.18307245 -0.2985389 -0.43051067 0.076673225 0.21951257 -0.16432922 -0.12784201 0.2013792 -0.12201988 -0.092266455 -0.13493691 0.0037684806 -0.26814917 0.021725241 -0.082359225 0.28010362 -0.14851461 0.010618915 -0.49976707 -0.047778055 -0.1318782 -0.24823903 0.05427917 -4.1092484e-05 0.46989414 0.031971548 -0.22330295 -0.14225042 -0.13227057 0.10891059 0.12263451 -0.18474248 -0.21585391 0.1572947 0.22425939 -0.16542567 -0.32214645 -0.035533115 -0.1280692 -0.3225019 -0.1745633 0.13625605 0.10313248 0.016413542 0.07875946 -0.033931363 0.14373717 0.16216263 0.013422508 0.02044874 -0.21621694 -0.0357574 0.53281456 -0.026314285 0.15195109 -0.11552409 -0.29166654 0.12451533 0.19842248 0.14817552 -0.16815862 -0.13115089 -0.07603994 -0.38628706 0.18824694 -0.0785622 -0.18083206 -0.1540525 0.29135245 0.16236416 0.056506485 -0.22444631 -0.0711018 0.41636175 -0.3183666 -0.24697644
28 -0.34499156 -0.38024363 -0.15484655 -0.07961378 -0.15815632 0.23240893 -0.11062596 -0.10339671 0.4256932 -0.099048175 0.27947488 0.1999693 0.17128554 0.09160325 -0.50798804 -0.2176357 -0.07822331 -0.22107299 0.11049232 -0.030365465 -0.08087529 -0.059038084 0.26002473 0.4257248 -0.1441421 0.35969314 -0.009793611 0.03818694 0.012065885 -0.22267914 -0.29075786 -0.13502373 0.16465153 -0.088538654 0.17897739 -0.29154038 -0.0770199 0.14723541 0.16467713 -0.10501487 -0.06865205 0.024938531 0.036732618 -0.09699839 -0.21863747 0.3016892 0.14598425 -0.03226828 0.3028364 -0.0732929 -0.46941376 -0.012319028 -0.14551368 -0.3313475 -0.20580374 -0.04326929 0.12598945 -0.27754742 -0.10054588 0.21014646 -0.20389886 -0.16396908 -0.14891183 0.030446602 -0.30970648 -0.07922366 -0.03726354 0.32291237 -0.19680798 0.028137296 -0.47588256 0.05171802 -0.19635612 -0.28037155 -0.021472005 -0.0795044 0.41914886 0.07051832 -0.2918185 -0.077715546 -0.03986946 -0.014476369 0.071906716 -0.20441094 -0.13421035 0.27056822 0.25941488 -0.10208646 -0.29783624 0.017757436 -0.22154681 -0.41324267 -0.090670645 0.0490846 0.15714216 0.10355972 0.061790746 -0.014522884 0.11066844 0.034721084 -0.14684333 0.078203715 -0.20335162 -0.011726019 0.51941204 0.0043664025 0.20083496 -0.09160437 -0.2627094 0.16284522 0.17822783 0.14294907 -0.16970834 -0.19321996 -0.046816096 -0.3325815 0.18194106 -0.19195029 -0.19804743 -0.071887895 0.24748027 0.15020922 0.097104274 -0.2368063 -0.086530924 0.5197315 -0.38332972 -0.1697145
24 0.04214756 0.09337262 -0.31897643 -0.30940863 0.18795672 -0.22600152 0.20852877 0.5791877 0.18039854 -0.012722424 0.40877378 -0.30038214 0.24103022 -0.06097918 -0.19593053 -0.19805911 -0.028355006 -0.035515767 -0.13603316 -0.12113891 0.03172727 -0.05291956 0.26210535 0.38017243 0.04176215 0.2851288 -0.20149478 0.18181872 -0.03409661 0.3000474 0.0030287176 -0.010428721 -0.18993644 0.20319252 0.080886565 -0.09434681 -0.22162463 0.18361922 -0.04460116 -0.2731323 -0.25033367 -0.084873535 -0.015123377 0.028363582 -0.18117209 -0.31366915 0.10867772 0.031435993 0.14421214 0.09482166 -0.16938083 -0.053130068 -0.28779796 -0.23781304 0.1001678 -0.2960616 0.106495924 -0.17415886 0.21002969 -0.21173446 -0.15145655 0.16015278 -0.23234865 0.14261478 -0.013144105 0.039867 0.035428934 0.21849726 0.09226714 0.3569503 -0.24650258 0.36189824 0.09092903 -0.3900084 -0.35482147 -0.31073526 0.23241098 0.14898126 -0.13577653 0.371445 0.13101679 -0.027339617 -0.0840645 -0.0654588 0.13244973 0.3580932 0.38561785 0.005991196 -0.33332625 0.07760527 -0.20271693 -0.07943072 -0.09734109 -0.22464266 -0.082732774 0.2176905 0.2625139 -0.09634542 0.20120831 0.26030073 -0.01656694 -0.116205715 -0.07314004 0.04242733 0.29700348 -0.15553647 0.28156772 -0.086610205 0.2197777 0.20630765 0.07907482 -0.11535998 -0.002900072 0.122374326 -0.053466238 -0.11204368 -0.10470698 0.14892857 0.18672597 0.011511288 0.44822478 0.026459385 0.036327068 -0.24959631 -0.22005655 0.46852583 -0.15493597 -0.13769455
22 0.103673264 -0.011254533 -0.31844953 -0.37331453 0.1781487 -0.27343917 0.22097671 0.52933526 0.25329518 0.053255223 0.39411098 -0.3019514 0.16029842 0.03332711 -0.19440515 -0.12574305 -0.021698207 -0.09615007 -0.10022708 -0.13878855 0.0066189556 -0.06363841 0.2901203 0.36968064 0.023506308 0.28463155 -0.19649133 0.10481177 -0.09423486 0.27802187 -0.033873294 -0.035533637 -0.17368835 0.14647722 0.029936858 -0.15010254 -0.2534465 0.17661269 -0.03205981 -0.32641426 -0.22212026 -0.11596147 0.006307662 0.067027286 -0.1262187 -0.23660843 0.031344645 0.035485994 0.1187206 0.11658596 -0.1775351 -0.013802267 -0.24480669 -0.3244327 -0.007356262 -0.32568678 0.15990868 -0.16206636 0.16370738 -0.24901743 -0.13606448 0.087896675 -0.25543237 0.18921481 0.081436455 0.04734549 0.028630065 0.17869604 0.1766139 0.42560744 -0.30900246 0.3834127 0.07876204 -0.36810777 -0.33862904 -0.2500628 0.24235557 0.20282522 -0.0906195 0.5051255 0.07935649 -0.062763266 -0.015213 -0.12206706 0.09834411 0.4653152 0.396617 -0.1334638 -0.3734892 0.085509375 -0.17413451 -0.100318834 -0.16079496 -0.31461066 -0.02247901 0.3131312 0.23098713 -0.07983167 0.26434615 0.14992607 -0.03697987 -0.1437432 -0.0020020339 0.14366902 0.35535663 -0.19121668 0.32567313 -0.11445383 0.23817275 0.23686425 0.08525293 -0.18358266 -0.077871926 0.119288854 -0.064399354 -0.13887677 -0.106143385 0.1493283 0.2072438 -0.052394714 0.5018143 0.048868988 0.034276843 -0.19615959 -0.2206151 0.48998865 -0.19196045 -0.16306591
51 -0.15813181 0.30531514 -0.29031274 -0.7968788 -0.23528078 0.14462389 0.14516485 0.11854197 0.09651988 0.12511897 0.514638 0.19168927 -0.26988938 0.36534646 -0.2613032 -0.051801663 0.032293286 0.4233837 -0.39961514 0.13222532 0.25609955 -0.109741606 -0.13879056 0.41436094 0.18949527 0.22938369 -0.19301836 2.1212036e-06 0.19737123 -0.21172383 0.225804 -0.043253377 -0.14990981 0.92236954 -0.24340002 0.11980585 -0.29789433 -0.10394506 -0.10236405 -0.059250623 -0.36648557 0.31119233 -0.42581427 -0.1395424 -0.10462474 0.21039288 0.41667563 0.46093586 0.08765049 -0.56193507 0.18758212 -0.65807706 0.41486543 -0.57007545 0.26263914 -0.13633014 0.6234643 -0.8121386 -0.6150023 -0.4819636 0.05645136 0.5108128 -0.25676197 -0.18491831 -0.08114148 0.61120397 -0.40945536 -0.13272537 -0.23037548 0.3746473 0.2605304 -0.36198017 0.59639174 -0.34937462 0.37536892 -0.24670087 0.10726089 -0.4837614 -0.19904189 0.03047392 0.029164748 -0.32453388 -0.45021704 -0.10435282 0.5902665 0.06708559 0.15073772 -0.13971128 -0.39085716 0.061856084 0.046468295 0.36258003 -0.025993673 -0.08702198 -0.5410539 0.111663766 -0.19068062 0.3609987 0.010651257 0.58500814 0.04742253 -0.4566796 0.4433194 0.7365385 0.5723087 -0.15785742 0.71356714 0.050994698 -0.3262107 0.4864802 -0.13567726 -0.3953412 -0.416277 0.2845297 -0.52444106 0.07989912 -0.033945784 0.13832107 0.33256358 0.07626693 0.15845174 -0.59214705 -0.49827594 -0.045797385 0.6489091 0.007228754 0.32642633 -1.0815974
52 -0.18965127 0.22807594 -0.3003239 -0.8377265 -0.23714069 0.052891664 0.17420618 0.18921487 0.074597776 0.08483633 0.5229052 0.13361347 -0.2715536 0.30516687 -0.35426354 -0.059245866 0.01686874 0.4027404 -0.35217252 0.07469817 0.22425084 -0.079400755 -0.19940072 0.47334054 0.14137833 0.17491102 -0.22506937 0.00617259 0.2114586 -0.21176234 0.1583552 -0.048257653 -0.19416185 0.9239488 -0.24006423 0.078385524 -0.25308743 -0.11036291 -0.077790506 -0.03824715 -0.34622312 0.3227126 -0.43016735 -0.15366702 -0.15081176 0.3378086 0.43772525 0.49456412 0.081455715 -0.59616303 0.1577068 -0.6443508 0.40800938 -0.6041889 0.18408808 -0.104018986 0.6227143 -0.786278 -0.66670233 -0.46058103 0.061300937 0.48477778 -0.241535 -0.16039175 -0.13097304 0.5281201 -0.40182394 -0.102007456 -0.17098504 0.33942786 0.16919807 -0.39220428 0.5449364 -0.34612563 0.36323106 -0.25748944 0.15919149 -0.53292286 -0.16385214 -0.017746586 0.10444057 -0.32782462 -0.45507255 -0.16130857 0.57616824 0.040954027 0.13599715 -0.09446169 -0.36121547 0.12910642 0.09146531 0.3281573 -0.043734994 -0.029231394 -0.52210814 0.14123052 -0.23890182 0.41847035 0.010316308 0.5654925 -0.038485743 -0.38305503 0.39783743 0.7296587 0.635553 -0.10541247 0.7083607 0.03700576 -0.36999765 0.54309547 -0.12825665 -0.3497056 -0.38159543 0.2158616 -0.5784917 0.04213816 -0.005293683 0.1329641 0.29116157 0.10093298 0.14785472 -0.55581075 -0.49010196 -0.088454306 0.6613042 0.045055725 0.28188586 -1.0865786
42 -0.14003722 -0.051640596 -0.3184205 -0.2874504 0.38627392 -0.15930447 0.33172566 0.3756188 0.24033143 0.052558832 0.2778533 -0.22370534 0.14722818 0.20466474 -0.2164341 -0.23801929 -0.07429524 -0.16653062 -0.2696616 -0.069543704 0.13989611 -0.11745581 0.40016302 0.28668293 0.11425672 0.10798599 -0.15870568 0.27342132 -0.029674288 0.32654187 0.17814822 0.03718527 -0.16956483 0.16478397 0.088105135 -0.07689252 -0.3404935 0.26662385 0.09962238 -0.48967704 -0.28483856 -0.14186874 0.023059195 0.035166055 -0.20476153 -0.18835312 0.064187564 -0.060321573 0.07641088 0.16414645 -0.14830448 -0.030997789 -0.19148931 -0.1162565 -0.008870215 -0.4048854 0.13015275 -0.16752698 0.12773877 -0.13978514 -0.19978525 0.1210784 -0.18943183 -0.067438245 0.21284921 0.16873455 0.10072191 0.048000764 0.150235 0.3321524 -0.1394821 0.32392067 0.0144543145 -0.3405773 -0.17308144 -0.1432401 0.1649674 0.14432696 -0.23924108 0.518687 -0.117470406 -0.0752702 -0.18169454 -0.052231777 -0.0854582 0.37118444 0.5400288 -0.22959058 -0.4671587 0.035398886 -0.09070169 -0.14674634 -0.11052726 -0.30625302 -0.1834056 0.36335218 0.19449577 -0.04299517 0.3834417 0.14546691 0.011300665 -0.08897817 -0.1993499 -0.099366166 0.28428444 -0.2903239 0.37498865 -0.032665264 0.26930094 0.050022613 0.12784383 -0.14771427 -0.09207725 0.057901613 -0.12484553 -0.14908962 -0.15540485 0.020540059 0.12656726 -0.08959881 0.39386877 -0.07788525 0.10689827 -0.07363491 -0.28491208 0.3119006 -0.16710594 0.012086932
49 -0.13587357 -0.32321727 0.026352754 -0.10788115 -0.006681525 -0.0075044977 0.11302394 0.29480654 0.04231255 -0.18603256 -0.09050661 -0.008793605 0.27876344 -0.16343391 -0.24305722 -0.3047368 -0.0037423586 -0.11813988 0.008291283 -0.20530728 0.11594018 0.027324794 0.29106522 0.0030563178 -0.13116099 0.14404689 -0.18195316 -0.1213343 -0.18601815 -0.060313888 -0.017031884 -0.008292846 -0.11438214 -0.18738823 0.0018019684 -0.14717583 -0.07191682 0.2887208 -0.035055123 -0.046446275 -0.26680025 0.13400422 0.15615276 -0.026523214 -0.25617158 -0.39487997 0.18375896 -0.21180394 0.25611848 0.30045268 -0.45301878 -0.20525056 -0.05720272 0.09460586 -0.022817094 -0.46112442 -0.16610014 -0.19739702 0.34484726 -0.027023787 -0.01606249 0.1703728 -0.09451892 -0.120434 -0.24742842 0.061262876 0.08008198 0.16687357 -0.09310096 0.11672916 -0.18518429 0.22688894 -0.21928698 -0.22738408 0.056999885 -0.048463024 0.34709552 -0.026738053 -0.03639447 -0.1853719 0.07752184 -0.048558157 -0.15768352 -0.12766275 0.32026574 0.49133527 0.26828992 -0.22114147 -0.12331426 0.16916396 -0.3757755 -0.07373764 -0.02073043 -0.24227376 0.018212462 0.14351405 0.09949641 -0.57981986 0.25384462 0.13387997 -0.027419185 -0.22517683 0.03851794 0.2642973 0.027863361 -0.21636178 0.24641614 0.00073402806 -0.1570868 -0.0005411392 -0.21695921 -0.016760407 -0.007348277 0.14303167 -0.09359217 0.046771925 0.45012128 0.25831693 -0.0033708783 0.10720351 0.29613525 0.4600242 0.03398871 -0.44906864 -0.33970279 0.5063883 0.33894122 -0.092765085
48 -0.06124889 -0.31282705 0.03668921 -0.0606961 -0.022367883 0.033770088 0.057356562 0.2168705 0.12905006 -0.19863059 -0.0796017 -0.03636528 0.28701776 -0.13312988 -0.23050478 -0.23426703 0.0032453297 -0.13477214 -0.01437581 -0.2634121 0.04750424 -0.02375039 0.23568016 0.011632857 -0.14130956 0.16773601 -0.2515225 -0.23746932 -0.17781971 -0.0974746 -0.0760378 0.025167592 -0.0638562 -0.2020104 0.0059887813 -0.20131414 -0.04725016 0.28045762 -0.043606676 0.028867682 -0.19175643 0.051014297 0.131371 0.0034760633 -0.21117404 -0.36871177 0.1567402 -0.2336576 0.22575268 0.23685618 -0.41164112 -0.15500669 -0.025693247 0.016147772 -0.0035631482 -0.35411328 -0.15479791 -0.1885383 0.35799357 -0.008448678 0.043716215 0.10339319 -0.14809747 0.036224943 -0.16138245 0.040539455 0.08718459 0.1263391 0.026299812 0.20691971 -0.15807733 0.26586795 -0.24800937 -0.19725044 0.054711554 0.02338567 0.28993246 -0.02202092 -0.013291583 -0.11290943 0.1298736 -0.058289755 -0.09215421 -0.1533459 0.3245049 0.45252097 0.28913718 -0.15121357 -0.20124957 0.23074134 -0.35608295 -0.04580499 -0.057661958 -0.21428624 0.08040879 0.17438963 0.12374676 -0.6205785 0.2609411 0.12484006 -0.09937245 -0.24082543 0.14467278 0.38086793 -0.00804482 -0.24181835 0.25186285 -0.08092649 -0.1338268 0.05210856 -0.2147125 -0.0742479 -0.055278733 0.13848247 -0.093738884 0.006572393 0.38801944 0.25931862 0.08049967 0.065080166 0.39816368 0.42207015 0.05208515 -0.3804013 -0.3242827 0.5194015 0.31370416 -0.17347372
44 -0.06152473 -0.061899535 -0.19755127 -0.26742107 0.28474012 -0.19317237 0.25664514 0.33194765 0.17855662 0.12931706 0.27084836 -0.24910805 0.1399286 0.21481389 -0.12487801 -0.15801644 -0.012044072 -0.18000518 -0.21364199 -0.102286965 0.080341116 -0.11073839 0.4400167 0.26609707 0.12791935 0.20385249 -0.08894254 0.31654513 -0.03377072 0.30915743 0.15930334 0.06644898 -0.1537213 0.12291456 0.077993244 -0.07663456 -0.30450514 0.20906669 0.10346987 -0.462753 -0.29503655 -0.1589092 0.05344935 0.057486396 -0.21034446 -0.25097775 -0.03133279 -0.060079932 0.089439176 0.16661566 -0.14677526 0.019219441 -0.15826643 -0.15451509 0.042306907 -0.41730115 0.114083834 -0.15145932 0.1252629 -0.1709873 -0.20693722 0.05009447 -0.25171548 -0.035780754 0.19188161 0.17761567 0.093374304 0.05295229 0.07695593 0.37649158 -0.12224336 0.34753567 0.056042235 -0.3117027 -0.20693135 -0.16682267 0.14784646 0.17597167 -0.22554712 0.5584737 -0.095013246 -0.16568154 -0.17164579 -0.10355262 0.010881466 0.43741506 0.5271534 -0.2431836 -0.44928128 0.036324747 -0.1664941 -0.11165029 -0.06929055 -0.3934446 -0.16132167 0.40292546 0.20774958 -0.01886297 0.36736822 0.15187518 -0.032748654 -0.11109967 -0.10199403 -0.0037661954 0.30143705 -0.2807664 0.4176253 -0.0006135273 0.23145394 0.08705728 0.101129904 -0.20226815 -0.11449894 0.08982281 -0.11050596 -0.130537 -0.1639504 0.09123607 0.083165325 -0.0996134 0.41054815 -0.119305484 0.09757625 -0.09207622 -0.3121164 0.37086257 -0.18872146 -0.041904
43 -0.019939166 -0.08548362 -0.22287308 -0.3857023 0.26240048 -0.19001518 0.3437105 0.42853254 0.37762117 0.09978911 0.29209962 -0.23129883 0.14156456 0.17217295 -0.12814437 -0.19012053 -0.1191425 -0.20666848 -0.29562962 -0.13126434 0.16495079 -0.043431316 0.43749693 0.39361662 0.08305761 0.19556554 -0.14653799 0.20107257 -0.10492515 0.31648055 0.123799756 -0.033412434 -0.19661096 0.037118606 0.10923399 -0.11822336 -0.3107706 0.2597684 0.050500542 -0.45647317 -0.24861814 -0.14507025 0.07410033 0.046306822 -0.18597434 -0.24127012 0.0754474 -0.108712636 0.05010865 0.17336845 -0.1260085 0.053064223 -0.190103 -0.14552598 0.03901619 -0.32278663 0.14665042 -0.12878501 0.1443731 -0.16798866 -0.17452918 0.084102586 -0.23187374 3.9941406e-05 0.2243388 0.13306245 0.09847639 0.005959861 0.20485088 0.39344224 -0.05086937 0.34090665 0.060755868 -0.35239196 -0.20869216 -0.16862743 0.11827838 0.20110317 -0.18499628 0.5008723 -0.09425224 -0.08356289 -0.17592314 -0.0829347 0.0026940862 0.35438737 0.5490041 -0.19317275 -0.39013904 0.12291456 -0.08054245 -0.06002327 -0.061333332 -0.25604603 -0.17346653 0.43580365 0.1760951 -0.15623677 0.30945054 0.22232895 0.0034664604 -0.11214319 -0.14478867 0.03606125 0.20540953 -0.23630556 0.42008442 0.011474935 0.25695118 0.1018597 0.11039388 -0.18236534 -0.04690562 0.114440314 -0.1845246 -0.07307225 -0.15828869 0.050692316 0.15688902 -0.09964739 0.46008262 -0.11637699 0.12518728 0.00086435984 -0.25844824 0.36806238 -0.14871122 -0.049496457
47 -0.10981365 -0.2422978 0.0053408267 -0.081180215 0.08271082 -0.038881052 0.05907769 0.22611153 0.12827106 -0.23864162 -0.020186963 -0.07330666 0.2940632 -0.22610182 -0.2761135 -0.22469337 0.007299715 -0.11703581 -0.080079496 -0.20992474 0.05370725 0.023194043 0.2870686 0.04767028 -0.02959028 0.16042018 -0.09437688 -0.112931624 -0.18687366 -0.1144811 -0.11143447 -0.006260881 -0.14549707 -0.15837225 0.0057470584 -0.09729674 -0.09768199 0.25282866 -0.035195034 0.019403562 -0.18323275 0.06712968 0.18751867 -0.01809048 -0.27647206 -0.40242684 0.15894319 -0.20229311 0.24463813 0.26877108 -0.31337258 -0.09342484 -0.15768434 -0.032807194 0.05235091 -0.4203673 -0.13467415 -0.16217515 0.26299152 -0.07944352 -0.035870526 0.11024072 -0.15064731 0.006183527 -0.14977106 0.062050898 0.07887105 0.065018535 -0.002309251 0.17537843 -0.12444405 0.20488629 -0.051063363 -0.27826342 -0.037917923 -0.17090693 0.3140017 0.004786917 -0.037825387 -0.04651095 0.16577964 -0.054303493 -0.21516205 -0.14756824 0.27784953 0.42944193 0.2573002 -0.16764994 -0.040276174 0.11857671 -0.33744508 -0.061061684 -0.0363219 -0.15005499 0.022504205 0.19771484 0.13683288 -0.5130654 0.16554824 0.14832868 -0.0011367414 -0.2676166 0.048298616 0.27323094 0.054912165 -0.18537116 0.27005193 -0.055944536 -0.10778353 0.07454306 -0.22014472 0.01610377 -0.023619313 0.18312903 -0.10469576 0.08636585 0.3165466 0.19499378 0.058784347 0.11341177 0.32188004 0.3255066 0.069685705 -0.3275034 -0.36122525 0.6140434 0.19217628 -0.09267621
33 -0.37117326 -0.36180446 -0.116767436 0.5492066 0.27539963 -0.42621627 -0.12220599 -0.048213832 0.27098298 -0.2476271 -0.15930441 0.5007411 -0.072584234 -0.40368155 -0.27630916 -0.15593101 -0.13045609 0.34116694 -0.07503511 0.15077978 0.61282635 -0.35928133 0.81452537 -0.33735362 -0.14158131 0.3132903 -0.071049936 -0.14530206 0.07442486 0.42735532 -0.03438767 0.5274331 -0.16647683 0.5615088 -0.033899505 -0.27707228 0.31901136 -0.20687371 -0.4239778 0.034702398 -0.42149776 0.45951915 0.4270871 0.41410798 -0.10974802 0.28715017 0.046498332 0.0069371397 0.16663425 -0.101755716 -0.31622648 -0.16721137 0.55026054 -0.045297228 -0.7277496 -0.15853071 0.08297926 -0.04798674 -0.27929977 -0.36914384 0.6713895 -0.0014526774 -0.29942277 0.32790515 -0.0029005462 -0.07785579 -0.033140134 -0.031945486 -0.007134829 0.14681236 -0.020836206 -0.22008008 0.25011203 0.22462577 0.15207638 0.5273702 0.32442695 -0.2027236 0.108875304 -0.2079994 0.18826336 -0.31798688 0.25473246 -0.27680773 -0.031724118 0.37278908 -0.004934101 -0.07402193 -0.372309 0.3413556 -0.023507006 0.28351596 0.18209057 -0.5667877 -0.3932044 0.3661989 -0.21796013 -0.06878713 0.112754375 0.15123563 -0.04018523 0.20297606 0.1315354 0.32075924 0.051819377 -0.44842595 0.7897557 0.551742 -0.6434265 -0.017714165 0.01637513 -0.22915544 -0.15230955 -0.0036377336 0.060581405 -0.040461574 0.219687 0.17404506 -0.47774407 -0.27085435 0.508346 -0.14789344 -0.042525172 -0.48581383 0.30959916 0.16259605 -0.36667493 -0.130919
34 -0.3507861 -0.2840467 -0.039903652 0.51365083 0.34031034 -0.4080192 0.056395855 -0.16956365 0.2710369 -0.2337935 -0.17519704 0.48618487 -0.19533293 -0.3472862 -0.35032243 -0.17811362 -0.11200218 0.32995692 -0.095207736 0.18867224 0.6010361 -0.30553308 0.7699866 -0.20827472 -0.0897205 0.15161441 0.090778016 -0.19252104 0.096283294 0.3761451 -0.009898013 0.44388422 -0.19500288 0.48901933 0.112230025 -0.20210154 0.36159274 -0.12535414 -0.29826954 0.030847853 -0.27792814 0.5283566 0.34605667 0.43670225 -0.109195895 0.28690627 0.15840544 0.019051075 0.19296145 -0.05411969 -0.20189422 -0.20362566 0.537282 -0.08288925 -0.66813076 -0.19776024 0.19207078 -0.15346862 -0.33421034 -0.44448984 0.50391704 0.12534164 -0.30934975 0.34067544 -0.02466015 -0.023194585 0.0075991647 -0.016059067 0.13440117 0.13329506 -0.05343773 -0.19228344 0.08844761 0.19312856 0.17083639 0.35276568 0.20364515 -0.14975129 0.077084824 -0.18916616 0.1006863 -0.23284788 0.20981428 -0.34761897 0.003126754 0.26549858 0.00075495 0.078623034 -0.46090594 0.3694613 -0.11475396 0.24768658 0.20141582 -0.44793826 -0.4351588 0.3073152 -0.23081195 0.07683276 -0.024964314 0.19985545 -0.022952823 0.37665755 0.09369004 0.1460367 0.06947523 -0.3965263 0.7754784 0.4375095 -0.62943655 0.0116313845 0.04836042 -0.19311456 -0.16330463 0.042577166 -0.061202943 -0.1010734 0.18097124 0.2758227 -0.35868537 -0.10365842 0.41868055 -0.24507836 -0.09902006 -0.44824696 0.22360979 0.20647274 -0.33871326 -0.11974876
59 -0.0749797 -0.07139448 0.09401327 0.14316423 0.21885338 0.31331038 0.14819403 0.17143838 0.3170882 0.02226044 0.16806975 0.4186581 0.4001937 -0.10716423 -0.21956956 -0.48780015 -0.16913518 0.112602994 -0.16024631 -0.03859617 0.32976988 -0.040165458 0.38420522 -0.085547075 -0.3074981 0.31948522 -0.118639626 -0.2088475 0.13321783 0.47066432 -0.087936245 -0.2087564 0.366301 0.09361077 -0.05963231 -0.42142522 0.5965956 -0.11344054 -0.44785845 0.08650295 -0.0859691 0.51940495 0.27247006 -0.036226254 0.24752809 0.5027506 0.1522346 -0.5613204 0.36970973 -0.08337136 -0.2840385 -0.11442404 0.38531727 0.16397734 -0.29843432 0.3924591 0.14080466 -0.31463942 0.17058301 0.088903554 0.22235869 -0.18258342 -0.69159716 -0.058979753 0.082818516 0.016411785 -0.119546786 0.040246867 -0.13680553 0.302449 -0.1463633 -0.05128195 0.35528603 -0.26056072 0.25375864 0.14026482 0.35853478 0.52731556 -0.03149615 -0.23169853 -0.38692734 -0.21977115 0.54261047 -0.16918243 -0.14181228 0.69313926 0.548001 -0.34548968 -0.3842279 0.20006321 -0.26129216 0.065303385 0.33591095 -0.17656885 -0.5125082 0.29193547 -0.34379837 -0.69906884 0.087356314 0.2868334 -0.18977505 0.5328659 0.0037546295 0.10393902 -0.3932837 -0.20362236 0.3613205 0.5339025 -0.30483848 0.028124174 0.3110868 -0.376141 0.35499972 -0.37412778 0.14945473 0.14046293 -0.04673583 0.40412036 -0.44755438 -0.5343018 0.34033096 -0.1706832 0.043927222 -0.29928064 0.08946336 0.22824694 -0.24948363 0.13619988
58 -0.105942175 -0.036170416 -0.09562731 0.15780492 0.25793064 0.37790135 0.19153164 0.14822647 0.333475 -0.041570075 0.15020426 0.4522177 0.39567682 -0.09059658 -0.33414727 -0.6052264 -0.17077045 0.18939617 -0.25198308 0.03829863 0.43352127 -0.006608764 0.32077932 -0.044347443 -0.33415443 0.25069553 -0.052316297 -0.22655933 0.14039429 0.57326216 -0.040030807 -0.25080666 0.34604028 0.12465384 -0.04006854 -0.41069335 0.58143336 -0.112082995 -0.4223661 0.014870408 -0.114584774 0.54253924 0.17337836 -0.00037015602 0.2739929 0.50429785 0.17324242 -0.5333362 0.39315093 -0.15293902 -0.29663512 -0.2102775 0.45992926 0.280507 -0.22906232 0.2894123 0.12526314 -0.38293162 0.25599086 0.08915865 0.17936924 -0.079820774 -0.6644129 -0.18010487 0.072760746 0.052545715 -0.031054167 0.08539264 -0.12901585 0.3429537 -0.09499756 0.05773088 0.2766804 -0.21930997 0.3008942 0.18096036 0.28143296 0.52360326 -0.027222214 -0.2330597 -0.4576469 -0.24116665 0.57120126 -0.1513077 -0.14786991 0.7018992 0.54228055 -0.3508728 -0.4611262 0.15686023 -0.2297126 0.061396886 0.34463662 -0.25562605 -0.6198602 0.28859442 -0.37076128 -0.6977239 0.10256542 0.24674717 -0.1851708 0.58233804 0.017368903 -0.057079148 -0.4926605 -0.23277538 0.2900601 0.5678171 -0.25467363 -0.057517648 0.29229927 -0.44951743 0.40444803 -0.4177515 0.15685248 0.14012897 -0.048473135 0.39267802 -0.37111947 -0.50461704 0.32979155 -0.18794602 -0.046272676 -0.36131388 0.13027824 0.14277592 -0.16954324 0.22208373
10 -0.06356503 0.3920926 -0.58053607 0.0729369 -0.03368379 0.34454915 0.14078768 -0.06779828 0.51181525 -0.22780673 0.32327422 0.20591363 0.010587298 0.2862636 0.05935607 -0.09664204 0.2598068 0.08342547 -0.37901002 0.44274104 0.4384948 -0.20437655 -0.20798439 0.30145878 0.5054778 0.40387222 -0.16090372 -0.57158875 -0.40863416 -0.33315638 -0.56685513 0.13976564 0.54105824 0.368503 -0.09483339 -0.26650685 -0.06170662 0.021603955 -0.2306946 0.31799805 -0.22020322 0.15471435 -0.21614538 0.31891105 0.66125524 -0.16301778 0.061944876 0.023521783 0.22840361 -0.31910136 -0.0746257 -0.42457676 0.45819253 -0.2151097 0.33524382 0.04512585 0.086128436 -1.0887474 -0.07186501 -0.57714003 0.52171534 -0.081391804 0.060110345 0.12272734 -0.0011205613 0.19590014 -0.25373432 -0.0027727983 -0.059293684 0.42101553 -0.012145244 -0.28766263 0.8732544 -0.62469715 0.57416934 -0.38919273 -0.23776253 -0.37203148 -0.19035095 -0.24621087 -0.033402372 0.047999308 0.3128859 0.07345645 -0.47468784 0.08258428 -0.228864 -0.31225315 -0.27384567 -0.011652924 -0.1738514 0.039768945 0.26504624 -0.15270989 -0.24411136 -0.21055828 0.14485532 -0.59663373 0.23064145 0.31980926 0.26283923 -0.015144769 0.19704589 0.5939652 -0.13928132 -0.17771865 0.06646768 -0.18744189 -0.044392537 0.030119613 -0.015350695 -0.9590524 0.03350959 0.015098838 0.0875677 0.41669476 0.29358467 0.539572 0.61089206 -0.08907532 0.32041773 0.43159398 -0.37740025 0.054765154 0.2266055 -0.27886587 -0.104737245 0.39588493
64 0.116866305 0.25147045 0.08606776 0.35111368 -0.0003023385 0.21210818 -0.053895514 -0.15254565 0.30559725 -0.13126509 -0.036421675 0.24414721 0.14157797 -0.18633866 -0.25703064 -0.1831517 0.031319074 0.36309963 -0.38950092 -0.04167495 0.5054121 -0.13059819 0.41064495 -0.22737102 -0.44738394 0.38480806 0.1731897 -0.17552145 0.14511351 0.28095976 0.031303752 -0.15505753 0.5178432 -0.04713608 -0.20841555 -0.14003056 0.44141504 -0.18239515 -0.33497378 0.18027323 0.2015946 0.65533334 0.115343235 -0.2211352 0.30289647 0.4140106 0.077179305 -0.23779261 0.26005855 0.010747786 -0.1458954 -0.11905787 0.375888 -0.15659572 -0.07684892 0.012441501 0.15305984 -0.48051775 0.17454207 -0.10713593 0.3282432 -0.15693992 -0.5705853 0.10039508 -0.20036243 0.1526793 -0.028429313 0.15493587 -0.21459575 0.49009833 0.007985886 0.09837334 0.37826112 -0.006753394 0.39667124 -0.04907287 0.21833628 0.36973384 0.004892688 -0.20644556 0.019582527 -0.18415831 0.50430214 -0.42824578 0.102111734 0.6072333 0.13958417 -0.25236815 -0.2490828 0.10667613 -0.07103397 0.16548878 0.3658826 -0.2729 -0.23552862 -0.05337836 -0.14933291 -0.4307179 -0.12400241 0.19831935 0.08197951 0.31715 0.08701146 0.19721301 0.034762125 -0.32440284 0.41300923 0.4018844 -0.18164721 0.028942764 -0.054006312 -0.38114348 0.13842529 -0.21622184 0.17366274 0.17414182 0.17615369 0.38009483 -0.2341864 -0.53317523 0.20198135 -0.085864075 -0.15241894 -0.42886853 0.2456751 0.29484332 -0.4163296 0.044960275
18 -0.075166576 0.41854978 -0.7239866 0.11099745 0.04555378 0.2743914 0.035312656 0.07642095 0.46649948 -0.26743716 0.33201423 0.18404914 0.09554708 0.22482069 0.0038714227 -0.11380022 0.32081205 0.17295578 -0.33380434 0.5471403 0.49998525 -0.2891202 -0.21366735 0.23271784 0.56821 0.4128184 -0.12514429 -0.5025044 -0.3932246 -0.22897007 -0.575732 0.26622424 0.53947836 0.49798527 -0.09349339 -0.22819811 -0.052795697 -0.055327162 -0.22793671 0.3711953 -0.2870533 0.16473712 -0.29582825 0.35567427 0.67382413 -0.17555712 -0.0457371 0.07881412 0.25024903 -0.34850547 -0.046606846 -0.46403444 0.4540502 -0.12769312 0.34203404 0.018214384 0.023502288 -1.0742147 -0.03385908 -0.62906075 0.52499133 -0.08436477 0.08787677 0.15804288 0.02115654 0.12667876 -0.2275512 -0.037321668 -0.0606735 0.4302293 -0.07583084 -0.24529107 0.90355223 -0.57937825 0.5403526 -0.31666368 -0.22745463 -0.32282427 -0.14362068 -0.21288913 -0.04615443 0.050127536 0.3819605 0.11851847 -0.52873117 0.17838845 -0.2435055 -0.34524632 -0.3298829 -0.059017435 -0.19401383 -0.044660695 0.30301446 -0.28643242 -0.25350124 -0.18260047 0.15791084 -0.51574296 0.30734092 0.20382826 0.2584748 -0.017429454 0.1932102 0.58719283 -0.13945138 -0.23614135 0.025577407 -0.24549179 -0.016119355 -0.048409574 -0.038922206 -1.0655282 0.023741437 0.0014126919 0.2048612 0.3833455 0.29905108 0.534795 0.6264793 -0.069414236 0.32050738 0.43027142 -0.41366097 -0.07531056 0.23271698 -0.3641073 -0.18688549 0.40136746
63 0.083338425 0.24040782 0.029624343 0.40403333 0.08703872 0.2173135 -0.057287913 -0.19594285 0.34313044 -0.19798234 -0.018180234 0.18371709 0.2284461 -0.25199226 -0.33428028 -0.245334 0.08153424 0.40995497 -0.43769586 -0.05896533 0.48772648 -0.10635912 0.46978247 -0.120061524 -0.46056476 0.46067894 0.20030794 -0.2203599 0.12282648 0.3126574 0.031550877 -0.14411359 0.46126345 0.0041039186 -0.14098127 -0.12853631 0.4338355 -0.16779898 -0.34484512 0.1824794 0.18558212 0.54253376 0.09714825 -0.09666018 0.29256544 0.19724883 0.08078438 -0.28820512 0.32937732 -0.018376049 -0.13820222 -0.14623392 0.4093731 -0.114662215 -0.026150608 0.04199323 0.16033836 -0.43984443 0.23167853 -0.06021275 0.28513262 -0.09355585 -0.6426355 0.10187373 -0.14388108 0.16134793 0.059290163 0.13988508 -0.2281043 0.487906 0.07104024 0.13579978 0.3404939 0.005290974 0.3075199 -0.0639181 0.15082337 0.38420036 -0.05617385 -0.2302289 -0.059654593 -0.16082104 0.5145308 -0.359231 0.12725899 0.5303014 0.14395446 -0.12868156 -0.29833004 0.10788678 -0.101629674 0.21299149 0.39083892 -0.30678868 -0.3051137 -0.08712895 -0.14113158 -0.46972036 -0.12735526 0.30941093 0.09947539 0.31858477 0.14821763 0.14386983 -0.14020155 -0.37683174 0.3563229 0.39420307 -0.15089422 0.017790632 0.012286896 -0.40624917 0.20990483 -0.19501683 0.23432256 0.19850464 0.116838165 0.4371294 -0.14556453 -0.48579887 0.2713429 -0.19187735 -0.12637125 -0.39094344 0.20125243 0.27819562 -0.36016563 0.05793697
1 0.18054333 -0.4319359 -0.2915034 -0.52952343 -0.24149741 0.19627644 -0.23682337 0.8004756 0.8047063 -0.018697772 -0.039568108 0.28391096 0.3733061 0.06525847 -0.82701045 -0.12519614 0.12288762 -0.08426781 0.08119694 -0.33404365 -0.18530586 -0.3581807 0.019272538 0.26201725 0.0061658886 0.15046525 -0.15985341 -0.040921364 0.1853827 -0.09022504 -0.17633337 0.08673543 0.25524646 -0.3398863 -0.41232297 -0.17337695 0.0047600674 -0.29292765 0.15314583 -0.17835891 -0.24365216 -0.33963582 -0.15511602 0.30869263 -0.19404481 0.033735987 -0.0072024623 0.48467448 0.50514615 -0.016021622 -0.37488037 -0.21397467 -0.0033620272 0.25506642 0.2542027 -0.06998675 -0.14899951 0.17978644 -0.1923999 0.22156958 0.04547167 -0.41337422 -0.07551204 0.20623055 -0.28719056 0.37761188 0.092517965 0.3063875 -0.57983387 -0.06348056 -0.25536576 0.23728414 0.482015 -0.09497827 0.38678363 0.04966814 0.26643226 -0.23936337 -0.12027848 -0.1543487 -0.057160858 -0.1755194 0.26306024 -0.007360968 -0.3793456 0.27937096 0.19628163 -0.15628058 0.025968457 -0.24649495 0.043849584 -0.23013122 0.16230929 0.0833711 -0.053138617 -0.15185834 0.50054234 -0.3595976 0.26891705 0.053426526 -0.1182728 0.10286846 0.32584482 0.17917514 0.33301076 0.21821038 0.18677424 -0.14776795 0.06437718 0.3273465 -0.060750008 -0.37753224 0.0062345965 -0.13754232 0.048306752 -0.60374755 -0.1382441 0.31832853 0.12841384 -0.2547236 0.031510506 0.12242092 -0.43852326 -0.5924307 -0.16922171 -0.5869989 0.11763936 -0.18795487
11 0.25102815 -0.3649181 -0.26896626 -0.46756807 -0.28447145 0.30275798 -0.30445495 0.75802946 0.8990164 -0.024623353 -0.027191108 0.30610257 0.36749843 0.17254941 -0.71422035 -0.1412563 0.01864049 -0.074615754 -0.02947011 -0.29872766 -0.16111834 -0.4173619 0.0056166123 0.20050587 0.0036817873 0.11956076 -0.19679627 -0.014015761 0.17046602 -0.06627863 -0.032937717 0.03616097 0.32063922 -0.4298328 -0.42622098 -0.0543921 0.055767287 -0.25416082 0.11601789 -0.08317895 -0.18526784 -0.27403796 -0.08114787 0.2288468 -0.21127619 0.1331325 0.057052437 0.4890616 0.47981483 -0.0338133 -0.30108988 -0.2041686 -0.015293452 0.25212398 0.3282474 -0.116508365 -0.123275876 0.14959043 -0.19369541 0.21369387 0.04278426 -0.4051734 -0.049624808 0.19017424 -0.25257537 0.43775296 0.020048823 0.20096481 -0.4740308 -0.08084989 -0.17756948 0.27664465 0.45056328 -0.080385536 0.52014285 0.14852537 0.23395991 -0.22722796 -0.1816896 -0.06803572 -0.011056951 -0.08581787 0.23688704 -0.015336059 -0.42894813 0.2757258 0.34047037 -0.1713293 -0.00025819894 -0.2318788 0.13397254 -0.26357186 0.18022275 0.15384956 -0.071256556 -0.08094354 0.5903059 -0.33589944 0.23090033 0.118891805 -0.00034033426 0.059873194 0.21403816 0.19143309 0.29030752 0.16190498 0.1699401 -0.22445527 0.1707244 0.27715403 -0.056835596 -0.2531281 -0.05809395 -0.18944997 0.047623534 -0.62917703 -0.23235686 0.26139554 0.13633089 -0.3020866 0.0855153 -0.02582767 -0.29683554 -0.6114272 -0.16000558 -0.62249357 0.0948908 -0.24323061
53 0.1939614 -0.1432791 -0.37826815 -0.2703688 0.1600853 0.10684054 -0.1830325 0.17637895 -0.0027384106 -0.26313967 -0.019842638 -0.1895636 0.0312851 0.09578479 -0.4082428 0.013571265 0.39746517 0.41233906 -0.57347035 -0.08612182 0.37615916 0.14341414 0.4044349 0.1376954 -0.3512669 0.059423283 0.47274733 -0.011517552 -0.24048793 -0.5374231 -0.03786117 -0.2753082 0.07877775 -0.08970393 -0.05853323 0.35771167 -0.26663044 0.03632071 0.1928351 -0.107310124 -0.36115763 0.032185394 -0.18453671 -0.12965393 -0.244575 -0.2599635 0.2428365 -0.09605097 0.57805836 0.06374162 -0.27220204 -0.25043693 0.07236698 0.167728 0.27543885 -0.32539305 -0.25456774 -0.2853928 0.115327574 0.40504614 -0.27647614 0.18790042 -0.24988696 -0.313418 -0.32090017 0.09096351 0.4111864 -0.3787309 -0.28801078 -0.28979617 0.01658874 0.1807342 -0.00951444 -0.0030535008 0.19075875 0.018932536 0.26456276 0.035434455 -0.25802726 -0.303297 -0.27311543 0.024512956 -0.17595161 0.12309441 0.22172628 0.4974232 0.1947819 -0.24980906 0.13597517 -0.018140294 0.06674869 -0.2875994 0.4573428 -0.08782521 0.13923997 0.22544296 0.07984058 -0.08101531 0.27325746 -0.10161552 0.15487184 -0.35924134 -0.14510953 0.17882824 0.12262134 -0.22366415 0.16642717 -0.08443049 -0.038143117 -0.09011217 -0.38434243 -0.11007184 0.13965718 -0.014537993 0.30610138 -0.01822029 0.5761972 -0.043580633 0.3222413 -0.094352655 0.0472447 -0.13074982 -0.04918113 -0.5452857 -0.070396796 0.35033196 -0.13740042 -0.37824628
45 0.075830616 -0.35798016 0.15654911 -0.42497817 -0.08658114 0.0036772457 0.29212174 0.24939534 0.3599557 0.116131864 0.36834556 -0.22541139 0.063560165 0.25773662 -0.22299716 -0.26822037 0.33645186 -0.02171861 -0.4897525 -0.60703075 -0.035568673 -0.24427451 0.3702612 0.16910882 0.07281121 0.2239679 0.016412493 0.3104056 0.26001036 0.18327399 0.098958306 0.046123985 0.18676765 0.49010807 -0.07265094 -0.03973686 -0.29421455 0.25141186 0.15979454 -0.010315062 -0.15139927 -0.50433546 0.14115909 0.112995 -0.34990427 -0.122563556 0.23069434 -0.19332805 0.31963703 0.26836663 -0.019724665 -0.05355731 -0.1614269 -0.1573822 -0.14364411 -0.02471377 -0.04154848 0.07037652 -0.04822449 0.1805711 -0.028301325 -0.07471531 -0.27625012 0.08630291 -0.031293936 0.3150648 0.24201588 -0.17891593 -0.3126932 -0.38756412 -0.32003888 -0.10319623 0.2522759 -0.28800055 0.035975467 -0.43665156 0.42855212 0.025067464 -0.46080464 -0.2911204 -0.31469485 0.14313059 -0.18202844 -0.025694419 -0.052359607 0.09813854 0.16637102 -0.07359907 -0.13622451 -0.05922098 0.0448333 0.065788284 0.4381958 0.056746 -0.20655541 0.04435106 0.04939056 0.15021485 0.40419194 0.5282059 0.20371856 -0.35047895 -0.09806824 0.07493904 0.14609912 -0.43191743 0.26712313 0.124906965 -0.019920876 -0.18813062 -0.022776961 -0.027857121 0.13297753 -0.11365758 0.30116022 -0.0023692457 0.104703195 0.8137632 -0.12786019 -0.19126587 0.036664817 -0.21241806 0.32912037 -0.30538478 -0.63573986 0.37572488 -0.22808126 0.07903577
54 0.27298716 -0.071562454 -0.41919264 -0.33710855 0.037526455 0.13536966 -0.20891082 0.1842324 0.019212347 -0.24491987 -0.09886837 -0.23044972 0.106701925 0.16382973 -0.3476815 0.137694 0.36525553 0.40533495 -0.55633175 -0.07454766 0.36674312 0.17590144 0.33400533 0.21079488 -0.3586348 0.018758675 0.4522276 -0.042660274 -0.31201822 -0.61031294 -0.044418443 -0.30414486 0.05904536 -0.25702864 -0.013601486 0.3909288 -0.36050755 0.11283068 0.2182945 -0.13349734 -0.42688644 -0.044702534 -0.20391452 -0.1925599 -0.18415964 -0.24958976 0.30781195 -0.12465625 0.64342654 0.004369492 -0.35183305 -0.21015185 0.056032453 0.1222158 0.40028375 -0.33722082 -0.22194077 -0.32423392 0.17709057 0.45238772 -0.35413873 0.2450339 -0.29890823 -0.37291953 -0.3400889 0.058194835 0.38355124 -0.4271493 -0.21202539 -0.19462655 0.05288486 0.2330009 -0.018485622 -0.03495402 0.20885031 -0.0015042349 0.16412511 0.11080734 -0.23920844 -0.27954435 -0.2605884 -0.013000854 -0.14584054 0.037005343 0.21996157 0.43125653 0.2681514 -0.2615265 0.011272141 0.049263455 0.06473164 -0.36845288 0.44661415 -0.03903787 0.16294497 0.25442818 0.12607193 -0.16831481 0.31687847 -0.044154517 0.18146522 -0.34916058 -0.16984704 0.24176961 0.11695094 -0.20656028 0.18010528 -0.06710038 -0.010421218 -0.027985465 -0.4536771 -0.17758709 0.19633462 0.045858182 0.26865005 -0.048141763 0.6244795 -0.0666411 0.4288802 -0.11399743 0.14077692 -0.069382116 -0.054079164 -0.4152343 -0.07441805 0.37568977 -0.099281244 -0.4004302
65 0.033111606 -0.406369 0.22061007 -0.4625079 -0.139685 -0.01601186 0.3187198 0.35834354 0.48106837 0.1722738 0.35170957 -0.23699246 0.077818945 0.3189574 -0.20329276 -0.22874431 0.3378081 -0.025270514 -0.48649672 -0.56865406 0.0061382945 -0.1931544 0.39279434 0.2491116 0.1257397 0.18202482 0.15104339 0.3566318 0.17765248 0.112531714 0.111109756 0.025484884 0.23516288 0.278167 -0.10710168 -0.020415822 -0.30194765 0.22574352 0.1983566 -0.030160023 -0.18094477 -0.40216917 0.18226755 0.12396713 -0.32852444 -0.17703596 0.18098085 -0.18781923 0.3536087 0.31793728 -0.06467614 -0.05638233 -0.09860007 -0.06729864 -0.04001543 -0.097185686 -0.10751741 0.0021736766 0.0013841566 0.14577718 -0.093832195 -0.14121525 -0.22598585 -0.043244965 -0.008676302 0.33936247 0.32844773 -0.14457804 -0.33529603 -0.2918979 -0.248867 -0.058177434 0.2909397 -0.24594738 0.056244783 -0.51432526 0.30538863 0.003033219 -0.49240488 -0.24539693 -0.25645995 0.107710324 -0.25980228 -0.07881552 -0.06951282 0.124319844 0.15340082 -0.14736408 -0.06335724 -0.08005089 0.018783025 0.05202414 0.4657157 0.021092573 -0.15823917 0.027803527 0.15280685 -0.019529682 0.39930475 0.51072425 0.28410926 -0.36251107 -0.07178887 0.075120434 0.15013349 -0.4186998 0.21991514 0.0838453 0.07475449 -0.1809394 -0.055085663 -0.096224666 0.19810054 -0.11709223 0.23002459 -0.004778446 0.08529077 0.8262605 -0.084281705 -0.17286558 0.038113773 -0.15799536 0.28447112 -0.29681858 -0.65725243 0.23495762 -0.16176574 0.09595916
46 -0.60350037 -0.31165072 0.1398736 -0.1643682 0.49934337 -0.14155428 0.3700205 0.7334298 0.26676235 -0.16061564 0.11824843 0.283414 0.19183576 0.17159145 -0.34074917 -0.19706847 0.2888531 0.31783235 -0.15729964 0.5660251 0.48007023 -0.4573747 0.21787843 0.5121563 0.42754743 -0.3750774 -0.47042465 -0.26494336 -0.1140117 -0.3863942 0.22285476 0.27294996 -0.22407493 0.69615006 -0.62808 -0.19743234 0.017610814 0.17200722 0.045161348 0.41002506 -0.7367523 0.32511422 0.3015178 0.08278199 -0.32955056 0.1897104 0.3439816 -0.050858352 0.3060324 -0.13620065 -0.017857872 -0.10334888 0.68226516 -0.035308562 0.059434537 -0.14858642 -0.06645225 -0.6858954 -0.50458145 -0.17730874 0.21282388 -0.12537012 -0.414491 -0.013956341 0.1890438 0.0824854 -0.32220316 -0.6851769 0.38845503 0.31814665 0.17266253 -0.5014962 0.3819046 -0.14148398 0.4921627 -0.06742395 -0.13543694 -0.44838816 -0.030150246 -0.0017100339 0.124571845 -0.45178986 -0.57895344 -0.4184314 0.08188489 0.03552973 0.16245739 -0.3690154 -0.078717224 0.4626799 0.19694342 0.12178217 0.20649876 0.27952537 -0.17815854 0.5617586 -0.09510851 -0.16579497 0.44303924 0.2967946 -0.5938354 -0.29236302 -0.06115279 0.72729534 0.20129625 0.04499453 0.41481733 -0.3653234 -0.122783266 0.47210765 -0.10100554 -0.21998388 0.1029495 -0.09398381 -0.49954423 -0.09664212 0.18292585 0.32989576 -0.008467929 0.1136859 -0.047213603 -0.08889876 0.043823387 0.13075362 0.01928319 -0.2999622 0.32170722 -0.5855491
66 -0.558822 -0.2534653 0.037514146 -0.17854093 0.527896 -0.10127878 0.35005385 0.68705267 0.26108673 -0.17777802 0.02737431 0.33709443 0.17488095 0.20192227 -0.38880634 -0.15912457 0.18467817 0.32510373 -0.24514347 0.5550383 0.48026296 -0.40635547 0.22445668 0.42169282 0.39922243 -0.39681816 -0.4130603 -0.26262045 -0.06351025 -0.445971 0.24081452 0.27314624 -0.21800253 0.62167287 -0.5787888 -0.12324101 0.038767044 0.14182429 0.08225457 0.31116766 -0.7019645 0.34106934 0.18511844 0.077071875 -0.34058064 0.21794577 0.33349285 0.017628303 0.30444455 -0.13996214 -0.010594852 -0.19658066 0.71926415 0.01731805 0.14166231 -0.22214901 -0.07929478 -0.73653436 -0.5452845 -0.16365759 0.19768102 -0.09075198 -0.34268594 -0.07856035 0.19935454 0.18830916 -0.27989087 -0.6470788 0.3404126 0.30139926 0.25692004 -0.46772203 0.37531018 -0.17724329 0.61873394 -0.010329474 -0.12159811 -0.55659187 -0.07103321 0.042864818 0.1158289 -0.4283164 -0.5890874 -0.36773768 0.020188447 0.025785223 0.17764215 -0.33438462 -0.056603167 0.39204466 0.20068814 0.10099852 0.18812384 0.28497455 -0.20838003 0.5193615 -0.036042493 -0.15245342 0.43420884 0.24169236 -0.4892738 -0.22698069 -0.03175895 0.6616149 0.25108033 0.085457765 0.4194129 -0.34935254 -0.13786817 0.44064832 -0.1231979 -0.24984251 0.015865274 -0.0996425 -0.5062103 -0.12926379 0.12987457 0.24094552 0.06359389 0.10808781 -0.089803904 -0.15828024 -0.05556713 0.107052505 0.09151456 -0.412543 0.36272132 -0.5633348
35 -0.17869009 -0.33126622 0.043152805 -0.2332678 -0.45147872 -0.18933173 -0.03368273 -0.017935833 0.36596233 -0.0071828063 -0.053324122 0.10619626 -0.08969776 0.10884457 -0.21709238 -0.28589988 0.25663656 -0.18458413 0.014252428 -0.11101885 0.28201365 -0.34236988 -0.09321774 0.45769244 0.2876584 -0.14265575 0.005169588 0.2443352 -0.070316084 0.028417865 0.04838577 0.23841241 0.10891665 -0.4202195 -0.11448449 0.0013562882 0.08174376 0.042370297 0.21115787 0.04128363 -0.179304 -0.27466223 -0.09259512 0.07384774 -0.116886474 0.00012471456 0.017486237 0.21196069 -0.06791093 0.053452022 -0.22416317 0.20165963 0.124307804 -0.22866604 0.4061031 -0.54547596 -0.168601 0.044462685 0.024007564 -0.009885664 0.015702292 -0.35127622 0.15406024 0.27239427 -0.51757216 -0.08698853 0.042335443 0.1043909 -0.18206045 -0.09865389 -0.13490278 0.06907799 0.27317917 -0.026996432 0.085641034 -0.5269343 -0.09862431 -0.066648334 -0.2574214 -0.47091225 0.032529056 -0.24879232 -0.04380467 -0.47350866 -0.18767712 -0.019029321 0.3940538 -0.103857964 -0.21130215 0.11945257 0.021397267 -0.18002127 0.42790607 0.01607327 -0.32054383 -0.15618443 0.17447685 -0.028527724 0.36298972 0.47262838 -0.101896435 0.16068621 -0.32001695 0.013047487 0.24676539 -0.2154873 0.4218309 0.0649946 0.2094123 0.09298578 -0.21559629 -0.2248699 0.20847318 -0.2650572 -0.09795009 0.03629516 0.09729803 0.72327834 -0.053308543 -0.073981084 0.08084416 0.121840075 -0.08644915 -0.46584055 -0.6057278 0.038390175 -0.34698412 0.31440854
6 0.026541179 0.12922364 -0.6596188 -0.019968169 -0.3521957 0.14591436 -0.09749748 0.19695236 0.3237464 0.012668786 0.020381669 0.3790102 0.060470853 0.09631591 -0.011515872 -0.031226836 0.18372844 0.31360114 0.08979413 0.7271926 0.5903074 -0.32738608 0.11136894 0.32033858 0.37179896 0.35554826 -0.112462476 -0.34917697 -0.4850467 0.14418969 -0.017468683 0.041566085 0.059197683 0.43328127 -0.37962177 -0.0717069 -0.1717107 -0.16856119 -0.34621063 -0.122386545 -0.641599 0.13297789 0.18367733 0.3758219 0.3496182 -0.023022657 0.05859869 0.30787778 0.29380918 -0.4520098 -0.1396091 -0.36508507 0.18768543 0.041721705 0.082816504 -0.13627478 0.15733214 -0.3639941 -0.34748006 -0.5297761 0.3899307 0.1907566 0.36328682 -0.10421744 -0.10874555 0.034302447 -0.5311951 -0.0047651394 -0.2529693 0.15116051 -0.105995834 -0.2935108 0.8514336 -0.10000475 0.2252452 -0.109881155 -0.2209989 -0.16578722 0.035694733 -0.07130504 -0.13270958 -0.09206623 0.23985606 0.18054323 -0.36252826 -0.118822955 -0.19447425 -0.3700396 -0.15918697 -0.12979995 0.24637464 0.06158295 0.1710606 -0.27676445 -0.4907302 -0.14171377 0.26897708 -0.1534935 0.2227756 0.46324632 0.37998563 -0.32660744 -0.0016861005 0.18145962 -0.017087922 -0.14791048 0.10853369 0.20959406 -0.10215585 0.04438715 -0.0044903695 -0.6410936 0.1409627 0.06933097 -0.16223669 0.06313686 0.20015241 0.37020534 0.15320796 -0.078516886 0.33582845 0.13010496 -0.08292395 -0.23418273 0.24926127 -0.25870124 0.008972974 0.11873902
5 0.18237793 0.06657095 -0.251969 -0.38938853 0.06405404 0.24534144 -0.28152665 0.49888986 0.6065308 -0.3454704 0.15004277 0.3717 0.26996782 -0.25845572 -0.27028063 -0.3477589 -0.084890455 -0.07967106 -0.015999684 0.006235254 0.13156332 -0.02926728 -0.14594415 0.54255605 -0.0002681742 0.29238155 -0.30805814 -0.21224324 0.12668967 0.07425545 -0.012499161 -0.098490365 -0.080703706 -0.17921408 -0.26142585 -0.45753986 0.31062388 -0.2676543 -0.155907 0.004825052 -0.0908189 -0.43252435 -0.29129606 0.4778469 -0.06699858 -0.14866674 0.023223007 0.37657362 0.0039104894 -0.18831266 -0.081040256 -0.18328089 -0.09011471 0.14370668 0.597325 -0.07976654 -0.1535853 0.20862937 0.095453925 -0.055179972 -0.20145881 -0.040931135 0.008173263 0.4332046 -0.33380145 0.29996207 0.121893875 0.29286465 -0.28888047 -0.05951068 0.12034629 0.2975288 0.29148743 -0.38896158 0.16865973 -0.023050582 0.13845368 -0.19303754 -0.12507628 -0.5626931 -0.22052713 0.037183657 0.18852973 0.13674322 -0.3998047 -0.05739318 0.6391733 0.19350064 0.11761986 -0.12066896 -0.052267697 -0.10325646 0.4231578 0.20194216 -0.49714583 -0.19910099 0.25704864 -0.4399146 0.12252106 0.5734596 -0.19222724 0.13136481 0.08041481 -0.10537417 -0.15199512 0.022185827 0.24414065 0.021691732 -0.19531272 -0.010520125 -0.00837023 -0.31692746 0.25832322 -0.19954886 -0.1631668 -0.07573583 -0.20034686 0.5859908 0.14611578 -0.2084875 0.122942545 -0.42431128 -0.20986167 -0.6371403 -0.20801494 -0.50230247 -0.011160498 -0.07445896
25 -0.2217202 -0.47851995 0.062042106 -0.2608108 -0.51770717 -0.11511798 0.05255727 -0.042621616 0.38346338 0.01742611 -0.112214126 0.056209587 -0.013470971 0.20725729 -0.30568954 -0.34739363 0.30857933 -0.20240936 -0.0015054845 -0.21386594 0.2211366 -0.34994644 -0.14705764 0.35850388 0.234076 -0.20250322 -0.056355674 0.22491905 -0.01533417 0.16849172 0.08514978 0.30905685 0.14117219 -0.3779499 -0.121774234 -0.05889179 0.071861826 0.08189282 0.17111005 0.021070259 -0.1789454 -0.3140746 -0.152793 0.110826485 -0.08626086 0.050822306 0.06294593 0.18153016 0.014446568 0.039780352 -0.25693968 0.105460435 0.20526527 -0.14011014 0.31298524 -0.50369436 -0.13914421 -0.027995232 0.08493365 0.0632743 0.033294268 -0.25868025 0.10825904 0.2162463 -0.41970003 -0.026208384 0.08566354 0.14441858 -0.18701102 -0.08826136 -0.1287971 0.08946644 0.12452651 0.013724943 0.12788527 -0.39813244 -0.12585008 -0.061820798 -0.20303293 -0.4748623 -0.021489825 -0.26794726 0.036997832 -0.4213293 -0.13774787 0.010833246 0.32659072 -0.09432371 -0.3719341 0.12706421 -0.043745503 -0.15693052 0.3962034 -0.07380106 -0.31216437 -0.14132363 0.10894725 -0.063176095 0.36935076 0.40995398 -0.15316282 0.20206821 -0.16211149 0.07737367 0.12781991 -0.23688027 0.3486002 0.04954959 0.2253898 0.040777482 -0.17052235 -0.2751668 0.17567296 -0.22573191 -0.05127158 -0.03194745 0.07074528 0.689961 0.0065504313 -0.025386142 0.103344575 0.17230016 -0.124268554 -0.37479103 -0.54700637 -0.07702193 -0.14048907 0.2753919
3 0.11315116 -0.07589778 -0.29458368 -0.37984785 0.1444218 0.27706507 -0.1358294 0.48536903 0.6525727 -0.3357925 0.12939225 0.3491766 0.26245272 -0.1963392 -0.42914313 -0.37739828 -0.08052891 -0.10279403 -0.09889787 -0.041584343 0.10869286 0.0053713187 -0.07951156 0.58237946 0.015047083 0.23994054 -0.2736728 -0.2772062 0.09097679 0.032226305 -0.12895292 -0.099413775 -0.08596128 -0.12762177 -0.25057927 -0.4884009 0.2417005 -0.21133812 -0.061303306 -0.04248855 -0.11503884 -0.44799572 -0.26241565 0.5756615 -0.071633175 -0.11663338 0.04799803 0.3253464 0.12556058 -0.12874307 -0.10192449 -0.27709553 -0.057931222 0.27939475 0.4814929 -0.08538883 -0.22079961 0.1578483 0.04620382 0.016525947 -0.21185118 -0.02087881 0.01958651 0.30461973 -0.22624508 0.34076694 0.25874895 0.27996498 -0.23225814 -0.156646 0.061720353 0.26560497 0.21710294 -0.374478 0.2516368 0.008713587 0.1892383 -0.26172414 -0.12907171 -0.51330745 -0.23418215 0.089731604 0.17676519 0.14370698 -0.46545702 -0.05709563 0.49362287 0.18864532 0.11971629 -0.12285187 -0.020116447 -0.088042974 0.381714 0.19117902 -0.48127854 -0.123992555 0.23929809 -0.4014908 0.16741626 0.46531838 -0.18661976 0.14392917 0.12839334 -0.15299052 -0.17883676 0.06061195 0.13243808 -0.037097245 -0.17258543 -0.056503367 0.00294072 -0.31057212 0.25358185 -0.19925305 -0.14135389 -0.13743089 -0.17961442 0.56727624 0.24394463 -0.12854804 0.08849602 -0.35464305 -0.20471855 -0.58786505 -0.2356713 -0.52285695 0.11708131 0.0057533844
2 0.066989474 0.04855747 -0.7410735 -0.03184905 -0.30405074 0.15230064 -0.08813899 0.14326756 0.39698258 0.021787722 0.0019485182 0.30768102 0.0114955595 0.2135157 -0.04097416 0.046344243 0.28219762 0.3517737 -0.0065100873 0.68211174 0.54442877 -0.27030206 0.16410142 0.30864236 0.30103537 0.35109732 -0.046748146 -0.36090642 -0.5079901 0.037632585 -0.08779718 0.05497661 0.12042946 0.40378076 -0.32456025 -0.02214718 -0.26531333 -0.14295423 -0.27789035 -0.11856376 -0.67727304 0.07202598 0.11642305 0.4381171 0.36462417 -0.1365408 0.10003301 0.28654233 0.3917542 -0.44842982 -0.19136925 -0.43017116 0.297272 0.12478453 0.021883404 -0.09898974 0.14873007 -0.411113 -0.34408817 -0.38430083 0.3616189 0.21480851 0.27297774 -0.1495097 -0.049171407 0.06356966 -0.41059768 -0.075090095 -0.27551413 0.07246657 -0.09511304 -0.28543556 0.8177164 -0.07585928 0.25914088 -0.023688007 -0.2769345 -0.19734062 -0.0060060746 -0.10569457 -0.20144798 -0.079565115 0.29261357 0.2608747 -0.3689899 -0.062348273 -0.27436486 -0.34861258 -0.17821844 -0.11523094 0.2349814 0.04415769 0.16657846 -0.3230515 -0.4041057 -0.12118266 0.23983443 -0.14246632 0.20794073 0.3441214 0.40368354 -0.26288232 0.025009887 0.22866128 -0.05171874 -0.15369515 0.10584865 0.15187074 -0.09611581 0.046476293 0.03206259 -0.6658903 0.13752641 0.09050815 -0.047922228 0.0027241332 0.26222938 0.28189215 0.28766245 -0.054406896 0.38090944 0.1727569 -0.13137537 -0.13154812 0.28302655 -0.33649182 0.06541458 0.09936668
13 0.3167283 -0.2088082 -0.33652064 -0.37160534 -0.06556474 0.08623551 0.113335714 0.14816003 0.42088968 -0.21739556 -0.07971931 0.14216244 -0.0026322294 -0.07471612 -0.41271946 -0.29228938 -0.28144124 -0.34226757 -0.39210296 -0.31997722 0.2217893 -0.018398559 -0.056149207 0.36160785 -0.022269603 -0.015647711 -0.14367926 -0.095317304 0.07139966 0.058898076 -0.28212312 0.00059474737 -0.034427732 -0.29916275 -0.083128005 -0.20742066 0.09750626 -0.025659336 0.13777451 -0.2649546 0.02028432 -0.48548472 -0.28872588 0.39495286 -0.07133791 0.06930946 0.037240345 0.24100097 0.029329196 0.061373446 -0.12861784 -0.124652006 -0.09074077 0.13028198 0.3900853 -0.45668027 -0.29091495 0.15948825 0.10533363 -0.106831126 0.053460155 -0.101389684 0.12649135 0.19527863 -0.16733953 0.28447863 0.34199852 0.09659161 -0.019930061 -0.25492388 -0.11505547 0.28389385 0.26747307 -0.29185084 0.43951225 -0.1134296 0.24673852 -0.32389593 -0.24422452 -0.32866326 -0.07948549 0.050481483 0.18301678 -0.19933364 -0.48176524 0.078496434 0.4619645 0.056637157 -0.10073443 -0.05012172 0.22998221 -0.10805938 0.3173326 0.03512932 -0.5451569 0.14465883 0.27657053 -0.225061 0.3814989 0.31191987 0.04527125 0.11336453 0.0313762 -0.21654907 0.015234358 -0.04304883 0.3350595 -0.008772993 0.024213724 -0.10504725 -0.25818515 -0.38035262 0.018986262 -0.12571223 -0.064955026 -0.112541474 -0.14338155 0.52223104 0.45574367 -0.18677409 0.089794815 -0.1641428 -0.27384117 -0.6863253 -0.31041616 -0.17302534 -0.036839902 0.2716895
0 -0.11744011 0.26129228 -0.6138821 0.21503982 0.17089446 0.16556616 0.11842479 -0.031903096 0.5549189 -0.26485953 0.15606286 0.21709967 -0.05572019 0.26688948 -0.0527844 -0.031346016 0.2589919 0.13724649 -0.40503517 0.60704505 0.56273705 -0.3868011 0.03213526 0.230832 0.4671316 0.21509185 -0.13094977 -0.48693186 -0.43101957 -0.3200234 -0.3667067 0.23216352 0.47546706 0.2586765 -0.16788958 -0.17986663 -0.094293214 0.06553335 -0.059106536 0.21657321 -0.25796407 0.13135895 -0.1834442 0.28988126 0.5037976 -0.026148623 -0.030487696 0.08582615 0.20725976 -0.2099092 -0.10999368 -0.23946401 0.4686741 -0.20355421 0.29242438 -0.13331445 -0.032213278 -0.9771976 -0.11373662 -0.49929085 0.49651408 -0.20605524 0.10546019 0.26031202 0.043281496 0.0852182 -0.1857868 -0.1689828 0.1600911 0.43154818 -0.0046431865 -0.15277147 0.7024339 -0.39555642 0.5281594 -0.22320667 -0.36418223 -0.35208443 -0.13533753 -0.005473902 0.043877307 0.044383626 0.23428148 -0.008258889 -0.5961307 0.0015069825 -0.19661216 -0.32629478 -0.23495409 0.040558137 0.07835947 -0.09368283 0.2835923 -0.12447522 -0.04347942 -0.13658552 0.24090996 -0.37654823 0.28626484 0.09312061 0.2129186 -0.0037397258 -0.037825715 0.46325484 0.053040598 -0.13094108 0.1001814 -0.2975462 0.100572854 0.016522931 -0.053030252 -0.8000933 0.0013786297 -0.06327517 0.08444544 0.21302918 0.2514029 0.28873283 0.5321945 -0.13835073 0.1797341 0.38903502 -0.25288406 0.08770478 0.14478286 -0.41024897 -0.2901373 0.4074281
15 0.19406396 -0.14610687 -0.28107125 -0.2886543 0.06565224 0.05439593 -0.10287943 0.1787886 0.41441968 -0.34940016 -0.047460005 0.15462634 -0.0076128836 -0.12587516 -0.37634894 -0.25453073 -0.17009269 -0.25071478 -0.32317635 -0.26971582 0.19696686 -0.015002349 -0.049229085 0.40746042 -0.020501303 0.079398505 -0.10944085 -0.1144874 0.12144642 -0.011693745 -0.27676123 0.13217983 -0.05223802 -0.2871026 -0.010373622 -0.3386827 0.17260475 -0.18161334 0.12095226 -0.22355193 0.012430674 -0.53864086 -0.40760478 0.53112024 -0.06754701 0.034178942 -0.05130194 0.3429625 0.051448014 -0.010095671 -0.14563252 -0.21235555 -0.06753425 0.07596207 0.47463688 -0.40911064 -0.29707372 0.11479693 0.09924457 -0.072330676 -0.061587032 -0.10419612 0.12587811 0.30291563 -0.2697773 0.3172091 0.49796847 0.2920329 -0.114902355 -0.18852021 -0.020519344 0.33036116 0.06347398 -0.3343449 0.3739444 0.00955964 0.29163912 -0.39472342 -0.24848688 -0.5067903 -0.051686835 0.07240566 0.18863629 -0.14844458 -0.52557844 0.05508404 0.49687237 0.16936941 -0.15555345 -0.021756142 -0.012880388 -0.20432012 0.4778302 -0.007831584 -0.49741864 0.06418448 0.26346424 -0.18162988 0.37947842 0.36414093 -0.074329734 0.20664492 0.101632334 -0.14929444 0.03568877 -0.19273494 0.31242448 -0.042139143 -0.12465687 -0.1598639 -0.2439094 -0.4047656 0.010259567 -0.23173495 -0.047079965 -0.12332827 -0.06282106 0.54902935 0.35305697 -0.11712313 0.1341292 -0.27347392 -0.3130484 -0.7563553 -0.28374347 -0.2858424 -0.18206944 0.21969458
7 0.2068475 -0.3024271 -0.33439144 -0.38159 -0.21685432 0.16588521 -0.34741017 0.6306348 0.74720454 -0.108771555 -0.051345427 0.3755142 0.19086672 -0.014479628 -0.54367554 -0.14568676 -0.06340264 -0.10584579 0.011543951 -0.2558706 -0.051445927 -0.29642674 -0.04116146 0.24108753 0.03860013 0.14039195 -0.12888223 -0.03619606 0.089276195 -0.05673716 -0.1086153 0.09842223 0.18034238 -0.3878141 -0.18253489 -0.1296579 0.11036446 -0.275375 0.0936485 -0.17068975 -0.19141434 -0.23653018 -0.15820143 0.30598056 -0.16653126 0.052600417 -0.009516437 0.3872904 0.33104965 -0.08075751 -0.3627112 -0.168548 0.020846305 0.21792856 0.32860848 -0.1105123 -0.14977583 0.14536814 -0.09110617 0.084309235 0.104079485 -0.32584813 0.032753512 0.29472852 -0.25862148 0.28912807 0.04880153 0.23043029 -0.39568028 -0.08491063 -0.12410528 0.3386626 0.28443262 -0.10642546 0.32267624 0.23763868 0.2463225 -0.21986191 -0.1595526 -0.15350677 -0.031598702 -0.044914834 0.20275515 0.058836363 -0.36769155 0.19658886 0.3653077 -0.07684706 -0.01787404 -0.07956775 0.042364538 -0.26952082 0.2638299 0.027905697 -0.08536398 -0.03495366 0.48929626 -0.35914275 0.16897257 0.08832809 -0.02732042 0.08996136 0.16928247 0.1573816 0.18845429 0.079900555 0.25575364 -0.1306279 -0.0068467795 0.18787447 -0.075854294 -0.25829792 -0.07612245 -0.15872417 0.0652945 -0.42577362 -0.09271551 0.1978168 0.11534292 -0.1928669 0.110600516 0.016665502 -0.30246115 -0.5769742 -0.15313978 -0.49698526 -0.011124125 -0.13965909
36 -0.11102062 -0.10560065 -0.0240613 -0.23504272 0.097761355 -0.1684051 0.16713344 -0.04446587 -0.011919393 -0.105192825 -0.01642984 0.32615083 -0.316039 0.013843629 -0.2543132 0.019282741 -0.109723754 0.12391728 -0.32972604 0.057175666 0.41933835 -0.24207494 0.37562853 0.121867836 0.14208886 -0.09399391 -0.26517126 -0.3458476 -0.047582056 -0.33599454 0.017444795 0.16244233 -0.21847846 0.39188612 -0.24110016 0.0655965 0.08448189 -0.038888153 -0.08180843 0.073002316 -0.24439692 0.2938477 0.011216771 -0.029038746 -0.26533112 0.24252777 0.24339269 0.24181731 -0.0011667773 -0.11153148 0.15710248 -0.23203193 0.466125 -0.32799783 -0.02698343 -0.18991683 0.15335335 -0.43166444 -0.65352 -0.33756304 0.3960948 0.03991772 -0.1497371 0.22658269 -0.06267399 0.19909163 -0.3104363 -0.5296195 0.16871628 0.0391337 0.124025315 -0.4524122 0.46950716 -0.11030844 0.51862794 -0.019274747 0.16353273 -0.49992278 -0.041607596 -0.107171476 0.12597375 -0.29878035 -0.30952787 -0.3024795 0.351521 0.16750076 0.10122418 -0.14262553 0.0578303 0.31775627 0.17269643 0.22050253 0.11888259 0.13534433 -0.20462829 0.4084301 -0.22139163 0.18569292 0.05177834 0.144926 -0.13035284 -0.2367171 0.23066698 0.6883119 0.4058347 0.07072167 0.78928363 0.088759676 -0.39983308 0.4286847 -0.29483956 -0.18964948 -0.37277445 0.11346753 -0.45218363 0.014871909 0.13979065 0.051004477 0.14427553 -0.028278323 -0.0104147345 -0.3345698 -0.22533473 -0.15969434 0.36914954 0.11730453 0.016590865 -0.5946915
26 -0.08977308 -0.12600231 -0.020963294 -0.22099681 0.14727059 -0.010785416 0.2644665 -0.07678279 -0.010887193 -0.17951567 -0.010563202 0.35861078 -0.20432228 -0.04583931 -0.31723383 -0.079490155 -0.102336034 0.044867665 -0.27072304 0.09472505 0.38236028 -0.2451722 0.24840562 0.17019235 0.11777595 -0.18049568 -0.41078347 -0.4612521 -0.034939867 -0.27187946 -0.017535647 0.07192883 -0.22036785 0.30916005 -0.28054607 -0.030276315 0.136153 0.03951739 -0.11076836 0.13778251 -0.16980287 0.16100721 -0.050750237 -0.020198455 -0.26734248 0.20840792 0.2977574 0.17981881 -0.029330583 -0.11818783 0.20569122 -0.19457646 0.4036655 -0.2943383 0.050310474 -0.15771097 0.13822566 -0.34821725 -0.5555234 -0.26590654 0.34280285 0.075626135 -0.1657355 0.3144232 -0.05696944 0.1797305 -0.31868058 -0.5737166 0.2512719 0.022401825 0.104632646 -0.41168198 0.44966298 -0.14523956 0.5186007 -0.09520072 0.08228497 -0.45179644 -0.019323181 -0.1750556 -0.0076412745 -0.30528605 -0.2718395 -0.28009152 0.33800265 0.14389822 0.17912127 -0.09213329 -0.0025560025 0.27588895 0.1834944 0.19593224 0.09158172 0.2750322 -0.27129194 0.35670492 -0.28094366 0.08089242 0.101300165 0.20400809 -0.2488336 -0.2237729 0.24207582 0.61162794 0.29452568 0.17659704 0.7925837 0.027127668 -0.36242786 0.46130964 -0.28826925 -0.21569474 -0.2759697 0.123458765 -0.47067523 -0.029478138 0.052451342 0.08797483 0.25073263 -0.03929833 -0.059889767 -0.353021 -0.2664736 -0.19761632 0.29769024 0.09491015 0.16510774 -0.62837154
21 -0.48138186 -0.3112251 0.017740006 -0.17074831 0.4638553 0.07806028 0.3086251 0.5751308 0.13769777 -0.101500094 0.08087062 0.3235864 0.13322724 0.16374233 -0.3094657 -0.19908307 0.26209778 0.36331227 -0.17136298 0.57452685 0.55621445 -0.19054386 0.044694133 0.45832285 0.21525405 -0.43385515 -0.23854135 -0.22017625 -0.0908082 -0.32008207 0.158602 0.038671635 -0.2737415 0.6104614 -0.54914004 -0.14703123 0.04078178 0.1616537 0.010151389 0.3449626 -0.6878051 0.42355114 0.17359008 -0.003110166 -0.29040113 0.22969572 0.37673837 -0.13636322 0.34621054 -0.24805568 0.01330941 -0.17522599 0.705741 0.17040125 0.100027256 -0.17177016 -0.063264415 -0.60126567 -0.3392897 -0.03829684 0.008190009 0.07513244 -0.3925481 -0.2948861 0.20560417 0.029826324 -0.20979348 -0.7043 0.29228064 0.16197966 0.27929872 -0.4171026 0.24040778 -0.018359374 0.51926863 0.060052812 -0.15931457 -0.30381337 -0.013368862 -0.05571601 -0.16525279 -0.46259132 -0.50469816 -0.30608338 0.12801175 0.14804822 0.19654417 -0.42613128 -0.104064785 0.313672 0.23290263 0.09072637 0.1529512 0.13589801 -0.33088574 0.66843414 -0.26848543 -0.18928602 0.5250055 0.22736026 -0.60035366 -0.30697814 -0.09529653 0.5090095 0.045844007 0.019483184 0.36009213 -0.2735605 -0.20118463 0.27099177 -0.053691838 -0.30239654 0.15850791 -0.12122273 -0.47530594 -0.0557332 0.2027297 0.18451685 0.0953639 0.11534877 -0.0011031687 -0.23350084 0.01414809 -0.046202768 0.115090296 -0.2468843 0.48009902 -0.64411783
60 0.09007106 -0.38659048 -0.2818639 -0.3063799 -0.41321036 0.20191538 0.13883883 -0.23337574 0.41836184 -0.09282577 -0.026412742 0.14652373 -0.15416771 0.1637144 -0.4884661 -0.3028561 -0.07464986 -0.3243548 -0.33634397 -0.23961498 0.2937828 -0.14433044 -0.084536694 0.3659562 0.025623512 -0.03565281 -0.033243895 0.055551574 0.04130225 0.026258847 -0.2649027 0.041731786 0.13676262 -0.24549702 -0.08819405 -0.08204722 -0.031115869 0.08989996 0.2575351 -0.12851675 0.07476788 -0.33224726 -0.30201966 0.17043063 -0.035898622 0.20701477 -0.018234586 0.23136838 -0.05546799 0.025365861 -0.10721237 -0.036276646 0.08463967 -0.0815659 0.29067045 -0.53398335 -0.21518333 -0.010236746 0.058892183 -0.06285996 0.093037315 -0.15117541 0.26031122 0.098382175 -0.31941882 0.09261511 0.2455551 0.11245012 -0.12715748 -0.24790391 -0.15032865 0.109852806 0.24901013 -0.07239272 0.44067305 -0.2946112 0.02964283 -0.30971587 -0.28438106 -0.3357115 -0.029998884 -0.04191528 0.1000794 -0.33823586 -0.33170357 0.009617173 0.13045728 -0.045814957 -0.1774366 -0.1043089 0.35905132 -0.05890251 0.23055807 -0.06640371 -0.3968032 -0.0018240899 0.118856415 0.041053753 0.41865945 0.21779373 0.08695618 0.008746454 -0.11367437 -0.143223 0.23023392 -0.114028424 0.37321004 0.06420566 0.020052172 -0.13656163 -0.26134512 -0.37594 -0.04718979 -0.17647317 -0.025692048 -0.0035861698 0.0874251 0.44788665 0.31687504 -0.16540152 -0.050653655 0.027803991 -0.20497999 -0.5740674 -0.26862186 -0.02866381 -0.09545786 0.32405823
20 0.059209254 -0.2795407 0.0899745 -0.13820721 -0.22675401 0.04110729 0.24782635 0.15562506 0.2561521 0.032889284 0.26091692 0.018411115 0.042582512 0.15391482 -0.00916908 -0.21572569 0.095097266 -0.037924632 -0.35867208 -0.32640737 -0.026727261 -0.25424007 0.137029 0.14399943 0.079682685 0.14317687 -0.061334312 0.29389742 0.2921834 0.1392423 -0.08057625 0.15462194 0.25757155 0.48227343 0.097577125 -0.11073901 -0.15358727 0.22919834 0.11397596 0.054601498 -0.16417335 -0.5772352 0.08936375 0.15621363 -0.16984099 -0.01844922 0.27975923 -0.31945306 0.29518712 0.17909233 -0.13881442 0.040251732 -0.1409354 -0.11870499 -0.014787858 0.17235246 -0.23775822 0.030744528 0.09716759 0.16459325 0.17496912 -0.097697474 -0.34283552 0.24881703 0.06956925 0.1458161 0.1283547 -0.2528506 -0.053329233 -0.37188652 -0.35354543 -0.13723652 0.12119212 -0.2814934 0.018579414 -0.16817544 0.4600639 -0.057231035 -0.41695258 -0.33748427 -0.15278693 0.16580518 -0.030989675 -0.13429011 -0.119183496 -0.034647353 0.18654375 0.11590716 -0.31380922 0.1503792 0.017144794 -0.048672773 0.46911055 0.25119287 -0.15199952 0.20087083 0.12827376 0.015173433 0.3852293 0.5252059 0.07709608 -0.34994182 -0.066944085 0.17249008 0.055452712 -0.2223191 0.22192924 -0.11044725 -0.12635592 -0.07625038 -0.09625518 -0.002693526 0.08027686 -0.057449028 0.47396615 -0.07162549 0.0412143 0.61953306 0.012868378 -0.10000455 -0.015001605 -0.13348046 0.22175111 -0.1633522 -0.38443843 0.20686962 -0.17570885 -0.10826593
8 -0.07838205 0.23029454 -0.5744051 0.2825899 -7.491009e-05 0.23497087 0.116468236 -0.12569363 0.3971578 -0.25068736 0.04537237 0.25261983 0.02789869 0.25484174 -0.16534586 -0.04565579 0.24070387 0.08519163 -0.28214177 0.5786096 0.5679809 -0.5014692 0.09780218 0.1564421 0.42253736 0.21688533 -0.24564104 -0.52381116 -0.45580694 -0.2016225 -0.3129821 0.24053358 0.53059417 0.20672144 -0.24632102 -0.13031441 -0.004289453 0.06577982 -0.073346 0.26172745 -0.18094212 0.15210238 -0.1389941 0.13635567 0.4875511 0.09450859 -0.079407595 0.09145403 0.14932822 -0.14824852 -0.053563353 -0.21670662 0.444933 -0.22236964 0.25572395 -0.11176764 -0.063121535 -0.9127799 -0.13242914 -0.48688158 0.5615259 -0.2820693 0.15385777 0.31976283 -0.03240718 -0.0074707717 -0.31253317 -0.21256217 0.15629193 0.39850217 -0.15819061 -0.21696278 0.72319466 -0.29520652 0.5885867 -0.252281 -0.3367228 -0.2694369 -0.08451704 -0.0035120843 0.06258017 -0.020506317 0.3239868 -0.11445787 -0.5109539 0.109023206 -0.20822741 -0.367109 -0.23041019 0.01188945 0.11069758 -0.1395442 0.25012454 -0.086501196 0.008115437 -0.1850347 0.19645469 -0.32393333 0.26846978 -0.0013103003 0.18914635 -0.047906023 -0.00021672036 0.48419008 0.1286015 -0.08581148 0.118792534 -0.23440312 0.09208942 0.055804886 -0.15050673 -0.8141825 -0.030805908 -0.09961952 0.08335372 0.16741222 0.25642663 0.32155952 0.42662135 -0.21332982 0.07809051 0.43093774 -0.21859583 -7.1568356e-06 0.20789318 -0.3224446 -0.32139194 0.39130118
41 -0.33369455 -0.31104627 0.009872726 -0.27031693 0.4100071 0.08504 0.27366367 0.6174444 0.14630874 -0.12006791 0.17877 0.35990554 0.011988718 0.116041526 -0.23796214 -0.144087 0.13713072 0.21756516 -0.14953446 0.52431744 0.49869126 -0.08286981 -0.04585322 0.59669363 0.1866845 -0.36596763 -0.24316056 -0.25816557 -0.1281965 -0.44153014 -0.021609198 -0.08684581 -0.30255952 0.5827083 -0.5192195 -0.1862314 0.076349266 0.101386026 0.033772912 0.31842184 -0.60842425 0.4004881 0.20615079 -0.008536879 -0.26987484 0.3427769 0.31894952 -0.09335845 0.2420285 -0.28522265 0.0438967 -0.09164844 0.5986324 0.061223034 0.097244345 -0.126509 -0.06385395 -0.5160857 -0.43297517 -0.104051314 0.034199577 -0.040269315 -0.3176546 -0.26851946 0.16179204 -0.04693018 -0.26492193 -0.7258015 0.26606572 0.048571598 0.17667784 -0.43199116 0.32783046 -0.067311436 0.54072875 0.006736545 -0.041828293 -0.32485703 -0.0845087 -0.041893866 -0.13028915 -0.43420973 -0.4904363 -0.317213 0.08138077 0.1720149 0.18252835 -0.4488827 0.071381755 0.28710243 0.3499132 0.068242736 0.116083935 0.19238393 -0.29377478 0.7946368 -0.2466079 -0.14191516 0.5444341 0.18740937 -0.60722417 -0.42283478 -0.13471296 0.5185193 0.17322263 0.092365675 0.42171606 -0.30056548 -0.2503852 0.3350534 -0.1044438 -0.26501304 0.08809408 -0.17486411 -0.5266415 -0.04030509 0.2473698 0.15633562 0.13349238 0.053100713 -0.020957392 -0.24559744 0.042867042 -0.1624156 0.12502126 -0.086411186 0.38952345 -0.6819742
16 0.01661423 0.15672965 -0.36111772 0.02689186 -0.25167844 0.3704876 -0.059427906 0.0739747 -0.013830176 0.13047464 -0.07147885 0.4317733 0.023258837 0.32941657 0.223769 0.02145536 0.028341338 -0.005745465 0.15860975 0.70099926 0.48820412 -0.15821752 0.20075396 0.4757665 0.4088092 0.25068706 -0.12196242 -0.3852028 -0.5527078 -0.08278847 -0.004335847 -0.023456575 0.0499078 0.2733327 -0.3060922 -0.16477102 -0.119201235 -0.19462326 -0.2158102 -0.36416563 -0.6553865 0.15935515 0.3042368 0.35737595 0.37065494 0.08258427 -0.029377947 0.24071804 0.20702042 -0.33021647 -0.02545838 -0.42022184 0.17007181 0.2203843 0.10452299 -0.062015194 0.11147847 -0.3977194 -0.5091826 -0.4290651 0.19114235 0.006712323 0.41424012 -0.54092145 0.06217855 0.14670408 -0.44904578 0.025508678 -0.37016964 0.031532623 -0.1376566 -0.4072254 0.6738325 -0.1681389 0.47953972 -0.038761053 -0.045706112 -0.16614373 -0.15009485 0.05053499 -0.28790173 -0.20862348 0.18725859 0.15036279 -0.44379535 0.11615886 -0.068180166 -0.5345662 -0.1113007 -0.21577005 0.04254627 -0.07291328 0.066339955 -0.24380407 -0.50684905 0.16256873 0.2312879 -0.13287099 0.3453294 0.26811635 0.21772732 -0.31417897 0.10300055 0.00958317 0.005050962 -0.12423987 -0.054996785 0.16821653 -0.049568478 0.023432076 -0.033434786 -0.54328334 -0.01168788 -0.1268038 -0.32793573 -0.093943745 0.10941006 0.23106748 0.07422099 -0.05198877 0.20802176 0.05908952 -0.06048502 -0.26592696 0.25462916 -0.23148039 0.13442174 0.15843143
40 0.06372055 -0.29790694 0.1383303 -0.07278888 -0.21317649 0.060336217 0.16415451 -0.036144093 0.18795556 0.003920921 0.22956522 0.077738486 -0.02465463 0.09356244 -0.028853822 -0.2686776 0.03955031 -0.15177934 -0.3126308 -0.35376552 0.03141824 -0.28416052 0.24149367 0.16899396 0.076174 0.15604255 -0.09793408 0.17240947 0.18507852 0.20409566 -0.073965155 0.124478765 0.23609293 0.41175643 0.073293395 -0.11749487 -0.104045466 0.15821971 0.089394 -0.010952066 -0.1004261 -0.5848818 0.12671378 0.1802988 -0.15642346 -0.0254613 0.12527019 -0.30809012 0.14999367 0.256979 -0.047976594 0.07566999 -0.17289244 -0.10577676 -0.04105611 0.14437999 -0.26262653 0.15091795 0.06868377 0.11106654 0.21016043 -0.146531 -0.25142348 0.32542485 0.11353937 0.09739756 0.07499963 -0.31727454 -5.5385673e-05 -0.3460456 -0.382166 -0.14922294 0.15902774 -0.22188628 -0.019324204 -0.117224954 0.5224801 -0.0034129173 -0.37462157 -0.2547516 -0.19723643 0.11482689 -0.0011599853 -0.11467044 -0.033705406 0.11033785 0.25077003 0.0051214583 -0.24235706 0.12209893 -0.010822162 -0.06700576 0.39949882 0.1944026 -0.1288077 0.2804693 0.080262706 0.034620967 0.3747746 0.38307893 0.087851115 -0.45018077 0.08315618 0.16845453 0.044770256 -0.2345371 0.29559782 -0.032965716 -0.134651 -0.067432284 -0.16646641 -0.025266988 -0.039457537 -0.05895338 0.43790528 -0.06950756 0.0046508964 0.5301996 -0.004039545 -0.18027547 -0.015279442 -0.18632974 0.20473641 -0.24895728 -0.35174912 0.3274895 -0.23453687 -0.13245499
55 -0.07299836 -0.28454882 -0.2485131 -0.18419832 -0.20119779 -0.022071052 0.085572995 -0.17643504 0.36611387 -0.14133249 -0.006856949 0.12622224 -0.23312286 0.12724838 -0.35948443 -0.23022407 0.048947565 -0.14331482 -0.26341826 -0.07234928 0.30160314 -0.13239607 -0.15020563 0.3579398 0.13961865 -0.18748787 0.06159077 0.060496695 -0.028713444 -0.12492886 -0.13802944 0.08035172 0.09246088 -0.18474433 -0.032179777 0.0022240535 -0.058552925 0.1115649 0.2843208 -0.0451958 -0.03252952 -0.2107267 -0.25404245 0.12715538 -0.069750115 0.16478649 0.07929766 0.22351295 -0.04609487 -0.02241931 -0.14954105 -0.026061678 0.15620998 -0.16914025 0.25729793 -0.52004844 -0.16576116 -0.08840738 0.0074146832 -0.045717552 0.026476094 -0.18259872 0.29596427 0.09508432 -0.3292262 0.034782313 0.23026761 0.027753802 -0.036206257 -0.24523637 -0.12885669 0.061817676 0.13282867 -0.051989798 0.28910747 -0.34964398 -0.052282028 -0.32254618 -0.31656992 -0.37336913 -0.004875414 -0.002186063 -0.058267057 -0.31454834 -0.34596387 -0.13301697 0.16059488 -0.029530795 -0.15293457 -0.0060905893 0.26760963 -0.13704732 0.28217855 0.014500601 -0.29294574 -0.12546758 0.11581896 0.113420874 0.3850071 0.28479886 0.08783563 0.06445449 -0.28411 -0.1828578 0.23392181 -0.18633565 0.24602927 -0.042116366 0.1008063 -0.09186884 -0.21112399 -0.20494829 0.07308356 -0.25252697 -0.027036214 0.016079783 0.14567679 0.45452937 0.21964566 -0.05910342 -4.3405802e-05 0.07497433 -0.117211185 -0.47076923 -0.36733645 -0.02484986 -0.25084814 0.33517462
17 0.1755004 -0.21888685 -0.2393316 -0.30342218 -0.147964 0.15906623 -0.23940706 0.5390096 0.5540695 -0.13319626 -0.0345672 0.3504697 0.22315413 -0.0662221 -0.628663 -0.20020206 -0.034222975 -0.06571449 0.027392691 -0.23362742 -0.06707123 -0.24638642 -0.040050887 0.23476851 -0.009713226 0.11841358 -0.15821189 -0.10308216 0.17203632 0.010014592 -0.096337974 0.06648922 0.10708745 -0.29914492 -0.24679932 -0.18227154 0.19720954 -0.28534937 0.08404089 -0.11684803 -0.12329052 -0.26489976 -0.17482978 0.32504037 -0.15310991 0.05265951 -0.03565384 0.42205298 0.26746324 -0.054703996 -0.22808015 -0.21570875 0.026549848 0.16865318 0.37610486 -0.16018572 -0.16757579 0.19225064 -0.07780638 0.071340315 0.016486576 -0.29553464 -0.0016668861 0.25902563 -0.28885862 0.30432004 0.11648494 0.29575554 -0.3881955 -0.05369967 -0.14820781 0.31722748 0.2599469 -0.0709217 0.33000743 0.091600224 0.23495848 -0.20913596 -0.11727892 -0.17334743 0.0140938945 -0.11944592 0.24141815 -0.056663953 -0.26896656 0.2227083 0.29732934 0.017789258 0.0035505998 -0.1487251 -0.039956857 -0.1706569 0.18996757 0.050603773 -0.15773605 -0.108800575 0.4044175 -0.25710124 0.19283475 0.1597044 -0.12542255 0.12259576 0.29455283 0.063610606 0.17248695 0.09950664 0.19192047 -0.06993918 0.0120722605 0.2122981 -0.119807065 -0.26943618 0.006309403 -0.19110438 0.03634415 -0.40944517 -0.18728268 0.35867527 0.10231624 -0.19590448 0.040199604 -0.07877551 -0.33967286 -0.64296454 -0.14760523 -0.43309358 0.07631851 -0.14099818
14 -0.058639966 -0.010249077 -0.2991048 0.022604242 -0.37808582 0.22711134 -0.08758201 0.11426138 0.0064429156 0.17536536 -0.05435469 0.4129932 0.056895994 0.1655286 0.07657903 0.01376196 0.105933696 0.07505893 0.35672283 0.6013969 0.3852334 -0.21984124 0.15115157 0.39529628 0.3727712 0.28920293 -0.12330554 -0.29020664 -0.41493893 0.1355467 0.0046452684 0.075455174 -0.0534166 0.42972144 -0.3338766 -0.1938947 -0.11107289 -0.22316197 -0.23248067 -0.25073013 -0.59585243 0.1251623 0.3297862 0.38461465 0.249051 0.07508406 -0.06395643 0.30072528 0.19902116 -0.32078806 -0.02695764 -0.3890221 0.12110197 0.15486716 -0.075208314 -0.066970065 0.14461167 -0.20679922 -0.5032788 -0.45062461 0.21757323 0.06387751 0.3893664 -0.378532 0.003583134 0.086379625 -0.46679267 0.1103376 -0.365325 0.052414622 -0.23815739 -0.38264897 0.569592 -0.014902414 0.28703997 -0.0301336 0.012382537 -0.13522898 -0.019350681 0.031471316 -0.19659214 -0.23930146 0.16930115 0.08571595 -0.2463224 0.084840424 -0.2208291 -0.42931858 -0.15215974 -0.1996715 0.018671598 0.032437976 -0.03511981 -0.32096443 -0.46767417 0.08841709 0.16188571 -0.01335152 0.2840977 0.29153556 0.117896184 -0.37383816 0.22746558 0.074894436 0.061872765 -0.124058425 -0.011699694 0.18167633 -0.15230249 0.06826809 -0.004487495 -0.4908467 -0.035178553 -0.009833704 -0.30503795 -0.14417018 0.078714214 0.30371734 -0.05475173 0.04203481 0.21166328 0.076671496 -0.051380616 -0.29452276 0.2406059 -0.16082603 0.20140386 0.0035986393
50 0.20626894 -0.3109688 -0.17716794 -0.17838697 -0.38867366 0.10914475 -0.045724943 -0.12150097 0.2603944 -0.014393078 -0.14754252 0.13982889 -0.13871941 0.08826647 -0.2894125 -0.07693435 0.033234738 -0.13849603 -0.1905681 -0.2077981 0.16000962 -0.23753546 -0.06540218 0.21724199 0.056821965 -0.11136836 0.060507257 0.09536035 0.06911783 -0.01570291 -0.090214014 0.051212147 0.14761934 -0.19940445 -0.055069238 -0.0047976146 -0.085921444 0.024638027 0.23426436 -0.1889312 -0.039480746 -0.36677033 -0.14101985 0.124504745 -0.11269081 0.20687672 0.06266203 0.08862329 0.116304375 -0.009571608 -0.1762979 0.027858322 0.06891793 -0.14179657 0.22931631 -0.3336587 -0.1465256 0.07709262 -0.024566274 0.07116837 0.11385731 -0.2250635 0.111320354 0.12893963 -0.21777642 0.08375057 0.1786581 -0.0707534 -0.13077584 -0.24066979 -0.17999814 0.10224464 0.17661871 0.037099022 0.2788466 -0.14550571 0.101678394 -0.16330314 -0.26156595 -0.27571818 -0.114316635 -0.08272937 0.013981921 -0.27547103 -0.22479518 -0.0009871162 0.20567597 -0.07899527 -0.28115758 0.023579272 0.2942451 -0.16131066 0.32563877 0.022678902 -0.25993374 0.043364022 0.16820627 0.0370891 0.42082182 0.2660433 0.03104763 -0.1284517 -0.06702823 0.013241532 0.23962551 -0.18779111 0.34121707 -0.01992488 0.021302015 0.013847369 -0.29636556 -0.24744962 -0.014594621 -0.1620583 0.073920235 -0.14740397 0.09303242 0.35468024 0.17021543 -0.13169225 -0.008696928 0.004195784 -0.11894961 -0.4479442 -0.26192412 0.03825905 -0.16791923 0.06446916
62 -0.23786098 0.053211145 -0.5946777 -0.08808915 0.26130572 -0.14809367 0.092040114 -0.055512305 -0.3223487 -0.5643465 -0.00089467183 0.117775455 0.24264887 -0.12431704 -0.5718624 -0.27636892 0.061551455 0.1701688 -0.33803132 0.32567358 0.3638885 -0.03257837 0.0747748 -0.0060925162 -0.08389982 -0.058912985 -0.10946444 -0.192942 -0.26987085 -0.5843666 -0.33769456 -0.1280486 -0.08470252 0.23441575 -0.24686664 0.37667724 -0.13615401 0.16637322 0.12964125 0.25129193 -0.5058927 -0.15580557 -0.10295814 -0.24815959 -0.11095199 0.10365299 0.47470146 -0.045627292 0.43025893 -0.14694457 -0.2736272 -0.11395974 -0.251681 0.084475465 0.1888032 -0.35583562 -0.411546 -0.09568888 -0.069929436 0.2751069 0.06739763 0.2533819 -0.15520568 0.07842898 -0.49052843 -0.08961064 -0.33394167 -0.6585583 0.1322701 -0.46303943 -0.34488294 -0.36884072 0.59788406 -0.24815995 0.24605758 -0.22036229 0.41838938 -0.1234983 -0.04240168 -0.45862022 -0.0026368555 0.047143236 0.1577477 -0.19532691 -0.1003526 0.017951526 0.26920387 -0.111464 0.301584 -0.026710808 0.20024529 -0.2976121 0.18538794 0.4480614 -0.24357374 0.16265331 -0.054351334 0.22377108 0.18333726 0.08579007 0.04106895 -0.04275977 -0.34425473 -0.09001183 0.06355819 0.4785093 0.22869684 0.061830357 -0.25404364 0.14615865 -0.38034979 0.065073036 0.15663606 0.07420603 0.20228659 0.06559673 0.12923743 0.015355152 0.25683522 -0.15695554 -0.17534432 -0.25657496 -0.109656185 -0.27235582 -0.0020318634 0.34475598 -0.21133971 -0.19253728
12 -0.015472421 -0.09972584 -0.4698086 -0.016319675 -0.28420645 0.2746672 -0.0979569 0.0074039665 0.20257851 0.07798533 0.05799295 0.43330866 -0.11487297 0.19102749 0.13665293 0.039695755 0.11245548 0.0039250557 0.29343516 0.6723501 0.5386136 -0.055223256 0.079863265 0.6207656 0.32265666 0.25598964 -0.09702089 -0.48667687 -0.60831386 -0.036251556 -0.16990492 -0.067037925 -0.10167644 0.33555657 -0.27472305 -0.31542668 -0.08934632 -0.10740555 -0.2412994 -0.1152303 -0.5562445 0.18307972 0.20384231 0.43626046 0.3061884 0.10052394 -0.059342396 0.24933621 0.036440343 -0.4013878 -0.032229148 -0.29129303 0.30653253 0.0433311 -0.034463104 -0.080280505 0.13795683 -0.3581989 -0.4583208 -0.45857182 0.18680353 0.06515392 0.42069653 -0.23167907 -0.035375334 -0.11532022 -0.37283772 -0.023596257 -0.1387271 0.06122648 -0.09100208 -0.30759665 0.48584396 -0.05892978 0.3127954 -0.016471101 -0.19025613 -0.18696712 -0.017634608 -0.057554476 -0.30701616 -0.17443126 0.12551978 0.13791779 -0.3442011 0.061327606 -0.19588114 -0.38510793 -0.10785417 -0.09779101 0.172384 7.90389e-05 -0.01530348 -0.27779183 -0.34311587 0.16006985 0.06460015 -0.12289614 0.31418663 0.16696973 0.012815051 -0.33498597 0.055252172 0.17031331 0.024234628 -0.11106598 0.08380558 0.06494728 -0.14951031 -0.002754693 0.011025648 -0.60497546 -0.0006761576 -0.037362933 -0.35905576 -0.00532559 0.24137865 0.19294512 0.18008763 0.010162011 0.27902633 0.101952665 -0.032329727 -0.22526139 0.28770232 -0.21406268 0.10797137 -0.0025637588
19 0.14356554 -0.16376415 -0.21232761 -0.18058583 -0.09502743 0.26788977 -0.2548287 0.4826742 0.5083969 -0.108331665 -0.1691181 0.32411632 0.2824194 0.06859483 -0.48269418 -0.07634567 0.020219661 0.06711475 -0.061380412 -0.07590123 -0.034403756 -0.3749437 0.06175544 0.09033456 0.011001426 0.060273383 -0.143675 -0.06860462 0.106477916 -0.06013539 0.10808594 0.08027984 0.20044747 -0.23444264 -0.2987375 -0.064858034 -0.015258854 -0.1737266 0.11184575 -0.18743093 -0.24273546 -0.30458143 -0.07081635 0.20635886 -0.14211044 0.025956916 0.05234992 0.23627481 0.43441933 -0.011330046 -0.2811326 -0.20486483 8.6483196e-05 0.25154856 0.37057373 -0.036997784 -0.20248267 0.08984203 -0.03736535 0.18921287 0.0371097 -0.23108952 -0.055915054 0.13593234 -0.10719662 0.3667172 0.07519834 0.048004705 -0.2822693 0.013984482 -0.047828957 0.23611963 0.20754923 -0.027414886 0.34116396 0.2526658 0.1884567 -0.17842472 -0.12138954 -0.04453764 -0.05457477 -0.05294953 0.104402624 0.035519864 -0.30074832 0.08937459 0.30238554 -0.09573388 -0.07270463 -0.1218552 0.05132414 -0.24535243 0.25698754 0.14404112 -0.028477175 -0.06368019 0.45311603 -0.32001886 0.24435444 0.14117886 -0.023384942 -0.10288202 0.23870966 0.12923275 0.10954471 0.030438548 0.06523772 -0.15874074 0.04532936 0.13385494 -0.17713672 -0.20382938 -0.008883801 -0.12755843 0.10509676 -0.462844 -0.12483914 0.15561289 0.082497746 -0.21719031 -0.029437527 -0.058589887 -0.20768008 -0.38519603 -0.08456782 -0.49249226 0.10947114 -0.2466412
57 -0.21150628 0.05109486 -0.48103118 -0.07921057 0.16802554 -0.006401071 0.12296867 -0.09781764 -0.35010484 -0.49665445 -0.07346961 0.14719231 0.23603426 -0.09633073 -0.52854687 -0.28468865 0.0102920765 0.13617952 -0.3618013 0.30913663 0.38276336 -0.07258522 0.08421312 -0.06848073 -0.07849246 -0.0819505 -0.1849324 -0.17933448 -0.20773467 -0.5960145 -0.24622215 -0.11102505 -0.012645487 0.21213223 -0.32329044 0.38792711 -0.059089307 0.14461303 0.07857008 0.26421124 -0.38446563 0.004128023 -0.06489613 -0.32323954 -0.13317445 0.13490726 0.44379237 -0.036387425 0.3498586 -0.1137743 -0.18741502 -0.15582903 -0.12589116 0.10214573 0.17549129 -0.34636852 -0.36941472 -0.17244847 -0.123881906 0.18541104 0.12544174 0.20859867 -0.06958141 -0.030055981 -0.4713909 -0.046323925 -0.35997126 -0.600651 0.021939017 -0.44650158 -0.23394376 -0.41248915 0.6018602 -0.20447332 0.4413883 -0.21409681 0.33720964 -0.23665096 -0.02638239 -0.46061832 0.04149483 -0.0022578523 0.07796462 -0.18405722 -0.02056377 0.049897917 0.15692118 -0.17513888 0.35437533 -0.0583866 0.25111127 -0.15745483 0.16719763 0.40833235 -0.2520687 0.093802296 -0.085442014 0.11978888 0.16113004 0.05118898 0.094542995 -0.1294151 -0.29150957 -0.030673215 0.08033841 0.44172102 0.23172103 0.08948994 -0.31783393 0.12861247 -0.41187268 0.0019017486 0.09144973 0.03926025 0.078476 0.13399102 0.22600074 0.06138661 0.20036064 -0.13496876 -0.26276165 -0.17799182 -0.16476385 -0.3340849 0.114172675 0.25111192 -0.08149762 -0.14062503
9 0.26668808 -0.19070686 -0.22063547 -0.24776098 -0.14126171 0.2391799 -0.2505499 0.5532125 0.5236828 -0.043556217 -0.1529127 0.3068149 0.21297379 0.059523385 -0.4435902 0.014806337 -0.0005997977 0.08460559 -0.060157225 -0.17209598 -0.08786627 -0.34455514 0.03342616 0.04308269 -0.01013792 0.02645687 -0.15134308 -0.06202739 0.19624695 -0.029169437 0.05250369 0.1257261 0.16472413 -0.20555928 -0.25807247 -0.09448988 0.029205598 -0.21467753 0.05348665 -0.19204725 -0.22730395 -0.2724842 -0.098045334 0.26702085 -0.16493028 0.07186599 0.048857596 0.30680966 0.4287492 -0.06969668 -0.26947355 -0.22340222 0.087409616 0.21609116 0.29597563 -0.00035529133 -0.122916795 0.096598916 -0.12235401 0.13915297 0.10819699 -0.23323323 -0.063658886 0.1714399 -0.100316085 0.36351952 0.09229865 0.091958694 -0.332565 -0.034785826 -0.058747854 0.22100617 0.2596591 -0.044046048 0.39039648 0.26525977 0.15656003 -0.25606787 -0.12957661 -0.08544528 -0.049285203 -0.07237671 0.13884656 0.057283334 -0.33652362 0.09629795 0.23223081 -0.05640432 -0.105439276 -0.08814268 0.10106973 -0.19615239 0.27997434 0.09187325 -0.069970116 -0.05654821 0.42068264 -0.30782968 0.2488917 0.14989735 -0.016873108 -0.016740732 0.2573015 0.198835 0.1499278 0.0147630675 0.18847373 -0.08094155 -0.03982938 0.1651667 -0.121562034 -0.28079447 -0.024421865 -0.13038822 0.08906569 -0.47899377 -0.09425605 0.19175465 0.08914118 -0.22914328 0.017903829 -0.050535966 -0.25534332 -0.43041757 -0.02016965 -0.53305995 0.10012249 -0.21838053
30 -0.057009943 -0.2628981 -0.36517885 -0.21390203 -0.36503318 -0.011807198 -0.015137608 -0.17408797 0.26103988 -0.11420744 -0.04389219 0.19218189 -0.24145538 0.050819077 -0.3434829 -0.26559666 0.041522287 -0.13510405 -0.08038055 -0.045488257 0.29351035 -0.09055903 -0.24256614 0.39749786 0.11256986 -0.06668086 0.03623036 0.023012558 -0.10260888 0.025506834 -0.11081364 0.063453026 -0.00431781 -0.15778768 -0.0043098293 -0.05718878 -0.029084718 0.02519431 0.19804625 -0.16599296 -0.08790724 -0.17620578 -0.29175365 0.185707 -0.010738604 0.15896311 0.041331057 0.30317745 -0.055228215 -0.15492359 -0.22752331 -0.11946355 0.12301515 -0.15356286 0.25703153 -0.49652472 -0.07702601 -0.02715043 0.02469409 -0.11175952 0.009197047 -0.05745033 0.40036967 0.07449988 -0.4291583 -0.005467106 0.11262714 0.23450477 -0.14107364 -0.20693222 -0.1595481 0.13627978 0.029754661 -0.013404549 0.1765884 -0.23475859 -0.010463707 -0.2526082 -0.20977382 -0.38172817 -0.05044556 -0.0128528895 0.042593047 -0.21777728 -0.24793233 -0.14626288 0.13774131 0.009268277 -0.20782909 -0.0032775793 0.18026233 -0.13086665 0.22344697 -0.12832865 -0.34109965 -0.17103133 0.09013019 0.14673488 0.32076505 0.3140103 0.050953362 0.069112085 -0.17601177 -0.19169648 0.18092325 -0.21010335 0.21544543 0.061092507 -0.00347339 -0.09263487 -0.16991644 -0.2600239 0.03436786 -0.22130626 -0.089219764 0.024051433 0.16108117 0.44433177 0.16415372 0.01748281 0.059708636 0.08938441 -0.1522191 -0.5124215 -0.25577784 -0.0281702 -0.15720478 0.29001006
61 -0.2277599 0.06556409 0.005911297 -0.08753877 -0.13333622 0.008499362 0.04374035 -0.116861485 -0.25157163 -0.11642146 0.10020209 0.3931673 -0.063774124 -0.12015165 -0.19369309 -0.3352612 -0.38009712 -0.16222766 -0.056750543 -0.020060012 0.1604596 -0.14676477 0.13419235 -0.053326603 0.17475687 0.23123202 -0.14058974 0.0016929971 0.043777645 0.0013406296 -0.013372067 0.09573568 -0.025049495 0.29815698 0.047163207 0.057616625 0.2853954 -0.24538848 -0.06322315 -0.13166183 0.0115222875 0.27803892 0.07502568 -0.093976215 -0.03991592 0.35474053 -0.074820615 0.09612629 -0.11699242 -0.09124268 0.06578734 -0.22572537 0.047799252 -0.1359144 -0.009348289 -0.037302546 0.06888484 -0.12907438 -0.34137526 -0.40013835 0.31436056 -0.08385684 0.14460583 -0.042173184 -0.20497134 0.14941423 -0.37701106 0.017988525 -0.2979565 -0.07073364 -0.17061405 -0.22283794 0.35724607 -0.12895682 0.30408898 -0.027233526 0.44553825 -0.16757545 -0.12578093 -0.044402137 0.11960532 -0.123354904 -0.00648102 -0.11355324 0.1643684 0.23270072 0.12488543 -0.17355637 0.12579806 -0.05021564 -0.12672663 0.09705301 0.068854615 -0.11680483 -0.30174214 0.14631677 -0.076840065 0.11287083 -0.06422569 0.10316157 0.13566667 -0.16261375 0.23337151 0.122667015 0.18135576 -0.031024639 0.3654565 0.35929835 -0.38009623 0.08890604 -0.22589819 -0.048882253 -0.3325171 -0.07067602 -0.15294516 0.18639526 -0.025242522 0.18216665 -0.27433425 -0.09604269 -0.13790047 -0.18778661 -0.14740236 -0.4470259 0.1974797 0.3457358 -0.09781498 -0.048888225
4 0.06836579 0.036629368 -0.22604184 0.012517382 -0.18145286 0.17953251 -0.096771844 0.22515944 0.008423903 0.08257131 -0.00893912 0.25659078 0.06330845 0.074410975 0.09562481 -0.020311454 0.16552722 0.13197209 0.14913553 0.4683566 0.35267267 -0.06960763 0.10753071 0.36198834 0.18415208 0.22983396 0.0064856443 -0.22845496 -0.33722 0.043388784 -0.02585097 -0.034336068 0.0043781023 0.30920866 -0.28164992 -0.117986284 -0.008041458 -0.19639525 -0.16624284 -0.10770929 -0.47549868 0.145546 0.23157682 0.30077684 0.2206914 -0.0664663 -0.061542492 0.093821965 0.2010108 -0.23585126 -0.00988789 -0.2608013 0.20499836 0.24137747 0.06797385 -0.027417133 0.0036009392 -0.20660934 -0.24888349 -0.2581209 0.15128605 0.032233547 0.13054052 -0.31256628 0.022232193 -0.0014265592 -0.2820077 -0.03565384 -0.31999558 -0.010997588 -0.08471431 -0.20660423 0.44505152 0.018898878 0.24292932 0.0117128715 -0.017526569 -0.0034763606 -0.043031648 -0.050173253 -0.21937463 -0.19037716 0.17706539 0.090659946 -0.1012869 0.16854428 -0.1533677 -0.33409643 0.013739782 -0.09470517 0.054743655 0.051271543 0.112845644 -0.27625027 -0.32174063 0.18261057 0.095648326 -0.12026405 0.19944626 0.14488001 0.03830671 -0.2921465 0.14036138 0.103044935 -0.10432779 -0.09386132 -0.029677913 0.0896993 -0.07759762 0.02418238 -0.016525475 -0.42416844 0.07906262 -0.056380928 -0.10898024 0.008904779 0.16746503 0.2665513 0.0796331 0.029923439 0.14147308 0.038921043 -0.03602909 -0.26824427 0.15145504 -0.14863636 0.20618622 -0.0034124914
