63 128
35 -0.048118178 -0.10836069 0.32738543 -0.14469835 -0.11917797 -0.15332867 0.32229972 -0.27181867 -0.12504658 0.24960443 -0.18701649 0.25105533 -0.033076737 -0.0128758 -0.11679448 -0.21373332 -0.09555637 0.15828545 0.19292152 0.16209191 0.021029618 -0.25534394 0.15899682 -0.21541865 0.11434054 0.21691844 0.055778924 0.07858405 0.22069354 0.10405288 0.21215431 0.16300626 -0.013007663 0.40266553 0.11318262 0.14537537 0.10409 0.012782517 0.20736857 0.26144686 -0.06688574 0.238773 0.23732303 -0.007278003 -0.09944959 -0.15420787 0.10748524 -0.30087537 -0.030710438 0.012092997 -0.07764632 -0.13504148 0.5453142 0.0448973 -0.27541164 0.14789267 0.02503651 -0.119594835 -0.29923782 -0.101710275 -0.07965166 -0.1627147 -0.036521465 0.2545217 -0.117219515 -0.26926875 -0.041404817 -0.2511783 0.027930953 -0.19527885 -0.22578189 -0.23491327 0.15376301 -0.1063161 -0.19041818 -0.33735552 0.06723833 0.163146 -0.069492236 -0.09370899 -0.32827654 -0.33934122 0.023325339 -0.4342826 0.12623416 0.27630278 0.1133641 0.29616758 -0.23301381 0.22481675 -0.038268317 0.24811552 -0.19306234 -0.007102138 -0.23801202 0.01204541 -0.5171535 0.30345348 -0.18524107 0.01965673 0.20455495 0.3409727 -0.2117048 -0.19453642 0.11633557 0.23443736 0.38856512 0.33335868 -0.004912789 -0.0266337 0.1267389 0.03158235 0.0013095726 0.0876881 -0.03424723 0.013847329 -0.0006172596 0.37452173 -0.32809624 0.42664966 0.09458166 -0.1728251 -0.13675942 0.011744127 -0.119178 -0.015954418 0.013120958 -0.04062794
37 -0.12299188 -0.092907414 0.35573786 -0.087878965 -0.096323065 -0.16803056 0.31995243 -0.2814693 -0.16218121 0.16372308 -0.13586684 0.26030502 -0.039879043 -0.016383272 -0.16183925 -0.19799224 -0.08208229 0.15504164 0.22839911 0.18387327 -0.042701986 -0.20980154 0.21955985 -0.23304287 0.056604326 0.20818909 0.039701387 0.061338164 0.20738983 0.048298746 0.19730385 0.12156908 -0.03550879 0.3601097 0.1923763 0.18385743 0.18880296 0.09016187 0.240502 0.26548356 -0.07478756 0.19863899 0.33507675 0.056073144 -0.16309173 -0.15266326 0.16403258 -0.3789486 -0.04207663 -0.032850526 -0.07825574 -0.09583623 0.528815 -0.0042018658 -0.23843333 0.097733185 0.020637631 -0.10583082 -0.34760052 -0.15643673 -0.10971874 -0.103256725 -0.11560768 0.32946292 -0.1794868 -0.36277306 -0.039088074 -0.31683105 0.008658354 -0.2482387 -0.19600125 -0.16840312 0.18745238 -0.1159804 -0.17660742 -0.39865762 0.040207263 0.23639525 -0.19346984 -0.026799986 -0.30545884 -0.35770476 -0.011550749 -0.4381319 0.14311631 0.2850172 0.13389382 0.27032724 -0.20933431 0.21436274 -0.049716298 0.3004951 -0.1468432 0.05421432 -0.20358627 0.086776935 -0.51428527 0.25462762 -0.18417214 -0.04554672 0.15357654 0.3228497 -0.18815015 -0.21635263 0.08060839 0.28760195 0.42668048 0.39536452 -0.0297146 0.007738045 0.17650194 0.06946303 0.08852008 0.120799676 -0.035265155 0.031699196 -0.018148057 0.40300363 -0.34141454 0.39094776 0.06848229 -0.1950556 -0.18258487 -0.05392554 -0.17687625 0.0744906 0.016205173 0.02197654
52 -0.12964219 -0.09027687 0.33777273 -0.100399524 -0.0921656 -0.13760215 0.2729973 -0.22036786 -0.13945659 0.14243618 -0.1498703 0.20963296 -0.027733736 -0.08016421 -0.16808371 -0.23923497 -0.08618139 0.19315816 0.23367345 0.15351886 -0.05900855 -0.18370472 0.22588292 -0.18379153 0.05515462 0.2328102 0.013690832 0.06948634 0.20327954 0.06207832 0.1673658 0.14833641 -0.08561071 0.35835484 0.1696226 0.12992004 0.12290175 0.008824952 0.22458865 0.29638463 -0.0804933 0.13073352 0.31553838 0.10845105 -0.10344053 -0.19385907 0.1373443 -0.3162624 -0.01708474 -0.069020934 -0.11097642 -0.10366122 0.5120136 0.11071745 -0.27844566 0.08739237 -0.052746966 -0.13060513 -0.30601493 -0.08063259 -0.070051424 -0.08467206 -0.13943608 0.2660926 -0.13225688 -0.3162903 0.026993178 -0.21891654 0.01992365 -0.22589964 -0.19740205 -0.13440458 0.2005072 -0.091669925 -0.17983463 -0.3458348 0.076212496 0.20744441 -0.11952993 -0.09366212 -0.22895646 -0.31932414 0.0068447012 -0.4424608 0.11195948 0.25049213 0.09469255 0.24139336 -0.2051546 0.26322803 -0.008890875 0.28017756 -0.1543756 0.007098132 -0.25970894 0.042669572 -0.44547778 0.19595443 -0.1810238 -0.022752464 0.0968713 0.318575 -0.18569213 -0.20534186 0.085723445 0.22800004 0.32728824 0.34226087 -0.015129486 -0.08080983 0.19029002 0.05843113 0.07398776 0.1014176 -0.05300011 0.010450553 -0.022561619 0.43936443 -0.36971128 0.4523962 0.1023701 -0.10783068 -0.18313284 -0.015075093 -0.18046789 0.021429561 0.055059224 0.0789234
50 -0.102452606 -0.14721017 0.28524098 -0.07816728 -0.15585284 -0.14122972 0.31049186 -0.2469071 -0.09839492 0.23104829 -0.13814504 0.2849825 -0.032142457 -0.026583135 -0.14669281 -0.21341671 -0.08561899 0.135811 0.17328583 0.15600546 -0.05658626 -0.19073176 0.20826152 -0.20143975 0.10848378 0.20647204 0.057718538 0.027241347 0.221271 0.081364445 0.19559996 0.09246559 -0.0530062 0.34373042 0.20706575 0.18517455 0.11876279 0.09353172 0.22717655 0.27654207 -0.053105086 0.18861404 0.27246884 0.047156118 -0.11601863 -0.22465159 0.18604007 -0.3765677 -0.05277092 -0.056005973 -0.12574664 -0.12965237 0.5206802 0.0023500696 -0.2448449 0.09348586 0.000104324004 -0.11098636 -0.30013698 -0.1122707 -0.10051243 -0.19296788 -0.035199963 0.25393322 -0.13425443 -0.28570378 -0.032767575 -0.23120809 0.027932387 -0.20793726 -0.22961852 -0.15098213 0.17142701 -0.13280207 -0.17906776 -0.31347156 0.060381435 0.21203084 -0.123407446 -0.10322637 -0.29874164 -0.34892112 -0.0005252507 -0.40755948 0.061747726 0.26399812 0.16920975 0.27384597 -0.21940352 0.21321584 -0.072160944 0.23969096 -0.17989656 0.054178458 -0.25704443 0.041528493 -0.45475963 0.21763219 -0.16998374 0.013196784 0.1710234 0.3478801 -0.2113875 -0.22565898 0.059109144 0.19781983 0.4160974 0.32863468 -0.044500235 -0.05039164 0.1319234 0.05393108 0.06489572 0.08778569 -0.020622233 0.024656884 -0.043367717 0.41774312 -0.350883 0.45477456 0.11567127 -0.14478521 -0.17027266 -0.015821477 -0.18437621 -0.027148277 0.036371432 0.06557815
22 -0.114088714 -0.1722993 0.29947615 0.033432722 -0.15048419 -0.14522485 0.2679869 -0.25503495 -0.12069647 0.1353547 -0.09329234 0.25455263 0.015944548 -0.023508642 -0.12860098 -0.17830524 -0.124990135 0.15961416 0.2327597 0.20436491 0.010274178 -0.24461795 0.25992543 -0.1700503 0.033039402 0.25775716 0.033077717 0.011164558 0.1919625 0.051238056 0.16611059 0.06640764 -0.09077655 0.304806 0.20104332 0.16494659 0.16690971 0.06880124 0.17628525 0.21114984 -0.043127593 0.1727452 0.29948452 0.06681694 -0.11572335 -0.13279893 0.16001712 -0.33626243 -0.0077460352 -0.09169541 -0.13792846 -0.121323995 0.513855 -0.056920886 -0.19611464 0.04599726 0.038879067 -0.090153895 -0.26548892 -0.17849894 -0.024724243 -0.15928715 -0.048166934 0.25790343 -0.10766216 -0.26724738 -0.0828981 -0.15433688 0.028855314 -0.14602308 -0.17398213 -0.08205369 0.16304556 -0.12980318 -0.10075819 -0.26754218 0.017484635 0.24679776 -0.13006933 -0.039303828 -0.23149043 -0.36745825 0.038192663 -0.39231977 0.09325127 0.26137304 0.18751328 0.22650705 -0.18115836 0.2222405 -0.03615267 0.30833218 -0.18478326 -0.042692307 -0.26902014 0.08333615 -0.42570838 0.13957413 -0.08884053 -0.081933215 0.12999892 0.33469358 -0.12186363 -0.20495944 0.00776177 0.18521781 0.37839428 0.35677356 -0.008828734 -0.07307605 0.16358513 0.03221534 0.078280665 0.118000455 -0.016546212 0.056391943 -0.056763534 0.44006187 -0.37258342 0.38538527 0.12212161 -0.13030912 -0.2229857 -0.055589065 -0.19330683 -0.020451851 0.074053645 0.10425364
51 -0.11378206 -0.12552647 0.36338344 -0.116982326 -0.08214816 -0.11801774 0.30290014 -0.23185669 -0.14328496 0.18134405 -0.07937044 0.22845836 -0.10726331 0.026742987 -0.15542415 -0.22596557 -0.10158155 0.116233386 0.16222209 0.08280477 -0.06717097 -0.20794421 0.23036467 -0.23746929 0.07845421 0.1646494 0.0322927 0.02569846 0.209813 0.087172896 0.20148899 0.12332379 0.003278021 0.4263276 0.16304019 0.21406607 0.13685738 0.082854144 0.2247361 0.2639457 -0.055913944 0.15632948 0.28130898 0.06548304 -0.14386497 -0.21351974 0.1760471 -0.32578287 -0.013569964 0.011298374 -0.09932692 -0.15814741 0.4632496 0.011390108 -0.22060198 0.07921023 0.024122952 -0.15964957 -0.26903063 -0.08917014 -0.09129498 -0.060484413 -0.07528841 0.28244126 -0.17273533 -0.25383326 -0.04596579 -0.28623334 -0.022077477 -0.25953475 -0.21726418 -0.19632256 0.19375259 -0.13873442 -0.16814393 -0.40971607 0.106823325 0.20343839 -0.19865501 -0.10039027 -0.32441193 -0.33097556 0.0066194427 -0.43315384 0.11846444 0.31988046 0.13105193 0.2042492 -0.2485582 0.122689 -0.09994503 0.2501951 -0.11742229 0.055172827 -0.22381265 0.026421946 -0.50118554 0.3008755 -0.24466132 -0.0009687192 0.2629661 0.31222188 -0.21777824 -0.21801957 0.0600487 0.23139577 0.43710586 0.37778023 -0.00907727 -0.048800953 0.11940228 0.12963699 0.057266176 0.11468755 0.042993844 0.023974752 0.049627222 0.43359178 -0.3642187 0.42882368 0.07080018 -0.16511108 -0.16419655 -0.045646288 -0.19008116 0.08289056 0.03401763 -0.008945727
36 -0.07643884 -0.1204055 0.32639924 -0.18741722 -0.15425406 -0.0865422 0.28473613 -0.21136162 -0.081788704 0.20799118 -0.101677634 0.23950066 -0.054900367 0.008761461 -0.11741524 -0.19503883 -0.07911945 0.060550556 0.14343601 0.009108614 -0.04851705 -0.21608132 0.13820587 -0.22022091 0.06836064 0.12136321 0.07480113 0.046585016 0.21037951 0.034848977 0.17918268 0.1420396 0.0071758274 0.33884963 0.11849635 0.15638337 0.1265129 0.08759532 0.23367609 0.14931317 -0.10932108 0.115912534 0.35434932 0.11545334 -0.13676926 -0.19287084 0.1835505 -0.3418253 -0.004314141 0.040389474 -0.14591642 -0.06793064 0.4717786 0.023404654 -0.2639249 0.13557471 0.0061162836 -0.17349608 -0.2773422 -0.046712916 -0.024332311 -0.13916866 -0.05959825 0.2598633 -0.16463883 -0.24134345 -0.051437754 -0.23187296 -0.07036592 -0.31242245 -0.19689289 -0.21225683 0.18912996 -0.14426892 -0.14478073 -0.43435678 0.10478612 0.19330357 -0.20144022 -0.10000549 -0.32778734 -0.38408026 -0.006816674 -0.3617629 0.07070348 0.2566121 0.11680282 0.2268169 -0.23700243 0.17767367 -0.048105966 0.239312 -0.16423683 0.060573865 -0.16991118 0.0007122616 -0.45056024 0.16819303 -0.22570223 0.03079286 0.24883668 0.3513794 -0.17900142 -0.19424067 0.04431464 0.21025929 0.4279601 0.4334726 0.030945923 -0.06707051 0.1514712 0.097615875 0.01559646 0.12106343 -0.031274173 -0.017847605 0.005327122 0.401856 -0.39646342 0.35745227 0.078920946 -0.07394777 -0.14015512 0.033769697 -0.21981886 0.07195276 0.09056482 0.07093435
20 -0.11508941 -0.038483895 0.39665666 -0.048545703 -0.08940919 -0.16454527 0.26686943 -0.2749342 -0.26184243 0.16441998 -0.10636557 0.1396761 -0.024723984 0.08154449 -0.099695005 -0.1995911 -0.08042344 0.1983896 0.3131994 0.11899608 -0.1028719 -0.2142765 0.2699041 -0.24688408 0.04669551 0.27708784 0.046152204 0.086072005 0.20922476 0.06333169 0.2295538 0.08394869 -0.030401554 0.4495217 0.21883245 0.28333783 0.08884023 0.020233428 0.23528203 0.30643815 -0.015782408 0.1530213 0.24250619 0.008959083 -0.06216868 -0.24288738 0.13147786 -0.28683293 0.009740309 -0.11599975 -0.03839538 -0.17092901 0.45555523 0.08973178 -0.19396238 0.16191037 0.0619716 -0.13550085 -0.31866926 -0.013719257 -0.106975265 0.025846297 -0.116345175 0.25822994 -0.1606206 -0.31749642 -0.037439935 -0.26573977 -0.0575839 -0.20790327 -0.22191751 -0.071118586 0.12316013 -0.080671825 -0.23053125 -0.30385932 0.049983833 0.23778397 -0.15762614 0.03636394 -0.3122842 -0.23462842 0.05831266 -0.3039991 0.23773754 0.30241522 0.04242554 0.22995603 -0.16045286 0.18479496 -0.08645346 0.23690858 -0.17795946 -0.04079785 -0.14414842 0.04659348 -0.4167755 0.2500778 -0.23128 -0.13378735 0.17522733 0.2454734 -0.10439808 -0.15111196 0.091698356 0.24922873 0.33080417 0.31113684 -0.057696905 0.010407074 0.18346381 0.087513044 0.0556118 0.16658558 0.04657495 0.050284363 0.057910245 0.35858807 -0.3087022 0.44517034 0.094480954 -0.12860018 -0.12940785 -0.07857278 -0.047369108 0.05219508 0.07821727 0.0010351891
21 -0.11191745 -0.06593568 0.31054732 -0.16712125 -0.13176554 -0.13535574 0.28810865 -0.26724344 -0.115407676 0.19572328 -0.12681983 0.24658203 -0.08574638 0.00055492495 -0.16944376 -0.2166305 -0.044431154 0.11627053 0.30355892 0.12609424 -0.016147416 -0.24696451 0.21771882 -0.23771457 0.06717384 0.16030452 0.05778447 0.05444517 0.17907666 0.067325756 0.24263436 0.10461185 -0.029074045 0.3385618 0.16773295 0.1656108 0.10104108 0.11335649 0.23966831 0.22025585 -0.11683465 0.13662297 0.33377054 0.085209176 -0.15836419 -0.17742415 0.1855187 -0.31876272 0.0010318811 -0.0435147 -0.109984085 -0.091801375 0.4809595 0.042307097 -0.25327402 0.050853483 0.008371443 -0.15961088 -0.33535412 -0.057585876 -0.071834296 -0.040265065 -0.10853367 0.28012428 -0.16978744 -0.3163307 -0.04872005 -0.28551257 -0.061056294 -0.2893736 -0.22492872 -0.14956361 0.22610588 -0.11737634 -0.17139919 -0.4118213 0.079711705 0.19813882 -0.19684671 -0.007876669 -0.31520963 -0.36624774 -0.010774388 -0.36641258 0.10042417 0.2825488 0.14390038 0.17163824 -0.20480642 0.17409445 -0.01577755 0.25710094 -0.18556708 0.039541457 -0.23937728 0.032049764 -0.42713404 0.15931904 -0.17298053 -0.0181064 0.16602865 0.270308 -0.18151075 -0.15966056 0.11970632 0.25215906 0.399401 0.36200088 0.032371253 -0.011301208 0.21325518 0.10026852 0.05412488 0.10739539 -0.039089877 0.06511573 -0.022558805 0.39765677 -0.37030238 0.382692 0.101799496 -0.09721288 -0.14482124 -0.041209623 -0.21713753 0.05754199 0.06659867 0.056969717
62 0.3450521 -0.4552512 0.1562795 0.035240397 0.052274764 -0.07793281 -0.08676685 0.036430288 -0.21999632 -0.03543253 -0.18804692 0.53723264 -0.21105933 -0.21351725 -0.03669764 -0.064430036 0.22149292 0.19165687 0.33051595 0.3993705 0.022188563 0.02058987 -0.09720498 -0.31816477 0.05323145 -0.14751196 0.28285438 -0.16980661 -0.08288964 -0.082524344 -0.021823728 -0.17275779 -0.1696733 0.28511167 -0.37557605 0.22805665 0.113202825 -0.28649628 0.03868565 0.34044647 -0.31659457 0.063765086 0.2127908 0.30158293 -0.0009355508 -0.23294403 0.02502099 -0.25828636 -0.26503253 -0.027997645 0.18197227 -0.18104193 -0.018428009 0.5102083 -0.41063645 -0.34577176 -0.32381475 0.15501694 -0.18902698 -0.071472175 0.06627631 -0.18220866 0.034912985 -0.16037627 0.019351294 0.07643996 0.1488621 -0.32198074 -0.10062484 -0.39568606 -0.34654 -0.23437744 0.21992883 0.2105851 -0.13214958 0.105550416 0.4091293 0.067214556 0.055772915 -0.22397037 -0.24075867 -0.2107558 -0.08940203 0.033418965 -0.16000073 0.41036618 -0.14382237 -0.18842936 0.121689364 -0.36849478 0.045247056 0.015240958 -0.031692903 -0.048769493 -0.3874013 0.022806954 -0.08078154 -0.120212875 -0.12126313 0.078155674 0.027360205 -0.3923217 -0.024052255 -0.29601017 -0.3496203 -0.112775415 -0.030615106 -0.21884924 -0.26533446 0.020051463 -0.35660338 -0.06736016 0.28765112 -0.099418975 0.32331067 0.2877754 0.22723185 0.5015853 -0.28694203 0.3861085 -0.30584547 -0.25050122 -0.11384544 -0.3794085 -0.12514141 -0.18021111 -0.08259703 -0.15384087
47 0.29351938 -0.40666392 0.106290646 -0.0095847 0.0103323925 -0.0019257284 -0.18474844 0.11351576 -0.1477099 -0.13214774 -0.11206927 0.383597 -0.15624344 -0.33683613 -0.077213034 -0.017525047 0.30841556 0.16114901 0.29671654 0.30390757 -0.001039457 0.037456993 -0.21852997 -0.3082748 0.00514664 -0.19150418 0.37501696 -0.21231109 -0.1024191 -0.14184968 -0.08370248 -0.2270012 -0.19455478 0.20572162 -0.38505536 0.16506164 0.12293422 -0.27045375 0.05241085 0.17339581 -0.3017037 0.05757891 0.3054001 0.37926984 -0.011000508 -0.23183502 0.012943987 -0.30954942 -0.18725902 0.03618059 0.10209018 -0.22713824 0.043159332 0.44794983 -0.40562278 -0.3226892 -0.3086166 0.09601167 -0.22708467 -0.05313316 0.007869887 -0.18049856 0.10337172 -0.25268048 -0.0016372607 0.08788689 0.18353082 -0.26551193 -0.22541498 -0.396319 -0.3310722 -0.19381256 0.22531673 0.18367447 -0.108554415 0.011679312 0.32147536 0.092428975 -0.0140496325 -0.21058075 -0.17316167 -0.35330138 -0.17565551 0.032008093 -0.14179125 0.46533784 -0.17716606 -0.25487635 0.1269657 -0.37691936 0.0069498634 0.049564008 -0.05020028 -0.13403265 -0.3590679 0.05355685 -0.123204224 -0.12999253 -0.14785211 0.0882397 0.06440309 -0.3377682 0.034634445 -0.26835534 -0.35672984 -0.12574457 -0.045329317 -0.056092456 -0.19484915 -0.0773954 -0.26441926 -0.042465992 0.33248392 -0.14207883 0.24817418 0.21543305 0.18262385 0.46139312 -0.32247365 0.3465489 -0.2426056 -0.14440995 -0.20127198 -0.35192427 -0.20438664 -0.031595726 0.054674774 -0.02077755
32 0.29607648 -0.3577867 0.047432594 0.029194241 0.05066809 -0.08400296 -0.12203507 0.06664206 -0.12249315 -0.11227826 -0.24144655 0.4167293 -0.12305861 -0.29534647 -0.09231927 0.005103845 0.24139611 0.16934754 0.20605077 0.33330986 0.046772283 0.06594413 -0.17333947 -0.20207776 -0.002513484 -0.13416615 0.2080597 -0.095059454 -0.08274962 -0.12780477 -0.08906551 -0.13036574 -0.12067042 0.16677421 -0.41146216 0.14215599 0.12998444 -0.22849742 0.022036951 0.24247818 -0.3064018 0.118763745 0.22515658 0.31150576 -0.010760782 -0.18242626 0.08833544 -0.26436076 -0.19757111 0.05979906 0.09614626 -0.18183064 0.025857942 0.45258412 -0.44526607 -0.3780759 -0.30453962 0.18514797 -0.1374422 -0.093925394 0.025007814 -0.17412132 0.054086592 -0.16086625 -0.020641511 0.08603991 0.17872456 -0.2506981 -0.13364398 -0.41882882 -0.35437855 -0.23641504 0.14282341 0.18818139 -0.13678421 0.05466459 0.37802988 0.038492266 0.08219983 -0.32256487 -0.22825362 -0.26875216 -0.0630994 0.014903151 -0.16206318 0.42402765 -0.12806436 -0.17743632 0.08339548 -0.34486973 0.0044266535 0.07028754 -0.040084258 -0.098226406 -0.40604252 0.0029984189 -0.12960519 -0.17595783 -0.13765498 0.118180156 0.08344886 -0.28367677 -0.02190899 -0.33719677 -0.3137704 -0.10336123 0.025987668 -0.14966989 -0.228742 -0.0032902772 -0.34096178 -0.065629445 0.2699108 -0.09415536 0.21850461 0.22151947 0.2446801 0.47749826 -0.2725776 0.3043391 -0.2198806 -0.1812574 -0.1610882 -0.3686134 -0.17504056 -0.14256224 -0.07815817 -0.087670736
46 0.33209023 -0.3222005 0.06702315 0.038533717 -0.042285006 0.031339638 -0.019556256 0.057617333 -0.1765494 0.016283073 -0.16492464 0.48904437 -0.24991156 -0.1483846 -0.10255029 -0.10187139 0.21681978 0.18445912 0.14516622 0.32007203 -0.023155594 -0.00744139 -0.037827674 -0.28183085 0.045178615 -0.11033848 0.21834865 -0.22237857 0.031652674 0.0077084866 0.02971137 -0.19522186 -0.18287145 0.23050031 -0.3674992 0.22520697 0.062089544 -0.21062994 0.057956737 0.25646025 -0.25395617 0.0885091 0.20178732 0.2636559 0.03002886 -0.19760567 0.0936965 -0.26396498 -0.19293606 -0.019031085 0.19906959 -0.255299 0.011309047 0.36835086 -0.37477592 -0.26200154 -0.18779254 0.09775284 -0.1702085 -0.11865428 0.026142502 -0.24511963 0.071189605 -0.19180799 0.049274 0.13966328 0.080770425 -0.25794128 -0.061706744 -0.29557437 -0.33313784 -0.2172105 0.20862234 0.17275846 -0.02950522 0.084543005 0.3197742 0.0367164 0.06999537 -0.22230758 -0.12927839 -0.26373604 -0.1097983 -0.04460874 -0.11798471 0.34704345 -0.081681125 -0.19948111 0.030519439 -0.30867657 -0.013113737 0.051337045 -0.04143106 -0.034768894 -0.38546926 0.0726962 -0.10308165 -0.058614664 -0.11977052 0.05810118 0.049855392 -0.36151925 0.012869666 -0.2945181 -0.3561463 -0.14491864 -0.0054033087 -0.19869182 -0.15252616 0.047473982 -0.37529078 -0.051879518 0.26119238 -0.101207174 0.29888928 0.24227457 0.24400792 0.45977715 -0.2567836 0.3310481 -0.29960486 -0.16523205 -0.18559538 -0.29169783 -0.1140969 -0.13952218 -0.1234903 -0.12177877
31 0.30445418 -0.41351932 0.17837265 0.12416835 0.005474442 -0.051377587 -0.12072554 0.016943172 -0.19447958 -0.081081055 -0.11691082 0.4530973 -0.18325928 -0.27435943 -0.07150965 -0.053779785 0.22411475 0.19569449 0.33728093 0.34143794 0.008006549 0.021468451 -0.054745622 -0.24018143 0.026279896 -0.13814664 0.31502187 -0.23005056 -0.10669311 -0.09926833 -0.023301447 -0.23475732 -0.23980847 0.21498823 -0.27791557 0.2558289 0.13801982 -0.25022736 0.06996704 0.23479545 -0.24915507 0.05443311 0.24445044 0.31048128 -0.020235095 -0.20879176 0.0503382 -0.255556 -0.16550347 0.012807871 0.12139358 -0.21055488 0.00419881 0.4164199 -0.3302691 -0.33268973 -0.28039742 0.12508671 -0.17189361 -0.100732535 0.009144175 -0.14721482 0.062113527 -0.1759548 -0.050456073 0.061804365 0.16808449 -0.28420183 -0.1281789 -0.37092414 -0.27906346 -0.16975968 0.15062606 0.2139699 -0.07585086 0.08020581 0.3424314 0.07998354 0.010219647 -0.23149155 -0.15438314 -0.21221945 -0.1266488 0.02086209 -0.13445367 0.3549634 -0.13715686 -0.19746089 0.12504089 -0.346512 -0.022025745 0.06530781 0.011148146 -0.029440997 -0.37292638 0.0745991 -0.10832261 -0.11829736 -0.12397813 0.07288982 0.022737345 -0.35827005 0.020139426 -0.30961594 -0.40118492 -0.12576124 -0.030263457 -0.12814453 -0.20870622 -0.002992732 -0.35160774 0.009442843 0.32592767 -0.09520482 0.28316897 0.26010165 0.23011997 0.4933474 -0.32558367 0.40272325 -0.2886218 -0.17565827 -0.16370688 -0.4124154 -0.1767092 -0.06516106 -0.014758969 -0.08780017
61 0.3417989 -0.5680815 0.18068415 0.09664009 0.06949342 -0.08369194 -0.12928426 0.102268115 -0.27801454 -0.089483894 -0.19282554 0.46897158 -0.20177801 -0.16508023 -0.06691086 -0.03226561 0.22236325 0.20237409 0.29864898 0.3627562 0.0057086945 -0.088924 -0.09627531 -0.26309913 0.06495109 -0.21016902 0.29731718 -0.21610497 -0.11509694 -0.14639331 -0.00798931 -0.21015331 -0.14682707 0.2584412 -0.38567823 0.2446759 0.112270676 -0.33856565 0.0027544713 0.32538286 -0.24491899 0.11113215 0.22591405 0.2150804 -0.06557061 -0.1871424 0.0835005 -0.20083216 -0.19755696 0.06727443 0.21101794 -0.3084481 0.08648765 0.36346865 -0.41667357 -0.38304278 -0.2540869 0.1326968 -0.22101626 -0.09060599 -0.024987137 -0.20529333 0.16714284 -0.14959797 0.035921276 0.13511448 0.15932667 -0.28547326 -0.14909889 -0.29301155 -0.35791636 -0.19457202 0.14764237 0.20095523 -0.12311744 0.09039888 0.3521994 0.06847847 0.08251595 -0.244841 -0.19915521 -0.23888975 -0.046556935 0.07959641 -0.0773849 0.52233547 -0.071804464 -0.22872098 0.14347142 -0.37218305 -0.047113493 0.08072927 -0.073938936 -0.08704756 -0.39891165 0.03790019 -0.08746097 -0.100380026 -0.1274331 -0.03270531 0.1206739 -0.40016425 0.061172888 -0.34637585 -0.40961775 -0.14800845 -0.051537357 -0.23983175 -0.22432497 0.053207327 -0.41778654 0.01397323 0.29365453 -0.14008135 0.3144137 0.28268722 0.38099742 0.5176689 -0.3162373 0.41530144 -0.28016818 -0.17369099 -0.19108891 -0.4205879 -0.13928582 -0.12972243 -0.08152172 -0.18364908
60 0.5608615 -0.13803832 0.11502733 -0.22995616 -0.17382886 0.29776737 0.17077245 0.147574 -0.116586536 0.28174463 -0.59631264 0.10503621 0.12407832 0.08465189 0.14000458 -0.21035476 -0.09362878 -0.066108465 0.07457586 0.06165381 0.16449007 -0.099321134 0.20000155 -0.21349795 -0.18963079 0.31676498 -0.024506198 0.35043794 0.12256836 0.48459986 0.34839183 0.02869865 -0.011760781 0.25923243 -0.30591327 0.11525737 -0.10101078 -0.1307127 0.19105607 -0.026889088 0.102097 0.2552472 -0.23721133 -0.0387817 0.022964079 0.10051071 -0.28591654 0.113047406 0.17169692 0.24309377 -0.08723606 -0.40667176 0.17386328 0.26065746 -0.08978864 0.18579873 0.22140162 0.2629707 -0.048699018 0.21050759 -0.3269464 -0.04806487 0.33230925 -0.41768909 0.11304855 0.36225823 0.05448618 -0.033081073 -0.35852084 -0.1261993 -0.22808786 -0.06464611 -0.26554662 -0.07753902 -0.037692428 0.30014697 -0.20843907 -0.28154188 0.14417478 -0.09858141 -0.25480083 -0.10237761 -0.1418483 0.41208082 -0.01972814 0.26972222 -0.05428736 0.09835363 0.11332236 -0.287821 0.15958336 -0.19885215 -0.19500788 -0.34615278 -0.24983238 -0.03868021 -0.05440093 -0.013868723 -0.09993591 0.19416368 0.4063092 -0.08634822 -0.032380622 -0.14049244 0.041298613 -0.40033656 0.32822165 0.07864408 -0.41891477 -0.011834423 -0.33110538 -0.011154674 -0.2152178 -0.03995243 -0.19506463 -0.1297819 0.05021358 -0.11447088 -0.27194268 -0.07638501 -0.15927391 -0.12955844 0.32920882 -0.1366813 0.38776848 -0.20730086 0.47538394 -0.23955908
44 0.4322335 -0.16483448 0.098603696 -0.22816867 -0.16971208 0.17962047 0.1849418 0.0682357 -0.15313497 0.31231257 -0.49475017 0.18643054 0.06045128 -0.017318891 0.12116357 -0.28780296 -0.043518923 -0.029062258 0.08278621 0.09699315 0.20276846 0.051598076 0.19343488 -0.1421666 -0.13036808 0.25853705 -0.035224337 0.30057862 0.17013463 0.4758746 0.36899698 -0.05405428 -0.07465357 0.25915068 -0.30177072 0.028312461 -0.039933693 -0.13547087 0.1374042 -0.094825275 0.13051154 0.32046813 -0.28504038 -0.038446274 0.00920993 0.09078536 -0.27177742 0.1457696 0.06097812 0.16490841 -0.14943877 -0.4300569 0.2097902 0.1913053 -0.13299717 0.2200166 0.21399249 0.2647696 -0.08026001 0.25296673 -0.41104174 -0.07717847 0.40234536 -0.39754835 0.1744416 0.40406042 -0.023420483 -0.03415308 -0.26989833 -0.12863614 -0.106777705 -0.12969345 -0.24275574 -0.17308815 -0.08144921 0.35538864 -0.1248433 -0.3370632 0.19650915 -0.1677028 -0.33012742 -0.15342245 -0.17212036 0.4326556 -0.07995147 0.21972091 0.07326826 0.10156938 0.16937132 -0.2924189 0.06717262 -0.23557447 -0.18965374 -0.27486467 -0.25873065 -0.12620682 -0.18608183 0.059123185 -0.15743509 0.23258227 0.50342727 -0.022158463 -0.093843065 -0.14999856 0.053982656 -0.3746733 0.45413992 0.06783433 -0.42974448 -0.06770403 -0.3875809 0.042007383 -0.19655989 -0.06384283 -0.23197271 -0.112804666 -0.061386578 -0.23521459 -0.13808425 -0.16239762 -0.022997975 -0.2172953 0.3189631 -0.044467874 0.42667308 -0.30721074 0.41991332 -0.24392925
59 0.5008757 -0.15247977 0.13096578 -0.20443727 -0.19778723 0.30736136 0.17940232 0.1531449 -0.20926638 0.3219197 -0.5042603 0.20472871 0.09767538 0.05081698 0.16951954 -0.28298604 -0.024898466 -0.0044467547 0.0598934 0.069044165 0.1879047 0.060484514 0.14911006 -0.20734213 -0.19578075 0.32013783 -0.02394053 0.34393713 0.1387825 0.45982662 0.31842762 -0.07989857 0.026776612 0.3200473 -0.29470757 0.043907344 -0.015816284 -0.1580825 0.12299118 -0.13383421 0.14616579 0.29570475 -0.22217281 -0.010312665 0.08026656 0.07030047 -0.25799173 0.10142385 0.12565544 0.14138515 -0.07887299 -0.44262236 0.2223856 0.19591533 -0.04381516 0.33670986 0.19327831 0.24127322 -0.086046405 0.2581788 -0.37181988 -0.091924235 0.411563 -0.4136908 0.16292728 0.36743736 -0.01594661 -0.041547853 -0.38293785 -0.21095742 -0.08307299 -0.1061434 -0.219991 -0.16484028 -0.024203403 0.3792415 -0.12352216 -0.2867 0.09063797 -0.083360046 -0.2912711 -0.20877948 -0.18475065 0.5387883 -0.05705683 0.30896735 0.042514063 0.13705008 0.2625684 -0.32490468 0.094550945 -0.21370734 -0.18807924 -0.25263968 -0.1553727 -0.071837544 -0.20379326 -0.011687986 -0.14696446 0.20031612 0.5138654 -0.05963003 -0.07930503 -0.10348545 -0.0026327062 -0.4015791 0.4386674 0.15591381 -0.41031423 -0.07911244 -0.36273542 0.031940512 -0.17155702 -0.088759996 -0.16582909 -0.07596873 -0.108306535 -0.25520828 -0.15692313 -0.19688347 -0.0452195 -0.25762329 0.36926132 -0.101997904 0.47346115 -0.28764033 0.5020865 -0.19270404
45 0.44878548 -0.14828071 0.1632916 -0.20305459 -0.15423605 0.2314464 0.17305586 0.12689546 -0.2228471 0.29016948 -0.50674164 0.13562657 0.050415087 0.06004703 0.1187532 -0.25513917 0.003983156 -0.0020495635 0.15446295 0.050482675 0.14969486 -0.0019982029 0.13833636 -0.13944663 -0.14113884 0.2766501 -0.010276225 0.36012802 0.15850595 0.4570313 0.3646921 -0.11317534 -0.015893755 0.33532962 -0.25501615 0.08989813 -0.0763071 -0.13975838 0.19092321 -0.09667176 0.18491766 0.27913722 -0.25664526 -0.08323988 -0.0049058003 0.036774334 -0.22610664 0.20375997 0.14691907 0.19740815 -0.080667704 -0.46559468 0.19347802 0.17574908 -0.09461916 0.19538511 0.2570173 0.20931533 -0.11358608 0.27636263 -0.4247898 -0.025945144 0.41265973 -0.37941337 0.057829127 0.40233013 -0.01689101 0.00027153682 -0.3684742 -0.1390324 -0.1491724 -0.0714853 -0.29175183 -0.14297386 -0.06708333 0.34751543 -0.109175496 -0.34161538 0.15831052 -0.12613827 -0.30319762 -0.1337568 -0.13098718 0.5141149 -0.017427493 0.26899943 0.063261084 0.06563079 0.19161649 -0.36626685 0.01701171 -0.21699768 -0.22365138 -0.27467838 -0.23689601 -0.0980197 -0.1407247 0.01393288 -0.16218632 0.24761018 0.46919447 -0.050864555 -0.04773884 -0.082338214 0.1094005 -0.3816695 0.43422103 0.07156413 -0.35072604 0.033442076 -0.34925053 0.09021227 -0.20772009 -0.061872512 -0.2324963 -0.05735564 -0.036209896 -0.245405 -0.16901997 -0.14235377 0.0044967853 -0.20103653 0.34248155 -0.15327168 0.46350008 -0.2689636 0.42526534 -0.23978773
3 -0.16724558 -0.17924045 0.023123851 -0.49000055 -0.24954702 0.3049032 0.18135189 0.20877887 -0.19232108 0.0851736 0.1849244 0.09989371 -0.3236041 -0.2879159 0.13413331 -0.3250511 0.35400206 -0.31087688 0.044643465 -0.35385773 -0.4368474 0.401877 -0.02903524 -0.3606492 -0.14496481 0.089395635 -0.11600526 0.049704533 0.37801167 0.6524194 0.24475199 -0.06628816 -0.21503308 0.44175664 -0.102237545 -0.19145985 0.061844893 0.23550056 0.32657477 0.28628883 -0.10567112 -0.6366758 -0.0053354264 0.5748515 -0.4446533 -0.3333384 -0.28342244 -0.22552368 -0.4117022 -0.08958047 -0.18930884 -0.2678181 -0.42342973 0.5328716 -0.23185061 -0.36146393 -0.3394063 0.2642174 -0.4066592 0.23553695 -0.34373158 0.09432389 0.1642771 -0.06480172 0.06993356 0.22527632 0.19509465 -0.2092665 -0.23915087 -0.4100041 -0.4801409 0.27199867 0.17027667 -0.21969898 0.031153945 -0.019542305 -0.14366437 -0.1251786 -0.29315397 -0.15262133 -0.06677411 -0.085573524 -0.43358463 0.28210983 -0.3812067 0.2228271 0.037977207 -0.34787503 0.22915733 -0.5819869 0.14445767 -0.1478873 0.109901555 -0.08790071 -0.45765987 -0.13695104 0.08347308 0.09683479 0.1055398 0.2525356 0.10633352 -0.4033276 -0.51081306 -0.10581489 0.18923229 -0.06071248 0.3753838 0.07560137 -0.25532722 -0.43918678 0.025375936 0.18481955 0.4021865 -0.097976245 0.010456262 0.0010079928 -0.4634731 0.29007646 -0.029379029 -0.112255044 -0.20792025 -0.2818665 0.14653438 0.14747113 -0.50614935 0.03706207 0.5460781 0.41642118
30 0.52543503 -0.08140177 -0.016464466 -0.15267216 -0.1820443 0.26008213 0.13939625 0.12922686 -0.13520649 0.24527994 -0.57430553 0.15728137 0.08991436 -0.0076134447 0.079868056 -0.21419807 -0.00040517346 0.081142746 0.057331678 0.13965379 0.14920452 0.048557125 0.19275989 -0.22776969 -0.2248864 0.30883828 -0.048260536 0.29207635 0.044626378 0.4487285 0.29913643 -0.05029579 0.023438541 0.20801193 -0.30338103 0.05751886 0.01968033 -0.21087117 0.07534233 -0.056633122 0.1329928 0.30758807 -0.19610646 0.03316517 0.08098682 0.06370295 -0.23444709 0.11160442 0.1763074 0.112717934 -0.08217423 -0.4717976 0.29651713 0.18366887 -0.023002036 0.24680392 0.19259878 0.2639927 -0.09587931 0.21978515 -0.38387078 -0.051289424 0.3769311 -0.4083291 0.1788375 0.36734417 0.010578494 -0.048347365 -0.40146807 -0.21152586 -0.11050098 -0.08590135 -0.195564 -0.19917928 -0.09460396 0.29045618 -0.1984771 -0.23432653 0.060748048 -0.07133073 -0.2783923 -0.22929938 -0.22780289 0.49113223 0.013098488 0.33830658 -0.026315382 0.15639286 0.22401755 -0.25530237 0.15245277 -0.26509488 -0.1837077 -0.21480949 -0.17462434 -0.13334914 -0.19934492 0.009637472 -0.20937204 0.20957623 0.4906826 -0.07206879 -0.052807957 -0.16830795 0.036276046 -0.41562602 0.4209798 0.16809456 -0.47632673 -0.05912434 -0.3445624 0.002949518 -0.21002693 -0.11463939 -0.24602401 -0.16041668 -0.10427642 -0.21408819 -0.23070726 -0.059479244 -0.044627927 -0.19832489 0.3083589 -0.09111116 0.48934904 -0.2577123 0.53808755 -0.21328537
9 -0.1625276 -0.1667624 -0.20211516 -0.4521809 -0.27061316 0.29609472 0.11954137 0.18128492 -0.073960915 0.050132863 0.20652293 0.22294039 -0.3342531 -0.27974826 0.119400814 -0.2148671 0.27669254 -0.22106238 0.0016826841 -0.2452555 -0.45677382 0.38678107 -0.0702792 -0.49125704 -0.22021908 0.039349187 -0.1252899 -0.06540672 0.19460618 0.55108386 0.20015545 0.054582298 -0.12896964 0.29886267 -0.083940335 -0.21631794 0.15257716 0.1755713 0.18317659 0.30906197 -0.14801632 -0.5529377 0.012553096 0.59145653 -0.42740285 -0.29436496 -0.2808196 -0.21802533 -0.39993238 -0.20445429 -0.24241571 -0.22818881 -0.3156751 0.40741262 -0.100611426 -0.41166136 -0.41391912 0.26649478 -0.36909875 0.13253242 -0.23532231 0.039282333 0.16550013 -0.09274396 0.08183053 0.17427494 0.244135 -0.24880067 -0.27025348 -0.39718 -0.43713608 0.27846804 0.2395054 -0.2520606 -0.031047173 -0.06688471 -0.22326331 -0.027769635 -0.40533653 -0.11162527 -0.034182042 -0.15801679 -0.453414 0.27257088 -0.3894078 0.29675856 -0.0037483342 -0.26662332 0.26791936 -0.5174387 0.29090536 -0.18037176 0.15649068 -0.0018339455 -0.3774569 -0.2533357 0.10410156 0.06000264 0.043803032 0.26392692 0.13778493 -0.43320277 -0.49285978 -0.14161658 0.16558799 -0.13767739 0.34889343 0.13234209 -0.2664496 -0.4956631 -0.03847722 0.14991097 0.34435043 -0.18340454 -0.07399939 -0.07446695 -0.54812354 0.27792016 -0.1245415 -0.009633056 -0.19444886 -0.27968952 0.15399553 0.1848298 -0.48760393 0.011718389 0.5274477 0.3906405
4 -0.16105409 -0.16977774 0.4956984 0.016349128 -0.09501891 0.32408658 0.23056969 0.4181765 -0.2372078 -0.012353867 0.034420997 0.4137206 0.16720517 -0.08215013 0.06582325 -0.28282282 -0.4396983 0.12016423 -0.06861814 -0.18134975 0.015958775 0.15427665 0.37658933 0.035484545 -0.3355067 0.4089063 -0.2317214 0.24134204 0.2034008 0.12225864 0.09895457 -0.0048165647 -0.24171394 0.4218612 -0.048112977 -0.35610816 0.62556696 -0.27648377 0.059668157 -0.13615845 0.017226027 -0.22548273 0.48651934 0.48505995 -0.27473032 0.12537202 -0.2158705 0.08318927 -0.03973852 -0.37258095 -0.031040182 -0.22019926 0.5389681 0.03578154 -0.05534364 0.22680219 -0.013841407 -0.008957491 -0.4649637 0.22000161 0.062553674 -0.2681212 0.101409584 -0.11781688 0.10703576 0.2440377 0.26217636 0.2797234 -0.52359676 -0.2765958 0.55730814 0.19835569 0.09584838 -0.2185919 0.42379236 0.3650073 0.10903125 -0.19375533 -0.2493588 0.13881409 0.27434656 -0.48989722 -0.14631914 0.4764213 -0.034923628 0.3921429 0.17395279 0.29098502 0.5128084 0.062434494 0.33274356 0.21126488 -0.17762846 -0.19468117 -0.16507335 0.17791483 -0.20902185 -0.5991703 0.02635879 0.2197465 -0.122670114 0.026733605 0.3259562 0.15514876 0.0019070514 -0.4007764 0.5020503 0.85031295 -0.30046555 -0.35824502 -0.14515015 0.05087177 -0.15861574 -0.08809274 -0.7170308 -0.11800757 -0.4202239 -0.05851331 -0.45666352 -0.45786077 0.11420987 -0.42152765 0.20501298 -0.40867332 0.43974832 -0.11325991 0.75177634 0.30630407
10 -0.15892714 -0.08440265 0.37461537 -0.10109612 -0.106245026 0.36468822 0.2157959 0.41905177 -0.12859562 -0.00944386 -0.007483188 0.27843854 0.17740281 -0.16323566 0.00040952122 -0.30428267 -0.3680168 0.12155963 -0.09897201 -0.24582523 0.122003146 0.16892551 0.30535936 0.09475563 -0.37485832 0.3756078 -0.25981542 0.2475124 0.18650182 0.1841959 0.09766839 0.017757626 -0.22712351 0.4025984 -0.13050483 -0.41785786 0.48929253 -0.22445092 0.06514774 -0.25271544 -0.006962785 -0.12574495 0.4797009 0.47424757 -0.25676155 0.1847415 -0.20287332 0.06781897 0.07178632 -0.26272044 -0.18498924 -0.23216943 0.5843026 0.12103658 -0.17084041 0.19219644 0.0072314455 -0.018065406 -0.44795176 0.2739776 0.013041624 -0.19916812 0.13463645 -0.21598116 0.09956799 0.27362877 0.26964796 0.2406726 -0.51369816 -0.2906873 0.459193 0.13675468 0.084439695 -0.21829525 0.38447776 0.30451098 0.104759485 -0.25579557 -0.1916322 0.040324632 0.17683026 -0.53304845 -0.15715131 0.43043837 -0.09789832 0.42417222 0.137264 0.18013233 0.38567865 0.0489283 0.34917077 0.18312068 -0.16560347 -0.29714647 -0.23251249 0.13932589 -0.23596193 -0.589326 0.044700675 0.2988164 -0.029962713 0.08813132 0.26649937 0.11207804 0.07697296 -0.4186538 0.56745756 0.82293713 -0.20685543 -0.41692922 -0.17525822 0.028846322 -0.1773171 -0.10895188 -0.74477565 -0.20593196 -0.37791508 -0.10296004 -0.40799278 -0.54157084 0.19218898 -0.31041878 0.18826431 -0.36343247 0.37603214 -0.09964641 0.7437323 0.2805818
29 0.4869477 -0.10810547 0.200207 -0.17920734 -0.162502 0.31583598 0.20012163 0.15134093 -0.16970721 0.2661904 -0.54637647 0.19952726 0.03659223 -0.018436575 0.07175035 -0.29064447 -0.007972121 0.014497606 0.19732493 0.11555799 0.112342246 0.0139158135 0.124870054 -0.18901281 -0.17090829 0.31169742 0.0560157 0.3174551 0.15942672 0.438558 0.32965687 -0.16681215 -0.028783724 0.2514576 -0.2549489 0.07174925 0.0066330507 -0.16577503 0.18911476 -0.13465798 0.20484307 0.26605397 -0.20502117 0.026483973 0.045919787 -0.02123105 -0.20348464 0.20450872 0.16997191 0.16521446 -0.08339522 -0.44016424 0.22059163 0.21176583 -0.044552 0.2815809 0.20882557 0.20011373 -0.06802104 0.29069713 -0.4740598 -0.030759327 0.43868765 -0.43189913 0.039434355 0.35080534 0.05488275 0.068688005 -0.4059114 -0.20740792 -0.04530634 -0.07420052 -0.33035675 -0.16031745 -0.073567644 0.34114692 -0.14190772 -0.33308342 0.13017589 -0.14794336 -0.29517663 -0.15437767 -0.1631047 0.53761655 -0.08362417 0.2249747 0.030986223 0.15537913 0.19972812 -0.3534078 0.032997012 -0.23017101 -0.22461914 -0.18296054 -0.20244117 -0.10045703 -0.1405329 0.0053292024 -0.22994548 0.30284366 0.47684067 0.03240261 -0.08710149 -0.10763649 0.04625134 -0.42685142 0.38499236 0.12693617 -0.37191308 -0.04793239 -0.26834685 0.09433627 -0.17919938 -0.06563683 -0.27453798 -0.072903894 -0.1059789 -0.19814433 -0.24560298 -0.054516256 0.020621734 -0.19767104 0.35973725 -0.14050165 0.49767345 -0.2975985 0.5203314 -0.17424491
15 -0.15875965 -0.16180319 -0.13052367 -0.49389717 -0.26659486 0.31787255 0.15095222 0.17515163 -0.16008058 0.039432246 0.16969404 0.12506185 -0.33689323 -0.26766744 0.11183181 -0.23159167 0.35261703 -0.26658207 0.03600383 -0.28571755 -0.52718395 0.4055059 -0.13301887 -0.4258869 -0.20041081 0.034332797 -0.11300467 0.043651693 0.27508292 0.56233335 0.18887319 -0.0065827267 -0.16073215 0.3351476 -0.06763665 -0.16124916 0.10389055 0.19746605 0.32508466 0.27662802 -0.08398434 -0.57680315 -0.04298936 0.5435029 -0.43608046 -0.3311806 -0.32468587 -0.17595854 -0.39168882 -0.1433922 -0.23236386 -0.2387873 -0.36615175 0.44799754 -0.15598753 -0.40239495 -0.37430698 0.27490553 -0.38660586 0.1970604 -0.3467699 0.09074622 0.16318531 -0.11056045 -0.0010594423 0.175656 0.22138402 -0.22376911 -0.26252604 -0.3681154 -0.48396477 0.3005839 0.174937 -0.24095006 -0.0787695 -0.03557259 -0.25257388 -0.07392359 -0.3524999 -0.13678439 -0.040110976 -0.12248805 -0.46239024 0.27800196 -0.36698797 0.24640054 -0.006612346 -0.28727028 0.2493569 -0.58021927 0.21372399 -0.17368451 0.11571104 -0.040858246 -0.3795741 -0.21954012 0.096897975 0.11408993 -0.01357814 0.273322 0.15837567 -0.38805607 -0.51784974 -0.14579718 0.23373906 -0.1397695 0.39989373 0.12356575 -0.25140187 -0.44165733 -0.0195229 0.18762788 0.35509145 -0.134992 -0.117265165 -0.05689154 -0.54849327 0.24460451 -0.114046656 -0.019675348 -0.18078436 -0.2780406 0.17887865 0.19015627 -0.42054543 0.026066694 0.55053407 0.4023278
56 -0.29822218 -0.34982792 0.25648835 0.12606487 0.33058113 0.08553048 0.29310688 0.0069176625 -0.21233994 -0.26779807 -0.1173882 0.295708 -0.12666026 -0.12233175 -0.43162474 -0.24669255 -0.19208558 -0.1408032 0.15136886 0.45031238 -0.06407942 -0.027817426 0.40055528 0.13920783 0.04163584 -0.11851497 -0.61121416 -0.017104764 -0.26905394 0.09248762 0.04079378 0.08912379 -0.5315673 -0.096522495 0.102869846 0.118216574 0.359719 -0.00059020316 0.18550842 -0.02072674 -0.045539454 0.09311805 0.12381274 0.23879157 -0.2420893 0.25265735 -0.1612661 -0.073945776 -0.049874354 0.09186069 0.0026078618 -0.03780543 -0.016863057 0.13407713 0.09975361 -0.38825008 -0.09410399 0.43928006 -0.2039466 -0.32706016 -0.58436716 0.28380507 -0.04754354 0.06937156 -0.28628403 -0.27841157 0.1111369 -0.2285842 0.170834 -0.12133339 0.03221452 0.21798769 0.006493904 0.03718878 -0.055253893 0.08986549 -0.110062174 -0.0152633935 -0.017047238 0.11162122 0.1218357 -0.09241928 -0.3315225 -0.08413833 -0.14887327 0.1820329 0.2482347 0.14380237 -0.08719284 -0.09046398 0.002317996 0.17839548 0.17882137 0.0027176107 -0.444832 0.48092058 -0.22444195 0.15970743 -0.0029932926 0.0576722 -0.27860036 0.22095032 -0.19189459 -0.48399496 -0.0053416044 0.067076124 0.61002994 0.38595694 -0.53578717 0.20492685 -0.2495395 0.15769972 0.26747108 0.0011917738 -0.42367086 -0.09277308 -0.20877518 0.10122582 -0.21780181 0.17126614 -0.27371654 -0.4475528 -0.12369707 -0.44639105 0.045593664 0.22386526 0.383974 -0.07757173
16 -0.13220288 -0.15266402 0.54025173 -0.12743841 -0.17650442 0.37553093 0.23127978 0.36018178 -0.2588901 0.042201623 -0.04531306 0.29492778 0.2280238 -0.087214276 0.105200365 -0.32571867 -0.46728832 0.12827235 -0.028493272 -0.31308874 0.038764533 0.15126656 0.35750014 0.03919236 -0.42361724 0.42739117 -0.19320184 0.25583568 0.21236217 0.15113363 0.14422868 0.08338174 -0.24932884 0.42313844 -0.111852765 -0.3609429 0.50715894 -0.3185845 0.07645484 -0.23313525 0.0016670581 -0.20141797 0.49451664 0.45060351 -0.2767846 0.15184945 -0.22393355 0.10703835 0.013863629 -0.29818773 -0.16158807 -0.17380072 0.5181399 0.14622915 -0.15443517 0.21395469 -0.028872008 -0.0024278446 -0.4895057 0.32142895 0.061347306 -0.21679173 0.09097145 -0.17786345 0.121377654 0.23249452 0.29790914 0.26928025 -0.556663 -0.3089253 0.5060562 0.17421587 0.03930635 -0.18676908 0.3424347 0.326107 0.12990248 -0.22172447 -0.22075509 0.06911623 0.23578602 -0.47935277 -0.103378974 0.5148987 -0.038415454 0.4080312 0.09234382 0.26037228 0.4851956 0.06952717 0.3743269 0.2390097 -0.17913662 -0.29505867 -0.15889387 0.11974646 -0.18324904 -0.646295 0.014678894 0.1586339 -0.015836535 0.0552318 0.32818484 0.03393716 0.009881123 -0.43173763 0.5454556 0.8340975 -0.23803766 -0.40500265 -0.22880445 0.09579234 -0.2008277 -0.058304295 -0.74436605 -0.2151005 -0.3534884 -0.07675789 -0.46100676 -0.5032617 0.12372574 -0.33532634 0.20809191 -0.3334894 0.4068771 -0.093586 0.79981 0.30153623
41 -0.3142224 -0.26337865 0.3054747 0.19770738 0.30110595 0.089992434 0.31116194 -0.059552517 -0.16804066 -0.2927592 -0.08902072 0.24256936 -0.1268911 -0.10983131 -0.30755082 -0.14711688 -0.18111071 -0.10554802 0.16969813 0.4299316 -0.09561079 -0.054434754 0.37584853 0.10433772 -0.018425 -0.006718887 -0.5950997 -0.018648129 -0.22861889 0.14546812 0.05560964 0.14453456 -0.50463796 -0.06589748 0.065967835 0.12974782 0.37476534 -0.033895567 0.13061224 0.01204429 0.062927574 0.052651342 0.1335194 0.20835903 -0.16861117 0.24734999 -0.16061553 -0.04822888 0.0065927794 0.099502474 0.013864002 -0.092519075 -0.028196096 0.092037216 0.16448402 -0.3394313 -0.039859362 0.51580775 -0.17196593 -0.3939139 -0.5281252 0.27474442 -0.02676018 0.07932328 -0.2343726 -0.22072233 0.07703107 -0.28145692 0.15749642 -0.15865439 0.053821396 0.14214912 -0.014002728 0.07531744 -0.027967118 0.0662754 -0.15580039 0.0011472796 -0.065998465 0.08076968 0.105469644 -0.07135886 -0.35214782 -0.07244023 -0.04642392 0.09617435 0.1237387 0.16003764 -0.033657845 -0.09745406 -0.004675111 0.19394821 0.1953226 -0.037016533 -0.42253858 0.44401252 -0.26653636 0.19776618 0.027703058 0.09242792 -0.2561269 0.12989858 -0.15526497 -0.55125064 -0.034781452 0.031853177 0.58981013 0.39711314 -0.57849836 0.19244921 -0.26005182 0.14688541 0.27150434 0.025050662 -0.4243417 -0.1292577 -0.1809828 0.17146182 -0.20787467 0.12375631 -0.33335474 -0.4281104 -0.10273984 -0.3852043 -0.041566923 0.22326304 0.437549 -0.08661277
26 -0.21830052 -0.2902189 0.33158717 0.106375575 0.2621101 0.088954546 0.29086238 -0.013178464 -0.25192344 -0.22918028 -0.115866706 0.17827435 -0.043716263 -0.1500632 -0.33789897 -0.1918385 -0.234267 -0.1380095 0.06562571 0.30200285 -0.04167219 0.04796998 0.42663106 0.13138416 -0.09331423 -0.062490374 -0.59512025 -0.05511841 -0.23778379 0.1774758 0.13071276 0.13158068 -0.43280533 -0.07854643 0.10132227 0.08809695 0.3932707 0.035317667 0.20463248 0.003980173 -0.016417677 0.03240758 0.11924479 0.22907801 -0.3259541 0.26793706 -0.2326428 -0.10657171 -0.10586607 0.14106847 -0.010659875 -0.004636153 0.0023428767 0.09870547 0.1064851 -0.32422626 -0.081320345 0.4654188 -0.26284733 -0.29862338 -0.5883996 0.25886586 -0.003823632 0.13613781 -0.27549157 -0.2939599 0.20982216 -0.2654177 0.18050405 -0.098664835 0.09137253 0.2688085 -0.10042418 0.0364107 -0.0142699145 0.053558055 -0.20178553 0.0027401596 -0.058268808 0.09219119 0.124921456 -0.026248496 -0.30601075 -0.058436856 -0.11572009 0.18954721 0.1742751 0.2317008 -0.094022945 -0.07307341 0.034892216 0.20798832 0.22463755 0.045216214 -0.29639196 0.42860845 -0.24308269 0.19757903 0.02246286 0.002141883 -0.21306744 0.23203164 -0.2150319 -0.50998306 0.0066849994 0.09049802 0.6789491 0.44596678 -0.48286575 0.15757483 -0.3597386 0.16325787 0.26786432 0.066491045 -0.43720227 -0.21210329 -0.20364566 0.029572343 -0.14747329 0.06084588 -0.31491068 -0.48782894 -0.13726565 -0.43533906 0.05177809 0.2891749 0.4215397 -0.120636396
57 -0.1682602 -0.31459722 0.11562636 0.039369565 0.29569748 0.14785458 0.31817958 0.048340406 -0.15623146 -0.18307929 -0.1987537 0.2490023 -0.032777056 -0.07093172 -0.41628325 -0.24683486 -0.27620348 -0.19297247 0.05931746 0.3490611 -0.009377392 -0.074569285 0.44694254 0.1691249 -0.0052803564 -0.049555503 -0.6502583 0.07265643 -0.20686147 0.18028611 0.04775072 0.16070697 -0.45029503 -0.17127301 0.04323506 0.10745657 0.33523506 0.053523842 0.14956446 -0.021937555 -0.027415024 0.08708387 0.062355388 0.21066217 -0.30039522 0.3238009 -0.08201007 -0.11841192 -0.08104764 0.17550392 -0.06649737 -0.03700135 -0.009817959 0.013607287 0.0971617 -0.4715623 -0.036536288 0.46424678 -0.20340918 -0.32212862 -0.57050353 0.21869895 0.011671709 0.11964734 -0.12539902 -0.19635496 0.049142987 -0.16872221 0.14747927 -0.106823355 0.08385071 0.21203467 -0.02439108 -0.08215164 -0.012215405 0.0747763 -0.09656111 -0.057085507 0.063212164 0.119250536 0.068263724 -0.0751602 -0.30707905 0.053173803 -0.21441783 0.17199497 0.31039718 0.13975778 -0.10903847 -0.11045478 0.06939908 0.14765942 0.11457225 0.07280986 -0.51451075 0.37418926 -0.16202773 0.093350425 0.10782625 0.026392851 -0.20109916 0.23028003 -0.23841065 -0.520312 -0.06994004 0.063411854 0.68763006 0.35163343 -0.5150434 0.20434465 -0.2762215 0.1477494 0.13881868 0.025928158 -0.39800847 -0.10007053 -0.19306976 0.080451764 -0.2126763 0.09885504 -0.31112108 -0.4473131 -0.15673213 -0.35127848 -0.026506985 0.09568517 0.43981776 -0.11481583
27 -0.16990402 -0.3316401 0.3307259 0.037821636 0.37750208 0.1322274 0.32961872 0.05616371 -0.21159476 -0.21389769 -0.18894713 0.25494978 -0.1071556 -0.045444533 -0.38816828 -0.3440388 -0.20791842 -0.22674756 0.1427715 0.40974283 -0.01853397 -0.05226506 0.45349914 0.086292036 0.048319865 -0.07851762 -0.64716697 0.027921528 -0.21419562 0.19217038 0.07519862 0.13495944 -0.50277233 -0.0967831 0.10800736 0.040637124 0.33609727 0.024994662 0.15567365 -0.026692713 -0.11100694 0.0753217 0.13561818 0.299914 -0.16349864 0.33750874 -0.15557685 -0.15284546 -0.07067611 0.1933847 0.015160911 -0.03644994 -0.051279936 0.25741762 0.059912995 -0.2714813 -0.09081482 0.4666818 -0.15370625 -0.23054196 -0.5782468 0.34594533 -0.06377826 0.078759216 -0.16958365 -0.2822278 0.085662186 -0.23458025 0.15557909 -0.19183314 0.06337519 0.18955712 -0.0035216345 -0.060143247 -0.05117222 0.0015479458 -0.09264827 -0.03265419 -0.02093863 0.17226288 0.0037471529 -0.059124894 -0.3404533 0.006593006 -0.19224314 0.1599525 0.2491378 0.18569799 -0.1666484 -0.025169559 0.021687841 0.12546812 0.14773282 0.017382352 -0.45337686 0.44268844 -0.24840471 0.17085753 0.06904581 0.017063498 -0.2544402 0.26935565 -0.20776238 -0.4494187 -0.028353537 0.11729041 0.6233026 0.42429468 -0.54188126 0.14110576 -0.15527456 0.12244422 0.18829256 0.035824437 -0.37084714 -0.12523444 -0.1867256 0.11676271 -0.24099265 0.14076827 -0.30371657 -0.42950457 -0.05452593 -0.3525989 0.001993469 0.2138782 0.47832555 -0.083107576
42 -0.24700738 -0.28581414 0.26573336 0.096477225 0.35620713 0.10515735 0.28419453 0.0530927 -0.25651753 -0.21991105 -0.14076585 0.25923416 -0.12584516 -0.05932381 -0.34989148 -0.2733476 -0.23294641 -0.10874938 0.1509396 0.45555136 -0.07055236 -0.00504769 0.45700032 0.10514021 0.02282291 -0.047680017 -0.6603016 0.03242484 -0.23462431 0.20093587 0.1054264 0.13287905 -0.5060692 -0.048767105 0.14886105 0.07042883 0.35155618 -0.043805256 0.14235917 0.04224267 -0.03905527 0.08213215 0.05884859 0.19932081 -0.21826802 0.31567222 -0.21629326 -0.03880968 -0.099248104 0.051813792 0.06550534 -0.067536436 -0.04733061 0.14024608 0.14251933 -0.32742846 -0.077515766 0.45351017 -0.21968842 -0.27519825 -0.5657211 0.33284682 -0.073366694 0.08911685 -0.20426378 -0.27470052 0.13678664 -0.22154634 0.16301858 -0.058005847 0.09552197 0.2728709 -0.00024119031 0.027630394 -0.039153144 0.13981293 -0.14422484 -0.017965138 -0.00012496882 0.21001633 0.14133598 -0.00923735 -0.33100954 0.0046858117 -0.106118396 0.19654271 0.24859846 0.17432818 -0.06315403 -0.06481425 0.06307924 0.1688901 0.15879574 -0.022399839 -0.44777337 0.44617507 -0.21965696 0.17659186 0.06090704 0.02324235 -0.30871546 0.16315341 -0.19503058 -0.40852177 0.06464994 0.038047552 0.58671 0.38579264 -0.5232763 0.17261046 -0.23547223 0.13187593 0.19720295 -0.024711577 -0.46098626 -0.08897729 -0.24778238 0.025037523 -0.19462375 0.14053279 -0.2807008 -0.52183616 -0.048189804 -0.40906975 0.120774865 0.16359453 0.42639717 -0.12505624
43 0.18774976 -0.63472897 0.26292363 0.16168894 0.1324714 -0.087471955 0.27005354 -0.02193983 -0.33340627 0.0881476 0.100278534 0.4191825 -0.1782209 0.6812932 0.41157296 -0.18858875 -0.029973943 -0.33877596 0.12231421 0.35583717 -0.23330747 -0.20454492 0.03788289 -0.49738818 0.051897794 0.09541854 -0.2872751 0.48923928 0.008400257 -0.049678702 0.0031041787 0.17598878 0.2887028 0.6440021 0.15387644 0.376018 -0.037789468 0.15366907 0.40617228 0.3795506 0.09149144 -0.08484434 0.118405625 -0.018731099 -0.36793604 -0.1874581 -0.26627934 -0.080042385 -0.22381856 0.12780142 -0.065285556 0.3214259 0.07806133 0.48306072 -0.24473996 0.18540719 -0.22268072 0.46056303 -0.026040116 -0.4536149 -0.07682329 -0.23070776 -0.017276872 0.12316857 -0.29484826 -0.05516503 -0.30625713 -0.58710855 0.10638085 -0.35704097 -0.889478 0.08228896 -0.11133516 -0.27259493 -0.21173936 0.21954878 -0.3494951 -0.08221649 -0.41622782 -0.048567213 -0.1521569 -0.032683786 -0.0018134005 0.58927375 -0.22293493 0.21823947 0.105177656 0.04819915 0.5184522 -0.39238727 0.024194775 0.15932141 0.0848594 -0.087377876 0.31604823 0.3519473 -0.012877135 -0.03037727 -0.13480856 -0.5877949 0.306582 -0.036674052 -0.4644772 -0.5454697 -0.49412388 0.28933483 0.33623686 -0.1316519 -0.14874032 -0.06418014 -0.31529638 0.17967844 0.20975831 0.13821693 0.44494718 -0.060773943 -0.019872522 -0.019144902 -0.26207423 -0.24963899 -0.3212299 -0.009058757 0.26778945 0.44393992 -0.26521054 -0.3175072 -0.20753324 0.15894471
1 0.21386898 -0.5098987 0.38084388 -0.2600739 -0.07810848 0.04390615 0.031153325 0.06316132 0.062274314 0.006371792 -0.42538792 0.3326513 0.23954427 -0.27237013 -0.07913476 -0.16713053 -0.2558219 0.08028524 0.20432691 0.14787382 0.03386418 -0.30839518 -0.17159761 -0.21860689 -0.26590294 0.03538456 0.0037258836 0.2487074 0.018543096 -0.20074174 -0.023108887 0.503232 -0.1594772 -0.044615507 -0.2012025 -0.17712897 0.0651585 -0.13829435 0.39293066 -0.16425143 -0.2624601 -0.010482884 0.53038913 0.2703418 -0.6384814 0.04784771 -0.094535194 -0.037057817 -0.06503048 0.16682556 -0.48346597 0.5206823 0.38215765 0.45324695 -0.5350937 -0.17785352 -0.42777592 0.05253574 -0.2457872 -0.20737143 0.14265272 -0.45075703 0.07759798 0.0043548355 -0.3062715 -0.20405352 0.4312 0.02927124 -0.008216644 -0.23475112 -0.3912266 0.09856966 -0.23416269 -0.029101726 -0.30725014 -0.061610166 0.10459139 0.018830944 0.015117743 -0.38810298 0.21021101 -0.42547697 0.07246626 0.19960332 -0.43284935 0.16597772 0.053050477 0.26590377 0.028542552 0.12176779 0.37425053 0.38779414 -0.076720856 -0.26145416 -0.09992634 0.07618534 0.03627657 -0.5692799 -0.06662694 -0.1710485 -0.100861385 0.47424942 -0.092524484 -0.5454197 -0.29910466 -0.033421334 0.10180483 0.10502174 0.49936086 -0.41132253 -0.47287384 0.0779345 -0.13857421 -0.015007989 -0.50130886 -0.45566478 -0.1334963 -0.028873036 -0.6111006 -0.03417999 -0.059671964 0.2176905 -0.1374104 0.34414783 -0.42016608 -0.284157 -0.021413086 0.17409925
13 0.21274047 -0.6700585 0.60445315 -0.20751402 0.10672567 0.03706055 0.08182576 0.08392215 -0.00048129057 -0.059052337 -0.48762357 0.3696263 0.26259628 -0.24912477 -0.11943582 -0.19174589 -0.42152745 0.032105982 0.28620687 0.2764148 -0.031211816 -0.38048464 -0.19315645 -0.23935547 -0.29879206 0.027763663 -0.03933577 0.31675065 0.009304434 -0.23855716 -0.12960067 0.57464343 -0.1930323 -0.07186016 -0.15067627 -0.19106357 0.14978121 -0.11659619 0.3998799 -0.123866454 -0.1844052 -0.046106733 0.5044943 0.26827362 -0.67710143 0.09140339 -0.12395832 0.018264 -0.15458739 0.248843 -0.4595266 0.5739829 0.32742813 0.47234893 -0.50059193 -0.27176118 -0.48744053 0.12409617 -0.15825984 -0.26817986 0.1115152 -0.38806403 0.06923125 -0.0021551778 -0.26733238 -0.28754318 0.47000816 0.02701564 0.059484802 -0.20340073 -0.31837678 0.10788107 -0.31212008 -0.027453097 -0.35486656 -0.038264446 0.1302708 0.0055473703 0.06678161 -0.3654687 0.1922665 -0.3779683 0.09826654 0.2325867 -0.5008344 0.17521727 0.09385982 0.3197115 0.01835689 0.097050205 0.39580646 0.39807814 -0.11378887 -0.2741826 -0.098461606 0.080026425 0.07149979 -0.571478 -0.05317306 -0.20692946 -0.12344797 0.49769887 -0.0986629 -0.5913509 -0.35882515 -0.046797074 0.087466136 0.037233062 0.44808912 -0.43764445 -0.46667102 0.063640386 -0.15789534 0.03661058 -0.5387424 -0.46756446 -0.11819457 0.033205263 -0.6375713 -0.01029073 -0.11097265 0.13976309 -0.07763668 0.3195429 -0.39398703 -0.31602436 0.0038293719 0.09840807
7 0.22323373 -0.5148654 0.3381666 -0.30084142 -0.040159535 0.00799564 0.016066927 0.0993154 0.05568814 -0.07527722 -0.45747375 0.34382832 0.2552251 -0.2944748 -0.090682484 -0.16619124 -0.17655411 0.10211859 0.21853945 0.2210379 0.0031226294 -0.38426876 -0.15145987 -0.2292663 -0.15513153 0.033427157 -0.13514856 0.2770133 0.015489671 -0.24585384 0.0076610283 0.5835987 -0.18509845 -0.013131296 -0.2348147 -0.13300301 0.026882056 -0.23025782 0.45048425 -0.08916906 -0.31639093 -0.0665127 0.5379905 0.31962007 -0.71899605 0.002192491 -0.13919656 -0.012815675 -0.07493761 0.08998954 -0.45310292 0.568966 0.40959504 0.587278 -0.5669403 -0.14550519 -0.43858665 0.018823126 -0.32226512 -0.17524844 0.096349284 -0.4065231 0.08034825 0.117417134 -0.36767238 -0.23988253 0.51726246 0.022525495 -0.0073854527 -0.30006772 -0.48839438 0.1888334 -0.2657041 -0.06776345 -0.3530254 -0.07831214 0.084896326 0.0075577507 0.008091405 -0.39791435 0.22297187 -0.3600299 0.07395922 0.29575843 -0.43393093 0.15235204 0.015077437 0.30141982 0.0019229043 0.15544571 0.4016767 0.39066392 -0.03224426 -0.27020657 -0.16718006 0.14132121 0.065991886 -0.57000417 -0.086914614 -0.18757096 -0.1756659 0.59609324 -0.15629286 -0.5661576 -0.25869238 0.039017435 0.057428665 0.11046742 0.48506147 -0.3507976 -0.40750885 0.12533833 -0.13294637 -0.057598453 -0.52800256 -0.48675224 -0.16308402 -0.07423695 -0.6199191 0.043930333 -0.065339714 0.24032624 -0.19058768 0.35324615 -0.45057717 -0.30923077 0.05271887 0.22121873
53 -0.25435287 -0.04142583 -0.08679748 -0.25863054 -0.09807373 0.26004052 -0.073858865 0.10902598 -0.2672105 -0.023998583 0.29298097 0.19589388 -0.26718816 0.27805182 -0.15220447 -0.07106105 -0.2069698 0.30631635 0.097849496 -0.078941695 -0.32893148 -0.17318808 -0.08413498 -0.5827254 -0.39706987 0.01916676 -0.27640754 -0.16947426 0.10390463 0.13319084 0.40761268 0.21920408 0.07962651 0.57144916 0.059475962 0.15431546 -0.16236699 0.16129506 0.15706609 0.2104038 -0.031709336 0.1330637 0.34097573 -0.041789334 -0.6464224 -0.2829335 0.102936946 -0.13806042 -0.23149906 -0.42031997 -0.2649081 -0.33443457 0.46478882 -0.015215487 -0.16192244 -0.45082107 -0.023176836 -0.2893505 -0.5368854 0.058516733 -0.050917197 0.032762904 0.39429852 -0.027392281 -0.06317675 -0.087599486 0.40017048 -0.20901985 -0.22745699 0.06048734 -0.2567174 0.42036176 -0.022827568 -0.11528868 -0.3045689 -0.09157031 0.17906426 0.14761917 -0.18126436 0.2625252 0.044706073 -0.41415536 0.14406735 0.36893445 0.029480705 0.87872916 0.2293864 -0.11591995 -0.13821895 -0.27996975 0.049594454 0.2490033 -0.2765201 -0.39047924 -0.1601479 -0.066132426 -0.13583083 -0.1670693 0.038730502 -0.3310557 0.2609178 0.07091276 0.06258054 -0.26485303 0.16603197 -0.03810743 0.37908435 0.122838475 0.73362446 -0.46736228 -0.57081366 0.21187232 -0.22644782 -0.297513 -0.21455134 -0.28882554 -0.132395 -0.31153736 -0.21822599 -0.07118216 0.29435813 -0.116312474 -0.28901967 0.038333327 -0.2933767 -0.24932182 0.15808988 -0.15395148
58 0.21114682 -0.7705932 0.33983126 0.14775313 0.12638672 -0.14843732 0.3540422 -0.03185465 -0.3415703 0.13927026 0.054143153 0.5080637 -0.13973892 0.794149 0.41729423 -0.28647986 -0.09988788 -0.39298928 0.071579576 0.3942536 -0.17445855 -0.3092296 0.09164658 -0.5073867 0.13116711 0.10684326 -0.40566313 0.57438105 0.044070706 -0.075584725 0.0212174 0.23713793 0.33662695 0.73620474 0.142233 0.41629753 -0.05007156 0.14993466 0.4717653 0.38957238 0.08358245 -0.080101505 0.09517283 -0.05630456 -0.48214188 -0.16197628 -0.30235958 -0.02551765 -0.2221767 0.14649788 -0.08362326 0.39350945 0.18704718 0.503758 -0.2728601 0.25242695 -0.16835193 0.42402595 -0.030128188 -0.52175725 -0.08754008 -0.30982026 0.0055491673 0.17489101 -0.3605864 -0.03156986 -0.35388944 -0.60794854 0.17845787 -0.3662001 -0.9975389 0.0220323 -0.17130056 -0.36674112 -0.195087 0.24616142 -0.40372562 -0.18758185 -0.4179017 -0.12916344 -0.15077817 -0.04426281 0.02296797 0.5828263 -0.25198555 0.18501247 0.20723963 0.100319654 0.53111064 -0.33749875 0.02538028 0.15155147 0.09293249 -0.07346626 0.31753936 0.4060119 -0.05680535 -0.02930804 -0.15697518 -0.5731647 0.3472423 0.07517099 -0.51058775 -0.5762184 -0.50722504 0.340997 0.41253227 -0.1433838 -0.2288724 0.041071907 -0.38313088 0.20398821 0.1998563 0.14016928 0.4151104 -0.10022962 0.0018107343 -0.062507525 -0.27233922 -0.3035366 -0.30784485 0.005227137 0.27752557 0.45221752 -0.21542118 -0.33819252 -0.27091596 0.14075655
28 0.15115888 -0.7423039 0.4120911 0.18071838 0.11873682 -0.07038981 0.31744403 -0.060502693 -0.36769313 0.10464014 0.1292973 0.46691573 -0.14235058 0.8324593 0.437985 -0.19766033 -0.10964333 -0.42728406 0.13273726 0.3488163 -0.26904896 -0.31930822 0.027084906 -0.5530551 0.054028474 0.09095735 -0.32692453 0.5399673 0.052132018 -0.13003713 0.019229434 0.21628574 0.29352865 0.72177666 0.16172996 0.4488391 0.0024143332 0.17307335 0.49161825 0.30456594 0.08370217 -0.08106071 0.13803162 -0.040495303 -0.4462887 -0.16082011 -0.34531763 -0.057543848 -0.2531637 0.1559813 -0.083420984 0.38946438 0.115116514 0.45186055 -0.2739566 0.2465633 -0.17985581 0.46291912 -0.054634016 -0.47340685 -0.091651194 -0.29507852 0.032415263 0.14181156 -0.37333116 -0.07121685 -0.35131758 -0.5696226 0.089622036 -0.3682938 -0.92674243 0.10382713 -0.19990627 -0.26414925 -0.18695526 0.3052905 -0.36725113 -0.09122862 -0.400678 -0.014117907 -0.16123259 -0.072412916 0.025202801 0.6256691 -0.25313964 0.2354384 0.13959704 0.11314573 0.5338205 -0.4125981 0.024037978 0.22235012 0.015068247 -0.16334516 0.37947667 0.3964538 -0.021188386 -0.051990166 -0.16834818 -0.60704577 0.33359405 0.015839571 -0.4414387 -0.555265 -0.54462653 0.29662734 0.41507408 -0.04975241 -0.18251531 -0.008368081 -0.3742661 0.23006354 0.20352234 0.20465903 0.4286594 -0.062864825 -0.009172075 -0.058787163 -0.34415329 -0.31319395 -0.36607954 -0.033515368 0.30359057 0.41602284 -0.20131622 -0.32443264 -0.19025068 0.14384209
38 -0.23026794 -0.053132392 -0.092625484 -0.2378324 -0.18413197 0.17849594 -0.11670629 0.0012755533 -0.23960547 -0.03422798 0.30387026 0.13222323 -0.23535256 0.2750352 -0.1491105 -0.037535004 -0.1406196 0.30128098 0.13388099 -0.15915471 -0.40620872 -0.07946538 -0.040536657 -0.6269298 -0.48152587 0.058487564 -0.17336968 -0.21398738 0.1247387 0.14292586 0.44197163 0.14360172 0.084470116 0.48004183 0.10856854 0.19744743 -0.17732403 0.2013554 0.17610487 0.24630396 -0.010775008 0.12682328 0.35146603 -0.03770842 -0.7796713 -0.2646381 0.17508388 -0.24919292 -0.21065333 -0.4177518 -0.34904513 -0.3537471 0.38369858 -0.05463962 -0.16247723 -0.5464537 -0.0111696655 -0.2012661 -0.5971347 0.05011266 -0.17645876 0.06052055 0.41210547 -0.028264763 -0.1066069 -0.08117686 0.45951578 -0.2949975 -0.25614953 0.01846048 -0.39862907 0.49362037 -0.13775532 -0.15348959 -0.3999404 -0.09427902 0.1234151 0.20922318 -0.26414582 0.20318957 0.038903754 -0.334626 0.13327873 0.44512165 0.004928707 0.84033364 0.23813592 -0.17453922 -0.047689717 -0.30955294 0.05400606 0.20377272 -0.23318596 -0.33713832 -0.13828798 -0.10589598 -0.1409929 -0.1327203 0.020174695 -0.42715892 0.33638102 -0.008965164 0.030707607 -0.4129459 0.071994185 0.03142659 0.36838597 0.054420985 0.6595314 -0.45729113 -0.61923015 0.3316452 -0.11092277 -0.3008258 -0.14520769 -0.35027286 -0.06912692 -0.33662117 -0.2141568 -0.027562497 0.26793176 -0.099971145 -0.3458818 0.12462904 -0.4693383 -0.21067323 0.10662029 -0.111454286
23 -0.36202312 -0.08802192 -0.045696937 -0.24221772 -0.0064618946 0.2519092 -0.0789661 0.11273549 -0.34064788 -0.054053687 0.37543276 0.12807335 -0.3355036 0.261123 -0.116670795 -0.0629076 -0.19940068 0.30256385 0.21744733 -0.1012957 -0.37591693 -0.2019847 -0.12122053 -0.5245224 -0.3890689 -0.059098583 -0.36308923 -0.18025786 -0.061842684 0.1575352 0.41285262 0.35593086 0.06869056 0.60404 0.11792768 0.14041738 -0.1809085 0.124620445 0.124116324 0.30542994 -0.01645102 0.09279123 0.31094623 -0.063253514 -0.6087292 -0.29426327 0.03477365 -0.032844298 -0.24224472 -0.302263 -0.26935208 -0.26590502 0.36136273 0.079929955 -0.18053417 -0.56700796 -0.1682376 -0.17251809 -0.48068988 0.013471692 -0.04545565 0.1554969 0.31531733 0.052425005 -0.13237704 -0.17241073 0.39155263 -0.24895081 -0.16209133 0.07059222 -0.32131436 0.4405807 0.02463611 0.0033002428 -0.37271526 -0.17250459 0.15795082 0.17481461 -0.17028977 0.19398168 0.049171105 -0.29780167 0.18329793 0.30066139 0.063471094 0.89040434 0.1205971 -0.1420202 -0.1298265 -0.27827844 0.039968602 0.31743377 -0.16276938 -0.4064203 -0.16526039 -0.13148223 -0.055523634 -0.114553265 0.033796605 -0.35990793 0.2180128 -0.023553275 0.0060185674 -0.31612313 0.23615636 -0.008353818 0.36181164 0.08110339 0.76817244 -0.44512323 -0.57443017 0.2563557 -0.18829799 -0.26781934 -0.20125541 -0.2717699 -0.050848152 -0.18098083 -0.22712885 -0.0019499535 0.22755247 -0.070520535 -0.19739333 -0.02561474 -0.36574835 -0.18593849 0.11097772 -0.18099152
5 -0.061550085 -0.8237627 0.18245782 -0.20535111 -0.53567386 -0.15356313 0.10035955 -0.13307337 -0.047131684 0.52525395 0.11301143 0.6473922 -0.081642665 -0.23118758 0.30328044 -0.14708902 -0.10603322 -0.16090433 0.21743992 -0.34872004 0.44210586 -0.11281993 -0.020073598 -0.16060856 -0.10000399 -0.26252982 0.4504954 -0.066757955 -0.03253027 0.07426809 0.39783174 -0.05068405 -0.036794987 0.10198746 -0.0027587235 -0.08423786 0.18918626 0.34895006 -0.05680043 -0.27392983 -0.26583233 0.39603117 0.2000919 -0.12321174 -0.4166868 0.45607328 0.27301857 -0.23073567 0.08650032 0.48175213 -0.4875248 0.10839747 0.08806491 -0.38697967 -0.4515559 -0.48015738 -0.1451474 0.23508741 -0.015738843 -0.13000613 0.31209782 -0.3116926 0.070419036 0.07909796 -0.46678728 0.09073323 -0.17794865 -0.17937414 -0.2032817 -0.28581262 -0.22564736 -0.23397915 0.021223774 0.3044029 0.30871022 0.030988496 0.3091931 -0.013307273 0.0068243216 -0.49922022 -0.4002121 -0.21380198 0.021613412 -0.09337678 -0.34670308 0.21966715 0.34154233 -0.19051145 0.18995418 -0.23423965 0.17887916 0.4048792 0.028954538 -0.15859848 -0.2996672 -0.21066573 0.010039771 -0.54928815 0.14247017 0.365452 0.2538542 -0.29489335 -0.072633214 0.040495947 -0.039729964 -0.26390707 0.6037899 0.36363286 0.13792117 -0.021391386 -0.37389818 0.34253272 0.080808945 0.107702225 -0.26195922 0.3839086 0.14422302 0.28256547 -0.60464597 -0.2829093 -0.061922748 -0.16130275 0.46744537 -0.4539738 -0.39940217 0.037738226 -0.17437859 -0.032767683
17 -0.14457802 -0.82592255 0.20299658 -0.13406457 -0.5383299 -0.14872822 0.14338708 -0.19453152 -0.099115916 0.49477232 0.15585616 0.6741838 -0.14356767 -0.25943327 0.25543404 -0.08816481 -0.07717614 -0.17813073 0.2643851 -0.31329083 0.2923411 -0.101697475 0.008181495 -0.16176674 -0.079997495 -0.2676198 0.42449626 -0.1099886 -0.038493536 0.09437516 0.41431478 -0.06552062 -0.094843276 0.06006006 0.064909935 0.020383393 0.24774975 0.37816718 -0.0052972645 -0.20886025 -0.22786736 0.31158757 0.17720433 -0.08920944 -0.45449764 0.34962365 0.28616637 -0.24036059 0.03186463 0.46964478 -0.47108358 0.11430392 -0.033670776 -0.41335398 -0.38057977 -0.58046997 -0.18146397 0.31267232 -0.0067654275 -0.18732509 0.23102129 -0.24817409 0.059253655 0.1501329 -0.5395134 0.032079894 -0.16405597 -0.16986974 -0.16908105 -0.294592 -0.23821156 -0.14536527 -0.012338804 0.34190783 0.2609787 0.01850808 0.27905855 0.05204238 -0.0068531977 -0.5092681 -0.3745438 -0.1320216 0.01999039 -0.076573655 -0.35648012 0.16741744 0.3163757 -0.16468604 0.17023917 -0.314783 0.10434264 0.44403818 0.07687189 -0.07749954 -0.31321192 -0.20632324 0.07144658 -0.4908441 0.0966985 0.32922798 0.23194113 -0.2696275 -0.14199716 -0.075071365 -0.068506666 -0.23275279 0.630952 0.3577377 0.120010875 0.02189806 -0.37104347 0.4042608 0.15854199 0.17772256 -0.23528178 0.38788143 0.10327819 0.34492913 -0.63186157 -0.16430253 -0.12032412 -0.17862013 0.41472077 -0.43213528 -0.46607348 0.051759426 -0.14705451 0.007192281
34 0.38328642 -0.09015945 0.7498062 0.25883922 0.37723616 -0.045438554 -0.0024071715 0.061069146 -0.3530069 0.03066591 -0.06835378 -0.005477546 0.11745439 0.10367117 0.51592934 -0.339468 -0.21423583 0.12820008 0.32651317 -0.044282354 0.46172994 0.19112487 0.89525837 -0.20544244 -0.42475048 0.62331563 -0.14332104 0.06944874 -0.015073807 0.46506816 0.36816606 0.10035741 0.016079202 0.76529866 -0.19038531 -0.0879577 0.043710798 -0.19475389 -0.279758 0.5431388 -0.037619274 0.28643945 0.36855036 0.15439117 0.33065507 0.4254092 -0.079670414 -0.43848002 0.1421176 0.3136017 -0.0398508 -0.5298181 0.18489178 0.6184401 -0.44039682 0.39524025 -0.032791022 0.602655 0.05214148 0.5083581 0.12664331 0.36430004 -0.088400416 -0.16385564 0.59370124 0.20964256 0.1768192 -0.48056477 -0.25252125 -0.35131675 0.38339734 -0.21600786 -0.07918834 0.1619174 0.2729339 0.20651871 0.34672713 0.04654176 -0.0037918899 0.0041188695 -0.5800268 0.34169155 0.14006568 0.47606623 0.27631414 0.44962403 -0.35010204 -0.03908264 0.2974722 0.1294901 0.102725446 0.20405257 0.0028495588 -0.40525872 0.012547921 0.14303148 -0.3715107 -0.11501453 0.43828583 -0.33979562 0.34828386 -0.5409743 0.21038216 -0.003118158 -0.32328725 -0.12075289 0.18329185 0.37246197 -0.25232556 -0.58274806 -0.2858377 0.08864275 -0.1418229 0.09954942 0.22719252 -0.012582737 0.7847925 0.105109595 -0.25182295 -0.43091604 -0.13741504 -0.3084729 0.47378832 -0.3448255 -0.105878614 -0.14839268 0.58139116 -0.3494237
19 0.29985914 -0.034768485 0.7396686 0.2851929 0.25654507 0.019563066 -0.03008136 0.033249617 -0.2832159 0.041185666 -0.05164638 -0.05837614 0.1339298 0.13569781 0.42582852 -0.29818147 -0.25961107 0.078516655 0.31954527 -0.077384144 0.4066317 0.2125845 0.8831661 -0.13325827 -0.491455 0.62716246 -0.068955176 0.055567913 -0.07288175 0.3970995 0.38988551 0.05988146 0.0528318 0.6593154 -0.098749876 -0.08839388 0.0009880884 -0.07840591 -0.20296422 0.45515135 -0.00045378614 0.27542824 0.3812999 0.14349334 0.37167138 0.3264373 -0.0115922 -0.42160773 0.2230677 0.23410204 -0.122789495 -0.5305985 0.19566244 0.5258926 -0.30906656 0.43998557 -0.06643672 0.50221837 0.12464384 0.52656597 0.08382457 0.3282071 -0.06979504 -0.20230208 0.5189618 0.149598 0.21063046 -0.40643713 -0.34426755 -0.3245586 0.40161508 -0.12558748 -0.077907674 0.18063049 0.24158894 0.16153158 0.2543999 0.12950115 -0.15490413 0.010406207 -0.47504205 0.23386763 0.14601897 0.3564708 0.28029364 0.5129881 -0.280735 -0.017437674 0.28560844 0.0950289 0.059903197 0.24421933 0.064613014 -0.39811045 0.059197776 0.22409655 -0.3349942 -0.13089196 0.3260857 -0.38526794 0.4116846 -0.46182287 0.18012229 -0.0055982736 -0.2967237 -0.19037305 0.20079662 0.41312918 -0.24810623 -0.6395816 -0.2522326 0.09415172 -0.11406895 0.06025571 0.20874396 -0.010593626 0.7215508 0.1167794 -0.28747925 -0.39227125 -0.057042398 -0.28529617 0.48397148 -0.37672412 -0.095508374 -0.040207107 0.5501499 -0.25502726
49 0.36884955 -0.01996278 0.64208 0.2533547 0.36233708 -0.028945055 -0.0472546 0.05452315 -0.27601284 -0.006383608 -0.033698555 -0.058483515 0.119533435 0.05055599 0.4557125 -0.3628161 -0.2052531 0.15208352 0.26995027 -0.04557332 0.4554934 0.21521524 0.8602262 -0.27162513 -0.46986318 0.5913499 -0.14595893 0.027089538 -0.012350092 0.43645558 0.32246077 0.092081934 -0.0014984779 0.73978853 -0.17645104 -0.04387843 0.025845427 -0.1269655 -0.266087 0.47469437 -0.09146328 0.35756707 0.4172945 0.19054046 0.2811576 0.4224802 -0.10244672 -0.5090267 0.1480004 0.32306832 -0.13988322 -0.49533907 0.25762802 0.6709341 -0.52244437 0.3765824 -0.01706585 0.5709031 0.023598233 0.466448 0.11544558 0.38958192 -0.09582866 -0.2232729 0.54457146 0.17335837 0.15638791 -0.52205706 -0.21490338 -0.36677822 0.29172122 -0.21191189 -0.047026295 0.12025572 0.22370419 0.16853926 0.331598 0.06304059 0.0038650222 0.024845432 -0.5832978 0.28118488 0.07695074 0.44614768 0.2250649 0.46069935 -0.38574207 -0.08636853 0.2507418 0.1341588 0.13525516 0.19027816 -0.039096642 -0.46539223 0.056547668 0.13862957 -0.40032473 -0.115085006 0.4148022 -0.35723066 0.367194 -0.52819157 0.20050575 -0.03849042 -0.33959183 -0.060516015 0.18643159 0.3944532 -0.17385773 -0.66001624 -0.28539458 0.06903464 -0.11938604 0.121157154 0.2484174 -0.10169673 0.72533274 0.033540677 -0.2387177 -0.44870237 -0.13449304 -0.20396972 0.38496864 -0.24088757 -0.14413932 -0.1365818 0.5727059 -0.32227698
11 0.041795794 -0.8909482 0.26105863 -0.20140782 -0.54832816 -0.22115095 0.09644769 -0.18452218 -0.043805037 0.56759727 -0.06642842 0.63333756 0.022156484 -0.34301323 0.33757988 -0.14876087 -0.13794957 -0.12327097 0.27143314 -0.35065457 0.49462238 -0.11739151 0.011893175 -0.12437303 -0.14110482 -0.21720432 0.48517716 0.047807515 -0.02402749 0.07288774 0.4200294 0.042400453 -0.038301952 0.02690453 0.0024031275 -0.042423215 0.1956514 0.3546839 0.006339143 -0.2423513 -0.2884511 0.45599315 0.20786992 -0.16414085 -0.4874511 0.4938665 0.28958002 -0.25516775 0.08847962 0.60130906 -0.5708016 0.2168957 0.07561726 -0.32013786 -0.55932057 -0.52579683 -0.20631236 0.31703675 7.724241e-05 -0.15650676 0.3225988 -0.37700367 0.035988692 0.16390046 -0.5610541 0.0391733 -0.15836965 -0.19209579 -0.14153515 -0.33149213 -0.30579218 -0.26282403 -0.071585014 0.3705345 0.24117978 0.048184574 0.3585997 0.02929697 0.07941375 -0.66674614 -0.461598 -0.16265368 0.046871785 -0.18664481 -0.40435278 0.18583372 0.33507302 -0.111248806 0.18891542 -0.2173902 0.2102588 0.48561394 0.07532762 -0.16186486 -0.34337527 -0.2546978 0.020398712 -0.5839035 0.09631024 0.3658273 0.27411637 -0.21727593 -0.15941593 -0.043381274 -0.08169534 -0.2478646 0.6157548 0.31274855 0.21361405 -0.040680423 -0.4374102 0.38053665 0.054729793 0.17112201 -0.2596001 0.394427 0.17500274 0.34472984 -0.6929495 -0.21552296 -0.118748754 -0.1857154 0.50109726 -0.43601334 -0.48756906 -0.029416662 -0.28473163 -0.07533961
12 0.12553948 -0.24103458 -0.22114113 -0.33762416 -0.22671351 0.2531204 -0.15724663 0.059964906 -0.98217636 0.3624261 -0.04621764 0.12503669 0.003627494 -0.16814132 0.2859196 0.08802138 0.060547408 0.3253104 0.21450931 -0.36520186 -0.053612158 0.4360167 -0.16692545 -0.08219584 -0.42884395 -0.13558897 0.14015466 0.5145799 0.041504905 0.33525193 0.2676389 -0.01402906 -0.51200676 0.6068305 -0.20241782 0.3347319 0.042310834 -0.3088228 0.2831725 -0.2538985 -0.1355421 0.43732765 -0.040823817 -0.3381631 -0.2443684 0.46266845 -0.56509924 -0.07832598 -0.11608802 -0.0340342 0.0017753319 -0.25245395 -0.07826298 0.24126184 -0.4602325 -0.21333848 -0.013452461 0.30196387 -0.5741821 0.24132912 -0.014394444 -0.06188353 -0.20501949 -0.2906067 -0.17354679 0.10710122 -0.11094976 -0.3283742 -0.37462738 0.009423673 -0.14553486 0.18820696 0.1727165 0.5717167 -0.064099535 0.6779545 0.3432043 0.13873166 0.30614334 0.40378505 -0.13236113 -0.20142843 -0.40727994 0.30595818 0.23309767 0.68792194 -0.1542521 -0.21755719 0.41353998 -0.6575851 0.4145485 0.30140018 -0.1205121 -0.73730296 -0.25759214 0.0996773 -0.13446538 -0.30770382 -0.122445084 -0.22666413 -0.1273729 -0.8277134 0.19199492 -0.028823026 0.1639161 -0.31460422 0.5404631 0.33466864 -0.018862477 0.025081547 -0.7371016 -0.028130896 -0.14918627 -0.014739397 -0.1647042 0.339533 -0.36991796 -0.47441125 -0.28206488 -0.3280388 -0.53721493 -0.74913096 0.37320864 -0.22280718 0.6127923 -0.11445729 0.13079756 -0.43208495
0 0.13834196 -0.2596415 -0.24560061 -0.4500617 -0.32996777 0.23887224 -0.21882643 -0.029106803 -0.94459987 0.38976863 -0.026997065 0.0972728 0.07322019 -0.23729266 0.35624745 0.1198605 0.18941788 0.31287557 0.15339775 -0.40693963 -0.0940498 0.44476336 -0.25298193 -0.02575904 -0.5137744 -0.12425591 0.2443374 0.5306634 0.027124884 0.22954643 0.23916204 0.07455505 -0.53813994 0.5132468 -0.1882461 0.2886695 0.095394306 -0.30327687 0.39182493 -0.29049897 -0.20827933 0.3553975 -0.111136995 -0.24702035 -0.21757537 0.47642183 -0.603775 -0.13278434 -0.2063025 0.018800527 -0.055491854 -0.22120267 -0.14692383 0.23001495 -0.56804067 -0.21157135 -0.11435142 0.41092038 -0.64649475 0.2621681 -0.014458095 -0.19431096 -0.25547817 -0.2442459 -0.19692442 0.08182743 -0.114202954 -0.40605214 -0.3990944 -0.015814213 -0.32547945 0.19278869 0.24865453 0.59678376 -0.10171522 0.6097393 0.32460323 0.13644339 0.30000266 0.2979943 -0.090828165 -0.27811667 -0.37758288 0.3148098 0.120447166 0.6848749 -0.2480983 -0.23946351 0.48676467 -0.66647696 0.39369386 0.35444045 -0.110774375 -0.795336 -0.2614273 0.061271384 -0.17293482 -0.2667532 -0.14011753 -0.23999885 -0.1399424 -0.8797519 0.21618138 -0.033852216 0.12362515 -0.26759365 0.5552245 0.31440812 0.006153087 0.10101599 -0.7573068 -0.03914258 -0.06709754 -0.023301175 -0.14532283 0.28164744 -0.3625532 -0.41100076 -0.3264357 -0.2757189 -0.67159265 -0.66101664 0.29118314 -0.12927349 0.49271688 -0.069271624 0.019379105 -0.29663837
6 0.18067464 -0.28084856 -0.2835213 -0.33311862 -0.21273242 0.24467357 -0.15518132 0.103664994 -1.0512807 0.35746935 -0.018634059 0.15229999 -0.057039354 -0.19043389 0.3131447 0.122253284 0.10317039 0.31860283 0.28291175 -0.39513966 -0.1007839 0.40108746 -0.29040897 -0.17652637 -0.38323557 -0.22116195 0.16104604 0.4875073 0.046909872 0.36493266 0.24362947 -0.046747845 -0.45966405 0.59672654 -0.24977195 0.35210067 0.053482037 -0.31688902 0.21688183 -0.2850531 -0.16263108 0.45199272 0.033178486 -0.36619595 -0.35984272 0.4433051 -0.5166052 -0.12675843 -0.105210155 0.0029279834 0.010081525 -0.22270778 -0.1128293 0.2829454 -0.44599167 -0.32859528 -0.06333631 0.28921607 -0.60049933 0.14265999 0.04179868 -0.044648845 -0.1719935 -0.2712757 -0.15651974 0.08448968 -0.17511094 -0.38160926 -0.43900952 -0.12107959 -0.2071066 0.16784845 0.16154502 0.58539987 -0.11452299 0.6603527 0.40694818 0.19053668 0.26907808 0.40961406 -0.22330454 -0.19192971 -0.40610048 0.42448747 0.27859384 0.6958432 -0.107128546 -0.27889538 0.49468264 -0.71844256 0.49073452 0.31764895 -0.09945929 -0.68406516 -0.2930209 0.0374503 -0.12253584 -0.374804 -0.12205724 -0.30904964 -0.05157049 -0.90970916 0.1497049 -0.11219971 0.08311942 -0.22177471 0.5424005 0.32476637 0.038581397 0.020964632 -0.7417307 0.035340063 -0.13591255 -0.0049874145 -0.089384705 0.4280409 -0.36803642 -0.48727894 -0.27091992 -0.3191962 -0.5504703 -0.77625096 0.38136938 -0.21454288 0.47661263 -0.16527472 0.15578385 -0.4842429
2 -0.1678009 -0.08221151 0.24857947 -0.055655215 -0.1920967 -0.22646712 0.08324035 0.18212818 -0.43920073 0.038758013 -0.25215474 -0.16365205 0.24046956 -0.27459875 0.07682302 -0.16075118 -0.018079178 0.5748448 0.09199436 -0.26942924 -0.08913614 0.32174742 0.023152446 0.40626842 -0.1640734 0.31567058 -0.0053548017 0.49838683 0.051861603 -0.04654665 0.07759151 0.024717186 0.0014544263 0.43394253 -0.07434875 -0.22399569 0.13479538 -0.8105284 0.1925373 0.32296523 0.35049614 -0.121790834 -0.05492716 -0.060902447 -0.2793828 -0.26806116 -0.25148514 0.5890369 0.22833493 -0.32004377 0.017830532 -0.18713237 0.50715977 0.34901667 -0.3076477 0.011119441 -0.23328039 0.009304456 -0.50435466 0.25469244 -0.2410249 -0.15852447 -0.118111275 -0.026758326 -0.39021316 0.2810546 0.33582065 0.146284 -0.37098652 -0.22720529 -0.44822398 0.049411166 -0.023280198 0.021330262 -0.24445336 0.3834053 -0.10161019 -0.38228878 -0.05762774 -0.71471953 0.37200388 -0.15083404 0.018546896 -0.0026874142 0.33644572 0.3371425 -0.09828093 0.16791587 0.89006984 0.10319222 0.23268583 0.13254368 0.1501067 -0.22484908 -0.20591868 -0.31449434 -0.12800542 -0.14542076 -0.62942314 0.17177142 0.02617669 -0.20374773 -0.048367243 -0.28361428 0.4095353 -0.20163108 0.1481619 0.005209379 -0.48973805 0.15794821 -0.25977373 0.33981803 0.24662703 -0.20040363 -0.5341942 -0.084956765 -0.009954718 0.11411868 -0.2010265 0.13702048 0.18411131 -0.092188805 0.26140386 -0.27863088 0.46888494 -0.050651975 -0.098116405 0.2691575
14 -0.13427538 -0.19854647 0.50093037 -0.0016615309 -0.19443692 -0.15779276 0.060271572 0.19194408 -0.3502814 0.110223345 -0.3058538 -0.07010571 0.19525787 -0.25386453 0.23419107 -0.18837489 -0.032264326 0.51253945 0.13582271 -0.33543074 -0.082426764 0.42222267 0.04500176 0.35020092 -0.28335038 0.4466688 0.121311136 0.5383796 -0.031437058 0.009380169 0.14567217 0.052302238 0.09442461 0.4329217 0.0408244 -0.31616682 0.2045683 -0.6754126 0.17407408 0.42327017 0.29819548 -0.17213781 0.0020968122 0.086006574 -0.37290967 -0.24285597 -0.15752865 0.60822135 0.1641237 -0.08939932 -0.112765394 -0.10528639 0.46982884 0.39415935 -0.32747072 0.0035030332 -0.42939237 0.17949437 -0.4262006 0.20413883 -0.27374244 -0.29216757 0.054127626 -0.036720376 -0.50470495 0.29009664 0.5407279 0.1121213 -0.3860467 -0.37836453 -0.46971908 0.09880788 -0.3264788 0.09614056 -0.1227238 0.46801347 -0.111123934 -0.44053593 -0.092578694 -0.97609085 0.3405747 -0.024234088 0.12162212 0.2158215 0.0542756 0.34262756 -0.11106183 0.2454672 1.0605437 0.028787496 0.23069195 0.13908842 0.1890678 -0.1171205 -0.11892266 -0.33041102 -0.103937626 -0.18096744 -0.54320496 0.20793226 0.052571215 -0.20782627 -0.19109446 -0.2565452 0.20452404 -0.2223236 0.116197094 -0.01418069 -0.39357433 -0.03395352 -0.41137764 0.45998973 0.23667493 -0.15137202 -0.49470672 -0.13802375 0.031113844 0.09536423 -0.32545763 0.118078835 0.17259179 -0.069155194 0.41045016 -0.28649005 0.32197037 -0.18498853 -0.18310492 0.3072714
8 -0.15052512 -0.10415287 0.29944238 -0.047596782 -0.1451674 -0.18968064 0.019829845 0.15446492 -0.3990506 -0.0027549395 -0.31498376 -0.11460966 0.15444082 -0.25784892 0.04379236 -0.094833024 0.023875754 0.6493968 0.20294091 -0.22905862 -0.14970188 0.30403003 -0.055539392 0.35022858 -0.2619243 0.34303072 0.029625678 0.45123994 -0.099830225 -0.054343406 0.12216547 0.08407311 0.09079513 0.31861362 -0.012355183 -0.27713805 0.17786792 -0.7836122 0.1337458 0.43832177 0.32037267 -0.14167857 -0.02433923 0.0049689794 -0.40988705 -0.28106025 -0.073176235 0.63900596 0.16100024 -0.22524384 -0.03552207 -0.17106095 0.5060116 0.2595412 -0.25443083 -0.20146018 -0.35779014 0.066335775 -0.5408637 0.16322199 -0.31118223 -0.19359863 0.0617644 0.05520654 -0.47091576 0.22223772 0.53571457 0.14261201 -0.37603936 -0.27745703 -0.48138377 0.13278505 -0.2558223 0.038301572 -0.3231473 0.2990589 -0.085507885 -0.36200267 -0.070888065 -0.84929675 0.3851548 -0.0970062 0.15191686 0.18400688 0.19120634 0.40917414 -0.07249791 0.23762536 0.90075976 0.07134013 0.19078678 0.13015835 0.14743161 -0.07070785 -0.19810915 -0.42562857 -0.1244634 -0.13133825 -0.5990811 0.14242224 0.033800405 -0.14093937 -0.124360375 -0.37344557 0.33466107 -0.16911086 0.1269201 -0.09355883 -0.28530642 0.10753576 -0.42556316 0.45245722 0.19520083 -0.24259679 -0.5903228 -0.16644521 0.029395036 0.07893703 -0.29064044 0.28347367 0.2365818 -0.06434356 0.20504288 -0.279673 0.30286703 -0.18467838 -0.20688611 0.2152091
40 0.09446178 0.016645705 0.04727108 0.16259126 0.23838982 0.064960316 0.014593244 0.38171375 0.0053753816 -0.3342831 0.022041077 -0.16095091 0.05171274 0.156293 -0.12842105 -0.41921112 0.17811804 -0.08617683 -0.07759973 0.08947494 0.45739353 0.13126929 0.46593714 0.15273328 -0.16430973 0.19831604 -0.61608994 0.2233097 -0.25879973 0.03008206 -0.1069862 -0.1328525 0.052945327 0.61509186 -0.41177526 -0.12698895 -0.12382092 -0.1819952 -0.033945356 -0.022637665 -0.10679856 -0.014100597 0.47781006 0.4812182 0.10095529 -0.02399127 -0.1374004 -0.05801942 0.3742394 -0.040389802 -0.12786941 -0.3139304 0.4492666 0.8151126 -0.46042064 0.084006466 0.07627903 0.21914922 -0.20805928 -0.009534328 0.0014449166 0.14623743 -0.061329942 -0.42353863 0.15939666 0.5306009 -0.29503912 -0.3692741 -0.30053073 -0.5749466 -0.58346075 -0.15159976 0.38127837 -0.3640439 0.1928101 0.0368376 -0.047325537 -0.377126 -0.48929113 -0.13067938 0.009330517 -0.5447268 -0.15596801 0.39103788 0.08706185 0.55852497 -0.04204122 -0.5433252 0.4315068 -0.067367926 -0.025546027 -0.095475525 0.12965822 -0.52938366 -0.1481197 0.48521668 -0.22694331 -0.4635848 -0.026050448 -0.14257032 0.24443188 -0.24741276 0.22706667 -0.36766165 -0.22923137 -0.049912587 0.5695321 0.2160291 -0.5858608 -0.065696366 -0.34595793 -0.049356412 0.2714762 -0.08597038 0.083414 -0.2470883 0.30686548 0.05009281 -0.0039823144 -0.7287997 0.09118012 0.29797065 -0.06507739 -0.454432 0.00063977763 0.21968351 0.29865903 0.30241606
55 0.15276524 0.12918042 0.11007638 0.09084783 0.19075996 0.12666939 0.14967488 0.32920992 0.043276634 -0.27977064 -0.113953434 -0.1405116 0.09397039 0.08902723 -0.21842158 -0.3765438 0.18674539 -0.095414996 -0.061440576 0.08784838 0.433815 0.0817714 0.40405518 0.23748218 -0.0623911 0.21570203 -0.5507453 0.24673894 -0.15039006 0.03230735 -0.1465809 -0.18512653 -0.03112751 0.44630617 -0.41363645 -0.076044194 -0.050392643 -0.23440267 0.031253807 -0.17949603 -0.06443056 -0.019192204 0.48575595 0.5212521 0.24373697 -0.047866073 -0.10717417 -0.06912608 0.4113896 -0.015164938 -0.05400949 -0.3151398 0.45465055 0.7865885 -0.4374276 0.20046444 0.16338804 0.20361148 -0.20621845 -0.005623767 -0.051840357 0.09772568 -0.07295071 -0.4218381 0.17750306 0.5165152 -0.31932184 -0.2951344 -0.34635738 -0.66180956 -0.47935945 -0.20702857 0.3897441 -0.3387038 0.21765202 0.012409569 -0.02345092 -0.4048951 -0.44829628 -0.098512515 -0.059463833 -0.6217265 -0.18550248 0.3172426 0.0707476 0.46888483 -0.082420014 -0.42575935 0.3379159 -0.033352602 -0.01569296 -0.055801637 0.048735224 -0.49670273 -0.26769793 0.47350135 -0.30259487 -0.4004115 -0.12257382 -0.030163871 0.25092322 -0.08418932 0.24491763 -0.38435405 -0.24541953 -0.051556956 0.58185065 0.3309249 -0.68469864 0.07029549 -0.16799402 -0.07111801 0.28373325 0.00791448 0.069484234 -0.19205578 0.27910036 0.17625347 -0.048358347 -0.60582596 0.0619064 0.28643277 -0.111804545 -0.48985332 0.10368518 0.2418016 0.4235338 0.37236822
25 -0.0004668164 -0.053842776 0.120026685 0.23599358 0.19142891 0.017297933 0.019902116 0.34938622 0.08312255 -0.34769237 -0.037292454 -0.1168426 0.08498794 0.06449241 -0.21225227 -0.4704306 0.14957255 -0.08783402 -0.08631092 0.16942978 0.5278239 0.13925467 0.53021365 0.28719884 -0.10138837 0.14508966 -0.53811836 0.16431554 -0.31112453 -0.049098376 -0.12625682 -0.19897947 -0.020549161 0.56436265 -0.4262074 -0.14714862 -0.071723014 -0.20599508 -0.02416187 -0.06352134 -0.14492181 0.03413083 0.4701992 0.4952078 0.1709386 -0.019171907 -0.11279786 -0.014478299 0.43035877 -0.053987365 -0.1364279 -0.2913756 0.50770813 0.7885815 -0.48376074 0.11152467 0.051250294 0.17172462 -0.1715148 0.013719422 -0.04751698 0.10355681 -0.09212913 -0.44915393 0.06397692 0.49261644 -0.27541676 -0.28259906 -0.2838692 -0.5462813 -0.51794195 -0.21465488 0.42291752 -0.28837577 0.23102282 0.064184 -0.05328745 -0.36000025 -0.43940315 -0.24053717 0.061174724 -0.6087426 -0.17545927 0.15531988 0.069863394 0.54164726 -0.0007490871 -0.51138496 0.38589904 -0.029963031 -0.0796055 -0.066151895 0.16836095 -0.5171422 -0.21131773 0.5600697 -0.2465857 -0.46843836 -0.09202706 -0.0187898 0.18930505 -0.18138029 0.2199762 -0.3432423 -0.20534374 -0.13997899 0.5766271 0.26741254 -0.70218974 -0.040977437 -0.33040923 -0.0697428 0.34964567 -0.103220165 -0.006961016 -0.19907866 0.32679144 0.16239099 -0.059563488 -0.6278495 0.13195926 0.2734061 -0.058420215 -0.60677737 0.11052431 0.3109546 0.25403032 0.32236913
33 -0.17508389 -0.62294567 0.048944287 -0.023549246 -0.056833845 -0.252501 0.26562986 0.094063506 -0.08956545 0.38526163 0.030815661 0.75829184 -0.08315838 -0.09793322 0.044691082 -0.50143385 -0.3445345 0.13655435 -0.37760675 0.42962155 0.24663816 0.115362085 0.28313538 -0.21705678 0.18691486 0.13404524 -0.22956476 0.11208811 0.19116788 0.14496735 0.16885847 0.18683927 -0.0110567175 0.6928774 0.16251017 -0.12129283 0.09405979 0.1400142 0.14195843 0.38146794 -0.24870518 0.47558114 -0.05587825 -0.18252005 -0.34301347 0.14845735 -0.19401877 -0.28924757 -0.38423693 -0.24442284 -0.08455545 0.03461015 0.45437166 -0.060574614 -0.30485523 0.117398694 -0.22436613 -0.100282274 -0.17930259 -0.29910514 0.090857536 -0.57710224 -0.06169702 0.10919851 -0.14254886 -0.16841468 0.07557752 -0.26666382 0.47230858 0.30719137 -0.2857455 -0.11138561 0.30564794 -0.025084043 0.12808396 0.3767987 0.08473292 -0.015324 0.14843196 -0.12617643 0.12949681 -0.255647 -0.08154115 -0.72863215 -0.28468052 0.36907613 0.5227847 0.21785583 -0.05610274 0.109995306 0.17631848 0.24977453 0.07858402 -0.12681945 -0.25891903 0.35382512 -0.36363342 0.26808283 0.089376144 0.17617619 -0.107477285 0.10174806 -0.4370124 0.16160685 0.20260124 0.05698565 0.20558426 -0.022410454 0.059617165 -0.25921214 -0.31920722 -0.14174771 0.056196295 -0.33071697 -0.034047257 0.09689542 -0.35801572 -0.08880278 -0.018991586 0.0017952833 0.056795705 -0.60796213 0.0957747 0.034039848 0.11624219 -0.2787016 -0.5716941 -0.15688297
39 -0.28349656 0.045672856 0.40228137 0.33386856 -0.08742837 0.20644177 0.0056056534 -0.06809224 -0.04800818 0.005694196 0.10037396 -0.13359226 -0.031203592 -0.17332251 -0.12566787 -0.30791384 -0.117086336 -0.052043613 0.16913314 0.07381308 -0.16012281 0.34857717 0.29318708 -0.16054355 -0.3733069 0.10822376 0.16896555 -0.011321527 -0.09356956 0.020800242 0.24228725 -0.31723395 -0.255037 0.27565312 0.482822 0.43117908 -0.0672295 0.49154356 0.55791426 -0.16065778 0.066160806 0.42435426 0.26655337 0.061018337 -0.09034491 -0.23550205 -0.27873898 -0.19751297 0.25372615 0.09962439 -0.40784624 0.04007069 0.13059317 0.42603603 -0.16802052 0.2537793 -0.17177576 0.19540113 0.15540622 -0.017310306 -0.5384698 0.23288606 -0.13930053 -0.438408 -0.7467442 -0.42593974 0.15934144 -0.28406194 0.04083509 -0.06551287 -0.29960784 0.34504485 -0.16076316 0.41195533 -0.02950575 0.31412783 -0.2901605 0.19348705 -0.15390696 -0.03820163 0.10596541 -0.12971371 -0.2280649 -0.45778936 -0.09710399 0.26320678 -0.014392709 0.01824277 -0.02806612 -0.21857496 -0.15898025 0.32644978 0.08691327 -0.42192668 0.25307742 0.59249246 -0.08399481 0.08635372 -0.3612314 -0.11837955 0.12303156 0.057119016 -0.21159498 -0.22097737 -0.056197274 -0.08054601 0.25673625 0.38399437 -0.034327276 -0.3998797 -0.14955233 0.22128733 0.40989578 0.19427137 -0.027820924 -0.11172913 -0.09403071 -0.1934206 -0.28965482 0.0047731986 -0.017098146 0.015782518 0.25704065 -0.24850805 0.20366362 0.39291775 0.082264364 0.14598478
48 -0.3230843 -0.6084145 0.02062928 -0.015685458 -0.15735543 -0.24107127 0.19936517 0.09352795 -0.023889357 0.2702933 0.20833783 0.76171476 -0.043414928 -0.020346297 0.13150044 -0.49667683 -0.30060235 0.04697876 -0.45550075 0.40568313 0.12592238 0.11740957 0.07573522 -0.3913213 0.2387067 0.13639967 -0.28340182 -0.014792285 0.26964578 0.042081807 0.11685953 0.112807535 0.06842299 0.8151819 0.121056095 -0.18222809 0.0885707 0.16917501 0.14252996 0.39088544 -0.28826195 0.31373864 -0.012343707 -0.097849295 -0.25637436 0.039910287 -0.28983995 -0.35592523 -0.49425477 -0.4713336 -0.047421396 0.059759527 0.45005804 -0.016821032 -0.29612783 0.26438683 -0.26164848 -0.14433414 -0.18544441 -0.23731738 0.19790629 -0.60137886 0.0063577434 0.018821161 -0.11031901 -0.14537323 0.068684295 -0.25385454 0.4244415 0.2950252 -0.29706588 -0.07781318 0.29656816 -0.053988837 0.23795514 0.44628534 -0.048145898 -0.0599518 0.05660874 -0.022204822 0.22978105 -0.3472717 -0.07470887 -0.6868897 -0.22298844 0.35396236 0.49903378 0.22364008 -0.048401784 0.14757384 0.13896804 0.22364125 -0.050217863 -0.17255826 -0.13918605 0.3303858 -0.39712244 0.18966436 0.13029075 0.29204282 -0.072008714 0.1444817 -0.35017064 0.2868699 0.21895783 -0.012332382 0.22240442 0.1665624 -0.10039469 -0.39692765 -0.25107256 -0.23046146 0.11660415 -0.34176376 -0.118451245 0.08759356 -0.440122 -0.09639827 0.005570247 -0.10523956 0.24047609 -0.62264925 0.11924341 -0.020909904 0.22412737 -0.1728343 -0.36689544 -0.046359606
18 -0.14186178 -0.57775503 0.051958878 0.007753986 0.0022414054 -0.10960007 0.30268255 0.18170744 -0.11050712 0.3714333 0.085708804 0.7748967 -0.11799224 0.0063587325 -0.03134922 -0.5672338 -0.40628698 0.053311598 -0.4446664 0.44903544 0.17829573 0.124310285 0.44180018 -0.24737376 0.18965219 0.15849377 -0.31214735 0.12121179 0.23331258 0.18335532 0.13342077 0.14539379 -0.09900637 0.7608664 0.23464753 0.0101732435 0.13853933 0.20433687 0.2667162 0.30418938 -0.24523185 0.39528474 -0.039656024 -0.06317625 -0.3844443 0.07441076 -0.3023127 -0.30670574 -0.41051924 -0.34209877 -0.05810707 -0.0061202445 0.44510835 0.017718578 -0.19280824 0.19467527 -0.14268592 -0.17741193 -0.22502708 -0.31842405 0.013787311 -0.5575959 -0.06993671 0.058233995 -0.11033108 -0.17507052 0.015105632 -0.28502303 0.48458245 0.31346598 -0.2578938 0.0029627765 0.4053103 -0.1709882 0.17174423 0.4046027 0.08295948 0.019948334 0.037950218 0.06845342 0.14522436 -0.32104254 -0.17168854 -0.6753719 -0.36645785 0.40364566 0.5777766 0.19345322 -0.11997508 0.02432059 0.1696655 0.16420193 0.103264436 -0.120528854 -0.25610748 0.5353393 -0.33511162 0.30637637 0.070494555 0.09357815 -0.12719023 0.14657788 -0.4156409 0.1590145 0.11363674 0.06689805 0.26180166 0.00027513455 0.009357385 -0.2541266 -0.30765104 -0.18425335 0.044603534 -0.2981386 0.08071627 0.051911794 -0.4711827 -0.1289826 0.022160903 -0.02470169 -0.052228514 -0.6383139 0.011286358 0.0335006 0.19477554 -0.2647471 -0.4567571 -0.11123791
24 -0.2149029 -0.020564819 0.63317573 0.4044225 -0.15504995 0.2492219 0.03899905 -0.07491285 -0.11202707 0.119028404 0.02221255 -0.010065504 0.051832046 -0.27692658 -0.0871462 -0.31459805 -0.2652705 0.06398069 0.27134675 0.094421655 -0.23570116 0.2993983 0.30209574 -0.19288182 -0.37563437 0.24102613 0.36638856 -0.009991692 -0.008104635 0.012832191 0.2617721 -0.34404954 -0.37361374 0.24374188 0.5660082 0.47340497 0.13329478 0.3522067 0.6305261 -0.16001788 0.12611702 0.4513581 0.2725276 0.06682956 -0.17924917 -0.3192499 -0.2967911 -0.09765527 0.17407678 0.009895472 -0.3163432 0.10008038 0.16591679 0.35934007 -0.09778289 0.33622524 -0.20158519 0.13606106 0.082441404 -0.030051883 -0.5645985 0.07222682 -0.08295703 -0.37317696 -0.8677605 -0.5190135 0.26266623 -0.07849871 -0.0120512135 -0.022818021 -0.17131448 0.43711823 -0.30373853 0.44799635 -0.075963564 0.4038802 -0.28320092 0.21506265 -0.09146857 -0.052031368 0.22344239 -0.1322274 -0.18283425 -0.42336127 -0.1256947 0.20993342 -0.014118196 0.30567032 0.053760972 -0.16660026 -0.15062144 0.40068993 0.0350086 -0.34306702 0.26662162 0.5502705 -0.017577318 0.08688407 -0.47955042 -0.0652262 0.014410128 0.17784667 -0.16237602 -0.15842514 -0.08599527 -0.15162769 0.15788753 0.39575323 -0.028943984 -0.37795615 -0.07595936 0.21362859 0.35208675 0.21261404 -0.15061842 -0.055781197 -0.19575016 -0.12993583 -0.41665992 0.25765648 -0.02733085 -0.12417643 0.29623464 -0.30231458 0.41180104 0.29229754 0.09465861 0.15844327
54 -0.29872996 -0.0654557 0.47660446 0.27259645 -0.17473032 0.19819143 0.023085114 -0.16689436 -0.043669987 0.03228417 -0.09278994 -0.099622756 0.056508005 -0.22745621 -0.1475893 -0.25681964 -0.19897056 -0.052083295 0.1922683 0.1084697 -0.25673777 0.29917532 0.22609955 -0.15600416 -0.34373948 0.08368689 0.22190933 0.017558744 -0.01956011 -0.018820725 0.23814939 -0.19502497 -0.33895078 0.19234703 0.49312314 0.45205697 -0.06663059 0.46564594 0.700028 -0.19836734 0.087615244 0.42041826 0.21224512 0.03538403 -0.074507914 -0.23735887 -0.3916501 -0.18950608 0.2374957 0.10012412 -0.5006807 0.045534283 0.23387264 0.41532767 -0.13906647 0.3554075 -0.20604149 0.16419825 0.17635535 0.06399404 -0.6200936 0.14928693 -0.08698029 -0.46897846 -0.7515066 -0.553821 0.3225868 -0.2485166 0.082376204 0.009219935 -0.15883783 0.33404726 -0.26531032 0.45732966 -0.11882413 0.37281305 -0.302367 0.26595947 -0.040645827 -0.08559532 0.060553864 -0.15050296 -0.24991481 -0.5690159 -0.11361835 0.18071678 -0.017295793 0.20077805 -0.1764447 -0.14310244 -0.06054468 0.30133012 -0.022836726 -0.40689617 0.25094545 0.5623157 -0.18420085 0.118570596 -0.41122797 -0.06378446 0.1439476 0.24127752 -0.23625661 -0.26364762 -0.027537687 -0.2142892 0.2896811 0.5014866 -0.082532845 -0.46681535 -0.22457714 0.19948213 0.2959639 0.22692607 -0.23889214 -0.22033174 -0.20298652 -0.2404462 -0.39669952 0.15320079 -0.007037239 -0.040724985 0.279412 -0.18888964 0.33967185 0.32886174 0.25758225 0.06309518
