70 128
69 0.2664075 0.5615059 0.17142062 -0.014794037 0.20703879 0.53826743 0.2010515 0.17852184 0.04657762 -0.03868053 0.28947195 -0.15843987 0.1838155 0.2722503 -0.0034074094 -0.26171836 -0.030362463 -0.3315239 -0.17805763 -0.10922773 -0.17821948 0.49451923 -0.37359166 0.27015498 -0.17367841 0.14358847 -0.05230277 -0.18364045 -0.105607346 -0.17742246 0.024765462 -0.42315492 0.1735317 -0.16957131 0.17767873 -0.035570383 -0.04601752 0.22825804 0.085111745 0.33473045 0.37667015 0.30079123 0.10224186 -0.29237852 0.22268902 -0.096089885 0.20206113 -0.13313702 -0.08465025 0.06330088 -0.058308847 -0.14148292 -0.28303868 0.19996534 -0.0014367667 0.17944735 0.028120022 -0.2348048 0.04358714 0.36093333 0.21778627 -0.10404102 0.05633785 -0.24209848 -0.13053195 0.3133505 -0.21534143 0.013898118 0.058769185 -0.030279754 -0.13127154 -0.033303924 0.21232478 -0.37967616 0.17780767 -0.2716022 0.3864271 0.0033232905 -0.2672069 -0.2290276 -0.030084139 0.32866922 0.3144116 0.024084078 -0.30281848 0.2048916 0.19953291 -0.13058794 0.43158948 -0.09971752 0.10076326 -0.12954815 -0.20437858 0.5087556 -0.29812193 -0.14155929 -0.050180838 -0.3678523 -0.22907767 -0.001426656 0.01627284 0.34173366 -0.0008584072 0.06958787 -0.120201334 0.47293547 0.16541278 -0.20052312 0.06597533 0.08894752 -0.07952947 0.38984087 -0.38137528 0.20180392 0.052470867 0.07342706 0.05567551 -0.28480142 0.34354427 -0.18371856 -0.28527087 0.3000585 0.08949048 0.12794204 -0.115187384 0.34903014 0.45905036 0.056653015
67 0.29304788 0.4665726 0.22118697 -0.100004025 0.21269603 0.41301826 0.102031164 0.078927435 0.21283585 0.02027185 0.31570616 -0.16081701 0.11484273 0.19893304 0.02001072 -0.25055754 -0.0050400463 -0.38309237 -0.12870136 -0.11846247 -0.13552922 0.37273398 -0.38745034 0.27306074 -0.12720518 0.1686283 -0.10748064 -0.09968854 0.043620475 -0.07719672 0.025251944 -0.5881392 0.17911176 -0.19772805 0.030384986 -0.092568845 -0.091117576 0.27580908 0.06945145 0.3288503 0.35144982 0.29253393 0.09800958 -0.23741952 0.20534277 -0.08932133 0.15928364 -0.059783734 0.02384952 0.06596182 -0.012383941 -0.015814496 -0.29139936 0.18921918 0.058556944 0.1404731 0.021262577 -0.16514714 0.15027785 0.41279796 0.22446908 -0.14346904 0.046816207 -0.20994745 -0.12348604 0.46694848 -0.24139963 0.06983026 0.056320477 -0.006992288 -0.08305808 -0.003814693 0.22280063 -0.3601827 0.074235596 -0.26087382 0.3447013 -0.008884748 -0.22176462 -0.15970196 -0.06834768 0.3267771 0.2882032 0.07007484 -0.3066049 0.0638665 0.106052086 -0.13423707 0.4993504 -0.16487962 0.048667792 -0.08992722 -0.14905018 0.41793597 -0.24308994 -0.24985155 0.058265667 -0.2813921 -0.23413229 0.07305866 0.05089522 0.37554023 0.06929443 0.12556134 -0.20927495 0.44587293 0.11996853 -0.2227733 0.033702474 0.0013824463 -0.084085494 0.35485923 -0.3741239 0.24133618 0.2151675 0.21952276 0.051701378 -0.2237296 0.3544072 -0.31178075 -0.23586977 0.23941743 0.215023 0.14617121 -0.11072236 0.43432677 0.329279 0.07099804
68 0.3891426 0.5897476 0.333122 -0.16641118 0.28213438 0.4799786 0.29382142 0.089276746 0.13750565 0.0025012589 0.35853225 -0.2161037 0.21144292 0.16393043 0.11307622 -0.3607559 -0.12978849 -0.30993867 -0.21999326 -0.23559459 -0.11424367 0.5138445 -0.35943404 0.2863062 -0.2017678 0.17489669 -0.10764241 -0.15510345 0.08330044 -0.03164081 0.036848508 -0.64454955 0.22313917 -0.21120022 0.120098315 -0.026882082 -0.10181242 0.20514458 0.046066087 0.30175197 0.44038615 0.28850853 0.12816209 -0.30463535 0.21501088 -0.09457356 0.16234052 -0.056711882 -0.10801435 0.0618066 0.002819839 -0.06066857 -0.24690774 0.22088784 -0.13056408 0.17740823 0.03370161 -0.13391852 0.072019905 0.41575238 0.24703312 -0.16972058 0.089504726 -0.20418999 -0.058422122 0.42826945 -0.21875578 0.026476294 0.062125713 0.05215595 -0.09808253 0.029947212 0.13438295 -0.31710342 -0.031841904 -0.20741804 0.42444673 0.05653065 -0.27564847 -0.11793196 -0.11508619 0.28681597 0.21103883 0.07185576 -0.23680717 0.13437921 0.0945228 -0.13534567 0.44646195 -0.09816872 0.12903178 -0.06633976 -0.09793243 0.40326482 -0.24621558 -0.26280656 0.032174256 -0.24728578 -0.2190846 0.040862855 -0.10142028 0.38257012 -0.023427974 0.08178033 -0.15004233 0.5135245 0.15773413 -0.27383777 0.13267152 0.12326874 -0.095003985 0.36750847 -0.3354764 0.20130202 0.19833434 0.13727348 0.067030475 -0.22281446 0.35343093 -0.3020368 -0.31675482 0.25665736 0.19323502 0.15282542 -0.16715036 0.404063 0.3135808 0.046638113
43 0.29967508 0.03974176 -0.25206685 -0.4136682 -0.018070862 -0.061628535 0.41721186 0.1885812 0.50403094 0.0037115458 0.064008586 -0.086736105 0.2847712 -0.2820483 0.2191514 -0.22540407 0.1620986 0.22240834 -0.3969794 0.02476532 0.17801109 0.117675304 0.07613092 -3.3843273e-05 0.014535184 0.31434223 -0.07109825 -0.009213472 -0.054514196 0.09691049 0.095054604 -0.20646708 0.05155399 -0.047956858 -0.08289862 0.018757982 -0.27902687 0.030424846 0.106599115 0.11528 -0.28811234 -0.0686186 0.03845652 -0.13537331 0.028489254 -0.29003236 0.30737916 -0.16321172 0.45654973 0.012788684 -0.20452203 0.49673212 -0.10077992 0.25351426 0.2032529 -0.45801252 -0.09276416 -0.1476379 0.36714754 0.1838055 0.00914995 0.0012275378 -0.23722617 0.22511701 -0.18144962 0.22351946 -0.03444291 0.042070966 -0.024988946 0.3515368 0.064717226 0.71928483 0.15859368 -0.083607696 0.1944912 -0.1282502 -0.097334996 0.33705935 -0.23655753 0.2777715 -0.05704762 -0.08531691 0.032260977 -0.2624291 -0.3377312 0.108527154 0.06441653 -0.05896332 -0.23118082 -0.0648593 0.444772 0.16122475 0.21798693 -0.22345829 -0.2932931 0.1821993 0.32610783 -0.31663632 0.32585 0.45739838 -0.4034354 0.058893654 -0.68754447 -0.12731734 0.24495122 0.03487616 0.14843152 -0.27172706 0.66952175 0.12625946 0.10024369 -0.055588648 0.33330116 0.0042007486 0.07888415 0.06316802 -0.28645974 0.17121163 0.1344716 -0.017589906 0.177775 -0.14959188 0.2747182 0.036078464 -0.3908767 0.036810353 0.25002196 0.10775701
44 0.3557872 -0.028024819 -0.28241524 -0.34771582 0.02349703 -0.050591286 0.3294451 0.16813755 0.5873489 0.017086085 0.07103238 -0.11800861 0.2774419 -0.21759707 0.21496737 -0.13790496 0.20824684 0.18317501 -0.3736528 0.014774378 0.120847836 0.17594135 -0.034524433 0.06637411 0.052113898 0.2051645 -0.1411458 0.126938 0.043876838 0.175863 0.09350014 -0.32300442 0.020574933 -0.07188615 -0.17727244 0.07961665 -0.21873419 0.050511874 -0.007088867 0.11022072 -0.429642 -0.054463785 0.0073784958 -0.17767446 0.049731728 -0.23734368 0.27413043 -0.13501649 0.3726406 0.052567665 -0.2685988 0.4819582 -0.012574328 0.2446299 0.1575385 -0.57447195 -0.11235052 -0.13888805 0.4765067 0.1647244 -0.05850369 -0.084999025 -0.24112378 0.11375916 -0.13352153 0.25032413 -0.05673631 0.036065385 0.0013765467 0.3687251 0.10396412 0.7044243 0.0027977487 -0.08677267 0.15741555 0.021763986 -0.13602804 0.25415835 -0.24127714 0.27224842 -0.12668343 -0.11009714 -0.04930611 -0.27465764 -0.3781008 0.112771705 0.135029 -0.07949326 -0.391488 -0.12925045 0.38108435 0.1392339 0.107402675 -0.3113452 -0.34049064 0.24887913 0.32578945 -0.34872317 0.37453842 0.44954464 -0.44852325 0.10644842 -0.70103556 -0.08193193 0.22158287 0.06649954 0.22756754 -0.41316235 0.63971514 0.17957345 0.11584718 -0.1212908 0.25455037 0.019093271 0.20162384 0.13581692 -0.3428301 0.16322994 0.23400377 -0.109708406 0.18492334 -0.18610252 0.29099804 -0.04321341 -0.3695877 -0.015422153 0.21852684 -0.03240696
52 -0.058647472 -0.16749634 -0.036494307 -0.40648013 0.08819305 -0.04893656 -0.011591366 -0.08932161 -0.12639394 0.065525696 -0.04515692 0.29281667 -0.3109016 0.033343576 -0.1911685 -0.21354084 -0.22029573 -0.024596306 -0.032587543 -0.21308023 0.15740262 -0.15526628 -0.06366232 -0.0057027466 -0.017354371 -0.08869937 -0.055281244 -0.11541368 0.10512228 -0.0022889122 0.15101449 0.12169263 0.23676513 -0.18904938 -0.20718595 0.025291657 0.29683086 -0.06447289 0.2656781 -0.046552222 -0.1049165 0.17150038 -0.21477716 -0.10967459 0.021180013 0.28470144 0.098368764 -0.0876109 0.012117558 0.121394925 -0.22163098 -0.018804187 0.25549778 0.18986589 0.5465163 -0.36341095 -0.037944335 -0.36880976 0.06970289 0.05996796 -0.06981499 0.017026696 -0.35731882 0.13894108 -0.33262044 0.18171681 -0.18418616 0.16415241 -0.13528366 -0.0059661916 0.050610058 0.31884137 0.13468312 -0.13425723 0.34590128 -0.261727 0.28487763 -0.026827766 -0.3256504 0.07074915 0.04068445 -0.34657812 -0.031148218 -0.3237026 0.102376744 0.25198695 0.50600684 -0.03330722 -0.17548555 0.09718827 0.16290769 -0.12812713 0.1673316 -0.08979676 -0.030854622 0.016313868 -0.14466704 0.037126504 -0.035543658 -0.014514386 -0.25945565 0.25627255 -0.096328974 -0.032934114 0.28432778 0.101051986 0.3408152 0.18175495 0.2830406 0.18906467 -0.05813159 0.0962997 -0.211021 -0.2739412 -0.21694456 -0.35101512 -0.014738877 -0.03098572 0.1315114 0.031857878 -0.10162273 -0.15896688 -0.3001853 -0.27657 -0.109899476 0.120162874 0.29781443 -0.26878947
22 -0.1071967 -0.09578585 0.09256822 -0.15947685 -0.038849507 -0.21100591 0.21714072 -0.1799297 -0.25687718 0.25084716 -0.07389927 0.29153115 -0.2359131 -0.36727872 0.47215137 -0.10042873 -0.56824183 -0.5718046 0.037786357 -0.1658612 0.34990194 -0.111897446 0.28946418 0.4569095 -0.08367485 0.0898823 -0.1703522 0.0070747966 0.060669858 0.393108 0.11880293 0.08372895 -0.3098715 0.24321795 -0.24613501 -0.49860013 0.25472227 0.4512736 0.080755755 0.103454165 -0.16338691 0.2174481 -0.14518526 0.24187015 -0.038344722 0.5963734 0.6235513 0.20355648 0.14330046 0.26721174 -0.15569313 0.24892718 -0.07506886 -0.06495622 0.07037734 -0.4710641 -0.22801442 -0.3312184 0.039234016 -0.21230945 0.5254957 -0.042997874 -0.24950509 0.62298054 0.19712019 0.12484799 -0.3748302 -0.045621313 0.23305589 -0.18254039 -0.027458431 -0.053416252 0.10901821 -0.28681555 0.37783954 0.01666369 0.028073085 -0.36044168 -0.0838867 -0.07738317 0.21069217 -0.109785065 0.05280955 -0.21156043 -0.36032432 0.054661274 0.17984696 -0.077667356 0.15720809 -0.020856148 0.23578082 0.19409682 0.21985325 -0.048739877 -0.28589353 0.38530326 -0.09788886 -0.013863 -0.022353822 -0.23985574 -0.08207499 -0.064838655 -0.15484473 0.36062446 0.056940034 -0.17477255 0.51328075 -0.000842647 -0.055314194 -0.14861009 0.22541131 0.34765387 -0.2718357 0.28230348 -0.320641 0.08280737 -0.34903055 0.32149985 -0.48383707 0.18632762 0.0120256 -0.14284767 0.4052646 -0.2559518 0.0073782573 0.14611359 0.019242492 0.25900343
53 -0.08238022 -0.13454711 -0.12588531 -0.36584568 0.16213506 0.016545035 -0.10872051 -0.1097166 -0.16844076 0.031489477 -0.07490656 0.29588744 -0.29980636 0.038201965 -0.21958332 -0.18508671 -0.21278721 -0.06481821 0.032467727 -0.20097092 0.15337281 -0.094074495 -0.16626042 0.097120814 -0.059316978 -0.11519164 -0.10169801 -0.08511122 0.061991118 -0.062091265 0.15881695 0.13008925 0.16869548 -0.17531961 -0.14052583 0.045956455 0.27460453 -0.093815915 0.2785317 -0.0070095826 -0.11420378 0.20028394 -0.25901768 -0.15126902 0.0691515 0.23133993 0.09905752 -0.05225133 0.03762484 0.055179693 -0.25028932 -0.00097150786 0.2337044 0.26612926 0.5036268 -0.38975558 -0.037587993 -0.34176752 0.08349134 0.074947216 -0.039519493 0.03444768 -0.3705711 0.11922586 -0.3796238 0.22453734 -0.20152761 0.18825491 -0.13221501 0.042272355 0.00043419987 0.3177878 0.1626518 -0.12456084 0.3125398 -0.24610706 0.32637107 -0.06281764 -0.3804817 0.08234584 0.08639689 -0.33431697 0.034101594 -0.3296708 0.061427407 0.2522894 0.497295 -0.0070771175 -0.13257992 0.051857233 0.12314213 -0.124981366 0.09650141 -0.071212515 -0.09605699 0.085310765 -0.1411997 -0.029512154 -0.026530394 -0.028366676 -0.25208426 0.216604 -0.07696845 -0.112268925 0.21584462 0.16919124 0.325598 0.23069982 0.15955679 0.20972964 -0.07088105 0.07212208 -0.20236373 -0.2718062 -0.18059373 -0.34083012 0.068509154 -0.14072011 0.08139886 0.053830087 -0.053188395 -0.15800875 -0.36185825 -0.25715074 -0.08239124 0.09464152 0.2866653 -0.30447105
21 -0.055375334 -0.09280456 0.08870455 -0.12072224 -0.15305156 -0.21381462 0.18927146 -0.16972959 -0.25046974 0.21989302 -0.013360447 0.22417228 -0.19313474 -0.32004148 0.36991346 -0.05393384 -0.47487763 -0.38657594 -0.06064937 -0.23841584 0.32229817 -0.10979059 0.30636686 0.42861748 -0.031793892 0.013214194 -0.041100226 0.011716039 0.05046677 0.39536816 0.12414212 0.17192341 -0.2527477 0.28387007 -0.3003788 -0.5097902 0.30675483 0.4600659 0.076926105 0.100929335 -0.23630333 0.16817509 -0.18519425 0.27190444 -0.10595734 0.63405514 0.63217473 0.16907547 0.15158212 0.16520904 -0.15307009 0.2680263 0.0033320144 -0.10446138 -0.008008233 -0.39008787 -0.27655908 -0.3912291 -0.0008197175 -0.15067579 0.5216657 0.013531235 -0.25470006 0.6971278 0.19322999 0.0710408 -0.34858692 -0.08825968 0.22718419 -0.2812186 -0.02480651 -0.075993404 0.07204252 -0.22421937 0.38992548 0.08130625 0.04699689 -0.46628773 -0.13799022 -0.10453412 0.2548331 -0.07784164 0.016364327 -0.292906 -0.46296844 0.014335271 0.2231176 -0.046703998 0.16056676 -0.055964258 0.3876067 0.2374837 0.28623757 0.028249757 -0.2953945 0.36713475 -0.1532531 -0.05939877 -0.02226712 -0.21651661 -0.23161314 -0.04243336 -0.25297162 0.38858324 0.116148315 -0.17120066 0.5406451 -0.08603816 -0.044183694 -0.13254131 0.27564305 0.41982853 -0.2950313 0.22892219 -0.3696154 0.044381693 -0.4287557 0.33007765 -0.41295272 0.22763024 -0.06510481 -0.1388771 0.42477623 -0.26772568 -0.026735758 0.16481924 0.089887954 0.20117922
42 -0.17751728 0.2267531 0.25269625 -0.19926448 0.40405008 -0.008373806 0.14084685 0.020918079 0.07741333 0.09617073 0.30170998 0.18619819 -0.41760072 0.2650443 0.55465186 0.17306969 -0.39072317 -0.3316253 0.3922172 0.19111237 0.046618905 -0.18407464 -0.14343797 0.34936607 0.22009644 0.0072969543 -0.48821494 0.16117036 -0.11370736 0.24172176 0.10891567 -0.112119466 -0.21775594 0.42110234 -0.22812608 -0.06551588 0.18713976 -0.21244287 -0.088037476 -0.079266 -0.15601861 0.1695518 0.18566658 -0.012489115 0.3206056 0.66179675 0.24904849 0.15807925 0.08162522 -0.048878342 0.105673425 -0.048726443 0.015792454 0.11037931 0.21697208 -0.12856148 0.31257978 0.04375308 -0.52615625 -0.6455297 0.2629287 0.22094873 -0.07212935 0.117140025 0.30484933 0.3997998 -0.6096499 -0.31761172 0.15851282 0.06691978 0.2557267 -0.18439496 0.40196273 0.19364329 0.30001402 0.120768145 -0.1251717 0.10066876 -0.17779751 0.6626857 -0.06761578 0.15243949 -0.26689118 0.31882122 -0.20400497 -0.3155458 0.16173589 -0.30461806 0.2160673 -0.07025811 0.37418765 0.3990669 -0.15430914 -0.27675766 -0.49510375 0.47369692 -0.1175072 -0.088977434 0.39451334 0.08426307 -0.18325126 -0.32521063 -0.053509403 -0.043204065 0.13277438 0.043019183 0.4324867 0.17804167 -0.04785746 0.05287522 0.1523546 -0.1546865 -0.06664014 0.25227314 -0.59119517 0.24957587 -0.5405841 0.009684748 -0.005102021 -0.022029053 -0.095981665 -0.48513085 0.010830564 0.26007563 0.087219976 -0.4894351 0.4667616 -0.19651386
28 0.047460563 -0.12244439 0.025007501 -0.38397026 0.09313264 0.064338915 -0.06606104 -0.11826043 -0.10977395 -0.08726079 -0.070483014 0.25543347 -0.22631279 0.14379898 -0.32335988 -0.04947337 -0.18296613 0.033730783 0.0573847 -0.18025623 0.16103174 -0.20991133 -0.087818 -0.09688722 -0.035282582 -0.13769253 -0.08233271 -0.063511364 0.17491166 0.012154296 0.07994982 0.26081067 0.22069281 -0.24509382 -0.1728293 0.0012595206 0.37140933 -0.059469152 0.21842521 -0.10797366 -0.013957279 0.10238105 -0.25180712 -0.13599928 0.03985344 0.36924714 0.08009607 -0.036184337 0.019388773 -0.0780631 -0.2745585 -0.020174613 0.29677796 0.17562987 0.5578577 -0.38258168 0.025958348 -0.3027562 -0.0036158308 0.012846388 -0.0035539975 0.032395143 -0.24723071 0.07705228 -0.33203197 0.34478614 -0.2758897 0.1632566 -0.18852764 -0.076738276 0.023238955 0.34314433 0.10053979 -0.072252356 0.31125483 -0.2094984 0.2767033 0.00368502 -0.46014374 0.104946315 -0.0014069442 -0.3154506 0.0065633194 -0.24212724 -0.036285866 0.1364514 0.53679055 0.019844308 -0.14935204 0.0616899 0.19117345 -0.060646534 0.20407224 -0.14034624 -0.20980173 0.03602095 -0.1397118 0.014466093 0.074981 0.10850478 -0.3682958 0.40816498 -0.11166361 -0.10293468 0.1841782 0.12784117 0.41265658 0.21939099 0.16627662 0.12764324 -0.058005024 -0.0025341145 -0.20502198 -0.272027 -0.2309472 -0.37415463 -0.024906503 0.056251 0.16572657 -0.010955245 -0.05207896 -0.21432222 -0.35509488 -0.24213848 -0.25226888 -0.006081468 0.29910514 -0.23105247
41 -0.19743961 0.10271451 0.2786582 -0.1596389 0.36385363 -0.015598034 0.19072486 0.018380597 0.09522723 0.05746625 0.27280566 0.26175827 -0.48990625 0.21165872 0.4712672 0.20929943 -0.41242814 -0.35307738 0.3218528 0.21470945 0.055188395 -0.18221055 -0.1808271 0.25711316 0.14078614 0.177412 -0.45014885 0.1425887 -0.0724575 0.26087183 0.19132242 -0.16549583 -0.21458662 0.500555 -0.23045248 -0.092591844 0.18867485 -0.1461498 -0.12238255 -0.04296112 -0.119349375 0.18877827 0.21989197 0.010531476 0.20856306 0.70648724 0.35073954 0.18932448 0.11468827 -0.072211385 0.075577244 -0.028584488 -0.003916284 0.08405726 0.33654267 -0.18316688 0.2719733 0.10250804 -0.4816613 -0.6923096 0.24969475 0.19485562 -0.058885027 0.1496042 0.26838815 0.39490712 -0.50810975 -0.3674985 0.15169619 -0.00013379542 0.280977 -0.22668436 0.42189324 0.22900392 0.24599864 0.08061084 -0.10023108 0.053430915 -0.16939431 0.5598671 -0.053451892 0.10257417 -0.18116671 0.36507127 -0.16036418 -0.30011836 0.11845248 -0.2768379 0.24182801 -0.11536104 0.33858848 0.3453031 -0.09517856 -0.27439544 -0.44073722 0.5325714 -0.22189364 0.031373903 0.38847077 0.11638281 -0.17043924 -0.35880494 0.019116044 -0.021936972 0.12463604 0.112650074 0.48465225 0.21590237 -0.07095181 -0.009768053 0.10871097 -0.14614038 -0.08410893 0.2658394 -0.5926309 0.16474062 -0.65048045 0.028803878 -0.054248273 -0.06270424 -0.13416736 -0.61607087 0.087425 0.32675266 0.047497824 -0.57427573 0.49948895 -0.2634914
29 0.119931765 -0.14670719 0.0028849877 -0.4652657 0.13393837 0.04025736 -0.007362893 -0.06972021 -0.00042110594 -0.02993613 0.012864603 0.26596892 -0.26599035 0.13322438 -0.2533576 -0.18091749 -0.21775067 -0.00497488 -0.041498743 -0.18997897 0.1334867 -0.21276228 -0.11935368 -0.061452236 0.0057139257 -0.08049199 -0.14949282 -0.110073164 0.13527602 0.038476612 0.13997832 0.16560918 0.23225151 -0.21302724 -0.27191243 -0.0030346962 0.34386766 -0.11290421 0.16068669 -0.12807918 -0.082245044 0.110891744 -0.25520298 -0.1369352 0.065039635 0.3314997 0.05234109 -0.061108552 0.02408533 -0.055172913 -0.26516834 -0.04928429 0.23844928 0.18700838 0.49376372 -0.24570987 0.06779003 -0.2318198 0.06523811 0.0069332435 -0.030701632 0.030443752 -0.29965508 0.058937125 -0.35266563 0.31362846 -0.20510459 0.15970047 -0.12802537 0.030232886 -0.022095237 0.26687545 0.08613088 -0.024151908 0.25566325 -0.15729737 0.25976458 -0.0022657479 -0.41417128 0.093728475 0.032695837 -0.26310718 -0.0099383965 -0.29072353 0.024120808 0.14345989 0.5706815 -0.035635017 -0.15351772 -0.0044727917 0.24829449 -0.09298128 0.16192952 -0.16653882 -0.14283797 0.056152157 -0.19490781 -0.03277197 0.09025515 0.08166105 -0.34500515 0.27618247 -0.07328173 -0.08396985 0.1828074 0.031858906 0.26588884 0.16834296 0.15647021 0.18397468 -0.08807052 0.010202376 -0.18993883 -0.28675458 -0.33466402 -0.4078364 -0.028858649 -0.02280189 0.19610819 -0.0072921063 -0.09749141 -0.18192138 -0.36079544 -0.22539851 -0.17013296 0.05445731 0.32029217 -0.31474045
32 -0.1811444 0.093899414 -0.002131086 0.24853353 0.41898733 0.17782475 -0.26404473 0.04452036 -0.41390708 0.051658437 -0.110085905 -0.2682154 0.15320909 -0.054548115 -0.25530058 0.33547482 0.22131291 -0.05300716 0.1899555 0.031004597 -0.22448638 0.06966404 -0.10572133 0.31787106 -0.06741685 -0.3071945 -0.2556397 0.341897 0.0079892725 0.09609596 -0.0606586 -0.018160876 0.116994165 0.02842819 -0.4456493 0.086772785 0.21707906 0.20027357 0.094714 0.37462527 0.06513098 0.2801935 -0.14198965 -0.45392245 0.29993036 -0.08766318 0.006454884 0.0058016307 0.27308986 0.19502932 0.06057081 -0.062248863 -0.055553187 0.09667491 0.60096914 -0.30488977 -0.12657076 -0.07467277 0.3017872 0.1382577 -0.019505097 -0.20197947 -0.56683505 -0.016282218 0.05446947 0.29709992 -0.52946615 0.0054923226 0.00044942208 0.14189956 -0.15764041 -0.027053133 0.26840875 0.0856944 -0.0775165 -0.039329853 0.14586835 0.4887478 -0.35331622 0.31854817 -0.073749706 -0.1313508 0.03570927 -0.21119969 0.24114972 0.32934913 0.5465605 -0.2751182 0.24657063 -0.088921666 0.03522619 -0.04747223 -0.105919205 -0.21151648 -0.30310208 0.2858092 -0.091072395 -0.2045378 0.093515545 -0.09316133 -0.44831744 0.027754165 -0.039839238 -0.09719615 0.07921546 0.18427654 0.3156064 -0.36132938 -0.08552733 0.5504663 0.1631409 -0.08865436 -0.0026380033 -0.08539725 0.12518393 0.22497842 -0.16973338 0.038384963 0.37506348 -0.3415962 -0.12880215 -0.2810249 0.07052682 -0.009740788 -0.13852091 -0.016689084 0.020453783 -0.21250251
34 -0.1301785 0.18157533 0.09728836 0.23190245 0.3973838 0.15290329 -0.252083 0.0831432 -0.3812136 -0.0062359637 -0.082391076 -0.27946597 0.14383386 0.027333157 -0.21818154 0.39523304 0.35593152 0.010320434 0.3428139 0.07859586 -0.32032552 0.03315214 -0.075615704 0.31947142 -0.049104415 -0.3098664 -0.18690804 0.28935412 -0.061953872 0.14241101 -0.10700422 -0.1372458 0.033161733 -0.023643967 -0.38406372 0.06188691 0.26618996 0.17920665 0.105837554 0.38893408 0.10131338 0.24752799 -0.18569194 -0.44892374 0.28492352 -0.02618057 0.020382507 0.038694542 0.44357875 0.17545605 0.083298884 -0.0035130158 -0.0639554 0.050604776 0.72938776 -0.4107986 -0.050600566 -0.06411567 0.15194014 0.07349932 0.062524594 -0.1855054 -0.5714818 0.06463725 0.12429555 0.3459633 -0.63391054 -0.1112813 -0.04902203 0.14589359 -0.14040275 0.03665851 0.252831 0.14563523 -0.037312508 -0.036855396 -0.017666465 0.6568145 -0.37985444 0.39458784 -0.19362393 -0.04424737 0.027827663 -0.12524782 0.23683281 0.33948255 0.38585967 -0.26748532 0.31059396 -0.118038274 0.046954207 -0.081295244 -0.08657867 -0.18796997 -0.32407212 0.26954958 -0.04153847 -0.258891 0.14777908 -0.1625107 -0.5697597 0.080493875 -0.005632338 -0.10730837 0.0069877286 0.1710874 0.35070217 -0.3507974 -0.10291697 0.5581006 0.16466407 -0.12855273 0.021401454 0.04733723 0.14363168 0.23169892 -0.27309418 0.04676946 0.3636894 -0.28597575 -0.1846568 -0.27149022 0.08041132 0.022128703 -0.20678592 -0.049814016 0.098709926 -0.15603323
64 0.15242614 0.26544178 -0.021672564 -0.12953068 -0.15512367 0.011350893 0.2273662 0.2455207 -0.052234974 0.280478 0.088820554 -0.26777017 0.3021566 0.0014262556 -0.13776597 -0.20901869 0.19284403 -0.33147866 -0.11388948 0.18273875 0.12044491 0.1497559 -0.2887824 0.6640525 -0.0136799365 0.18652025 -0.10421164 0.02753274 -0.096631326 -0.010923614 0.22476575 -0.41408226 0.09155392 -0.39611048 -0.19135477 -0.13371652 -0.011232227 0.20049424 0.40759397 0.121920325 0.094543435 0.09565254 -0.27496326 -0.15950368 0.018653 -0.05785759 -0.3117994 -0.14964098 0.09162668 0.08878142 0.05943265 0.270976 -0.06589207 -0.15984127 0.6603976 -0.094828725 -0.038334057 -0.0993034 -0.058357704 0.090349875 0.0115585085 -0.34555763 -0.20240274 -0.018985117 -0.011958928 0.05497559 -0.14089112 -0.034876496 -0.05370801 0.049484298 -0.06824668 0.07116111 0.29631212 -0.09316913 0.066492505 -0.28804433 -0.3556143 0.23514406 0.01948672 0.06336838 -0.07973453 0.03745985 0.19795269 -0.3788311 -0.057502147 0.051621918 0.11893704 0.12970129 0.34756696 0.08291245 0.13113284 -0.20512219 0.07812217 0.2411574 0.07121131 -0.21451537 0.32880452 -0.04899501 -0.095801346 0.15472482 -0.10872752 0.26189545 -0.0013897016 0.24807253 0.1268193 0.37297273 0.06363369 -0.30046037 0.4364967 0.21578889 -0.022954823 0.08703557 0.17597686 0.21414472 0.115622014 0.20368871 -0.3253385 0.03933928 0.53098917 -0.30156022 -0.16195968 -0.15566783 0.11537436 -0.15463081 -0.18036276 0.11787371 0.17633143 -0.12502305
33 -0.18511951 0.07566376 0.014223306 0.24238382 0.4230339 0.17003873 -0.2879119 0.12038447 -0.31654647 0.052309576 -0.08767592 -0.3474856 0.12193873 0.016459873 -0.2799914 0.3081623 0.21423055 -0.050748736 0.27796298 0.017279191 -0.2629124 -0.054650377 -0.11119662 0.36926204 -0.035231814 -0.30662075 -0.34481177 0.31609228 -0.016266664 0.10352639 -0.061761044 0.016111387 0.08846904 -0.04787016 -0.47116438 0.047175895 0.25527474 0.16456309 0.16488826 0.5020639 0.16244204 0.27010018 -0.27983615 -0.52508354 0.3476546 0.012058153 0.0019302052 0.03371519 0.32467642 0.18309908 0.062420286 0.023987604 -0.03730674 0.0330332 0.6639981 -0.33494768 -0.122092105 -0.0844917 0.27187887 0.2145109 0.094068274 -0.22655554 -0.5903225 0.12406465 0.10036153 0.3473759 -0.5485641 -0.03549871 -0.015649261 0.13431083 -0.15431039 -0.03506517 0.33195144 0.11856647 -0.021827107 -0.10640226 0.10891857 0.5103183 -0.4150998 0.31355587 0.0064312643 0.0028132184 0.006681898 -0.25855666 0.1759115 0.30894458 0.41360325 -0.2348842 0.2869981 -0.11103079 0.083343446 -0.0417246 -0.08397227 -0.14372027 -0.28040895 0.15528584 -0.033186004 -0.21790633 0.123696566 -0.10601776 -0.405241 -0.0075982832 -0.018381579 -0.091419876 0.09075757 0.008240626 0.20790626 -0.35760915 -0.033020277 0.3926214 0.119041555 -0.03099305 -0.043110497 -0.09333998 0.12133854 0.19450472 -0.19298816 -0.027580926 0.3565592 -0.3501411 -0.20905848 -0.17809045 0.096603505 0.06342431 -0.1562942 -0.038316295 0.06613754 -0.2542763
48 0.27022913 -0.093047194 0.56598985 -0.07511605 -0.11213645 0.2837881 -0.011353678 0.035765145 0.18474254 -0.01613971 0.1254 -0.077697754 0.31581512 0.25851628 0.036351565 -0.33465096 0.087297425 -0.46935615 0.3142854 0.22499613 -0.033891883 0.0060050054 -0.5256913 0.42603284 -0.0877972 0.055898122 -0.42588234 -0.20036167 -0.15198134 -0.07083226 -0.03317142 -0.7556133 0.15946357 -0.18150225 -0.5002212 -0.13267604 0.5074574 -0.2630274 -0.2863338 0.101683065 -0.3239638 -0.2010367 0.027293783 0.017425453 0.2325711 0.6954336 0.005072815 -0.122731514 0.04768132 0.07236254 0.002944801 0.0339975 -0.078066275 0.20877568 0.32088873 -0.19864851 -0.26868966 0.38778663 -0.30750826 -0.10116396 0.21718986 -0.23822416 -0.10603777 -0.150342 0.09983126 0.21579233 -0.3511019 -0.31320676 -0.06613333 -0.28954703 -0.31946614 -0.19858135 -0.06289856 0.36711147 0.40903547 0.13270582 -0.22741038 0.5294394 -0.071039125 0.018469539 -0.2587921 0.0005396055 0.16904941 -0.04341555 -0.05519148 0.18009062 -0.05522679 -0.24785075 0.31219313 -0.12542532 0.17343463 0.0186907 -0.30624884 -0.052711945 -0.018046116 0.02813417 -0.032674372 -0.30528262 0.40851483 -0.047624208 -0.29656783 -0.30852547 0.016304884 -0.21042894 -0.39425674 0.44995728 -0.0012379142 0.13779849 0.023470618 0.088745795 -0.18711053 -0.037777163 0.4590282 0.1155521 -0.027954431 0.110180035 -0.32310337 0.12296907 0.20019381 -0.39251298 -0.3206127 -0.2851984 -0.010163827 -0.21621765 -0.39396778 -0.19578211 0.44837722 -0.12593253
49 0.24948138 -0.17464069 0.57042277 0.03550915 -0.10333185 0.21457574 0.021040505 0.046106942 0.18541205 -0.020109162 0.22003716 0.007250748 0.26853403 0.13600339 0.056100953 -0.30653328 0.08092092 -0.4319759 0.29542354 0.2422955 0.045823846 -0.0048549813 -0.4448468 0.4508918 -0.12372154 0.07277859 -0.38357386 -0.17946596 -0.1103966 -0.044880252 -0.17398031 -0.6968426 0.10614258 -0.12798631 -0.41539553 -0.03151557 0.5234984 -0.2822084 -0.30012915 0.01502419 -0.39312387 -0.21258686 -0.019076439 0.11173076 0.21873884 0.66895485 -0.14396559 -0.06828048 0.031701922 0.19601767 -0.09714621 -0.118172534 -0.10768435 0.23456901 0.30612177 -0.1301206 -0.30048445 0.4419595 -0.3101724 -0.078191005 0.20199977 -0.31197065 -0.10525202 -0.30394396 0.06409181 0.1769088 -0.28241807 -0.38220564 -0.12600884 -0.3441055 -0.3824314 -0.26966763 0.093767606 0.32229716 0.31857443 0.1470422 -0.09442052 0.56131375 -0.050423916 -0.103080645 -0.31628034 -0.061061934 0.121484764 -0.048144925 -0.17292517 0.33276653 -0.083253264 -0.3331074 0.38194242 -0.22440478 0.29013383 -0.09754209 -0.29850036 -0.10823542 -0.050108396 0.13149996 -0.09039205 -0.259595 0.37073764 -0.09069674 -0.3735244 -0.3450675 -0.042176228 -0.17034867 -0.3492542 0.54898447 0.05012662 0.09621867 0.16833386 0.21739921 -0.26372346 0.020511119 0.5570008 0.13695665 0.12091469 0.10190506 -0.40719894 0.14255999 0.16056141 -0.43723023 -0.55404377 -0.21696037 -0.035681672 -0.30580616 -0.38207448 -0.2608203 0.4895911 -0.13633026
63 0.17142151 0.3611666 0.08265385 -0.07856036 -0.18348835 0.09420675 0.28743437 0.24243148 -0.14548263 0.30963498 0.08482536 -0.29612046 0.4086432 0.030122144 -0.14515692 -0.18858564 0.08743702 -0.32926953 -0.19804733 0.16859174 0.09835932 0.17761095 -0.24230666 0.56585765 -0.02633054 0.16778484 -0.12354264 -0.02503889 -0.081113145 -0.019703787 0.20991926 -0.3365521 0.16998681 -0.36537197 -0.2805127 -0.16635162 -0.013073837 0.29225138 0.42139408 0.20324263 0.19178616 0.08011772 -0.17537905 -0.20332068 0.018740539 -0.10115363 -0.24656256 -0.18304177 0.06532506 -0.018717594 0.07102459 0.25922102 -0.0867471 -0.120109394 0.613681 0.022713643 -0.09112488 -0.14461945 -0.0102667995 0.1492676 -0.010404855 -0.33492 -0.17541797 -0.05688296 0.0031157834 0.05843494 -0.16909537 -0.012617145 0.00078195764 0.020155689 -0.09514731 0.08527719 0.24599718 -0.10228066 0.17292994 -0.23655532 -0.31167373 0.19154091 0.019154314 0.08656094 0.008981507 -0.00032867645 0.29599404 -0.4839729 -0.18661891 0.006127471 0.30153248 0.08974571 0.3770851 0.09288912 0.22788616 -0.089553006 0.12891437 0.27355397 -0.07352304 -0.23179324 0.30092415 -0.059281304 -0.05468704 0.22386652 -0.05827054 0.29870468 -0.088195756 0.24112266 0.110599756 0.36170113 -0.07998155 -0.38397253 0.4640934 0.15003306 0.020652462 0.11866962 0.22377445 0.11914039 0.02148064 0.16468608 -0.24642284 0.12764598 0.48802963 -0.303617 -0.025687773 -0.16364188 0.16541198 -0.122387506 -0.19801886 0.13684915 0.08987177 -0.021460913
62 0.18311456 0.30581936 -0.047455754 -0.16537869 -0.22772792 -0.008807371 0.12871392 0.1919499 -0.18017524 0.28399134 0.071368374 -0.23886321 0.27023524 -0.03397304 -0.18302935 -0.11983587 0.117441356 -0.2512113 -0.054589096 0.14352022 0.06151201 0.15934458 -0.2908326 0.6464429 -0.05608107 0.1571136 -0.13949278 -0.0019720986 -0.07577713 0.010001041 0.23126307 -0.3698559 0.10204708 -0.34282956 -0.22659384 -0.12321048 0.00072876556 0.16691628 0.43544084 0.18939672 0.07830716 0.056877244 -0.31083158 -0.162825 0.053279348 -0.0019057216 -0.31931302 -0.095363975 0.051213846 -0.009363962 0.03077749 0.22629893 -0.039691515 -0.1036566 0.6603444 -0.046948116 -0.0934809 -0.069234736 -0.08794983 0.09269114 0.024628688 -0.34079644 -0.21082409 -0.02850532 -0.05004997 0.101673104 -0.14372663 -0.041685157 -0.025168274 0.018207124 -0.11910128 0.01889178 0.3200959 -0.049458884 0.03593884 -0.20359889 -0.30861804 0.08679368 -0.037342776 0.058105074 0.07239945 0.013612781 0.2190799 -0.4559961 -0.1410792 -0.020384071 0.22375315 0.22069433 0.3694077 0.07325492 0.19406617 -0.16963132 0.11565083 0.2798426 -0.002711776 -0.20222116 0.31970152 0.025206724 -0.11879186 0.18988758 -0.10929462 0.31818128 -0.0032132026 0.31348708 0.15683328 0.3970601 0.05820581 -0.34527537 0.45555267 0.22794513 -0.04741598 0.12983397 0.1697069 0.1811307 0.13540255 0.1539953 -0.3444496 0.042467866 0.4874916 -0.28739923 -0.08503706 -0.24402389 0.12054022 -0.21335776 -0.14350542 0.10867646 0.069972 -0.19610713
9 0.060221635 -0.009649338 -0.2684424 -0.542735 -0.025656337 0.10634277 0.07899598 0.16498475 0.023406414 0.16800122 -0.20923476 0.006368321 -0.014162866 -0.29271194 -0.030269386 -0.07039675 0.13668849 -0.047622573 -0.035963535 -0.46318665 0.25436896 0.06571733 -0.014079945 0.35209167 -0.00621352 0.012381577 0.069441825 0.10495227 -0.009395353 0.18729582 0.057472385 0.1516595 -0.09692158 -0.3255206 0.3070414 -0.22234167 0.2512509 -0.22385997 -0.3262518 -0.21388546 0.12981646 -0.15046561 -0.2475326 -0.01175255 -0.10029883 0.28063974 0.18284568 0.121085495 0.01317441 0.17292243 0.09215856 -0.0075703817 -0.046540644 -0.20326781 0.013766945 -0.3201634 0.03471676 -0.08336986 -0.16241795 -0.22055617 0.12333971 0.011735407 0.012430563 0.33075446 0.108886145 0.092938274 -0.17535229 0.16370922 -0.3643777 -0.24444762 -0.03015057 0.21346354 -0.0042075017 -0.13898 0.4180498 -0.45476943 0.05746775 0.026258126 -0.50796634 -0.12897308 -0.1062243 -0.010622065 0.016961122 -0.100052305 0.040648695 0.16715974 0.09234593 -0.014764036 -0.030582286 -0.013287177 -0.23173378 -0.05104107 0.2817777 0.20048974 -0.2856307 -0.25125912 0.10926989 -0.2731732 -0.045248047 -0.009030523 -0.26207337 0.13578211 -0.08746706 -0.03149305 0.27761889 0.1668441 0.43215182 -0.05047041 -0.011638836 0.07681582 0.37695876 0.056267954 -0.22854073 -0.0137945125 0.06456705 0.12588042 -0.21734695 0.0931166 0.18742289 -0.08269535 -0.043511737 -0.1392326 0.019343976 -0.5551065 -0.3514299 0.1091786 0.10111124 -0.06555649
54 -0.07408006 -0.13270898 -0.031579338 -0.31746373 0.04606854 -0.028307036 -0.025665093 -0.13568784 -0.07831719 0.05241247 0.015238974 0.27399474 -0.25055796 0.10201749 -0.1940189 -0.19736072 -0.2165879 -0.017293239 0.056875866 -0.2000361 0.19576399 -0.19548097 -0.19124225 0.075689174 0.05011245 -0.15216327 -0.04021837 -0.113234594 0.08001517 -0.039381385 0.04868505 0.048085574 0.1972389 -0.26637292 -0.14843726 0.080208056 0.28391877 -0.051700097 0.3384645 -0.090358146 0.013622658 0.12637952 -0.2266173 -0.18623817 0.12014788 0.32922283 0.033469923 -0.06324553 0.06591612 0.08359218 -0.20236854 -0.029607441 0.22856295 0.17438504 0.5808517 -0.34081578 -0.020666026 -0.3939938 0.04833971 0.053187586 -0.042274605 0.034280628 -0.25907984 0.05453054 -0.2902028 0.21740201 -0.32006532 0.11192358 -0.12075783 -0.006145344 0.08056105 0.35033724 0.13210322 -0.10398168 0.46987224 -0.21859495 0.2921352 -0.054013528 -0.3052394 0.13289158 0.021693816 -0.2934809 -0.024207044 -0.36356616 -0.015860101 0.13960078 0.4712428 -0.09538961 -0.15871781 0.0787042 0.15124749 -0.10890312 0.20993757 -0.113343105 -0.12605494 0.0077843955 -0.09347969 0.060153335 0.027337512 0.020018976 -0.23177034 0.2618538 -0.054333348 -0.045667145 0.23685084 0.06615427 0.20819381 0.17512228 0.27596492 0.101765245 -0.052416604 0.030325312 -0.20091455 -0.27469012 -0.21916173 -0.32572046 0.013297372 -0.014542885 0.1452136 0.040423583 -0.07383499 -0.057728957 -0.33009586 -0.32654783 -0.082960755 0.1317291 0.27443337 -0.20070764
36 0.14692582 -0.2985529 0.14249985 -0.01293576 0.26761845 -0.036632765 0.1542762 0.27047125 0.07446038 0.243503 0.16575664 -0.043812912 -0.27316827 0.44382483 -0.030590372 -0.19038182 0.015782563 -0.18392225 -0.22872965 -0.1537134 0.15128645 0.029079475 -0.06624884 0.25111535 0.23521349 -0.17046489 -0.296861 -0.09344128 -0.14550255 0.06352886 0.13267338 -0.19427586 0.12915277 0.21654636 -0.29947466 -0.053727202 0.06965652 -0.26962402 -0.37335685 0.065041766 -0.5481531 -0.047064964 0.6080714 0.29493973 0.031139541 0.33993623 0.3866752 -0.40560278 -0.06074476 -0.007012179 0.11602823 0.23559994 0.08713194 0.25278258 -0.3260518 0.026102211 -0.063969195 0.02492491 -0.16532212 -0.020242237 0.18247855 0.09570352 -0.41972646 -0.016651312 -0.048849184 0.21156915 0.023940628 0.017900359 0.18748797 -0.17057113 -0.16310385 -0.15958947 0.41360527 -0.13613625 -0.30205426 -0.24075772 0.23226076 0.096635155 -0.14018627 -0.109256685 0.14511208 -0.16998976 0.2088218 -0.08166287 -0.075516395 0.05749125 0.30330384 0.15036483 -0.08079852 0.30877042 0.15569985 0.07904724 0.1437827 0.19826543 -0.16849157 0.21238618 -0.012160609 -0.15482013 -0.21538988 0.39463216 -0.25019988 0.031434674 -0.04305349 -0.031918373 -0.28370908 0.48044047 0.1746781 0.22721598 0.16370252 0.32824183 -0.13217379 0.10739025 0.1532707 -0.043017972 0.112770975 0.017873695 0.06128053 0.05331805 0.064249545 -0.26597956 -0.1542686 -0.3525441 0.14769462 0.41797486 -0.25773945 -0.05537864 0.076287955 -0.16055454
1 0.1864233 0.034461603 -0.09294521 -0.4928295 0.028909968 0.10826257 0.0573457 0.17889005 -0.01756964 0.18552919 -0.101679325 -0.05995931 -0.065378845 -0.2350989 0.051757555 -0.069915615 -0.034490205 -0.22152972 -0.05872559 -0.52816546 0.2797425 -0.018128494 0.048502702 0.45252514 0.06822269 0.02087511 0.07678862 0.090298295 0.036013532 0.25337 0.00808373 0.07745784 -0.09399723 -0.27929363 0.15120795 -0.35930604 0.19996735 -0.12673813 -0.27516806 -0.22922963 0.19297506 -0.19905894 -0.21964459 0.07749899 -0.1009925 0.28860283 0.114041634 0.12742174 0.098963834 0.15845166 0.18291272 0.114708275 -0.11124815 -0.23351678 0.13427089 -0.1475089 0.014059435 -0.077358596 -0.10719646 -0.19250737 0.18143833 0.024233505 -0.043116786 0.32398146 0.10129254 0.22775996 -0.21202667 0.2952584 -0.35286552 -0.23782651 -0.0710524 0.12476049 0.08822713 -0.1453348 0.26738968 -0.47386122 0.065584905 -0.034861896 -0.43585804 -0.14123768 -0.024388364 0.005702041 0.11073062 -0.089483835 0.08047664 -0.044731177 0.114649616 0.07452173 0.10480877 0.03029868 -0.2705932 -0.0421258 0.46208733 0.16646683 -0.24175131 -0.19878353 0.18862766 -0.15729143 -0.10537722 0.12221535 -0.2585083 0.19566864 0.10804757 0.057528354 0.12816884 0.119056225 0.25927597 0.07228296 -0.10374115 -0.011843947 0.35160694 -0.031612843 -0.26072544 -0.093111694 0.029286388 0.08129674 -0.10557415 0.15765412 0.095162466 -0.13886924 -0.019470254 -0.12748182 0.047772516 -0.45487112 -0.30097663 0.15214658 -0.08881283 -0.024290187
5 -0.14209986 -0.2098251 -0.20646057 -0.2489909 0.080066696 -0.065805644 0.22765607 -0.040098127 0.057996113 0.15959914 -0.07494185 -0.07885831 -0.1892464 -0.010382447 0.102738075 -0.17252779 0.09148111 -0.34604 -0.15265948 -0.36237603 0.35759708 -0.0479638 -0.16690809 0.31385896 -0.060993433 -0.15989214 -0.13796397 0.30370042 0.0052756458 0.16324678 0.08874529 0.07122735 -0.110236175 -0.078454465 0.161638 -0.11616402 0.27924588 0.09124857 -0.07900763 -0.019640706 0.19776726 -0.008610596 -0.12773907 0.027705906 -0.081439085 0.2563729 0.3817407 0.066957355 -0.12182491 0.20370209 0.22539611 0.14449394 0.053365946 -0.09535636 -0.12794024 -0.45027697 -0.044139005 0.0103059625 0.039774902 -0.19127695 0.0449329 0.057514068 -0.0959795 0.20292586 0.09337513 -0.025335709 -0.15759379 -0.04172211 -0.009900609 -0.21994355 0.04397528 0.19779018 -0.1593958 -0.13140033 0.20646709 -0.3124156 -0.015466911 -0.29925883 -0.3535486 -0.11589896 -0.011213957 0.013130472 0.00733053 0.19746304 -0.13706541 0.04292084 0.20553146 0.118723206 -0.1797982 0.009599149 -0.31594542 0.045258824 0.1754344 0.02657584 -0.18688399 -0.07142304 0.025717856 -0.11563279 0.084374145 -0.022104587 0.06237493 0.21259208 0.015587337 -0.12889852 0.1154428 -0.14639631 0.5725168 -0.30463856 0.07223742 -0.16083941 0.17052437 -0.06739472 -0.2524624 0.036844805 -0.078105666 0.09398637 -0.21094687 0.24592948 0.28367728 -0.19966818 0.17078823 -0.20567828 0.14159761 -0.41527924 -0.31047857 0.0928567 0.07085917 0.037324805
46 0.0860875 -0.436345 0.118747585 -0.028566483 0.23254791 0.003857648 0.117231645 0.25802028 0.10882004 0.27748102 0.09526783 -0.10146556 -0.24266066 0.46867564 0.00616883 -0.13279122 0.09784732 -0.17540416 -0.24070443 -0.18886341 0.021020198 -0.013992027 -0.10880558 0.21877049 0.2315772 -0.22855812 -0.3322743 0.07282334 -0.08328052 0.013426398 0.10283629 -0.052250467 0.0959402 0.21707866 -0.41350248 -0.001999993 0.20448251 -0.35402146 -0.31196737 0.115751974 -0.63709223 -0.07005004 0.57711416 0.22899298 0.09104017 0.3899266 0.38835594 -0.36442432 -0.061031006 0.0015518236 0.10592926 0.32145354 0.07210472 0.37084776 -0.2633735 0.015552375 -0.13222107 -0.008503323 -0.17074053 0.019800408 0.1914015 -0.015663333 -0.6181968 -0.07354884 -0.016190743 0.32325423 -0.09560475 0.038857087 0.08121287 -0.15618739 -0.19693612 -0.071775936 0.4544174 -0.051985174 -0.20613141 -0.21071155 0.25080213 0.14897898 -0.24119174 0.028288703 0.31728575 -0.28432247 0.16385232 -0.09006252 -0.13726646 0.09105948 0.36380407 0.18875392 -0.106219664 0.2648843 0.24342063 0.19912793 0.17453712 0.11023078 -0.25461787 0.2299158 0.14937915 -0.21923538 -0.29018244 0.39549488 -0.23821878 -0.068598084 -0.08845704 -0.121940315 -0.33844176 0.38800657 0.046143267 0.11876047 0.32678038 0.3491349 -0.2466909 0.11719211 0.19828317 -0.13943873 0.09535068 -0.002666406 0.09178444 0.0855492 0.054780897 -0.39827162 -0.27390227 -0.41385287 0.15936382 0.5450661 -0.21586655 -0.13456324 -0.03194477 -0.18399504
45 -0.0484412 -0.18560407 -0.21454936 -0.36268887 0.026354682 0.15851845 0.14603929 0.116497785 0.11275338 0.1621729 -0.21204531 0.0043829237 -0.053123206 -0.13203256 0.0597536 -0.06556274 0.21651027 -0.08957649 -0.042276725 -0.28154528 0.17763482 0.111432284 -0.10838757 0.20414896 0.022660246 -0.006154954 0.07955383 0.095534846 0.032276463 0.06811987 0.06225208 -0.02720609 0.006093046 -0.19279249 0.11536874 -0.058396906 0.05437867 -0.18872881 -0.1144455 -0.16425177 0.04999829 -0.11693918 -0.093982674 -0.09582697 0.008312252 0.15877748 0.20488572 0.06161114 0.07884123 0.25194734 0.094727494 0.030661907 -0.0460739 0.048595738 0.22195339 -0.2872217 -0.04356745 -0.18956272 0.015699066 -0.007512065 -0.15426844 -0.020839728 0.035699803 0.13327718 -0.009011781 0.14456809 -0.19427773 0.14658538 -0.359697 -0.268999 0.11829976 0.37173456 -0.05198417 -0.13195725 0.5504517 -0.37019533 0.1271272 0.05340897 -0.31468886 -0.049306937 -0.23931429 -0.16458021 0.00702022 -0.017706582 -0.00071948254 0.09705523 0.1838884 -0.11548294 -0.1417465 0.040672835 -0.12570547 -0.059762362 0.19183917 0.088440366 -0.2166629 -0.09144607 0.12095979 -0.072460085 0.05550988 0.10123925 -0.107873484 0.056840524 -0.14877085 -0.05939098 0.29491737 0.21247943 0.27347708 0.013697662 0.25053832 0.014031674 0.25725335 0.00980215 -0.11370068 -0.13392778 0.06171038 0.047843304 -0.06885416 0.10488228 0.15218611 0.019443484 0.07323343 -0.21716006 -0.014255295 -0.47610626 -0.18758588 -0.036377303 0.14398745 -0.085103616
47 0.110284954 0.3295167 0.32563317 0.119573355 0.26559785 0.016891908 0.25721884 0.20181486 0.15105228 0.26156166 0.21346429 0.15553077 0.28210598 -0.21642515 0.36756405 -0.19366644 -0.4768431 -0.37492332 -0.12569177 0.22313076 0.15594462 0.3223244 0.22136228 0.31628248 0.037866097 0.433026 -0.28458458 0.06286693 -0.15967996 0.12814833 0.06309195 -0.19593692 -0.08306897 -9.878396e-05 0.16306065 -0.224698 -0.21983656 0.32042375 -0.21754684 0.3933118 0.16967233 0.57163626 0.31413358 -0.13559477 -0.15127696 0.30349186 0.47559395 -0.16366649 -0.19067755 0.17765996 -0.13394941 0.17359701 -0.03588975 0.04232099 -0.20223157 -0.43844962 0.031462952 -0.04677866 0.0154731 -0.22124189 0.22959831 -0.14500418 -0.024771363 0.00047599192 0.15645865 0.13667123 0.06370929 -0.11238472 0.3009984 -0.069344915 -0.022418082 -0.32012543 0.36452016 -0.56911397 0.105235 -0.51245385 0.3479715 -0.09597505 -0.07102952 -0.15064937 -0.036345534 -0.03741641 0.13748199 -0.048009876 -0.3119612 0.17264767 0.28511024 -0.26187292 0.14323659 0.16164024 -0.14173138 0.1706124 -0.1642153 0.3823896 -0.6819012 -0.07696011 -0.3331258 -0.23395978 0.021853358 0.23384535 0.46128073 0.05821528 -0.10437144 -0.07112182 -0.23456363 0.28229868 0.5542816 0.3741458 -0.26516747 0.0037524516 0.09219437 0.410959 -0.04610995 0.24627437 -0.0086601535 0.29858235 0.10050004 -0.003956047 -0.370693 -0.009325233 0.34743288 -0.06503824 0.112438925 -0.078394726 -0.21232298 0.21986139 -0.10759184 0.3026638
7 0.16662408 0.074754134 -0.22894531 -0.4482896 -0.047513764 0.18223056 0.05047111 0.24613631 0.07345879 0.1422943 -0.10136735 -0.13990553 -0.03198321 -0.15135188 0.04872765 -0.03699671 0.13748354 -0.17773297 -0.08422625 -0.42365667 0.17503002 -0.021435793 -0.05083323 0.3513828 0.1491716 -0.06057597 0.108785674 0.066774935 -0.030328393 0.13787219 0.0064190137 0.048646156 -0.06282155 -0.28360248 0.13189927 -0.26985875 0.21815768 -0.14051616 -0.26788002 -0.2007048 0.08816595 -0.20051691 -0.21626103 0.032864105 -0.035578698 0.25799996 0.15354261 0.038686216 0.071739025 0.25807866 0.18760394 0.055962197 -0.10662184 -0.21599786 0.21466433 -0.19100139 0.015215319 -0.2032899 -0.06926429 -0.21986596 0.053437248 0.086471185 -0.002757674 0.2417594 0.11628046 0.17956485 -0.2907892 0.2350251 -0.3313119 -0.24390092 -0.0055218656 0.16250229 0.03472549 -0.21026863 0.50058717 -0.47168523 -0.04001452 -0.027867692 -0.39580297 -0.1170974 -0.07654271 0.06641898 0.021805689 -0.0834731 0.025865551 -0.018064955 0.12658659 -0.018533222 -0.07831194 0.016514653 -0.28473705 -0.051017277 0.30801082 0.1914078 -0.21829326 -0.17080341 0.2512662 -0.28464347 -0.07394068 0.15056653 -0.15685576 0.106637985 0.02415253 0.00799498 0.18426464 0.056558263 0.23863354 -0.017003201 0.022428425 -0.04984607 0.3850256 -0.04219307 -0.24804813 -0.07122922 0.0040834183 0.12512016 -0.19180113 0.17968586 0.18779932 -0.091236115 -0.024541901 -0.06925922 0.030412605 -0.43273562 -0.2760373 0.09700782 0.07987984 -0.04444903
20 0.065532826 0.14446896 0.008469748 -0.14462502 -0.0014929906 0.13025568 0.120459884 0.17191783 -0.06436106 0.08447927 0.066968724 -0.09323606 0.0371232 -0.14461635 0.21746548 -0.09332535 -0.18575013 -0.31823102 -0.110906765 -0.4494696 0.22834074 0.0026155694 0.054708816 0.4645694 0.09287228 -0.011845608 0.17222914 0.10976816 -0.052693214 0.1112151 -0.18417597 0.10895768 -0.19067709 -0.18853115 0.25173357 -0.2389994 0.26131186 0.093143724 -0.10784467 -0.13207585 0.23839206 -0.062035806 -0.19116095 0.026323179 -0.04115756 0.2874388 0.17169803 0.122726835 0.001628395 0.28131816 0.103468716 0.1419768 -0.12714319 -0.24882984 0.12192753 -0.16732973 -0.10397019 -0.24620444 -0.08673587 -0.17576097 0.29740342 0.0015524544 -0.011239985 0.20973246 0.16154929 0.1082626 -0.29310325 0.16940024 -0.20711172 -0.15974836 -0.022223936 0.062973484 0.13410203 -0.25194025 0.38770553 -0.39588404 0.15807053 -0.18746305 -0.27728748 -0.08436875 0.13000955 0.033065196 0.051446456 -0.04049047 -0.08844516 0.04879321 0.03330143 0.0633494 0.121445715 -0.012449406 -0.28131047 0.0052214283 0.32231697 0.1796149 -0.2406275 -0.030689862 0.20520099 -0.221655 -0.14250527 0.055025272 -0.08174344 0.100626566 0.10437648 0.047354616 0.032047834 0.0018822579 0.26526302 0.050360516 -0.04231847 -0.14957143 0.19488111 0.0014143826 -0.34846488 -0.058246836 -0.06521512 0.03712447 -0.13831075 0.1379116 -0.027257338 -0.14634208 -0.09335268 0.11793908 0.03778022 -0.40035498 -0.19069786 0.18161781 -0.03848446 0.10569406
40 0.0027669999 0.40419653 -0.015705815 -0.044553462 0.09247837 0.046603598 0.3391388 0.2721835 0.019732622 0.33491987 0.19289345 0.0111287795 0.08866602 -0.17574495 0.17385909 -0.3599937 -0.22047201 -0.49471313 -0.25802732 0.04173505 0.29863837 0.12230667 0.037327334 0.547213 0.16724129 0.14555539 -0.1901972 -0.0058501395 -0.25799093 0.03693687 0.03675734 -0.0825335 -0.07248614 -0.1643061 0.25261754 -0.204735 -0.043538526 0.31844458 -0.016959785 0.05265498 0.01562809 0.3583332 0.15853257 0.09976489 -0.047340363 0.1161194 0.29237998 -0.1535133 -0.25728112 0.38583758 0.04613525 -0.050210427 -0.11359883 -0.15632582 -0.035949074 -0.25418404 0.017105658 -0.2231721 -0.043538112 -0.27841327 0.19260539 -0.049891982 0.041691236 0.0149736125 0.17720965 -0.085643694 -0.06771795 -0.029474556 0.25600177 -0.17083749 -0.06419936 -0.34578755 0.32182315 -0.56426764 0.21278408 -0.5009157 0.14690001 -0.1403538 -0.040634412 -0.1896158 0.04857118 0.041974135 0.019256754 -0.105975516 -0.17533895 0.20169604 0.28008825 -0.1962648 0.015685288 0.25357357 -0.2317334 -0.08247364 -0.101553805 0.34731176 -0.32032308 -0.13252136 -0.077446796 -0.21434544 -0.17701603 0.11346269 0.42246896 0.066784404 -0.060321033 0.09306431 -0.055486187 0.04700907 0.43886554 0.087674275 -0.03683654 0.04575262 0.11300504 0.33989137 -0.1425893 0.25299984 -0.024157358 0.33596665 -0.004885729 0.10503552 -0.025329819 -0.071097426 0.08338898 0.14762983 0.18236642 -0.1578623 -0.16970386 0.37600517 0.010097211 0.32980612
55 -0.05547483 -0.07223349 0.12042221 -0.31024906 -0.2511456 0.09928682 -0.026155893 0.028895449 -0.07264582 0.31430197 -0.07586666 0.031751122 0.06033725 -0.030784212 0.02172709 -0.0010334938 0.0919705 -0.026209427 0.0075774738 -0.34963545 0.25052336 0.080170274 -0.09292491 0.36017543 0.17544457 0.0017817987 0.18676966 0.17944472 -0.015308678 0.11157997 -0.06749854 0.058495782 -0.032744315 -0.20073561 0.1997501 -0.03823014 0.062195763 -0.26114875 -0.16738322 -0.33618215 0.14862034 -0.23745547 0.19312797 0.0077366563 0.22081588 0.31706372 0.13584808 0.2518065 -0.00026520004 0.12911546 0.18649346 -0.15836689 -0.15441306 0.011753833 -0.029775932 -0.06178105 -0.15449502 -0.06642409 -0.1928314 -0.12575467 0.16452986 -0.06780004 0.19862834 0.059070226 0.1904308 0.16124403 -0.29419804 0.11215286 -0.25342944 -0.3811634 0.034529965 0.14306304 0.16168858 0.056938052 0.5725713 -0.2761537 0.3871564 0.023164714 -0.33176342 0.060118537 0.097238645 -0.32866716 0.03292451 -0.20360363 -0.089565024 0.11532053 0.26134866 -0.25088295 0.11670596 0.08440589 -0.08635493 0.18714844 0.40684313 -0.062160574 -0.51550084 -0.10282128 0.11151882 0.13772984 -0.06981746 -0.01297086 -0.16264957 0.10511422 -0.19650638 0.011686738 0.23824807 0.16453883 0.1360779 0.0059946626 0.24903494 0.1256913 0.22658835 0.18515392 -0.06961262 -0.2300105 0.06410624 0.2269211 -0.007143657 0.28761998 0.02593089 -0.15167645 0.00026488292 -0.14109445 0.1762408 -0.49367294 -0.32472077 0.2400179 -0.096263036 0.27436274
56 0.23868734 -0.23167653 0.058462646 -0.08327458 0.31192717 0.030890547 0.19415763 0.21222714 -0.027923398 0.27174714 0.16979815 -0.13108991 -0.29319507 0.41711828 -0.11516263 -0.21605451 0.14977635 -0.15407352 -0.25254738 -0.20141588 0.20446834 -0.066168725 -0.04113052 0.2230725 0.16909553 -0.1950251 -0.27821526 -0.07821936 -0.14780386 0.17140906 0.09639664 -0.117776655 0.18942411 0.08157066 -0.34329763 -0.07872466 0.11147056 -0.21056585 -0.17447184 -0.02965214 -0.45810592 -0.015750922 0.3919933 0.23857781 0.020921763 0.23565185 0.19588846 -0.38533404 0.028368868 -0.009363783 0.17084502 0.18291044 0.07235284 0.28118297 -0.011476813 0.054117195 0.03385876 0.017953377 -0.11672521 -0.03794158 0.09474969 0.0144794425 -0.46864146 -0.08894955 -0.06678563 0.27915892 0.019331653 -0.022759544 0.05266498 -0.2535355 -0.1473662 -0.12775926 0.36669147 -0.10302577 -0.30302098 -0.26673988 0.12086019 0.04454517 -0.14499006 -0.0773637 0.05951681 -0.18980865 0.19640857 0.07564093 -0.08389222 -0.050155234 0.32020143 0.1709094 -0.105174996 0.29029867 0.104889266 0.005408357 0.2850302 0.11596755 -0.14866892 0.08509737 -0.032383617 -0.0589675 -0.07490806 0.3562212 -0.11587499 0.1363768 0.12653479 0.026766585 -0.3296287 0.21600036 0.21705042 0.24417517 0.18098193 0.22624731 -0.15897402 0.013889737 0.22050866 0.0050207227 0.13621207 -0.010099075 0.10633034 0.17950073 0.13110024 -0.21781477 -0.019989554 -0.38034755 0.010945233 0.13643235 -0.18693076 0.02771854 -0.027195847 -0.11940356
50 -0.058684085 -0.36326063 -0.15716569 -0.14841077 -0.07375616 -0.24688631 0.26704377 -0.3189977 0.07140794 0.2623095 -0.1639089 0.031032793 -0.24189234 0.30133417 -0.099304646 -0.25112194 0.18979585 -0.24259186 -0.028137317 -0.15575284 0.46621805 -0.0134564005 -0.34272176 0.54961926 -0.16130732 -0.1709125 -0.30674243 0.29140353 0.07364238 0.24610902 0.41899824 -0.1615292 0.033099126 -0.253776 -0.16110566 -0.093216635 0.1474682 0.3051413 0.3556294 0.021914603 0.08716061 0.2457474 -0.4425753 -0.16444997 0.22937019 0.67775977 0.406324 -0.040889524 0.09609867 -0.086119145 -0.095594764 0.36208132 0.24703921 0.075506195 -0.27653754 -0.44348404 0.011247817 -0.12470154 0.097270735 0.25278407 0.32269213 -0.11421756 -0.14504835 0.25025815 0.0015946054 0.21546717 -0.25053376 -0.23444402 0.14000191 -0.25060496 -0.10398147 0.14149868 -0.1467426 -0.0064523877 -0.055900782 0.0766024 0.02662111 -0.30536166 -0.289468 -0.23812018 -0.06728604 0.12378968 0.11676041 -0.10267523 -0.4786804 -0.014128257 -0.02298046 0.15364099 -0.14414929 0.044220403 0.12790859 0.11249221 0.3310162 -0.022036308 -0.12338753 -0.056573264 -0.057731327 0.11803764 -0.035880122 -0.13859229 -0.0033134948 0.30503863 0.070173 0.20414615 -0.17095733 -0.30813897 0.2908431 -0.21391627 0.10364001 -0.14241932 -0.11968899 0.18568213 -0.13193119 0.29037008 0.1298424 0.0024325112 0.023002382 0.24657688 0.0715886 0.1279147 -0.034134567 -0.055774294 0.16648106 -0.2519729 -0.0049965614 0.18852165 -0.12385541 0.08642066
39 0.23778607 0.110340305 0.119896434 0.018872693 0.17367497 0.16173884 0.30616474 0.2197726 0.22959188 -0.049061753 0.3250236 -0.106221065 0.09149294 0.24723546 -0.03696914 -0.21750164 -0.036425874 0.06015537 -0.16060857 -0.046673175 0.41318122 -0.24353242 -0.04181766 0.13662456 0.111401156 -0.09701204 -0.13070133 -0.21307391 -0.16297707 0.12157113 -0.19994134 -0.1513582 0.19029176 -0.23779875 -0.063304245 0.047005318 0.13986756 -0.09630712 -0.010138147 -0.37701783 -0.21714568 -0.021909898 0.20325926 0.031720214 0.12864007 0.16110028 0.022448633 -0.1626704 0.1378583 -0.009924076 -0.11748976 -0.042848278 0.060111217 0.01245772 0.34332135 -0.05278228 0.120108984 -0.14057666 -0.11190326 -0.06959306 0.13352697 0.009304052 0.045228433 -0.14565958 -0.086785756 0.1156044 0.01674453 -0.023377934 -0.049203694 -0.1068473 0.10642093 0.20656207 0.10792405 0.03313738 0.09001212 0.039304655 0.1314533 0.21097273 -0.10211841 0.15823871 -0.16227192 -0.094899066 -0.036371935 0.122686975 -0.27582735 0.06672322 0.17259157 -0.07499055 -0.21639533 0.09107949 0.3145331 -0.030718192 0.29585525 -0.2966127 -0.25099212 0.03993078 -0.14952987 -0.07078429 0.3752646 0.3105793 -0.32917875 0.34532392 -0.1327917 0.14515711 -0.11663285 -0.21765167 0.25139374 0.2803217 0.36813623 -0.09947579 -0.1403983 -0.071418524 -0.051547967 0.0504447 -0.091122694 -0.10594683 -0.15934087 0.10696183 0.2515973 -0.1215965 -0.05721914 0.042543832 -0.074887015 -0.3071838 -0.21575643 0.18032543 0.23910601 0.15756243
11 -0.050105557 -0.27113315 -0.024218306 -0.18695284 0.030251728 -0.16046284 0.25534433 0.03820032 0.121690206 0.2699577 -0.035503186 -0.03266566 -0.35511103 0.25492978 0.17035298 -0.087468065 0.039388977 -0.3659963 -0.18522689 -0.31523007 0.41650152 -0.011695687 -0.112182565 0.32178444 -0.04454848 -0.22556615 -0.15313183 0.40968183 0.10480768 0.29414108 0.29458317 0.04469883 -0.06902471 -0.09968235 -0.026338706 -0.13923317 0.3173326 0.22970916 -0.009343613 0.030704642 0.13834041 0.07427899 -0.1808977 0.06268283 -0.028677844 0.54751694 0.3848604 0.06568601 -0.17497583 0.040157653 0.14685361 0.18336675 0.1984572 -0.060127776 -0.38173977 -0.34578466 0.0023885183 0.043737803 -0.021919804 -0.053876888 0.101553924 -0.0038751224 -0.036767505 0.16202208 0.11287602 0.062027745 -0.13719858 -0.16432357 0.112005316 -0.34230852 0.010192712 0.1178031 -0.2189087 -0.058002535 0.13870859 -0.061082374 -0.053847462 -0.3229682 -0.3726573 -0.29173803 -0.078325935 0.13179983 0.091562554 -0.011659747 -0.4797886 0.07034049 0.27639103 0.035085253 -0.14429314 -0.08032353 -0.051546875 0.08595445 0.27378023 0.026072728 -0.28433278 0.03437127 -0.033125732 -0.010407985 0.0497929 -0.12731455 0.0683572 0.30085212 -0.07595542 0.047417793 -0.0024644807 -0.21675046 0.3419879 -0.42483103 0.12696148 -0.231566 0.121881135 0.011392473 -0.18485242 0.05765646 0.0054853368 0.06946203 -0.1932788 0.32602513 0.12011669 -0.13894513 0.016067954 -0.21772438 0.2339822 -0.20620151 -0.21195482 -0.15410908 -0.053643577 0.025973916
8 0.01902936 -0.34331506 0.07882594 -0.22720726 0.12742598 -0.009310822 0.15139249 0.34903938 0.16072965 0.4275479 0.04622491 0.09156321 -0.3329792 0.34716618 0.18575175 -0.14364351 0.15347174 -0.22587961 -0.28831673 -0.17494337 -0.014393832 0.1126222 -0.021097993 0.2642582 0.11004461 0.052910335 -0.06379358 0.32732832 -0.07461487 0.08633607 0.19712257 0.14229451 -0.14072289 0.16259186 -0.04235764 -0.04014885 0.23561126 -0.24848202 -0.16162854 -0.031004954 -0.60034645 0.08823124 0.30828053 0.28429544 -0.065679274 0.3271115 0.31379813 -0.10667312 -0.10645339 0.12585858 -0.045626696 0.30767423 0.06414329 0.3064548 -0.1864718 -0.16090743 -0.113167375 -0.073565446 -0.20576316 -0.11293798 0.208989 -0.2259954 -0.5683955 -0.06282884 0.09844234 0.13644019 0.10644631 -0.009232201 -0.14604469 -0.15062211 -0.073825374 0.0034927141 0.41654688 -0.09901872 0.012896352 -0.26831955 0.15839273 0.07811538 -0.28462222 -4.8243965e-05 0.35110968 -0.39551485 0.137279 0.040379852 -0.19786087 0.407699 0.15547884 0.12130016 -0.054655235 0.062407687 0.107908756 0.23914424 0.12385355 0.0120836925 -0.33541903 0.23912378 0.09210743 -0.21196312 -0.36097386 -0.02431801 0.05209904 -0.1540439 -0.040959556 -0.061435904 -0.30877423 0.17266802 0.16474259 0.16956191 0.343786 0.22002381 -0.30713665 0.20725259 0.055970915 0.024279466 0.12477401 0.060251348 0.028906733 -0.030230042 -0.23571257 -0.31220764 -0.37427694 -0.40051734 0.14831536 0.4514089 -0.016352218 -0.14646403 -0.08160013 -0.06936385
59 0.17657143 -0.014227775 0.18717538 -0.08405865 0.19500622 0.2709417 0.26012287 0.11132073 0.17734675 -0.013464064 0.19272283 0.0042313375 0.0593114 0.4666388 -0.100243546 -0.23432453 -0.05013602 -0.08728902 -0.1636962 -0.12643133 0.33624157 -0.26920065 -0.045455568 0.007860845 0.14130908 -0.16782984 -0.14992723 -0.21997581 -0.09656988 0.07246175 -0.107910044 0.19904213 0.10566218 -0.19924401 -0.1011023 0.00922608 0.28440985 -0.20667788 -0.066382065 -0.49483612 -0.29753584 -0.020709947 0.24189393 0.10370111 0.097647056 0.14139536 0.026969608 -0.093023 0.048171826 -0.17147198 -0.113981076 -0.113446325 0.04415073 0.049048733 0.095463164 0.12917405 0.22017214 -0.20128392 -0.24104914 -0.09704278 0.2929954 -0.04574239 -0.007652645 -0.072224654 -0.05373279 0.18069871 -0.12621816 0.040704887 -0.08514888 -0.01869603 0.05595842 0.1992179 -0.009851301 0.099481 0.21640198 0.14483318 0.13836055 0.15710492 -0.13248749 0.2253399 -0.00985075 -0.20975977 0.082953 0.029912388 -0.240006 0.09237431 0.28258848 -0.07089974 -0.09401853 0.0047222497 0.37267876 0.029798832 0.13702951 -0.23113185 -0.23904072 0.04753099 -0.1427747 -0.1948804 0.2418704 0.09358433 -0.3346073 0.3434697 -0.10752191 0.12260819 -0.11599062 -0.097314656 0.20794661 0.2006515 0.2724369 0.025763437 -0.12528874 0.030806938 -0.17273225 -0.020554382 -0.34382626 -0.21430543 -0.09172361 -0.011318777 0.2969113 -0.14140764 -0.0827732 -0.0057192454 -0.20665121 -0.2870501 -0.2318254 0.18149476 0.42930502 0.03522052
26 -0.005823276 -0.32456714 -0.16939685 -0.14267448 0.058785446 -0.11587927 0.40860835 -0.3585466 0.012611834 0.17701444 -0.14874691 0.019405372 -0.20730795 0.3055063 0.04542269 -0.22824219 0.045872364 -0.29757854 -0.1462552 -0.24518973 0.5135529 0.042390604 -0.21234192 0.41760692 -0.25466225 -0.16308346 -0.41721594 0.19673014 0.07067939 0.32509774 0.37176937 0.0010288443 -0.05546031 -0.1520526 -0.044634197 -0.1430701 0.1990656 0.2586044 0.20066917 -0.06158989 0.036936853 0.25796318 -0.3624935 -0.119763955 0.15975125 0.63626885 0.521001 0.03730683 -0.02218046 -0.11722714 -0.09478933 0.24256665 0.16720997 0.06375302 -0.44660753 -0.39541826 0.1292709 -0.14589678 0.033337273 0.12265017 0.4029737 -0.09798746 -0.06275015 0.27821845 0.07352994 0.23229331 -0.23069017 -0.25849843 0.17825411 -0.26432285 -0.07379842 0.14282951 -0.27317905 -0.11558189 0.008504362 0.13787252 0.051621165 -0.4642683 -0.35802692 -0.23886415 -0.036873978 0.11212465 0.09665634 0.08284565 -0.62461114 -0.011143832 0.07438452 0.15911911 -0.22639489 -0.014111788 0.20102395 0.14992647 0.2610982 -0.010021152 -0.29010415 -0.03856076 -0.19133358 0.0005008806 0.08252827 -0.19206312 -0.00096571463 0.3826434 0.0049328688 0.24263634 -0.1361405 -0.32303253 0.5451479 -0.30813918 0.12926066 -0.1541927 -0.09695167 0.29740867 -0.29099035 0.39523393 -0.028424362 -0.043692864 -0.092037454 0.2256451 0.10878752 0.09908855 -0.004218093 -0.10401406 0.18710765 -0.38570967 -0.05275363 0.23283859 0.06395088 0.068359785
6 0.27686903 0.16307715 0.3999779 -0.16550659 0.13965258 -0.001745434 0.2009383 0.1385013 -0.0699553 0.21657248 0.4295452 0.040879924 -0.20475367 0.053486597 0.47874105 -0.15409388 -0.364217 -0.2614816 -0.2461381 -0.32238302 0.13684614 0.153297 0.057225198 0.18412082 -0.115897894 0.08038684 0.18022296 0.16271739 0.066115014 0.3878814 0.16245168 -0.14971296 -0.12199819 0.34623593 -0.093439445 -0.23058951 0.33649907 0.21434751 -0.15620054 -0.037443116 -0.11520417 0.20487651 0.106023446 0.20420177 -0.2582939 0.5234415 0.22615954 -0.07866306 -0.17561129 0.06780783 0.017901482 0.20100403 0.1688537 -0.0015132574 -0.1286149 -0.18050186 -0.104746774 0.010119267 -0.18969154 -0.38410372 0.23715839 -0.08545048 -0.2882572 0.075566776 0.19275239 -0.06676694 -0.036446687 -0.3075079 0.024444323 -0.08825832 0.1715902 0.016399924 -0.085964665 0.11590713 0.14883336 0.1318401 -0.0770147 -0.30029896 -0.1193401 0.031079832 0.029285487 -0.081292614 0.07438987 0.120867334 -0.18420403 0.11281118 0.06939071 -0.005216021 0.038109772 -0.16548912 -0.00040210303 0.33494076 0.24099435 -0.13474955 -0.11807535 0.43159014 -0.21052592 -0.09162149 0.14940357 -0.23664983 -0.09561899 0.049947422 0.14574288 0.21317527 -0.17474729 -0.0066765747 0.559504 0.073663145 0.016724436 -0.18721145 0.07523675 -0.12784111 -0.17697078 0.19021463 -0.101023175 0.044229526 -0.4579969 0.12909701 -0.1125791 -0.16653904 0.011572252 -0.44041482 0.06498673 -0.27544573 0.006118806 -0.08647491 0.011788828 -0.14565523
35 -0.075021595 0.036996145 -0.25442302 -0.40260443 -0.008168358 0.12339208 0.12288612 0.099785134 0.11813943 0.24783203 -0.01626936 0.008173076 -0.07516194 -0.11010022 -0.065854974 -0.23071961 0.2389752 -0.018315466 -0.12493968 -0.17670673 0.34168598 0.020236053 -0.21061951 0.27238327 0.03180334 0.04791789 0.059785128 0.04181106 -0.03909672 0.052689757 0.07719683 -0.13115479 0.06477885 -0.17788711 0.16798608 0.028371267 -0.014223107 -0.23256433 0.0036765232 -0.3340251 -0.18402508 -0.086018935 0.043609746 0.054007147 0.09542633 -0.055626746 0.038867604 0.025554726 0.11598868 0.20690376 0.08818667 -0.11723654 -0.06336704 0.055371005 0.2457924 -0.19403234 -0.0051468196 -0.13955109 0.039003402 -0.051617827 -0.14037621 0.009283397 0.01879662 0.063832864 -0.01568431 -0.047807805 -0.043382 0.119286485 -0.23999006 -0.14310804 0.16630632 0.3423034 0.07208411 -0.026200717 0.42087585 -0.2320329 0.09781281 0.15139762 -0.23543295 0.086225115 -0.18840249 -0.22459917 0.015769606 -0.094048455 -0.04027614 0.20572627 0.2179116 -0.24314298 -0.16308308 0.03629123 0.024449764 -0.06763705 0.10461059 -0.14910555 -0.19417898 -0.06972869 0.012245276 -0.019132664 0.12135856 0.003180546 -0.097793885 0.076010816 -0.20800444 0.038497657 0.31391504 0.09508497 0.26518384 -0.0003222043 0.3768517 0.084178805 0.23593736 0.05124551 -0.036972474 0.008303549 0.1221604 0.20243692 -0.16325755 0.035242833 0.23168695 -0.07351404 0.017985564 -0.18821394 0.08787448 -0.42846784 -0.13350627 0.16320705 0.2688396 -0.011000465
38 0.20380008 -0.0069743996 0.34003717 0.094372265 0.17871258 0.33916762 0.047525175 0.31597608 0.061545137 0.03966197 0.21408297 -0.19685805 0.0018161 0.36615175 -0.08093 -0.049103666 0.13902631 -0.29894012 0.12065092 -0.020065883 -0.11089112 -0.041356366 -0.3749735 0.48280865 0.13931128 -0.24953228 -0.19978637 0.025660928 -0.20376717 0.110995874 -0.13650012 -0.45438334 0.1867258 -0.14531016 -0.44942582 -0.0069914437 0.39960608 -0.08267222 -0.15101951 0.06393913 -0.1598218 -0.17862837 0.11371683 -0.01620581 0.25683644 0.35111073 0.103870325 -0.038817365 0.102534465 0.14639881 0.0040507456 -0.03494729 -0.06906228 0.17705625 0.485378 -0.11921094 -0.24722171 0.14410204 -0.11468025 0.011690655 0.10832012 -0.22152472 -0.10916478 -0.21858636 -0.00676179 0.21234754 -0.24436742 -0.22848886 -0.037060857 -0.41820744 -0.22154906 -0.23883383 -0.026739487 0.26769507 0.18909176 0.14603457 0.0050256182 0.32371756 -0.12640704 -0.13039386 -0.25927475 0.077762105 0.025074065 0.19665292 -0.09146288 0.103133306 0.17906225 -0.24162392 0.14684656 -0.045845214 0.18897362 -0.17569289 -0.054887146 0.0220852 -0.12969816 0.20382187 -0.08662434 -0.23165743 0.36692595 0.13129033 -0.20028824 -0.2149268 -0.04484323 -0.12046149 -0.36440083 0.019876452 0.02547847 0.12093016 -0.0415447 0.052229226 -0.087828994 -0.18274418 0.2537203 -0.066320986 -0.026715498 -0.013416667 -0.16651076 0.17561695 0.11651003 -0.1635634 -0.13110353 -0.053030718 -0.00095768145 -0.11485497 -0.22100285 -0.31915447 0.056772795 0.06922312
37 0.024400953 0.07668343 0.44256514 0.09148104 0.3498313 -0.10517037 0.15681031 0.04373846 0.35542113 0.12342828 0.22421028 0.35573724 0.15981565 -0.18801303 0.2854084 -0.25329253 -0.60523164 -0.22855552 -0.116418846 0.054018006 0.18187226 0.11693096 0.36043942 0.053696465 -0.0025045772 0.4670048 -0.37129784 0.05482794 -0.0024691122 0.14646113 -0.05203002 -0.09369587 -0.11151287 0.013230185 0.112174466 -0.13791105 -0.0009728958 0.1520435 -0.35787693 0.462025 0.14475375 0.50447726 0.40787992 -0.13431673 -0.2738862 0.47721836 0.44697174 -0.24112178 -0.1544106 0.12687857 -0.23806113 0.27003142 0.099374235 0.11868164 -0.3682945 -0.44500652 0.0868011 0.09994079 -0.047927637 -0.22275342 0.20709856 -0.09787292 -0.20773292 -0.00025810712 0.12731178 0.14377071 0.10431689 -0.16478941 0.27469295 0.008493401 -0.035182673 -0.23835689 0.4413557 -0.52240336 0.11981701 -0.5854793 0.39091358 0.0016062153 -0.13870314 -0.08806136 0.013768031 0.002431004 0.11478267 -0.03245219 -0.33772558 0.23467393 0.32682246 -0.18232948 0.06848173 0.13112326 -0.07955666 0.23936357 -0.26509458 0.3676289 -0.6767819 -0.047309477 -0.30923086 -0.46372014 0.14611338 0.26143664 0.37822303 0.022610359 -0.107210055 -0.28301582 -0.252676 0.35348907 0.558354 0.41877255 -0.17855126 0.022032525 0.0030884426 0.24115942 0.11653887 0.12917326 -0.053006507 0.15568173 0.042013943 0.022268578 -0.38879222 -0.199314 0.2819927 -0.18065394 -0.028345043 -0.04107093 -0.25919402 -0.009979033 0.021955734 0.051410638
0 0.12959284 -0.16539472 0.008378817 -0.44151047 0.065869294 0.16238536 0.15817663 0.35402736 0.10975873 0.36585394 0.08933502 0.07403825 -0.3401077 0.2464873 0.40644166 -0.1957878 0.07949624 -0.23342468 -0.3191716 -0.3421688 -0.085539706 0.19754067 -0.14472167 0.40937468 0.008162336 0.21117873 0.11253207 0.36927345 -0.16809535 0.05058989 0.1875953 0.15604106 -0.2123797 0.1338385 0.14850563 -0.05849753 0.273593 -0.28902286 0.009308303 -0.16265734 -0.523275 0.0837257 0.07274772 0.18627398 0.022460468 0.41476563 0.31826478 0.023575366 -0.05813804 0.19741598 -0.11491008 0.39169326 -0.04163195 0.37244013 0.069171146 -0.24252999 -0.1772417 -0.14096443 -0.2957679 -0.2234407 0.34926614 -0.298931 -0.57900137 -0.03628316 0.067588836 0.20565604 0.020879325 -0.015574427 -0.39088342 -0.113078676 -0.054444436 0.12490448 0.41250822 0.035158403 0.20594923 -0.25379628 0.15774406 -0.024308424 -0.40605304 0.08278527 0.48673287 -0.35776404 0.08785275 0.23651363 -0.12436028 0.38372797 -0.114294514 0.23708557 -0.005044392 -0.020847622 -0.0024846517 0.33714914 0.29485196 -0.098905414 -0.28092453 0.33567718 0.2019242 -0.20726718 -0.3530795 -0.10446298 0.05896609 -0.281175 0.116499394 -0.045499034 -0.32894087 -0.029757546 0.23654643 0.35846683 0.35284314 0.07227218 -0.40652555 0.100562826 -0.11579917 0.05356653 0.03235803 -0.034474578 -0.040137302 -0.100584015 -0.3313832 -0.21285693 -0.44298342 -0.38440454 0.040770456 0.25583208 0.11715715 -0.10250441 -0.17072244 -0.033486765
15 -0.055206504 -0.082998306 0.19211629 -0.3875814 -0.10068235 0.09022468 -0.0075130085 0.12050633 0.03663928 0.36511838 0.023021685 0.015251324 -0.18908153 0.19511169 0.08965788 -0.12367943 -0.02217815 -0.32555157 -0.015433777 -0.43897268 0.24532829 0.13282841 -0.27194405 0.5901235 0.20123911 -0.090556465 0.18317969 0.4440202 0.102428354 0.119726606 0.06922289 0.009274351 -0.1426199 -0.16440812 0.18580602 -0.065875866 0.12553918 -0.083048336 -0.02798349 -0.16682157 0.295488 -0.1956227 -0.033032842 0.0395365 0.12273182 0.4060591 0.14322618 0.3453832 -0.14546736 0.11624967 0.22738236 -0.0050961627 0.04089475 -0.023162115 -0.18653266 -0.22954309 -0.21507382 0.010186865 -0.09532939 -0.06125062 0.08105932 -0.019056223 0.14821786 0.13255674 0.16176672 0.06151785 -0.22049667 0.123803385 -0.12524202 -0.3362702 0.09494402 0.15972663 -0.042099874 0.07445605 0.43328747 -0.2310986 0.29416603 -0.17231658 -0.3698177 -0.09899305 0.033942353 -0.1996231 0.051023096 -0.23585284 -0.1267202 0.063816935 0.2824023 -0.19336556 0.11252344 0.0008434932 -0.21615873 0.13194704 0.33253866 -0.06615016 -0.45819083 0.047332466 0.07100443 0.24188134 -0.034831684 -0.15957698 -0.114538334 0.10732062 -0.1467014 -0.10698167 0.24593605 0.09718307 0.103768475 -0.10805843 0.019354757 -0.030256609 0.28536066 0.03519541 -0.21836837 -0.34283248 -0.03359041 0.14886864 0.032032054 0.19733842 -0.054743182 -0.11357343 -0.005806735 -0.14093429 0.15594345 -0.26591048 -0.30546224 -0.0562078 -0.10123549 0.13988604
58 0.38621804 0.07724074 0.40175086 0.013368641 0.19410963 0.36932877 0.13963649 0.33628398 0.11460308 0.01146496 0.25764182 -0.18518685 0.10486483 0.36565527 0.007651282 -0.08229669 0.086239934 -0.19812214 0.07526491 0.0018980205 -0.16726413 0.07093225 -0.2703288 0.33616537 0.06769264 -0.14441967 -0.17574328 -0.052498203 -0.14238614 0.16176122 -0.07447856 -0.5206841 0.18673873 -0.06799901 -0.40747523 -0.031393886 0.29367995 -0.044762522 -0.223249 0.12585415 -0.13280311 -0.15165707 0.07705317 -0.0649332 0.15278362 0.36382616 0.1400813 -0.08799258 0.12669559 0.08471118 -0.08843841 0.032056104 0.0011347176 0.1927785 0.3941389 -0.12949952 -0.18488373 0.10558614 -0.07265021 0.03692889 0.04880081 -0.17685486 -0.08748028 -0.1900167 -0.01717291 0.18858506 -0.16561702 -0.28226545 -0.027881699 -0.35939753 -0.17869933 -0.15314907 -0.09347258 0.15111703 0.23556624 0.11909155 -0.08211736 0.31117886 -0.091226846 -0.18043326 -0.4111788 0.09672688 0.027628485 0.20366208 -0.14933503 0.08253201 0.119194694 -0.28192863 0.075556 -0.06108367 0.24744588 -0.09978445 -0.08345577 0.10343403 -0.16534993 0.20582406 -0.16338465 -0.3066091 0.46283382 0.1276136 -0.21626234 -0.23049124 -0.07174377 -0.1209596 -0.37194693 0.13022035 0.05442965 0.21545674 -0.070842534 0.03808571 -0.03919204 -0.17434089 0.32103935 0.0006156011 -0.035661303 -0.057351902 -0.17507264 0.15829776 -0.014756394 -0.02308527 -0.06588959 -0.052448556 -0.067590654 -0.068100974 -0.17112593 -0.3908698 0.14123127 0.04165609
19 0.17536123 0.16094975 0.22804153 -0.34033912 -0.1150215 0.020239394 0.06364353 0.13007067 -0.13132425 0.15838489 0.0871535 0.016933193 -0.17753439 -0.047383 0.13622247 -0.18258122 -0.27606177 -0.3685259 -0.12458595 -0.40371448 0.071331225 -0.06685008 0.07387123 0.5110532 0.16783346 -0.033477236 0.031877548 0.21473421 -0.034583114 0.22974063 -0.024366388 0.16919634 -0.142318 -0.11624969 0.030600373 -0.31483388 0.31790605 0.2756402 0.025239987 0.102001786 0.22397605 -0.105681315 -0.29741237 0.156828 -0.048031703 0.40733814 0.3068938 0.24843565 -0.13795906 0.27345115 0.05284984 0.091417834 -0.01956426 -0.15073568 0.05669721 -0.30092466 -0.29381472 -0.102349974 -0.00089212344 -0.17845212 0.27367654 0.00893338 -0.031908214 0.35271046 0.13433316 0.010257501 -0.1783286 0.050670743 0.073984325 -0.33704004 -0.17061362 -0.20268168 0.018760005 -0.20248456 0.27946585 -0.2918128 0.09581273 -0.3575044 -0.30930737 -0.3031535 0.26521438 0.10987854 -0.09718392 -0.13673015 -0.12301766 0.048079286 0.22189097 0.022425579 0.11908551 0.029423606 -0.15279149 0.023997601 0.24998061 0.17578946 -0.23251452 0.022785189 0.03517615 -0.08404606 -0.04699157 -0.11557571 -0.051500842 0.030260747 -0.10692441 -0.041972242 0.094274655 -0.24419889 0.25681025 -0.121180356 -0.15343326 -0.083107725 0.16731583 0.14119098 -0.22899568 -0.14076053 -0.2759323 -0.013762352 -0.13482867 0.35661906 -0.19954053 0.035336338 -0.099625096 0.1458728 0.18779719 -0.1702188 -0.3060231 0.102413 -0.08188071 0.27725825
14 0.25232017 0.12540606 0.16033411 -0.26556748 0.16987886 0.037009735 0.16650894 0.24322149 0.068303905 0.16193631 0.30304554 0.018083192 -0.3436269 0.09004805 0.36228895 -0.13538276 -0.18987553 -0.42081997 -0.35249498 -0.3157418 0.2554789 0.22066306 -0.12588641 0.39729384 -0.10909769 0.09098274 0.118813 0.3771095 -0.009974173 0.30059347 0.2927361 -0.08420955 -0.13724287 0.2644213 0.031963453 -0.24915805 0.25461313 0.28422025 -0.07116098 -0.0551929 -0.16990395 0.17099589 -0.0053395126 0.288793 -0.21667272 0.38061115 0.37579465 0.007867277 -0.18005417 0.096023865 0.022782534 0.28813702 0.14001256 0.047083482 -0.09058232 -0.38039866 -0.17168415 0.047559083 -0.019134441 -0.33870187 0.16131936 0.006883413 -0.20436811 0.08134241 0.020540882 0.016834233 0.07117588 -0.1303121 -0.0012514379 -0.16963954 0.11399568 0.059837103 -0.06705003 0.06548167 0.046637055 0.010135197 -0.013229307 -0.4031547 -0.2951433 -0.12841773 0.090910435 -0.032647688 0.124882065 0.18851572 -0.22396944 0.12208361 0.08503943 0.11802323 -0.042744312 -0.16051452 -0.18092921 0.21083567 0.2766641 -0.17285265 -0.14793454 0.47030073 -0.1246843 -0.01236689 0.08982905 -0.08018363 -0.016652305 0.074121766 0.07755472 0.050082494 -0.1945176 -0.1410362 0.57924867 0.06618906 -0.12535554 -0.254025 0.035181247 -0.21414408 -0.26410964 0.07996169 -0.019569896 0.043374736 -0.30064178 0.15485649 -0.08307941 -0.16349532 0.04185393 -0.40076703 0.14031994 -0.14889506 -0.1069065 -0.123414494 -0.077727064 -0.041223235
16 0.17214076 -0.14575633 0.02677169 -0.39568657 0.0055381963 0.23715349 0.17294197 0.34524503 0.008855998 0.49464458 0.010786372 0.036689427 -0.17385207 0.35632405 0.3364709 -0.111966774 0.18958168 -0.18226987 -0.36366168 -0.22588739 -0.12088903 0.3027355 -0.06949582 0.3393959 -0.0122345975 0.24576274 0.13407278 0.36318746 -0.15174975 0.10655493 0.29895797 0.23743455 -0.20680326 0.19055575 0.031890944 -0.061733574 0.1486008 -0.24854615 0.046424307 -0.19046263 -0.6271342 0.16212836 0.13415395 0.16260265 0.0403085 0.3222179 0.34610263 0.03690973 0.011784478 0.109224014 -0.16105835 0.3977794 -0.053467628 0.42471686 0.05357788 -0.1638171 -0.14494641 -0.27245212 -0.23982145 -0.16639957 0.36162835 -0.38219744 -0.573858 -0.033800248 0.13322246 0.24512 0.004218872 -0.05268288 -0.37438792 -0.1533029 -0.0011206544 0.11805064 0.38139674 -0.0053522615 0.325176 -0.14729734 0.15410301 -0.07179497 -0.30128196 0.12707742 0.4781645 -0.5187968 0.16332668 0.13705455 -0.25758025 0.38162336 -0.032376505 0.14285322 0.0107938405 -0.03622489 0.15008147 0.41920057 0.2230117 -0.047716632 -0.38621238 0.34703535 0.15865335 -0.20413953 -0.3325868 -0.16196707 0.18464163 -0.28692544 0.042297605 0.065946825 -0.3352687 0.0063357297 0.2323007 0.3531245 0.42532563 0.13397749 -0.3534269 0.27944723 -0.026903518 0.13446186 0.059678864 0.033103187 -0.0339445 -0.034938425 -0.44683012 -0.11626054 -0.2850646 -0.46430382 0.083470054 0.17936328 0.18988177 -0.05542875 -0.1478851 0.016827237
57 -0.038396407 0.12111034 0.19692492 0.13941512 0.2768451 -0.007571499 0.14347744 -0.04136631 0.36740097 0.113794215 0.12670642 0.27763847 0.31846535 -0.29269424 0.27816185 -0.31341615 -0.49133748 -0.21663016 -0.16233993 0.18312396 0.29644856 0.108369745 0.19606668 0.023057163 -0.114824265 0.49065945 -0.45298082 -0.011172469 -0.068293825 0.05199056 -0.018293474 -0.15984583 -0.035394702 -0.038057193 0.124170035 -0.030355256 -0.0625524 0.15733752 -0.27429375 0.3392537 -0.058261614 0.6346159 0.38291842 -0.22834243 -0.08149061 0.42602757 0.5155946 -0.29186222 -0.11226039 0.23945971 -0.33279237 0.19929405 0.032102883 0.17809622 -0.25420657 -0.577406 0.079168975 -0.0017692057 0.08501875 -0.21429901 0.23638998 -0.14860421 -0.16983259 -0.07872314 0.11402032 0.12393659 0.07697796 -0.20280564 0.2635583 0.110184 0.0006634098 -0.18276694 0.40568125 -0.50953704 0.25407696 -0.4712904 0.35912126 0.066923715 -0.0613947 -0.0039132806 0.0085751265 -0.02695596 0.111568265 -0.0042629885 -0.34505942 0.3581564 0.18829061 -0.3054701 -0.09469214 0.07988692 -0.09443554 0.27773508 -0.40123996 0.1813236 -0.60332936 -0.025896188 -0.3219917 -0.49121836 0.21447188 0.21337855 0.50068396 -0.03854565 -0.09478602 -0.2041901 -0.30005226 0.19862553 0.61226803 0.44164935 -0.025275193 -0.054442525 -0.07913606 0.28628692 0.06358892 0.3018229 0.043572973 0.25181767 -0.026795091 -0.025781844 -0.3060798 -0.2193542 0.29181364 -0.13780358 -0.021018054 -0.22098027 -0.1740244 0.18512434 0.115379944 0.09765955
10 0.28116414 0.11943908 0.2089816 -0.19592129 0.06983461 0.049011014 0.06443187 0.09490089 0.0012183157 0.20392779 0.39384216 -0.06769866 -0.24468929 0.14095911 0.48379993 -0.05447226 -0.1583549 -0.15684992 -0.26671475 -0.35082304 0.097830914 0.17630431 -0.015412358 0.11040971 -0.09895517 0.026090832 0.2668756 0.2576633 0.082401864 0.32152635 0.13014287 -0.16781203 -0.097014114 0.4131119 -0.11182449 -0.19010663 0.27262086 0.18843284 -0.15406422 -0.016998084 -0.19594488 0.13394003 0.017229088 0.1770287 -0.09880115 0.5050305 0.26440045 -0.069672406 -0.06353851 0.08405195 0.082429215 0.2408323 0.14755528 0.06155976 -0.094737284 -0.17182264 -0.15250883 -0.071017526 -0.033357482 -0.29805347 0.14612193 0.031223455 -0.31189552 0.013573858 0.20446019 0.07209977 -0.1419336 -0.25751135 -0.03940325 -0.070461005 0.17694446 0.07141258 -0.028605022 0.07816205 0.22196475 0.1233467 -0.060900435 -0.35659516 -0.19373608 0.066562496 0.07157548 -0.07003981 0.10339216 0.09616044 -0.284428 0.06911442 0.04191647 -0.042483307 -0.047749504 -0.2529471 -0.07288821 0.39767635 0.22105873 -0.20323344 -0.15427442 0.44834104 -0.12192805 -0.09758151 0.12552673 -0.18643826 -0.043455902 0.0007374534 0.22873403 0.16602656 -0.21727431 -0.04823068 0.43659595 0.027629817 0.027500985 -0.2838716 0.0721014 -0.19411045 -0.19417325 0.14949155 0.056070585 0.096143164 -0.3966844 0.16420095 -0.120186776 -0.2096114 -0.017407922 -0.41019794 0.07073882 -0.19670534 0.09626405 -0.048772622 0.01033017 -0.19812785
27 0.26932308 0.002671089 0.43083578 -0.23277813 -0.2961134 -0.0877192 -0.30597827 -0.38651845 -0.16694878 0.23447667 0.39772055 -0.13655744 -0.16101721 0.17952777 0.6258872 -0.2017726 -0.0962838 -0.03872201 -0.0850322 -0.25358173 0.17683092 0.045736436 0.29500002 -0.33063123 -0.22306184 0.17736246 0.19290546 0.09833646 0.18167043 0.23521738 -0.18443817 -0.22286399 -0.05005923 0.48967633 -0.18613604 -0.30519786 0.1033509 0.11975055 -0.19555 0.28033558 -0.12252867 -0.055367764 -0.49343196 0.1411436 0.11053157 0.7720686 0.008743045 0.024458729 0.018763097 0.10702402 0.43377626 0.11377027 0.040630322 0.10004291 -0.2266076 -0.12760116 -0.24528107 0.25538352 0.25308713 -0.09720642 -0.047826447 0.3374412 -0.2569574 -0.05493573 0.46509293 0.22738832 -0.15545486 -0.28143895 0.0027956662 -0.021943538 -0.008894652 -0.176658 0.28363258 -0.24083896 0.22008385 -0.33745202 -0.07281755 -0.4622564 -0.22878623 -0.0026739375 0.12732941 -0.07428795 0.28514272 -0.19498262 -0.65835863 0.026088856 0.17247131 -0.3206633 0.16676612 -0.5469918 -0.25314218 0.5719712 -0.04331049 -0.24460939 -0.5103192 0.058377407 -0.24877456 -0.010716249 0.4401834 -0.37614748 0.022164468 0.13351311 0.5769214 -0.026726862 -0.046574473 0.3630309 0.30724683 -0.34215996 0.24940898 -0.41879717 0.018189816 0.10102261 0.072758645 0.14355916 0.26945823 0.28824255 -0.440381 0.38209984 -0.20999867 -0.5065415 -0.23825999 -0.43416968 0.059352957 -0.36484757 -0.20440781 0.32248268 0.5627153 -0.45036778
65 0.13863282 0.084913306 -0.034606215 -0.20722388 0.05268861 0.1407928 0.12095425 0.22566912 0.024951585 0.108141385 0.12369264 -0.058172733 0.039943054 0.015609139 -0.14432457 -0.108424895 0.10879124 0.028039562 -0.16506253 -0.2126346 0.042546533 0.09924445 -0.17672592 0.23042303 0.006924593 -0.02031238 0.12174344 0.032254398 -0.024534348 0.11919586 0.10711137 -0.12453454 0.1263111 -0.13033536 -0.02746156 0.07086346 0.10973682 -0.0052334545 0.08122827 -0.059422743 0.0025239321 0.016304212 0.010640054 -0.10047042 -0.02741993 -0.07390897 0.0503178 -0.025670111 0.025907405 0.113953665 -0.10161184 -0.011295296 0.062791415 0.03932995 0.35033676 -0.15723228 -0.10212168 -0.18667495 0.034599937 0.025646904 -0.031246493 -0.17955776 -0.11084208 0.03704487 -0.14927427 -0.019547295 -0.025435504 -0.0456907 -0.1315878 -0.09202962 0.10823756 0.29271954 -0.056270376 0.0577712 0.2820526 -0.026505545 0.100569226 0.0025900018 -0.18968453 0.0013757604 -0.09151665 -0.12733643 -0.018646266 -0.06361674 0.008217854 0.20029368 0.25170946 -0.01582766 -0.074657395 0.012365032 0.12892525 -0.12208244 0.14294355 0.051016077 -0.0158753 0.04681819 -0.017733725 -0.09427779 0.09886395 0.032788303 -0.19329841 0.1799601 -0.19858071 0.13307743 0.2025841 0.055011354 0.33273187 -0.05431593 0.29438785 0.13942336 0.08182388 -0.01723446 -0.12578796 -0.053026423 0.007903514 -0.07597187 -0.23840234 -0.03620696 0.32170394 -0.029002145 0.08076891 -0.09799096 -0.040321037 -0.4057517 -0.11566056 0.042449497 0.15242125 -0.10356084
17 -0.108144335 0.1176637 0.2223203 0.008410203 -0.11246271 -0.18518722 0.26581317 0.03770449 -0.15106463 0.16527307 0.16174282 0.033948395 -0.112902515 -0.039722964 0.17775287 -0.21582203 -0.2908898 -0.44225478 -0.23720786 -0.18393102 0.15593314 -0.0609121 -0.015301607 0.29147744 0.081672855 -0.13414276 -0.04339041 0.18824291 -0.11277099 0.1046587 -0.08459969 0.06411266 -0.044400726 -0.04689452 0.064261414 -0.108060576 0.4037736 0.4436458 0.10904809 0.2546447 0.23731954 0.110262394 0.01710492 0.118378066 -0.075808436 0.2781623 0.40344667 0.051282246 -0.37214276 0.34400114 0.11321576 0.0074970364 0.03356502 -0.09402028 -0.060012273 -0.4621994 -0.34043294 -0.05468844 0.011815298 -0.20058015 0.25688943 -0.05014754 -0.10138195 0.088232875 0.1422385 -0.1790869 -0.14919947 -0.18456808 0.32372224 -0.22497879 -0.09089128 -0.20028524 0.015221128 -0.23223743 0.21231745 -0.23416804 0.105313994 -0.33377886 -0.1659277 -0.19587462 0.3050443 0.0077045797 -0.072069414 -0.053012807 -0.17558399 0.28146967 0.30674306 -0.016321238 0.028662598 0.045062885 -0.217256 0.033051573 0.08865372 0.08762525 -0.18698962 0.034213062 -0.071545795 -0.044797804 -0.07769291 -0.15195139 0.14927612 0.17068277 -0.15687047 -0.0874023 0.033446725 -0.25383076 0.4518537 -0.41301477 0.09073714 -0.102744855 -0.011464811 0.15527062 -0.19851506 -0.03080584 -0.2070427 0.034633387 -0.21959111 0.38273874 0.05960617 -0.21414952 -0.035967432 0.12523596 0.28165355 -0.11965295 -0.411071 0.23437527 -0.021580193 0.38976958
3 -0.0129279485 0.1608716 0.032501195 -0.09823484 -0.07694504 -0.054055203 0.24455431 0.09986629 -0.024928955 0.15913863 0.13753465 -0.09290756 -0.073099874 -0.025758903 0.16893198 -0.2830595 -0.11769903 -0.44513455 -0.29798922 -0.1859806 0.13349159 0.08391701 -0.18823253 0.4688034 0.09219122 -0.15764584 -0.11046963 0.32144544 -0.09284031 0.12052701 0.053932372 0.016599346 -0.09101941 -0.052258246 0.0577624 -0.09687642 0.31724584 0.37765947 0.059861768 0.17286798 0.084187716 0.04010718 -0.10371659 0.104314186 -0.06800551 0.20651312 0.29381654 0.009114574 -0.45479935 0.3042834 0.12925412 0.037072837 0.07365956 -0.09076762 -0.19889866 -0.4387551 -0.30145207 0.011420493 0.06418865 -0.16518472 0.077291615 -0.064798884 -0.05768838 0.037339393 0.13114779 -0.27679813 -0.021321803 -0.13710812 0.29647 -0.17000587 -0.07796052 -0.15205821 -0.18892363 -0.14430273 0.1234569 -0.13898058 -0.04841675 -0.36571738 -0.17658263 -0.22939448 0.21429484 0.11868542 -0.12539257 -0.09146454 -0.16909726 0.232578 0.29581466 0.03487921 -0.15842156 0.006042135 -0.23601234 0.018390292 -0.023339111 0.054275095 -0.14301498 0.09823928 -0.016022526 -0.13627537 0.03015437 -0.11094339 0.08356381 0.14164446 -0.2194487 -0.106227085 0.073661216 -0.22495475 0.3894077 -0.55208945 0.122346036 -0.074343584 0.028980229 0.033235848 -0.17815727 -0.034818072 -0.16203003 0.1112901 -0.23773056 0.31021398 0.25936309 -0.20684981 -0.024268935 0.048378695 0.25061736 -0.1710561 -0.3832901 0.13144298 0.0061959554 0.20746137
51 0.4838549 0.09676862 0.53289485 -0.39606112 -0.27460912 -0.031236852 -0.33769083 -0.2955236 -0.119319506 0.29734108 0.45727223 -0.11925128 -0.2103959 0.25442794 0.622165 -0.21853456 -0.084857255 0.0055528386 -0.13184163 -0.32149896 0.057497278 0.06436572 0.35486615 -0.36244902 -0.12151457 0.24270342 0.23684703 0.07215696 0.18485482 0.32750437 -0.10398355 -0.17292005 -0.05869579 0.56241995 -0.20648631 -0.41903347 0.08381971 0.08922016 -0.31141746 0.33208844 -0.12030508 -0.09081753 -0.51373965 0.18947189 0.015407718 0.8382838 0.06254088 -0.020853482 0.0072325375 0.057526927 0.4376824 0.16925916 0.08222546 0.0546176 -0.30178338 -0.08988762 -0.21652725 0.22240323 0.23070095 -0.19798115 -0.017053304 0.3621633 -0.30798316 0.0628668 0.48974517 0.270056 -0.13939539 -0.2873862 0.008455997 -0.03406922 -0.02268968 -0.22928241 0.27226833 -0.29630393 0.27910116 -0.39809024 -0.12690797 -0.5476894 -0.30356988 -0.087128535 0.18523201 -0.014566943 0.3162385 -0.26887795 -0.61985654 -0.04655396 0.20753688 -0.26702923 0.1508692 -0.5189099 -0.28532824 0.6510651 -0.031032875 -0.102540545 -0.5328303 0.025546286 -0.29438734 -0.08744673 0.40535277 -0.34284446 0.018421147 0.15974733 0.61434126 0.0128331175 -0.035917737 0.4059925 0.37493083 -0.24204767 0.14604415 -0.40116525 0.106567875 0.14070463 -0.0022539175 0.17109871 0.18413423 0.25304317 -0.46893704 0.3447647 -0.23582147 -0.41665763 -0.1669528 -0.5148381 0.0032013124 -0.33526528 -0.20936882 0.32327726 0.6157569 -0.5629311
13 0.10833244 -0.085538305 0.12834866 -0.2853415 -0.052738078 0.041645043 0.13320291 0.17156763 0.007886244 0.27152815 0.058167867 -0.06698443 -0.2283573 0.27528334 0.024822151 -0.036111526 0.073873684 -0.2922264 -0.16159008 -0.40438494 0.11549663 0.025568103 -0.15886143 0.4178862 0.09227252 -0.18487065 0.08990542 0.44309637 0.060685612 0.22271484 0.026260236 0.19370998 -0.102862105 -0.20837232 0.103694975 -0.094542086 0.38086212 0.06840838 0.042059045 -0.06080186 0.18123639 -0.12336949 -0.17737792 0.07523379 0.009096592 0.3181051 0.15385203 0.23025616 -0.20456974 0.06482774 0.0750058 0.07896885 0.087045625 0.008281652 -0.077668466 -0.21012351 -0.18450576 0.0019409873 -0.084334366 -0.057136808 0.15653445 -0.18594554 -0.074785024 0.02342758 0.101123974 0.045111384 -0.10956149 -0.030243883 -0.09446425 -0.38138324 -0.043785363 0.060147315 -0.10944299 0.024983443 0.18126859 -0.10460915 0.0879937 -0.27157608 -0.39790022 -0.2203338 0.13800667 -0.071569696 0.012738423 0.0069373287 -0.30913606 0.10748227 0.2984955 0.11399014 0.0024187881 -0.036384195 -0.06597784 0.04148345 0.2860949 0.032185078 -0.3473888 -0.009769358 0.050467454 0.005521516 -0.058344018 -0.13085842 -0.003278839 0.26795805 -0.11952216 -0.022733087 0.018763643 -0.21164823 0.2818106 -0.29377455 0.10758678 -0.07801901 0.055539094 0.044704985 -0.1889808 -0.09906219 -0.06367975 -0.017286286 -0.08733928 0.26696557 0.063925594 -0.12496059 -0.033753917 -0.07503904 0.12392911 -0.21248804 -0.25688803 -0.077952065 -0.17181747 0.17288947
31 0.10942807 0.12882397 0.37394917 0.01527581 0.17003874 -0.1914791 0.204101 0.14995436 0.26977575 0.1256203 0.46928173 0.073664606 0.035632625 0.037831914 0.5391261 -0.113851584 -0.46600506 0.020563409 -0.029122746 -0.018202718 -0.15788998 0.034144685 0.2566765 0.06289704 0.3399055 0.24213114 -0.21821031 0.06300164 -0.19098885 0.10918104 -0.24035357 -0.12334917 -0.17300975 0.20987576 0.052859817 0.010613794 -0.0020748866 -0.15938593 -0.35255754 0.43949252 0.118834175 0.110944524 0.4074864 -0.13547742 -0.05449756 0.54877734 0.2667271 -0.15865985 -0.19248064 0.07894608 0.10257235 0.21631983 0.0308479 0.058650028 -0.2772384 -0.18986523 0.044062633 0.15693107 -0.39012975 -0.38392863 0.25718608 0.027069483 -0.2122169 -0.036014147 0.28811932 0.1965743 -0.15193255 -0.33006567 0.3184054 0.031085365 -0.020587042 -0.380249 0.54386944 -0.2759816 0.015177618 -0.47529107 0.22502457 -0.06934618 -0.10485392 0.17096725 0.23213924 0.14752935 -0.1725086 0.05460969 -0.27262753 -0.104228996 0.21526448 -0.058907926 0.097402096 0.13282424 0.010090923 0.31853467 -0.08626617 0.37238267 -0.6567916 0.0028000423 -0.059556566 -0.3704555 0.13626811 0.4113643 0.07809039 -0.089637995 -0.084321804 -0.26972073 -0.08246139 0.32587898 0.4007313 0.11704681 0.12908222 0.115138106 -0.07186222 0.12727809 0.12723942 0.026895074 -0.2153721 0.18400714 -0.24284238 0.10825407 -0.15538685 -0.22830701 0.0739057 -0.19495788 0.030316228 0.16077666 -0.32737616 -0.09375035 0.049085706 -0.04933662
60 0.1406907 0.3027452 -0.022387937 -0.1627651 0.05069979 0.10805525 0.05752525 0.23050474 -0.07627669 0.21772356 0.1703958 -0.11260766 -0.044005 0.016741587 0.048973896 -0.2652509 -0.15783486 -0.33003762 -0.07171856 -0.16522089 0.16600035 -0.032354612 -0.12510191 0.55951214 0.17090496 -0.0743294 -0.03055259 -0.055574045 -0.1773858 0.051237535 0.007225521 -0.17308426 0.054121245 -0.2347115 -0.007599183 -0.13633668 0.058065094 0.15469112 0.114803664 0.05530515 0.11608316 0.08161142 -0.14960708 -0.013223382 0.098507196 0.16133097 0.03748745 -0.0589914 -0.033244435 0.2941683 0.09510788 0.008441579 -0.022425452 -0.15396254 0.26248726 -0.13848133 -0.08555221 -0.19859989 0.033693545 -0.049692664 0.15642886 -0.024209423 -0.065784976 0.10753217 0.020399373 0.011641302 -0.12518258 0.076037206 0.107112564 -0.06508966 -0.09877938 -0.19932006 0.17020315 -0.2280849 0.1228985 -0.28165963 0.035514332 -0.08464811 -0.072043166 -0.19313379 0.052258562 0.13524157 0.03349955 -0.22178514 0.05395989 0.05468015 0.12137051 -0.05808097 0.06513301 0.13055658 -0.17672381 -0.17713748 0.093447044 0.20085207 -0.0030110043 -0.06397544 0.02580645 -0.08822119 -0.093173794 0.04562602 0.039104946 0.11214636 0.11117212 0.14063804 0.018424148 -0.08416866 0.13844891 0.083532274 -0.03700106 -0.019293552 0.12784332 0.09389837 -0.21754633 0.007627931 -0.043149613 0.071897835 -0.05775903 0.026226759 0.084073216 -0.031095391 -0.024074567 0.19823518 0.021726795 -0.23466808 -0.12567528 0.27278915 0.024882123 0.084526226
24 0.24730201 0.18990792 0.21836838 -0.18177515 0.06750031 0.233115 0.15707324 0.16149178 -0.011504338 0.22450873 0.25503704 -0.029640205 -0.079197414 0.34768584 0.13989481 -0.2193787 0.020359265 -0.09199118 -0.23855841 -0.112928376 0.21679702 0.028983666 -0.06643235 0.26403442 0.13461407 0.061244562 -0.017807707 0.03290651 -0.20601915 0.13923965 0.004274339 0.0312801 0.029925456 0.02699038 0.052598644 -0.034329712 0.012906543 -0.09539739 0.039405633 -0.36701816 -0.34026632 0.06693871 0.14717843 0.1455592 0.25592455 0.25453657 0.17108703 0.017448898 0.005726598 0.0331155 -0.003864309 -0.018939022 -0.045844056 0.23857275 0.05654144 -0.012339969 -0.017026184 -0.13476296 -0.10055759 -0.17198882 0.2705678 -0.04133421 -0.009777007 -0.119734064 0.08941659 0.19481695 -0.04607694 -0.05922712 -0.074454844 -0.17303221 0.01809139 -0.065238826 0.24420185 7.474591e-05 0.13662207 -0.042823378 0.2149721 -0.086035654 -0.16412207 0.114655316 0.1700383 -0.24875988 0.0277456 0.13151912 -0.27475592 0.08842601 0.10502771 -0.12745842 -0.042139877 0.055554595 0.10035577 0.25377163 0.23072705 -0.25267786 -0.37290397 0.18510538 -0.12482792 0.041906904 0.11796844 0.023756376 -0.02258564 0.0655253 0.043802433 0.10589683 -0.19307452 -0.15135024 0.2581499 0.31549677 0.21728398 -0.01303535 -0.17616709 0.13158756 -0.048111003 0.090058304 -0.06736962 0.049830876 0.013811643 0.15185606 -0.13842236 -0.005421433 -0.09593848 -0.08029386 -0.00069261744 -0.1366821 -0.063838795 0.2575749 0.083561614 0.23117413
2 0.21038991 0.11979921 0.1265939 -0.31051967 -0.042961016 0.17319886 0.11731689 0.26352632 0.06280237 0.24926448 0.12203288 -0.024908978 -0.028043926 0.11115607 0.2759984 -0.13459672 -0.0862978 -0.31278467 -0.3423567 -0.24662353 0.11484556 0.19180192 -0.09802077 0.26329294 -0.11895126 0.21377039 0.13982427 0.31505933 0.0040945914 0.16740341 0.27751023 0.08692894 -0.13969485 0.09778492 0.045035895 -0.15573609 0.24838422 0.05533357 -0.026639841 -0.14410819 -0.18033846 0.13988875 0.053558957 0.14549091 -0.14011121 0.30200896 0.2265858 0.013700866 -0.17318141 0.079307154 -0.04331408 0.28242993 0.061228354 0.08801083 0.007457892 -0.22260511 -0.1336442 -0.06913743 -0.124343246 -0.28707114 0.20902048 -0.20895983 -0.24770333 -0.011133381 0.09870239 0.02871995 0.06620514 -0.058621682 -0.20630251 -0.064749055 0.12237498 0.14979754 0.039415006 0.067834914 0.3113621 -0.07317949 -0.06793429 -0.22788349 -0.19398738 0.044936962 0.26678836 -0.2132302 0.14577782 0.09601863 -0.15133399 0.22045663 -0.0017615333 0.14594068 0.008687982 -0.12592866 -0.13736695 0.34235653 0.1965692 -0.10417637 -0.14146933 0.26619792 0.11271358 -0.13831978 -0.057023663 -0.11713604 0.14536631 0.0018802788 0.08082397 0.06828782 -0.15733114 -0.09030923 0.3608413 0.118528105 0.18257251 -0.18123062 -0.06745615 -0.057211466 -0.14216143 0.06082133 -0.045483902 0.06040632 -0.2735903 0.11024872 -0.07713966 -0.2725106 0.01043727 -0.39294967 0.059667166 -0.20033658 -0.055305317 -0.03313053 -0.038149185 -0.020054862
66 0.077411994 -0.06864503 0.29138002 -0.1851805 -0.015466422 -0.23917995 0.18683198 0.20491444 0.39832145 0.23089823 0.34300488 0.037474632 -0.09213565 0.25986552 0.5329585 -0.05997176 -0.20375463 -0.0008125568 -0.11703083 -0.027493212 -0.12209498 0.056870896 0.21713252 0.008310451 0.25972164 0.28209928 -0.19408976 0.2597015 -0.07962537 0.071582735 -0.0787051 0.0043901 -0.22430441 0.20604342 0.0426386 0.023382166 -0.0081913695 -0.27993426 -0.2642171 0.35423744 -0.017096035 -0.047139347 0.31585133 0.0045363917 -0.0060923053 0.4835692 0.14677009 -0.03811708 -0.20448181 -0.054664027 0.1404433 0.2951805 0.03749238 0.14713413 -0.42050633 -0.038939424 0.063891605 0.2671177 -0.39373094 -0.24676771 0.15147015 0.010667199 -0.21711549 -0.11844098 0.27000257 0.21123026 0.003790401 -0.23373403 0.17469047 0.06447831 0.025047394 -0.17231968 0.58189297 -0.19129114 -0.02105301 -0.45260337 0.056068916 -0.064537 -0.16784984 0.18944085 0.33968696 0.08521175 -0.08111839 0.033704042 -0.49474466 -0.07877483 0.18099394 0.08403722 0.13225593 -0.0003330006 0.1544614 0.42217377 -0.050574135 0.24630864 -0.6674707 -0.010568049 0.1713515 -0.28032702 0.048146162 0.32284036 0.085261874 -0.01269259 -0.14950672 -0.25194567 0.03406724 0.33442998 0.1599891 -0.17626913 0.45118666 0.07521695 -0.18569551 0.13869931 0.20598334 -0.00037995353 -0.1525228 0.19259696 -0.25985923 0.12317116 -0.08313809 -0.37401584 -0.12415925 -0.30161273 0.14034306 0.41274846 -0.2901137 -0.25949615 0.15680917 -0.11851602
25 0.16289246 0.086888485 0.09053661 -0.25882906 -0.009184401 0.19377622 -0.02555849 0.18312018 0.055209726 0.16649984 0.099520884 -0.08673792 -0.015011198 0.043513697 0.19268966 -0.053173862 -0.023962885 -0.2110259 -0.17564131 -0.33339906 0.26416352 0.057151962 -0.027833546 0.32259098 0.13319294 0.049244743 0.1825265 0.22004493 -0.030945186 0.13801032 -0.056115124 0.06551344 -0.07736858 -0.07520505 0.14248946 -0.16561963 0.05269101 -0.041472875 -0.16337667 -0.31437466 -0.046686433 -0.10604482 0.004254607 0.11733958 0.07982167 0.19549322 0.122011036 0.16877939 0.035393063 0.11206692 0.14020066 0.055238087 -0.111408554 -0.025277445 0.06470315 -0.10815357 -0.10481518 -0.08094216 0.019735435 -0.15937518 0.15978573 0.037783794 0.06610521 0.01550266 0.09324324 0.20871033 -0.114256985 0.23159882 -0.24702924 -0.1461977 0.04878844 0.11212856 0.13372988 -0.03114546 0.25345686 -0.24623641 0.22745629 -0.10900069 -0.2993588 0.03219278 0.11772932 -0.21045798 0.11752538 -0.0362067 -0.1148775 0.047533873 0.16214937 -0.09534076 0.04494699 -0.08445606 -0.22406678 0.16222247 0.35915384 -0.20183805 -0.38627845 0.093202665 0.08394475 0.014729096 0.021234766 0.08040163 -0.16023447 0.17308204 0.043537613 0.024573285 0.00038012915 0.02017511 0.19287446 0.12199806 0.04390915 -0.10739983 0.12822446 -0.037881065 -0.24804889 -0.17046757 0.032829884 0.12948668 -0.023486571 0.15665409 -0.013849701 -0.22008218 -0.01785831 -0.10901868 0.06893043 -0.31812295 -0.26392862 0.2266641 -0.03628329 0.11837353
4 0.10180053 0.16423519 0.31948185 -0.33640817 -0.044163577 0.22500649 0.09644187 0.19646385 -0.02070351 0.3984985 0.24138553 0.014742037 -0.1360251 0.20737801 0.19331296 -0.11288843 0.114061885 -0.13629197 -0.20824382 -0.35864303 0.19802393 0.21264532 -0.17046475 0.26522058 0.13417296 0.03685784 0.44746557 0.25074044 0.0661718 0.15759413 0.022830155 -0.104393244 -0.040152285 0.072158694 0.20559035 -0.029596645 0.059447274 -0.11588086 -0.046439964 -0.427186 -0.06793775 -0.10117927 0.3293531 0.21397126 0.09240678 0.08364945 0.05125996 0.17269368 -0.008646236 0.1090278 0.21357875 -0.113896824 -0.09783904 0.13184279 -0.025160514 0.08217357 -0.13895418 -0.14129461 -0.1331665 -0.17850377 0.085144386 -0.07810345 0.05954829 -0.07458248 0.20572773 0.06586728 -0.21164136 0.04993965 -0.2897443 -0.22510739 0.25380653 0.30910853 0.07086267 0.15024984 0.50902337 -0.009985704 0.26866883 0.024612464 -0.24263512 0.20817393 0.0061216885 -0.43762293 0.13837464 -0.06018381 -0.123418644 0.1822872 0.21264769 -0.3114689 0.12975772 -0.05034577 -0.02910269 0.26622975 0.35840693 -0.29943874 -0.3851458 0.2161928 0.0333232 0.19835399 -0.07109191 -0.22225901 -0.13665766 0.085126266 -0.097217366 0.14703567 0.10072064 0.16756606 0.1365845 0.04184569 0.2541954 0.034839943 0.23791026 0.018643493 -0.1507614 -0.07401859 0.12551844 0.24957733 -0.073093 0.112714656 -0.046434898 -0.16427098 -0.07937825 -0.26772505 0.18076284 -0.20309414 -0.04709724 0.10356564 -0.0012529852 0.1686424
61 0.09603078 0.030402113 0.56668 -0.27161527 0.13012218 -0.21229629 0.25628412 0.10342065 0.37372938 0.26254067 0.6051086 0.10239755 -0.3801279 0.45569715 0.6199935 -0.18323852 -0.38075602 -0.08834347 0.047490742 -0.11842986 -0.14176351 -0.14038906 0.103786156 -0.015710989 0.49588895 0.028427375 -0.1672197 0.13715738 -0.035236247 0.15469457 -0.19274305 -0.20404258 -0.11726941 0.24518672 -0.081830755 0.044458166 0.14235456 -0.24797063 -0.23568913 0.35243204 0.21034424 -0.10000241 0.3236393 -0.011598269 0.043601096 0.7489007 0.15961424 -0.038318817 -0.24558038 0.04614616 0.32396433 0.10555758 0.16055587 0.12410397 -0.28665206 -0.023667788 0.06829177 0.19023849 -0.46686968 -0.3965749 0.050666638 0.17002751 -0.10208081 -0.0663252 0.34509453 0.23527446 -0.35299248 -0.4188453 0.31746018 -0.12489265 0.118904814 -0.2806752 0.38730004 -0.1442119 0.25090662 -0.36965358 0.07970625 -0.16216214 -0.13989389 0.20236479 0.08265009 0.17648387 -0.2615152 0.06640833 -0.41565734 -0.30987749 0.35734838 -0.19345418 0.057659585 0.08009992 0.10258991 0.35574314 -0.08185156 0.2604442 -0.6101893 0.004563359 -0.031625308 -0.16637614 0.2592902 0.27784085 0.08902816 -0.07682198 -0.08433907 -0.3137771 0.107431285 0.27296326 0.24273597 -0.05542839 0.2816372 -0.028944854 0.03408279 0.014639143 0.16274267 -0.09278079 -0.39502588 0.13887087 -0.31803972 0.24220563 -0.10757477 -0.18062428 0.00049943256 -0.2829153 -0.007563731 0.27355528 -0.27039382 -0.37030733 0.28230432 -0.16720384
23 0.21222714 0.14910962 0.036399446 -0.093272604 0.10203807 0.13504454 0.08658395 0.18932496 0.20393245 -0.009381565 0.1690974 -0.15589224 0.12714939 -0.05152249 0.12280452 -0.10440495 -0.04735473 -0.060947776 -0.15612201 -0.22444157 0.23770289 -0.059382442 0.06564675 0.16614668 0.05437006 0.031887293 -0.0021525843 0.047520358 -0.038574383 0.18818139 -0.17950839 -0.0673603 -0.033017203 -0.12973183 0.063856974 -0.10919636 0.11454397 -0.0031203998 -0.226415 -0.12714441 -0.024785252 -0.08323378 -0.019544482 0.024935056 0.012906769 0.11856654 0.09420321 -0.000337777 0.077664085 0.1190463 0.020993588 0.09296182 -0.031353183 -0.104864426 0.063366346 -0.1970654 -0.018933605 -0.0013797148 0.073564 -0.11120672 0.12328115 0.027261239 0.011404036 0.026033891 0.1008655 0.090333395 -0.010999737 0.06177576 -0.09743555 6.445451e-05 0.039686196 0.11262297 0.047773022 -0.080835216 0.104618244 -0.16355844 0.030211266 0.048841484 -0.18014555 0.022475718 -0.07092083 0.05537701 0.013443751 0.061584733 -0.18235879 0.067407966 0.053305283 -0.06783655 -0.090607494 -0.10205532 -0.076147676 0.055390395 0.12959951 -0.11191357 -0.27073616 0.0149721205 0.028672004 -0.25272578 0.28302643 0.17259571 -0.18852635 0.16827238 -0.034671303 -0.009871702 -0.025451522 -0.09176073 0.25043437 -0.003907699 0.08558344 -0.1535109 0.119111635 -0.14854406 -0.09724678 0.0052404916 0.040354118 0.08743968 -0.21653977 0.14064501 0.114443 -0.20912693 0.038797665 0.032672897 0.03343974 -0.31944606 -0.28104505 0.10565951 0.12173845 0.043859687
