62 128
32 -0.19258085 -0.17692089 -0.18741223 0.06454627 -0.20146593 -0.2731946 0.0016812241 0.05124368 0.20427305 0.11105778 0.28907737 0.5010887 0.042577207 0.19885759 0.10218028 -0.1349119 0.13674979 0.004804586 0.06595061 0.07138593 0.19839396 -0.039509162 0.012209248 0.11121363 0.24435428 0.06529123 -0.04742546 -0.050773498 -0.055356074 -0.02070358 0.0014433905 0.0028652628 0.037122466 0.067605555 0.2022227 -0.18446544 0.1377589 0.00081765314 -0.020068463 0.23645651 -0.09101326 -0.11306757 0.120885216 0.09656989 -0.19858894 -0.22307935 0.16033134 0.1306687 -0.13710868 -0.2707954 -0.060962092 -0.09910251 0.20765719 -0.12201486 0.0025577936 -0.334516 0.008250437 0.0315118 -0.124539666 -0.21738654 0.22836559 -0.30811346 0.252058 0.097846396 -0.13223344 0.16457637 -0.16392733 -0.046366293 0.044410765 -0.15818192 -0.3756851 -0.016114095 0.07248741 -0.31953347 0.21484101 -0.0099753365 0.03972087 -0.13311914 -0.27742338 -0.27806687 -0.12883532 -0.16144156 0.13227236 0.08193175 -0.22274193 0.06542648 0.39213082 -0.11383854 0.2829073 0.1089204 0.0074464055 -0.2183624 -0.1367719 0.06491006 -0.29323527 -0.3529186 0.0077041313 -0.18460964 0.19671921 0.24342859 0.17955793 -0.16044256 -0.20601636 -0.16028664 -0.12143472 -0.08046419 0.17081507 -0.14414547 -0.04951302 0.2166123 -0.08562594 0.16783802 0.29688218 -0.042140022 -0.0062040635 0.18793303 0.1255007 0.39814585 0.06806748 -0.19924444 0.4261835 0.18596469 0.19470155 -0.28315485 -0.4792844 -0.10101986 -0.22742182 0.57037884
31 -0.12780726 -0.21692207 -0.13921994 0.21229099 -0.08070947 -0.28500354 -0.07333017 -0.079344414 0.2887807 0.09233995 0.34435263 0.51687044 -0.096607186 0.28162342 0.04826251 -0.17621739 0.17457834 0.059031278 0.11852509 0.13330963 0.11094832 -0.07094454 -0.14802462 0.05604738 0.38352963 -0.043664236 -0.011773177 -0.111429974 -0.13502994 -0.036936685 -0.012630788 -0.0003388444 0.049958892 0.031807594 0.18966173 -0.09413517 0.18275224 0.030455872 0.10759575 0.38369232 0.017900953 -0.09741262 0.11337192 0.079946056 -0.19674045 -0.36837253 0.08806322 0.116780005 -0.1894862 -0.16758418 -0.08081977 -0.10134647 0.23723602 -0.10372179 0.1341244 -0.30444705 -0.03672984 0.057804044 -0.07768142 -0.30003455 0.07973323 -0.3783521 0.38186395 0.076212734 -0.17449647 0.12964472 -0.19317877 -0.16672282 0.12240196 -0.20036688 -0.36910406 -0.081956975 0.03877147 -0.31444433 0.1863858 -0.029642692 0.041332316 -0.1272566 -0.19943297 -0.27631795 -0.101797275 -0.09614108 0.0702935 0.058017895 -0.21682096 -0.011225817 0.34169382 -0.065688364 0.2842481 0.09481746 -0.12940383 -0.20203039 -0.05643444 0.11280165 -0.2218229 -0.2749789 -0.024392873 -0.045397542 0.16508143 0.28499323 0.19680044 -0.032603804 -0.21956721 -0.1884464 -0.16119987 -0.14737794 0.1237202 -0.19200075 -0.07169122 0.17613493 -0.11356534 0.07491184 0.2645249 -0.08510666 0.05737974 0.22544706 0.07394607 0.48924157 0.05887755 -0.017876279 0.38079318 0.20739067 0.14974643 -0.21866742 -0.4306083 -0.081703104 -0.19372162 0.4608717
62 -0.2907365 -0.2267666 -0.22299078 0.112116426 -0.1423379 -0.2716695 0.05237476 0.054916352 0.20391813 0.07106181 0.39185986 0.52145636 -0.058522724 0.29875144 0.102842 -0.25688162 0.103346154 -0.1173456 0.00549132 0.11354341 0.3326678 -0.023272332 -0.01864913 0.22877434 0.32094458 0.049422678 -0.07194664 0.0055929096 -0.07647657 -0.035813037 -0.017804883 -0.049942125 0.08104355 0.10875052 0.18530765 -0.16557655 0.10024874 0.015388328 -0.0059214006 0.30756918 -0.07952672 -0.09074394 0.11202909 0.09456732 -0.1315823 -0.26959652 0.09342017 0.053119823 -0.19519736 -0.17634808 0.009461431 -0.06312538 0.14710547 0.10021733 0.02908209 -0.2010545 0.0034730618 0.040245023 0.021968389 -0.13792495 0.08988925 -0.2823287 0.23541118 0.02938023 -0.16291799 0.12887043 -0.1293311 -0.055927515 0.085445344 -0.20017731 -0.3517012 -0.0035004593 0.035462536 -0.28499544 0.23549958 -0.02459987 -0.058395166 -0.26168674 -0.31879482 -0.25430644 -0.09215575 -0.07233146 0.048108056 0.16865271 -0.23058553 -0.013996707 0.41725653 -0.033285506 0.27401772 0.0756716 -0.021798529 -0.33671933 -0.11175002 0.10826155 -0.22552459 -0.21688478 -0.007972849 -0.18333133 0.27621338 0.2904317 0.10647711 -0.08853756 -0.25666526 -0.107315704 -0.117086776 -0.1098657 0.15735994 -0.2004142 -0.066248365 0.2083457 -0.05487257 0.15406698 0.31216764 -0.1460366 0.07323868 0.17974363 0.15050146 0.3250008 0.1362772 -0.19218513 0.3762853 0.21980767 0.2068107 -0.2745709 -0.4727144 -0.098645 -0.21547286 0.49809164
61 -0.22310954 -0.22277656 -0.10626221 0.10060864 -0.1404775 -0.22727787 -0.021101132 -0.045054313 0.2922343 0.1074003 0.32900602 0.56399304 -0.07405071 0.25474963 0.01903759 -0.20985334 0.103468366 -0.1026438 -0.06589673 0.014276087 0.18253718 -0.03698901 -0.01595033 0.14018899 0.3653991 -0.06873677 -0.020659767 0.018041674 -0.08594723 -0.045545716 -0.0405401 -0.053303096 0.031478412 0.064540125 0.20622475 -0.086437635 0.091074325 -0.096218444 0.13657324 0.27948114 -0.06136757 -0.10523473 0.17650059 0.037952192 -0.24246784 -0.28308 0.04211731 0.1353562 -0.15771753 -0.184354 -0.030278865 -0.04811924 0.20458232 0.067700334 -0.02295159 -0.2599313 -0.030916434 0.03901124 -0.13687214 -0.22878517 0.050412603 -0.36346093 0.2536107 0.035875417 -0.15011415 0.15408245 -0.14589743 -0.13574752 0.04196124 -0.20679474 -0.41842335 -0.006088709 0.097427554 -0.2311118 0.20380816 0.018527698 -0.010833351 -0.19020322 -0.25707585 -0.20729224 0.033705167 -0.1511241 -0.028794715 0.04473038 -0.23083751 0.011535589 0.34916383 -0.14219613 0.2699725 0.044867195 -0.0853336 -0.24808237 -0.0068035508 0.07039176 -0.16854447 -0.2161056 0.055021018 -0.18415488 0.2143081 0.27511182 0.10236701 -0.16394123 -0.25023115 -0.1369481 -0.10633176 -0.121153764 0.15669863 -0.19353642 -0.13795976 0.16765879 -0.15277033 0.16124779 0.35730785 -0.16406731 0.07170949 0.16787429 0.08609256 0.34467104 0.020959727 -0.242586 0.29268813 0.2524725 0.23549414 -0.26562497 -0.38163495 0.009905076 -0.2576685 0.5097924
60 0.45165953 0.07989717 -0.08906646 0.2603613 -0.019980038 0.30595157 -0.11685551 0.2115005 0.34308192 -0.068477124 -0.112391405 0.16325262 -0.04005744 0.2257927 0.012698705 0.16012107 -0.62625194 -0.762681 -0.3578055 -0.013908761 -0.011175304 -0.11115651 0.109465644 -0.019657532 0.011195084 -0.22299625 0.029358536 -0.051940113 0.097857624 0.019964825 -0.15051867 -0.3522044 0.19925173 -0.3075985 -0.21657011 -0.0030570899 0.46032465 0.4619189 0.10399364 -0.066642426 0.114882946 -0.056677148 -0.30116844 0.13032377 0.084197156 0.3169143 -0.18192326 -0.030176878 0.2363132 0.30961105 0.042312358 0.13282992 0.19494054 -0.07935182 0.091223314 0.2729752 -0.12563258 0.15393768 0.5022669 -0.0029157237 -0.014051042 -0.22305024 0.16981918 -0.17371091 0.08071197 0.2007887 0.13520189 0.10095718 0.28012833 -0.056354325 -0.051455438 -0.0778571 -0.27949005 0.0028403234 0.38479468 0.5461817 -0.39612186 -0.3924031 0.08719653 0.14182167 0.31311768 0.29473445 0.0688934 -0.25282055 -0.47796193 -0.12842044 0.077784 0.12909824 0.17442648 -0.5110451 0.15234725 -0.15547962 -0.14501096 0.2364126 0.27020386 0.59125763 0.17495313 -0.13308781 0.17413661 0.15773235 -0.15746394 0.2792241 0.07196623 0.27524886 -0.56992614 -0.1446248 -0.30515945 -0.24517073 -0.20709424 -0.37725356 -0.1406656 0.1979733 -0.22318126 0.1215711 -0.030377477 -0.04673691 -0.37709695 0.064774275 0.08669735 -0.44748488 -0.22409074 0.4135902 0.32006484 -0.4186385 0.012737445 0.006067184 0.19184619 0.30116236
59 0.39139375 0.01902159 0.0047365534 0.157509 -0.103743955 0.22319981 -0.08758309 0.1397983 0.33232147 -0.05926802 -0.09501334 0.27840942 0.009564268 0.12986846 -0.030750422 0.024998844 -0.4874808 -0.6901442 -0.30629328 0.0238199 0.103967614 -0.10726129 0.060072828 -0.097401224 0.08754507 -0.24086817 0.022502037 -0.17591757 0.11768747 -0.092679195 -0.21476467 -0.29352033 0.19167848 -0.43135542 -0.2883092 -0.0773486 0.5303325 0.4451967 0.05554036 -0.1544016 0.14210737 -0.07036072 -0.36816964 0.28002253 0.1374595 0.33356744 -0.10734328 -0.13453078 0.22901684 0.30617383 0.0088170245 0.13632165 0.18738443 -0.20087752 0.17058846 0.3267336 -0.17922384 0.20273735 0.5347573 0.0012070767 -0.07252287 -0.16217981 0.29685247 -0.1798684 0.23857063 0.15051322 0.12184693 0.031163339 0.33574083 -0.1499187 0.028040506 -0.16700251 -0.20121738 -0.05048515 0.27504134 0.51405674 -0.28130618 -0.36479083 0.1580465 0.13804999 0.2871548 0.2706779 -0.0050049517 -0.14639397 -0.60684687 -0.2039775 0.06418611 0.14191146 0.14328757 -0.45190263 0.13313757 -0.16132697 -0.066197276 0.2682574 0.24586879 0.44049388 0.06745872 -0.11794822 0.10274771 0.034860615 -0.08833548 0.30807683 0.16287142 0.25678948 -0.6172255 -0.1869297 -0.3492102 -0.28498846 -0.17766608 -0.38890156 -0.14885911 0.16781086 -0.17263108 0.09081468 0.071079925 -0.022699708 -0.39958835 0.048142504 0.16107774 -0.2985847 -0.3246577 0.36406356 0.17712042 -0.3595673 0.002394462 -0.022764778 0.25855237 0.26377898
30 0.42830166 0.08653681 -0.03655398 0.30319247 -0.035766564 0.36342466 -0.1038634 0.15571222 0.3298295 -0.013188599 -0.13517843 0.09391071 -0.03837818 0.1387678 -0.029151713 0.12619808 -0.5340218 -0.707696 -0.3230841 -0.04277665 -0.052256458 -0.0875777 0.050923258 -0.09950317 0.023639273 -0.2923638 0.07793463 -0.10885862 0.07486044 -0.06985997 -0.21047139 -0.34765568 0.19588855 -0.42634818 -0.28407174 0.0056547904 0.5426577 0.5572659 -0.021559391 -0.15347819 0.17109308 -0.03280495 -0.33117965 0.22050339 0.15230547 0.34626043 -0.053903885 -0.02766294 0.2372625 0.3524276 0.02984723 0.20712855 0.22283438 -0.22113004 0.18057418 0.3098226 -0.17918478 0.22171801 0.5393842 -0.087170936 0.0038105615 -0.1872137 0.19883162 -0.14668798 0.14994355 0.16510175 0.019456424 0.04019442 0.3112741 -0.19378531 -0.021550367 -0.16253194 -0.1938825 -0.07170076 0.34801328 0.44272614 -0.35889104 -0.3425815 0.093109 0.12676415 0.30286956 0.25832945 0.022631448 -0.17946239 -0.5346124 -0.2017719 0.07903036 0.16696946 0.16392143 -0.36486837 0.03212108 -0.114460625 -0.09630198 0.23682316 0.31116113 0.5113147 0.18159437 -0.1446488 0.094082855 0.09495999 -0.11658185 0.39470682 0.15019724 0.27963924 -0.6739689 -0.14144714 -0.2915647 -0.30088353 -0.20421857 -0.36997432 -0.10687283 0.1995753 -0.16456866 0.16440181 0.07065302 0.019607069 -0.41124317 0.123485886 0.12770005 -0.33696538 -0.24456042 0.4215053 0.21249205 -0.34085768 0.040220022 0.00796695 0.24685527 0.30167773
29 0.42836258 0.095598735 0.03162631 0.1557681 -0.041049436 0.21879214 -0.133876 0.07852311 0.33516908 -0.08717239 -0.10144016 0.23514143 -0.012019086 0.12834021 0.0360708 0.08996887 -0.5600558 -0.7288916 -0.23440681 0.023597227 0.04037266 -0.13001947 0.088114694 -0.0999911 0.023974176 -0.23261645 -0.0024235807 -0.18395318 0.15267617 -0.083542705 -0.17118683 -0.29459134 0.154747 -0.47427586 -0.22328396 -0.011854974 0.53254163 0.49635008 0.06597768 -0.25917196 0.17931254 0.0049050692 -0.34658697 0.20628674 0.19075438 0.37378 -0.10058746 -0.037320092 0.2552154 0.33188662 -0.03176982 0.12460947 0.22901917 -0.2229503 0.14624782 0.37076366 -0.018998725 0.22032401 0.58728236 -0.07598872 -0.06633507 -0.1859661 0.25459674 -0.13370009 0.12139281 0.1792856 0.012987258 0.09375909 0.35456374 -0.12980725 0.016743032 -0.14440693 -0.2878659 -0.099711016 0.39098272 0.5255037 -0.32369053 -0.41146356 0.12838657 0.115330756 0.21346718 0.26366106 0.055811353 -0.26211047 -0.5651531 -0.2320547 0.10413673 0.11179006 0.18296532 -0.47527453 0.114608705 -0.146485 -0.096357316 0.29761645 0.31394932 0.5246848 0.051860202 -0.084859885 0.041738253 -0.01221712 -0.08856994 0.3459049 0.119520836 0.26747912 -0.6628272 -0.1068179 -0.3768232 -0.22374275 -0.22560139 -0.3656113 -0.041299213 0.24588583 -0.22522683 0.17627928 0.008678003 -0.034077205 -0.32360184 0.091119595 0.098476306 -0.37254336 -0.3101788 0.4456241 0.23242296 -0.5060348 0.035752095 0.009196708 0.2643938 0.3261151
41 0.23860411 0.024387922 0.01816183 0.17776507 0.55366564 -0.31410253 0.46308357 0.06444768 0.4366387 -0.42355257 -0.2114255 -0.028884713 -0.13093033 0.19933283 0.08313275 0.41792008 -0.13689455 -0.39339986 -0.15056728 0.48822343 0.05110952 -0.27614623 0.3489484 -0.15479754 -0.01965027 0.012301774 -0.50023824 0.03781941 -0.15807487 0.14111751 0.059971668 0.08484237 -0.05605795 -0.2112375 -0.151007 0.13232666 0.42252418 0.08636796 -0.35549554 -0.04594594 0.6414246 -0.27117193 -0.32274994 -0.16201386 0.028478846 0.33055568 0.37155327 0.4635299 0.21229185 0.46575072 0.16600685 0.19940563 -0.05837503 -0.6840428 0.33408237 -0.2621183 0.24098912 0.6853587 0.07690215 -0.66377753 -0.042483963 0.045146383 0.23211758 0.5684788 0.19502725 0.3507116 -0.22807693 -0.27806315 0.2105667 -0.09449536 0.12989725 0.042342443 -0.2342572 -0.08045692 0.4213489 0.2569945 -0.21214683 -0.16974868 -0.002714018 0.341649 0.08473203 0.31457594 -0.021560634 0.18714018 -0.11947258 -0.12279271 0.10220904 0.17953661 0.4465707 -0.3627647 -0.060097404 0.030981988 0.17021284 0.34062985 0.0082119685 0.38655826 0.1595677 0.23225042 0.2533837 0.13378483 -0.23321731 -0.09353085 -0.16555163 -0.15511298 0.14362678 0.08685391 0.3469795 -0.53544396 -0.41520503 0.3508881 -0.17434333 0.38430533 -0.09687659 0.24008067 -0.12491289 -0.08568938 -0.19743533 0.122702874 0.40781754 -0.38658857 -0.16068669 -0.027332982 0.108482294 -0.25181094 -0.311256 0.01212812 0.02125282 -0.165978
42 0.24557091 0.06953179 -0.008718027 0.1854905 0.5832474 -0.34744394 0.38111556 0.12778498 0.376784 -0.22976679 -0.117454566 0.03039949 -0.11573346 0.2555859 0.05281941 0.38706213 -0.08683968 -0.30939424 -0.10573334 0.49246326 0.013283526 -0.2825917 0.36560515 -0.093432 0.08951804 -0.06628054 -0.55959517 0.06388429 -0.18875878 0.18552954 0.047755416 0.051460147 0.013515201 -0.1932793 -0.110918015 0.13263 0.38459933 0.12460656 -0.37445554 -0.015592233 0.58912075 -0.27368364 -0.40292066 -0.2265592 0.033454563 0.3192867 0.36491746 0.49759012 0.22704373 0.4376399 0.17772526 0.23895851 -0.054823264 -0.6777742 0.37088785 -0.17817746 0.15881501 0.67241025 0.09655907 -0.63285184 -0.04016763 0.052314382 0.19218285 0.60265416 0.1843466 0.34227386 -0.32564598 -0.3360269 0.31736758 -0.102063805 0.047541846 -0.0149109 -0.15260832 -0.13686354 0.35098442 0.26119757 -0.29735798 -0.09302126 -0.030794354 0.30194315 0.05205817 0.35319325 -0.059952796 0.20718525 -0.07928193 -0.113728955 0.17526084 0.20287481 0.4166343 -0.24793734 -0.0978939 0.017045077 0.16173504 0.36163455 0.033890225 0.27112663 0.15514508 0.22897606 0.2575388 0.08445804 -0.2259822 -0.04639122 -0.2218013 -0.12364616 0.18140064 0.0819163 0.43293205 -0.49405235 -0.41830072 0.43783492 -0.1305623 0.35047945 -0.024428517 0.29016057 -0.09205505 -0.03820427 -0.29938826 0.1123022 0.41850328 -0.38072503 -0.06886832 -0.033634257 0.12583216 -0.1197119 -0.23398352 -0.046248946 0.02416632 -0.1321919
22 -0.29584605 -0.13039081 -0.11718101 -0.06755195 -0.22251014 -0.26581222 0.5107047 -0.08442823 0.38460338 -0.1641856 -0.13311677 0.44805053 0.15248932 -0.0081698755 -0.18249401 0.06390601 -0.12604351 -0.17437056 -0.100027114 0.21519317 0.18356171 -0.3152051 -0.0059092375 0.16629462 0.008440886 0.20763355 -0.1149143 0.19838491 0.18387643 0.027927073 -0.06113739 0.16755986 -0.21840861 -0.21412584 0.214212 -0.015598606 0.19380333 0.01977386 0.0648976 -0.23211184 0.2090784 -0.091822684 -0.026802337 0.030582152 -0.01785234 0.084916465 0.07451136 0.16789041 -0.063502096 -0.016824158 -0.07697084 -0.22916424 0.029342212 -0.63862324 0.24809526 -0.4280679 0.43496966 0.13086407 -0.1892194 -0.50949293 0.14349683 -0.22559749 0.084150895 -0.03963065 -0.22089136 0.116226934 -0.107526645 0.2440007 0.035504613 0.32231376 0.027590215 0.03168404 0.09043777 -0.06560294 0.41072965 -0.1096444 -0.17748655 0.0914136 0.0669944 0.04560592 -0.07505435 -0.11771216 -0.02518148 -0.23165187 0.049974978 -0.18142977 0.2581365 0.044732306 -0.17200617 0.164242 0.2305296 -0.008911145 -0.41324946 -0.093618825 -0.5135808 0.009390507 0.006881093 0.051908366 0.28557354 0.6588429 -0.0047139465 0.17536885 -0.0852015 0.06296059 0.25449154 -0.2183859 0.32722345 0.287855 -0.06356222 0.43841898 0.27092344 -0.18123324 0.049774405 0.18308751 -0.46216714 0.15935709 -0.41296488 0.43826646 -0.12907155 0.013170998 0.1634951 -0.12641229 -0.14674525 -0.15864936 -0.08462683 -0.07787196 0.16866627 0.3312572
21 -0.26546538 -0.15003382 -0.11709217 -0.07873499 -0.327539 -0.2699485 0.506815 -0.09775249 0.40801975 -0.11898603 -0.054564398 0.44047305 0.15653172 -0.017981151 -0.123607166 0.007397882 -0.05456847 -0.15099894 -0.09809897 0.13885455 0.25547522 -0.32351622 -0.064785875 0.22224225 0.046037506 0.2283434 -0.04485872 0.16780263 0.15804555 0.05413013 -0.023038644 0.18318945 -0.19142467 -0.16601644 0.25627014 -0.13054837 0.17025082 -0.017653622 0.12642266 -0.19528909 0.26474315 -0.12301361 -0.08591746 0.081266336 -0.15049747 0.04743068 0.054063685 0.17319736 -0.018518344 -0.020111142 -0.1358173 -0.18149433 0.046997312 -0.7009725 0.27278572 -0.4334301 0.39849898 0.035941813 -0.24109821 -0.41947085 0.061162047 -0.20480022 0.14936844 -0.053817302 -0.18793611 0.08051906 0.0028921997 0.22600481 -0.07352227 0.32592928 0.06834246 0.087158225 0.025814293 -0.0322888 0.4104451 -0.0647918 -0.1892109 0.027257252 0.11884025 0.016076868 -0.06240301 -0.10657707 -0.04650984 -0.13222642 -0.03378555 -0.2062685 0.21440431 -0.0038040413 -0.10670031 0.15019874 0.29158583 -0.014452033 -0.37872055 -0.08522874 -0.5648591 -0.13216774 0.040629245 -0.034154657 0.23731022 0.6029599 -0.010754642 0.07404229 -0.06783427 0.06266165 0.3249933 -0.30937347 0.2777261 0.19863382 0.0449712 0.3488489 0.21987769 -0.14697598 0.04250998 0.09664731 -0.5003686 0.12376449 -0.42780346 0.33923852 -0.10173357 0.05060123 0.14350533 -0.06605145 -0.09116679 -0.110126674 -0.11483061 -0.071705736 0.10776895 0.33926597
20 -0.39837113 -0.21340176 -0.10795833 -0.12695628 -0.26538363 -0.38970816 0.6379778 -0.012535472 0.3824372 -0.15192199 0.0012919934 0.5314865 0.17269996 0.009625685 -0.1911928 -0.038329255 -0.1779057 -0.21064222 -0.10985 0.107322544 0.2639356 -0.377303 0.056248974 0.23448868 0.10653247 0.20405349 -0.06149428 0.20822068 0.2050481 0.05788639 -0.030955339 0.09715529 -0.23434508 -0.27066904 0.38683066 -0.011760562 0.28859696 0.0004473084 0.10246533 -0.23400348 0.27077293 -0.19205506 -0.079570904 0.095352806 -0.08838468 0.0075500966 0.075299956 0.21344942 -0.015371197 -0.059698768 -0.13911358 -0.31572127 -0.018224303 -0.61157334 0.3153599 -0.39199734 0.4496638 0.095102005 -0.21148096 -0.40318954 0.07633467 -0.14370993 0.15931167 -0.09092933 -0.20538688 0.11007664 -0.076073796 0.24562475 -0.009355601 0.34127006 0.1109871 0.08787883 0.053231765 -0.03875429 0.3899657 -0.10058008 -0.24124835 0.057771854 0.08026832 0.07531125 -0.079042636 -0.0854897 -0.1451054 -0.13354982 0.056371685 -0.22685634 0.24111424 0.005941843 -0.22795701 0.12851165 0.22199781 -0.103879616 -0.29527235 -0.09366943 -0.4689578 -0.08031259 0.011213055 0.06590672 0.24776104 0.6909231 0.015541124 0.12689103 -0.13630472 0.14464918 0.36252478 -0.21262768 0.39578554 0.32030523 -0.009410588 0.4845968 0.3177673 -0.121371 0.1240322 0.13962333 -0.5217532 0.12752976 -0.46853063 0.45608315 -0.18741547 0.05891222 0.18618827 -0.08271082 -0.07643088 -0.13927962 -0.15831183 -0.072519824 0.14636092 0.43402013
17 -0.047696482 -0.17699441 0.2476534 -0.24443434 -0.333286 -0.47701383 0.41627714 -0.16490285 -0.04464137 -0.10494831 -0.19590276 0.08843105 -0.0136282705 -0.29107186 0.044483762 0.0020971615 -0.022311771 -0.1699656 0.17160755 -0.2237138 0.07443287 0.040587775 0.010179014 -0.16975136 -0.27262545 0.17861368 0.6071218 -0.30040613 0.222375 -0.06736487 0.023196751 -0.1032305 0.03387047 -0.084377095 -0.14173752 -0.12741823 0.1448895 -0.14079608 -0.024824725 0.07054063 0.564277 -0.35923466 -0.14008997 0.54484564 -0.18011704 -0.3552474 0.4456725 0.01739165 0.08073661 0.15513252 0.00493017 -0.30675095 -0.123264894 -0.5107712 0.18595573 -0.52330405 -0.03845046 0.13223065 -0.25714418 -0.050816588 -0.05844766 -0.011336795 0.4212154 0.14579596 0.076899804 0.2843069 0.2880715 -0.07431485 -0.4151626 -0.27608034 0.010186885 0.023353126 -0.2126929 -0.29024145 0.2108752 -0.08350557 -0.03354491 -0.3179622 -0.0759833 -0.50435185 -0.24650195 0.089838624 0.104453765 0.3302747 -0.3267847 -0.037216354 0.006796597 -0.08677293 0.76580983 -0.3038385 0.20895551 -0.11926316 0.027971534 0.4680421 -0.1912197 -0.39544722 0.18274328 -0.041212182 -0.049786676 0.36056852 0.27082986 -0.12969953 0.090904124 0.17883754 -0.16662914 -0.31571013 -0.0007587963 -0.42804906 -0.033466432 0.05448928 0.039781928 0.4761517 0.12863576 0.10932584 -0.1739292 0.16568618 0.0034172377 0.63973117 0.005402916 0.40719268 -0.0011658898 0.107160114 0.000253656 -0.27419817 -0.43521005 -0.039371323 0.16533068 0.3561313
35 -0.29055375 -0.04717072 -0.07685516 0.019687878 -0.13444933 -0.31414032 0.3340492 0.12990591 0.19760947 0.022656644 -0.1290442 0.69478667 0.3107843 -0.0628315 -0.09111678 -0.07889962 -0.45934978 -0.09216682 -0.21634719 0.21283841 0.24867316 -0.122372545 0.26113614 0.3479843 0.20556742 0.50734615 0.08664551 0.04329883 0.32140875 0.11517979 -0.02938129 -0.018973144 -0.16910228 0.17127575 0.17168057 -0.30548263 0.30758342 -0.33261445 -0.059004467 0.26226372 0.06280017 -0.28811544 -0.050170537 0.10279033 -0.18364783 -0.18938355 -0.056681555 0.04860215 -0.1968201 -0.2651241 0.18201374 -0.48791823 0.13523392 -0.51372755 0.35021484 -0.17489107 0.17507857 -0.027639696 -0.17799576 -0.21803245 -0.030543178 -0.2171003 0.15133673 0.0025066207 0.009113777 0.05153964 0.25410587 0.29684544 0.13702197 0.46483 0.18509877 -0.15767473 -0.103110544 -0.108430594 0.22742377 0.12676911 -0.22844337 -0.12485162 0.16997392 -0.03107217 0.11055745 0.04557713 0.001981128 -0.31498578 0.1668488 -0.12751098 0.27747008 0.39274383 -0.1325854 0.13217914 0.14983962 -0.23492423 -0.4873885 0.21719879 -0.34408423 -0.10900556 -0.12070943 0.04182043 0.40023035 0.8701931 0.02203078 -0.056192107 0.042197462 0.27061996 -0.020358048 -0.2503381 0.043374337 0.28353363 -0.26988092 0.14880514 -0.03995856 -0.09291562 -0.061909944 -0.11383222 -0.51160115 0.13841543 -0.25233907 0.25850102 -0.0053125867 -0.13943855 0.424229 -0.22716245 0.23962109 -0.067807965 -0.05171449 -0.20558402 0.023589088 0.27884346
37 -0.31634852 -0.055911902 -0.07362798 0.13086419 -0.109870486 0.016299158 0.29195178 0.13856433 0.30573142 0.047576617 -0.119935796 0.68461615 0.35444775 -0.104873955 -0.17994651 -0.118115954 -0.41493735 -0.06684519 -0.3033629 0.11856958 0.19675152 -0.13057609 0.22503422 0.25959685 0.17776449 0.3850176 -0.00737634 0.07183652 0.3221834 0.14371364 0.019787703 0.016188525 -0.12621574 0.12396134 0.15412809 -0.25803694 0.30866218 -0.25478545 -0.10848818 0.20410287 0.16284527 -0.19549398 -0.16902743 0.036107633 -0.24155074 -0.05409573 -0.045560792 0.14767192 -0.13856594 -0.32482684 0.076298445 -0.37135902 0.22121523 -0.5129421 0.32028413 -0.03930984 0.11656466 0.034595527 -0.19130188 -0.14641246 -0.0065328996 -0.1182055 0.13482428 0.038902678 -0.00794883 0.12884465 0.2562952 0.20788038 0.116623156 0.4334364 0.15207617 -0.10159064 -0.059669636 -0.07579475 0.20541449 0.13490623 -0.26524568 -0.11341251 0.19189832 -0.059898365 0.09451703 -0.04493479 -0.0924758 -0.14443956 0.153124 -0.15884297 0.2564555 0.36860275 -0.01184004 0.19219187 0.07058416 -0.14876916 -0.36254036 0.1860178 -0.3067691 -0.21163705 -0.0774937 -0.051318303 0.3005433 0.79744786 0.050544698 -0.067629516 -0.058046695 0.26594636 -0.023904076 -0.17071204 0.1731249 0.2296248 -0.3228665 0.18438953 -0.06420685 -0.06688175 0.13693991 -0.16804351 -0.4193749 0.11114412 -0.28130826 0.22157758 -0.05792003 -0.10337713 0.42868283 -0.24735557 0.20121604 -0.014534868 -0.11027967 -0.27151358 0.03363384 0.29913077
52 0.06673243 0.09483666 0.1434343 0.09274434 0.054950763 0.12088484 0.43384278 -0.0041813143 0.42527005 -0.19412614 -0.1917287 0.5789954 -0.0300788 0.09002908 -0.19302939 -0.10168594 -0.15997167 -0.25021026 -0.3052578 0.2709429 0.17562576 -0.20413968 0.015727688 0.009999783 0.14089584 0.3332318 -0.20868787 0.3042238 0.37801144 0.05739217 0.007790833 0.18845032 -0.0035138603 -0.032478914 0.21211684 -0.048116907 0.22638543 -0.015625412 0.12205794 0.16929175 0.33222875 -0.066885754 0.0029166737 0.27077195 -0.044061195 -0.3003884 0.10647245 0.087840885 -0.26069492 -0.00062902545 0.0030924294 -0.4010984 0.25729772 -0.4321889 0.3535023 -0.17832778 0.1473044 0.1094226 0.21751028 -0.4464356 -0.06655643 -0.14505556 0.047014914 -0.20073976 -0.156321 0.17788666 0.1733312 0.31787384 0.17713845 0.20262878 0.029922655 -0.044671364 -0.049235612 -0.19669023 -0.003999749 -0.15674056 -0.16207339 -0.05817003 -0.037054203 -0.29755223 0.019309843 -0.025788505 0.011020337 -0.090658456 0.18457589 -0.12815301 0.3253323 0.36009064 -0.2676115 0.3297781 -0.08314419 -0.08497914 -0.22189054 0.028909758 -0.384764 0.01612178 -0.08183585 0.25100896 -0.0047938013 0.4626769 0.17278108 0.3693082 -0.0981784 -0.107720815 0.038010586 -0.2028231 0.1982658 0.1050404 -0.46383882 0.16155672 0.11607845 -0.23630029 -0.07042508 -0.096907355 -0.1533506 0.042427752 -0.13848415 0.4415016 -0.058517314 -0.019454887 0.10862828 -0.012455702 -0.034095388 0.09107658 -0.23823376 -0.27238372 0.033582684 0.33756584
50 0.018875118 0.06028859 0.08743956 0.12780204 -0.08119111 0.1402463 0.38563818 -0.089897215 0.40206403 -0.19487582 -0.2227648 0.7650002 0.012680062 0.10450713 -0.32441825 -0.07088981 -0.1220247 -0.1283959 -0.32281944 0.35458857 0.121654674 -0.2670568 -0.144363 -0.057651248 0.16273482 0.34862465 -0.20173527 0.31192097 0.3803378 -0.016699003 -0.07135283 0.21393155 -0.010253104 -0.07233467 0.18537784 -0.0015468443 0.32654774 -0.050738443 0.1878966 0.14846833 0.36663702 -0.079443865 -0.05899704 0.24639724 -0.028503215 -0.27261811 0.04089829 0.01938885 -0.30595058 -0.07763945 0.030352633 -0.46382573 0.2934636 -0.64574254 0.45858416 -0.24567597 0.15627688 0.17488083 0.12406653 -0.57367295 -0.013538595 -0.25194457 0.1561846 -0.22914463 -0.1670227 0.16563784 0.18318436 0.29399332 0.19247037 0.2787615 -0.0321941 -0.09400461 -0.004284618 -0.17143522 -0.0027476298 -0.08755118 -0.1757428 -0.016011126 0.050173536 -0.23286206 0.10596742 -0.010828182 -0.004985211 -0.11326928 0.1611271 -0.16468444 0.30907685 0.43180352 -0.31307432 0.31212047 0.007072972 -0.08747702 -0.3631837 0.029725915 -0.4510368 -0.056361023 -0.07667726 0.24213661 0.08660439 0.6899449 0.22295082 0.41242522 -0.012397969 -0.10388879 -0.083309196 -0.37484905 0.17721549 0.038379043 -0.48513418 0.22062476 0.00915663 -0.315056 -0.030377068 -0.102815144 -0.19196759 0.12835671 -0.35618725 0.6437819 0.020986428 0.027990794 0.12769912 -0.016764278 -0.14171311 0.06185484 -0.28872773 -0.342468 0.10999649 0.44721082
5 -0.10446251 -0.16015737 0.21552289 -0.28522852 -0.430958 -0.43892565 0.34871823 -0.20965514 -0.11075961 -0.077087864 -0.19224659 0.14415176 0.1130904 -0.32346368 0.08419561 -0.03601545 -0.04918272 -0.11106348 0.22408588 -0.16114683 0.10960955 0.027297728 -0.013382739 -0.17988758 -0.32226497 0.22760385 0.51925755 -0.33175123 0.26389167 -0.09651273 0.011831684 -0.08393461 0.071139835 0.006130143 -0.2562157 -0.14041525 0.060628664 -0.07278752 -0.17855185 0.06567058 0.5159116 -0.37445086 -0.21986055 0.4857546 -0.131243 -0.24122006 0.5092058 0.0011956507 0.08575436 0.055016268 0.002452053 -0.1981462 -0.06461258 -0.5719306 0.12106851 -0.47433445 -0.09495712 0.128633 -0.21498473 -0.01911557 0.111174494 0.016210705 0.3516088 0.26057932 0.11459572 0.26489004 0.28724462 -0.11069806 -0.3575872 -0.2596393 -0.056125205 -0.02558135 -0.20253697 -0.29732615 0.21748413 -0.075429656 -0.13210085 -0.3202261 -0.06502997 -0.5352689 -0.26346624 0.09352551 0.1389363 0.2817613 -0.30951032 -0.056974914 -0.034080885 -0.053173114 0.8002115 -0.2915769 0.32608855 -0.03865899 -0.028208384 0.4766647 -0.16949515 -0.3665662 0.15251109 -0.12860635 0.05361252 0.40234703 0.16561271 -0.090790406 0.05630809 0.2598206 -0.31706327 -0.2592745 -0.0031463976 -0.49136427 -0.08731318 0.040289156 0.02166124 0.56054085 0.1854626 0.13278571 -0.19431178 0.1707474 -0.06125243 0.66327405 0.07393789 0.34970954 0.06965938 0.1450124 -0.011090389 -0.32192755 -0.5364355 -0.08213937 0.18116385 0.42255804
58 -0.21969791 -0.3061305 -0.031993642 -0.2093833 -0.37973785 -0.4066346 0.36799842 0.25435755 0.26573926 -0.115008034 0.24488664 0.23670478 0.32070568 0.18358281 -0.015477841 -0.2160026 -0.19165751 -0.26813596 -0.007962108 -0.13459739 -0.09725772 -0.24195781 0.07052319 -0.23216276 0.11881452 -0.0351314 -0.392919 -0.26184607 0.18208767 0.059975773 -0.020039385 -0.060793072 -0.043270066 0.07893946 -0.07936977 -0.13441266 0.21396184 0.19650126 -0.25951856 0.13775614 -0.26166567 -0.5435559 0.08357103 0.39140382 -0.28475162 -0.24750848 0.39212674 0.25306335 -0.14100187 -0.361988 -0.24221891 -0.12862827 0.26314068 -0.075201645 -0.17548385 -0.3517451 -0.26384163 -0.0054094642 -0.09062733 0.054933175 0.4754581 -0.25163844 0.18541618 -0.05117089 -0.012343715 0.30815557 0.021992153 0.005049692 -0.018507881 -0.080733135 -0.17845862 -0.13663568 0.21505675 -0.4944579 0.13439164 -0.083444044 0.05271146 -0.14335045 -0.13812737 -0.39057344 -0.0112711955 -0.5444437 0.14060187 0.10160352 -0.09974529 0.29552186 0.32216966 -0.3256621 0.33542636 -0.02466713 -0.1829404 0.20238529 -0.30100682 0.13979286 -0.52563125 0.08479932 -0.050082166 -0.28277898 0.12806019 0.074332915 -0.07135406 0.15656042 0.06082355 0.25092822 -0.16497247 0.15972291 0.16378228 0.27197394 0.18098678 0.07026263 0.0899957 0.18147263 0.18378587 0.11667569 -0.3275753 -0.0051900432 -0.312164 0.43115467 -0.36431837 0.12187927 0.5117053 0.19387603 -0.28036672 -0.03134549 -0.45634824 0.05037254 0.20290077 0.61952144
28 -0.17406972 -0.28667626 -0.03272125 -0.12845674 -0.43013614 -0.4214295 0.36143622 0.22963399 0.4058919 -0.19823614 0.26427534 0.2927701 0.31012937 0.1302772 -0.020115938 -0.22079554 -0.21720646 -0.3318784 -0.033455547 -0.21536662 -0.11198177 -0.17026116 -0.008409807 -0.23566365 0.04374562 -0.026811454 -0.28034815 -0.27601078 0.20292446 -0.0052896705 -0.06947054 -0.077119514 -0.027399465 0.0020664004 -0.096597 -0.18219697 0.2623881 0.15219209 -0.20027314 0.114814036 -0.116575874 -0.56884277 0.0968659 0.47893435 -0.28219235 -0.3037177 0.40997976 0.24834898 -0.15575632 -0.30519432 -0.2530351 -0.14024942 0.25640845 -0.14710222 -0.16699682 -0.4710767 -0.19576283 -0.033266827 -0.17773145 0.006143469 0.48064607 -0.28320438 0.20858814 -0.051963888 0.05777884 0.32806465 0.042570632 0.080907784 -0.15012272 -0.12532698 -0.14710508 -0.028979976 0.17975868 -0.40740836 0.17651995 -0.07523639 0.13999322 -0.070482284 -0.097933814 -0.2068665 0.04919709 -0.4913932 0.14306328 0.12313661 -0.078674115 0.3177161 0.19072522 -0.329492 0.3379623 -0.05329286 -0.09575284 0.2270438 -0.31513447 0.04802535 -0.4585896 0.09294103 0.033941206 -0.32203725 0.07434816 -0.06369672 -0.123101816 0.12040903 0.14793007 0.24647285 -0.0761129 0.10582452 0.099966295 0.14562519 0.24046513 0.011440953 0.123310596 0.20595261 0.071329184 0.14664143 -0.2201646 -0.03302371 -0.3654515 0.3508634 -0.27918497 0.10756677 0.33235767 0.24429268 -0.35245886 -0.11173871 -0.3760645 0.1048439 0.26307568 0.54170555
7 0.15579484 -0.14367403 0.14441027 -0.13525161 0.051686622 -0.35329744 0.20424783 0.034198023 0.46552756 -0.010486639 0.25183317 0.33967197 -0.054024585 -0.23011836 0.39202026 0.054231163 -0.14638738 -0.44593877 -0.028843265 -0.23955505 -0.035240922 -0.092326246 -0.085166864 -0.008216548 0.1013984 -0.14911388 0.21684037 -0.16545732 0.13159388 -0.090361185 -0.14188258 0.24894497 -0.24052572 -0.26798362 0.05666786 -0.122253016 0.30049318 0.0114950985 0.17543797 -0.017258251 0.1604461 -0.35842362 0.27217016 0.5412217 -0.29034615 -0.3205851 0.22043833 0.1653172 -0.0814382 0.16465677 -0.15434076 -0.0288374 -0.19325915 0.13456629 -0.0864104 -0.31100428 -0.09821711 0.03810976 -0.048597883 -0.07699344 0.19020285 -0.32900894 0.18620563 0.040324442 0.027117776 0.26095644 0.021981345 -0.07212556 -0.010381642 -0.51670194 0.052049402 -0.025755923 -0.050596587 -0.31216672 0.2747308 -0.15365098 0.2560681 -0.017612848 -0.2302187 -0.4586231 -0.20942828 -0.0059593255 -0.1093464 0.30791348 -0.3248061 -0.11046927 -0.08779292 -0.22380728 0.47783467 -0.0784477 0.2413953 0.050934866 0.07075021 0.07543819 -0.24706084 -0.16674358 0.07355738 -0.1461804 -0.27486795 0.027902318 0.20781484 -0.013922401 -0.14356306 -0.055414394 -0.24529548 -0.22978355 -0.080230966 0.049142577 0.22291093 -0.013812168 0.37579408 0.30184415 -0.025979025 0.2902781 -0.24930471 0.1316564 -0.2405277 0.5090838 -0.24149503 0.3130294 -0.086732015 0.037858143 0.05771314 0.07778368 -0.35998636 -0.05406368 0.29319194 0.69396514
4 0.20227817 0.23077269 0.0027095058 -0.013282594 -0.09094535 -0.11100802 0.13660869 0.03593101 -0.1354076 0.09913621 -0.36719736 0.120738365 0.20189181 0.16782315 0.2773385 -0.043891627 -0.3304526 -0.51147795 -0.0044935583 0.060096435 0.38676515 -0.13546823 0.36045986 -0.2806869 -0.038456164 0.02467763 0.12365843 -0.10866625 0.1815528 -0.17090432 -0.073157586 -0.2869609 0.1985958 -0.078582704 -0.22680661 0.027377179 0.33773473 0.11179489 -0.033268563 -0.27582416 0.22004199 0.17005195 -0.18162481 0.102102354 0.50206095 0.1859619 -0.08467139 -0.09449665 0.24321865 0.20831944 0.28992915 -0.108973384 0.5019596 -0.13961191 0.032697856 0.735417 0.44306508 0.24360713 0.24937329 -0.2713058 0.19562842 -0.35631204 0.36377424 0.027696116 0.31291112 0.24653482 -0.5057269 -0.0015658836 -0.0651915 -0.29575396 -0.122586265 -0.20126928 0.037089262 -0.4557458 0.9067502 0.32248935 -0.28047103 -0.4238906 -0.10330097 0.21041241 -0.3259544 -0.30108768 0.01820344 -0.20463762 -0.21155128 0.02506201 0.33928022 -0.067609966 0.71537083 -0.16652589 0.060220834 -0.3042305 -0.40386856 0.24915479 0.31631598 0.20689048 -0.16328144 -0.23824441 0.14292537 -0.09560886 0.17162147 -0.05552537 0.13550632 0.39972547 -0.37037966 -0.14765796 -0.24855013 0.022992969 -0.22194186 -0.06275824 0.22167522 0.16326149 -0.0016660606 0.31761447 0.22114266 0.2868637 -0.017933514 0.09902991 -0.06970009 -0.40017965 -0.18193348 0.4476303 0.3272621 -0.8800733 0.5345565 0.040826682 0.42268875 0.1979647
16 0.2585817 0.2583773 -0.010235152 0.15093878 -0.023640046 -0.11825549 0.113843955 -0.047040105 -0.07096301 0.09626198 -0.38460067 -0.033894356 0.043782204 0.2199134 0.28787476 -0.014335508 -0.25627926 -0.46707737 -0.047657933 0.013707329 0.26335818 -0.04939009 0.2035456 -0.28991103 -0.06319737 -0.042051576 0.18996623 -0.03986883 0.08871593 -0.22683008 -0.13023323 -0.2490857 0.1550185 -0.10476202 -0.17208914 0.08912792 0.3071647 0.12868395 0.10749818 -0.25461683 0.28585118 0.28840712 -0.122500464 0.06682908 0.50370365 0.06703832 -0.10172538 -0.018164257 0.19296217 0.32884395 0.2551417 -0.04513382 0.51738554 -0.13732986 0.1086618 0.64771557 0.44071394 0.25737813 0.248774 -0.44363916 0.15876777 -0.430698 0.32638744 -0.011063679 0.15545282 0.24247211 -0.5836668 -0.010292641 -0.10075188 -0.39787298 -0.17993519 -0.19625236 0.035119694 -0.48281103 0.9836526 0.2897704 -0.21868727 -0.45391682 -0.108543284 0.12905098 -0.26400483 -0.28131512 -0.008488629 -0.22969504 -0.20836517 -0.016876685 0.28743333 -0.015459119 0.8158409 -0.074822865 -0.012476485 -0.18944709 -0.38429055 0.19348195 0.32312518 0.26857948 -0.029079607 -0.20980248 -0.0016335049 -0.071616456 0.22280772 0.034934785 0.14530633 0.29924738 -0.33866283 -0.27235603 -0.25516915 -0.0088848965 -0.22853594 -0.054720595 0.28040203 0.079417676 -0.039144527 0.4217913 0.22354712 0.38935158 -0.06735502 0.25217736 -0.11667689 -0.28501192 -0.2535514 0.4272627 0.27865505 -0.7773223 0.7279698 0.096649796 0.488189 0.16419965
13 -0.01331938 -0.15236819 0.08562971 -0.012558894 0.10154009 -0.41856495 0.26776072 -0.03721791 0.47280768 0.002713784 0.2847908 0.31039238 -0.09552866 -0.15212658 0.3569639 0.093734086 -0.1109148 -0.35230565 -0.014592443 -0.21909018 -0.07197072 -0.05202169 -0.19627394 0.0035763509 0.07253598 -0.17983203 0.23381242 -0.0996971 0.08594966 -0.117181316 -0.19557141 0.24906202 -0.22223432 -0.21514268 0.021158537 -0.062002607 0.32176095 -0.023480006 0.18333803 0.021359675 0.26830837 -0.2608191 0.22674233 0.4353065 -0.24572872 -0.3342423 0.17238572 0.20691608 -0.10630223 0.18637285 -0.045521144 0.010177374 -0.17129777 0.14100164 -0.022727605 -0.24006867 -0.057641063 0.08258249 -0.10708647 -0.14284873 0.17701475 -0.35357445 0.18803626 0.069851294 -0.005437554 0.27818537 -0.045911267 -0.14490755 -0.04786223 -0.58057517 0.03912685 -0.08304795 -0.056300808 -0.36249077 0.30182838 -0.14074385 0.23323222 -0.09626553 -0.2737991 -0.44816595 -0.18184619 -0.004237925 -0.15734108 0.3913114 -0.32328045 -0.1435459 -0.07370065 -0.11871127 0.6620126 -0.0877415 0.18503156 0.020630201 0.026372768 0.14500138 -0.17277132 -0.2091807 0.09450309 -0.1616955 -0.32589722 0.0876689 0.28900102 -0.000516157 -0.14348426 -0.11852428 -0.2804867 -0.30205628 -0.04565628 -0.097468175 0.21507828 0.050399307 0.3382125 0.27134 0.03416558 0.2878152 -0.1423669 0.21027324 -0.2247352 0.52557206 -0.1463008 0.36295193 -0.047016066 -0.039983843 0.056300092 0.14920582 -0.26297927 -0.10136171 0.28833562 0.58564556
11 -0.18093525 -0.1701667 0.26904252 -0.2693471 -0.29495504 -0.42899248 0.3230283 -0.1766672 -0.021098157 -0.07491997 -0.17725803 0.17153442 0.11745556 -0.36230677 0.029888434 -0.014713579 -0.11500298 -0.11711321 0.2184997 -0.19978659 0.09784569 0.014715584 0.10181484 -0.13624838 -0.257012 0.16498522 0.5415626 -0.31153616 0.24786073 -0.094145216 0.01575578 -0.08772814 0.00073391607 -0.12653829 -0.1839304 -0.09011993 0.16140936 -0.110885486 -0.14961702 0.017221965 0.53700423 -0.32248357 -0.18768048 0.47360963 -0.13476361 -0.17585137 0.44086695 0.055812243 0.1341959 0.068744935 0.014295235 -0.2588838 -0.09324518 -0.52028245 0.12501387 -0.40548047 -0.023907416 0.13816611 -0.27856562 0.0152291125 0.030043043 0.061458934 0.39441952 0.204309 0.17247257 0.25488853 0.25778064 -0.09341641 -0.35189408 -0.22608131 0.10408497 -0.03198905 -0.21505778 -0.26498893 0.1601796 -0.059881385 -0.09280178 -0.25666845 -0.017015373 -0.44340935 -0.2548705 0.082875095 0.042630684 0.24860293 -0.28917664 -0.08306782 -0.056605518 -0.09069025 0.6714797 -0.28145337 0.22346239 -0.085841276 0.043045934 0.44514254 -0.12025687 -0.4214286 0.12299354 -0.059019856 -0.054903552 0.3814197 0.2564918 -0.08243332 0.054219622 0.24142092 -0.24767719 -0.22829646 0.034833606 -0.41496035 -0.059316233 0.0416063 0.052200407 0.54919845 0.18857497 0.112374835 -0.17847992 0.13270314 -0.03531096 0.607855 -0.006662125 0.3873736 0.09937971 0.066267475 0.02671193 -0.27924493 -0.4909968 -0.098120496 0.1379034 0.38964427
25 -0.31909135 -0.5573356 -0.30953205 0.16134325 -0.33155265 -0.20524551 0.27558985 0.14619334 0.36939147 0.0805092 0.070060216 -0.071019545 -0.1080798 0.29248267 0.068041734 -0.45345467 0.2184937 -0.29147318 -0.10298008 -0.16915102 0.44340184 -0.07385516 0.036890548 0.09654499 0.019527376 -0.19101465 0.04397913 -0.27414158 -0.2568353 0.16328287 0.2691244 -0.07540185 0.3129619 -0.055645365 0.08544691 -0.40783492 -0.12740467 0.42762807 -0.22538526 0.103165306 0.06877272 0.19574769 -0.08260952 0.06786386 -0.026773576 0.27799514 0.21280383 -0.27136636 0.033472985 0.13994507 -0.26247686 0.100754835 0.20037845 -0.30529225 -0.012630662 -0.1917695 0.08894192 -0.16752969 0.13819335 0.04295047 -0.046794344 0.023382373 0.27174076 -0.22342728 -0.12389451 -0.13299976 0.15898289 0.108984075 -0.21458077 0.045671467 -0.23350401 0.12883 -0.23446108 -0.030479511 0.38249582 -0.14679521 -0.33946502 -0.26043087 -0.0021531398 -0.3339839 -0.09695679 0.18173243 0.2272929 0.20541187 -0.4450907 -0.21381673 0.29128006 -0.16008927 -0.1615502 0.14086612 0.009016964 -0.22956772 0.05978712 0.028159032 -0.026086997 -0.2855361 0.1424271 -0.37455183 0.43779477 0.30683 0.009560685 0.04733245 0.05223974 0.19004089 -0.028487828 -0.3791295 0.09321101 -0.035523597 0.199216 -0.21907054 -0.038232625 0.021859666 0.11692098 -0.3184493 -0.21959025 0.005919853 0.2798234 0.09506669 -0.060861688 -0.105814576 0.3141817 0.43769428 0.2010099 -0.28473866 -0.44270122 0.027987681 -0.11861101 0.30110195
26 0.25682068 -0.010207854 0.039201323 0.13568608 0.44140023 -0.24359462 0.37592837 0.117781326 0.3311557 -0.33146995 -0.076018445 0.11315188 -0.11198037 0.22874597 0.082431555 0.23365131 -0.09355122 -0.3286677 -0.13457514 0.39629155 0.100544594 -0.23542856 0.32382843 -0.12311696 0.04546198 0.054063354 -0.47733548 0.077765234 -0.124435626 0.15206185 0.10626927 0.055646095 -0.029740065 -0.10086243 -0.029899715 0.13885175 0.35619354 0.024130294 -0.23590389 0.010760376 0.55500233 -0.2517982 -0.25584665 -0.13443343 -0.06161677 0.17599416 0.287987 0.3643745 0.14572234 0.37830964 0.11032332 0.11100598 -0.026595674 -0.52240384 0.28542632 -0.20645635 0.20475473 0.59652746 0.070968255 -0.52264255 -0.10260718 0.022772156 0.1706838 0.46258596 0.109636426 0.28851008 -0.1757599 -0.26092455 0.13180457 -0.07140755 0.06966512 0.09311651 -0.15439346 -0.03902708 0.2872499 0.20364939 -0.13336731 -0.12599254 -0.060635038 0.31741259 0.031511705 0.19162579 -0.053042587 0.2589066 -0.0071098343 0.016644474 0.13788173 0.14446168 0.34037164 -0.31745002 -0.08775325 -0.008106494 0.15306412 0.28344202 -0.04027502 0.27291632 0.084069274 0.15862906 0.22344711 0.05223626 -0.16946949 -0.16168436 -0.1922181 -0.19453484 0.16461018 0.07535491 0.41080484 -0.3983826 -0.37427533 0.37781185 -0.23193617 0.3119632 -0.044947628 0.11508231 -0.01636326 -0.097540274 -0.10853259 0.025180414 0.32045946 -0.41908303 -0.16706721 -0.014544464 0.116087265 -0.24099518 -0.30986053 -0.0014589145 -0.07074565 -0.14407949
27 -0.34556818 -0.41667783 -0.15242219 0.06984646 -0.3517925 -0.2444638 0.2651602 0.041816622 0.2917556 -0.0017164699 0.13477989 0.1494032 0.014220077 0.30792063 0.05869932 -0.48667902 0.19407661 -0.110176414 -0.051467482 -0.028881904 0.4714491 -0.010823752 0.13256586 0.039685156 -0.04708629 0.07686679 -0.11706498 -0.116431676 -0.14124003 0.04406935 0.2730234 -0.081919804 0.21294592 0.056752943 0.2351304 -0.35429195 -0.16666701 0.30154306 -0.31114054 0.108857155 0.08338093 0.14877525 -0.08417304 0.0344683 -0.014752549 0.26623604 0.35130373 -0.102221794 -0.017442537 -0.07537705 -0.2696232 0.051458046 0.30001506 -0.5144684 0.029932916 -0.3052414 0.114404805 -0.034595966 0.096605 -0.21264736 0.1124487 0.123526886 0.20091689 -0.078896575 -0.10586191 -0.057399634 0.03775571 0.10204559 -0.2026318 0.08527888 -0.24276163 0.18248871 -0.20719221 -0.097875595 0.287768 -0.12004175 -0.33411682 -0.21309581 0.00013281971 -0.29138184 -0.047476143 0.112869054 0.23090774 0.16488275 -0.25990528 -0.18374908 0.31797203 -0.12728931 -0.14587162 0.29708934 -0.073649414 -0.026133757 0.12301031 -0.07402959 -0.09725731 -0.2902297 0.1484444 -0.2800994 0.39074546 0.22802974 -0.02858657 0.0155574195 0.037512004 0.08220962 0.084381126 -0.194927 0.26484746 -0.09386764 -0.07393928 -0.08535703 -0.059768762 0.10037672 0.21536349 -0.20587164 -0.18096422 0.04614196 0.295087 0.21141776 -0.054331932 -0.22768709 0.35017356 0.38178763 0.17123134 -0.3219984 -0.49152797 0.042373244 -0.19684888 0.25810543
23 -0.13010296 0.022898834 -0.12251631 -0.117976636 0.06304208 -0.34819442 -0.117218964 0.22548537 0.41454312 -0.2271624 -0.005968377 0.14610833 0.17157994 -0.09301943 0.046632662 -0.059336614 0.079526454 -0.00037906092 -0.16981527 0.0977173 0.03324802 0.25966072 -0.0049780807 -0.12625273 0.049020592 -0.01392692 -0.3276327 -0.25673416 -0.13461089 -0.14196214 -0.18144056 0.1222797 -0.21394442 -0.1726294 -0.27762327 -0.3771754 0.15542853 -0.16507958 -0.28803986 0.054487705 -0.23755856 -0.12672082 0.28365585 0.33587793 -0.00088612223 -0.043322194 0.23351935 0.18603335 -0.25111055 -0.17349961 0.057793375 0.033737913 0.18213753 0.021408787 -0.2771193 -0.6086734 -0.23632799 0.09555203 -0.236602 -0.31253582 0.3757705 -0.26373115 0.25923154 -0.07728874 0.32475066 0.42053816 0.08815085 0.09687195 0.035105232 -0.11075237 0.0392024 -0.060938217 0.23247471 -0.41085047 0.28543785 0.11089501 0.32302254 -0.12817419 0.028819166 -0.1562375 0.36010975 -0.2546452 0.15274312 0.043213025 -0.3294989 0.18542168 0.08520466 -0.22422917 0.42920548 0.07109607 -0.07980607 0.2916546 -0.12075566 -0.10707804 -0.4623345 0.09678835 0.112627186 -0.2800293 0.1583096 0.1495551 -0.1476097 0.06783169 0.40734175 0.075892046 -0.21199435 -0.2510412 -0.0995509 -0.015487817 -0.029274965 -0.1629454 -0.13357155 0.07287059 -0.074141786 0.12825331 -0.35317487 0.13626476 -0.24866708 0.39878437 0.024860507 -0.06794109 0.3751846 0.05688985 -0.39498463 -0.3143106 -0.14663985 0.09350403 0.3317385 0.4371396
38 -0.09506877 0.01625028 -0.025724389 -0.15529142 0.14147596 -0.35771838 -0.14354984 0.13025771 0.43308714 -0.2604415 0.09665359 0.09863963 0.15285014 0.018106319 0.08925812 0.0043918816 -0.034364123 -0.111769065 -0.16285987 0.05664622 -0.05727455 0.2051078 0.065117 -0.15311569 0.008202562 -0.07185824 -0.31140545 -0.2895253 -0.09382721 -0.12689272 -0.17589235 0.12296601 -0.1972992 -0.17283978 -0.25024658 -0.3820842 0.16724648 -0.14676616 -0.2606724 0.06376864 -0.27329674 -0.17345895 0.3172737 0.2839708 -0.08336816 0.07516424 0.22594371 0.13443805 -0.24951786 -0.1838257 0.07674145 0.03245491 0.14551674 0.039228354 -0.32369405 -0.5752392 -0.121608265 0.004860398 -0.28045756 -0.2601573 0.37904716 -0.29113707 0.2307194 -0.093051195 0.36119467 0.40445098 0.11709643 0.08506957 -0.023943963 -0.10454441 0.07554322 -0.07672082 0.08526171 -0.40612525 0.31847444 0.09854554 0.29534826 -0.1234226 -0.008356521 -0.07361651 0.38259515 -0.24346243 0.14834866 0.031628843 -0.31775507 0.1738436 0.11383124 -0.27619308 0.37102517 -0.021232259 -0.1121411 0.27435178 -0.15276861 -0.06657725 -0.4227602 0.16034167 0.044037957 -0.27330518 0.18943053 0.04001352 -0.19309574 0.0053425506 0.41256535 0.026169797 -0.114651985 -0.13093114 -0.07201865 0.09613619 0.036919564 -0.14279093 -0.09165771 0.09885673 -0.11946973 0.089152806 -0.44225493 0.055113163 -0.15182273 0.26225045 -0.050296757 -0.11989074 0.41899765 -0.0106407525 -0.35324928 -0.26664996 -0.22591387 0.18505049 0.18252814 0.3812308
40 -0.37577876 -0.58005035 -0.24539107 0.19145408 -0.35557336 -0.24657445 0.2693497 0.100029714 0.32017857 0.056052465 0.117307305 0.015515536 -0.081393085 0.24518849 0.06322773 -0.5098284 0.10057503 -0.36652207 -0.15128444 -0.15440923 0.43857056 -0.015203971 0.056268454 0.098845206 -0.028965622 -0.11917987 0.015000438 -0.19964756 -0.16198134 0.049817573 0.20565261 -0.12513521 0.25018463 0.0018333736 0.051692806 -0.31977004 -0.15663192 0.44031408 -0.25304878 0.106609635 -0.0011815797 0.16862962 -0.049497142 0.08193559 -0.058673073 0.20895712 0.32807973 -0.2155964 -0.03181674 0.14046097 -0.2948215 0.16049895 0.17488101 -0.2830332 -0.03183397 -0.2812578 -0.029112259 -0.054995567 0.17342116 -0.035364557 0.041585095 0.039454054 0.104808114 -0.15427235 -0.24101453 -0.12083159 0.07226822 0.049130317 -0.18999697 0.0057004327 -0.2900096 0.12726998 -0.14001244 0.004408749 0.3491883 -0.1873377 -0.28542495 -0.24088973 -0.027430173 -0.37094092 -0.054941934 0.15321623 0.18828887 0.14607164 -0.31682247 -0.19716792 0.26976582 -0.14958356 -0.11488218 0.21025431 -0.0641253 -0.048203155 0.11429365 -0.003150507 -0.07796083 -0.1280716 0.20199919 -0.3144374 0.4234937 0.32014146 -0.08190679 0.10926467 -0.021306718 0.17656776 -0.011646192 -0.25462678 0.18878213 -0.08711909 0.06505863 -0.12583458 -0.018115833 0.044308316 0.1752801 -0.2682399 -0.13328776 0.028436515 0.25273114 0.16185324 -0.061409175 -0.09501725 0.20978844 0.34892762 0.12015875 -0.22946991 -0.45724872 0.070706 -0.15336907 0.19485958
15 -0.56590486 -0.4535 -0.17155965 -0.02947376 -0.07098095 -0.73951477 0.40814444 0.18140991 0.60943043 -0.10257324 0.12907057 0.48650613 0.058757193 -0.12336694 0.121946156 -0.12874697 -0.18120758 -0.52092403 -0.29261243 0.0023575325 0.2675526 0.115248136 0.20677042 0.20435372 0.13141961 -0.06421788 -0.07643359 -0.05553749 0.048242293 -0.14247581 -0.22438116 0.060076393 -0.31209874 -0.11783327 -0.27005753 -0.19607034 0.20047893 -0.14291303 -0.18474513 0.0060167583 -0.21115485 -0.2050737 0.34211406 0.40374032 -0.051623374 -0.054089896 0.20805393 0.12679538 -0.15177706 0.04309254 0.13052723 0.018599773 -0.1153045 0.33920264 -0.365991 -0.40126726 -0.22752811 0.15494488 -0.14103319 -0.06670397 0.2640088 -0.19656214 -0.0073232073 -0.04925044 0.20898432 0.2585547 0.047199093 -0.013380029 -0.045581758 -0.30299458 0.1605603 -0.1462626 0.27273187 -0.14713639 0.20161462 -0.020578748 0.31224263 -0.06255968 -0.07133027 -0.13121575 0.18765408 -0.067251645 -0.1373261 -0.022272082 -0.21325162 0.0021996582 -0.09845499 -0.21771228 0.35477248 -0.12188993 0.036108304 0.19052382 -0.00080599927 -0.07694968 -0.28736886 0.24951209 0.13299309 -0.19519536 -0.0114337625 0.13368416 -0.064712845 -0.004162732 0.17047697 0.12052769 -0.29949573 -0.11854753 -0.11809424 -0.14598459 -0.016710415 -0.15635383 0.072102234 0.3544113 0.011878684 0.15302569 -0.18000822 0.17185864 -0.15752555 0.4073186 -0.026821887 0.13534413 0.007349029 -0.17759563 -0.21206583 -0.041020103 -0.27214625 0.12379637 0.3081942 0.35698724
39 0.2772309 0.15847665 0.17685959 0.1567467 0.2500315 0.1647286 -0.18482384 -0.001586996 0.2644212 -0.14271086 0.098784424 -0.031857442 -0.017663034 -0.044034146 0.024571994 0.19639143 -0.50246483 -0.3516433 0.06626754 0.18432634 -0.11542542 0.107344314 0.20189828 0.21986927 0.16086194 -0.07793075 0.019948088 -0.15808152 -0.055175234 -0.09192268 -0.11155009 -0.34450334 -0.22672428 -0.43154982 0.10907013 -0.032176945 0.3650491 0.28434756 -0.04045772 -0.112905264 0.065853395 -0.10108869 -0.118913725 0.16386792 -0.04877445 0.14329614 -0.010475567 0.33359468 0.20803818 0.13531978 -0.17586243 0.17684157 0.109958075 -0.16890883 0.15509498 -0.040262237 -0.08463886 0.15689678 0.3190174 -0.16009818 -0.24087264 -0.010053298 0.2230327 0.031925935 -0.077807754 0.16393322 0.019524233 0.08649543 0.3879299 -0.07303341 0.26791668 -0.030041426 -0.2728852 -0.20384601 0.123921365 0.3216715 -0.18911827 -0.29869747 0.089845784 -0.075010635 0.11549464 0.017098023 0.060469124 -0.3205549 -0.37724385 -0.17934991 0.18113627 0.07089468 0.16362527 -0.16898939 -0.21259259 0.093359426 0.098319456 0.20938998 -0.11145654 0.41303566 -0.0014130437 0.19003384 -0.14976968 0.0608514 -0.16463095 0.32841715 -0.13537867 -0.046058107 -0.17678642 0.3572976 0.037825167 0.104123056 -0.20643109 -0.055114437 0.037038192 0.280364 -0.053724587 0.3003968 -0.20675927 -0.06099385 -0.017535513 0.004288809 -0.08419041 -0.057106093 0.13200396 0.067830764 0.097075 -0.2374061 -0.021895852 0.109600626 -0.11238601 0.10569236
24 0.25021794 0.21650884 0.20096488 0.082862444 0.3497811 0.22375593 -0.20952447 0.05435662 0.34987465 -0.08403842 0.1269054 0.01826708 0.049217362 -0.10074249 0.045086253 0.18221289 -0.49565285 -0.384709 -0.0054387054 0.15907043 -0.07315726 0.052055523 0.24604392 0.23086049 0.2036277 -0.10770293 -0.07213949 -0.18398371 -0.04179648 -0.0040196753 -0.116262145 -0.20715445 -0.22588432 -0.4800225 0.06696849 -0.080889076 0.39113122 0.30755973 -0.11877177 -0.17377521 0.052744266 -0.05886186 -0.20087041 0.1338423 -0.013407388 0.30520648 -0.073109806 0.32213628 0.23205659 0.11541976 -0.12306975 0.21299231 0.0566787 -0.088181384 0.16111845 0.1250751 -0.045222115 0.15118988 0.35822818 -0.07560268 -0.23943374 0.024640176 0.2611669 0.034238476 0.017986808 0.17205495 0.014372841 0.06944273 0.4942937 -0.040733673 0.29957104 -0.06659241 -0.3237006 -0.2201755 0.14896794 0.36533365 -0.31371814 -0.34627405 0.091408074 -0.01178501 0.13892905 0.12166987 -0.022810165 -0.2219143 -0.49136126 -0.29871938 0.1848299 0.123394124 0.08789451 -0.19483012 -0.17679681 -0.060829353 0.09061183 0.22801663 -0.031414233 0.3570168 -0.023296583 0.105684586 -0.041142687 0.08276741 -0.17493597 0.32123655 -0.11952188 0.056943726 -0.30721074 0.3018608 0.058004707 0.10158751 -0.24876145 -0.069930926 0.03742345 0.28803742 -0.04176032 0.24494646 -0.29564068 -0.0853107 -0.11637939 -0.0046552317 -0.019357411 -0.17057441 0.20553093 0.1036669 0.2009178 -0.27943304 -0.09892788 0.033787414 -0.040665224 0.28230307
2 0.23789805 -0.022367045 -0.015924672 -0.17090832 -0.2912274 -0.28001225 0.21768536 0.13808648 -0.25839502 0.1512819 -0.39571798 0.064222805 0.1906735 0.07800094 0.16840687 -0.21502747 -0.23045003 -0.5087772 -0.057926692 0.030021083 0.5513455 -0.06217151 0.4581804 -0.044111885 0.018414497 0.08038098 0.09652238 0.14754307 0.05931232 -0.103813194 -0.004187198 -0.37573352 -0.024841877 -0.10019134 -0.05796307 0.1190288 0.120996706 0.13709667 0.1364976 -0.463807 0.1234522 0.17285699 -0.31656668 0.16980861 0.38821128 0.20475753 -0.097478546 -0.0135138305 0.4904871 0.24587394 -0.06580667 0.042080488 0.3456295 0.0440313 -0.115020506 0.4916415 0.15436196 0.26988316 0.23137374 -0.04372001 0.09333755 -0.05840184 0.17323917 -0.12595443 0.119683 0.25815293 -0.37826395 -0.103154235 -0.17679887 -0.30242383 -0.204829 -0.015410208 0.24225731 -0.17689452 0.68911505 0.44277176 -0.29296848 -0.4433503 0.052837156 0.08646765 -0.20479941 -0.38600355 -0.135992 -0.23634984 -0.3104713 0.13481848 0.14946458 -0.29222417 0.6837093 -0.28429595 0.14919561 -0.0018714193 -0.090086386 -0.07933514 0.03509353 0.40596813 0.022439666 -0.3200156 -0.010555996 -0.039225575 -0.027844973 -0.032861285 0.10875844 0.426762 -0.13327493 -0.123744816 0.119903415 0.14963385 -0.30244082 0.029963356 0.12108758 0.2266409 0.19977808 0.46608028 -0.04186635 0.2539787 -0.31142095 0.26194146 -0.29439676 -0.2691514 -0.24892294 0.43442318 0.20208432 -0.8706805 0.51065564 0.21120057 0.4391574 0.33995754
46 -0.45755538 -0.29992712 -0.1249279 -0.037729442 -0.22117245 -0.35507423 0.19213611 0.062529355 0.07681542 0.021617435 0.17094347 -0.09115649 0.034338586 0.15788126 0.057131823 -0.03677653 0.04920183 -0.11410679 -0.25240228 -0.108992025 0.014019771 0.08446272 -0.06532368 0.019234043 0.029898217 -0.16363396 -0.173554 -0.04606573 -0.051219907 -0.124183625 -0.1165976 -0.06188679 0.03034469 -0.05072616 -0.013805783 -0.14883968 0.006201286 0.07615143 -0.00075491884 -0.013667728 -0.1865305 0.022866812 0.014774327 -0.05199627 -0.24530207 0.062209453 0.06712064 0.19503763 -0.09331121 -0.106493965 -0.096502274 0.23793986 0.06166815 -0.084229685 0.012011622 -0.16425042 -0.1556393 0.0859644 -0.06392776 -0.18913303 0.042783383 -0.23374188 0.09130843 -0.010873005 -0.39706805 0.14624915 -0.076240174 -0.08387202 0.050927572 -0.13660543 -0.3935982 0.04202267 0.012838754 -0.2607396 0.26089734 0.17311582 -0.18200222 -0.4370494 -0.18910266 -0.5286044 0.17913668 -0.042168975 0.03317744 0.1841648 -0.4164558 -0.19197237 0.3696516 -0.06691342 0.52615964 0.12859711 -0.041516256 -0.053803496 0.17143935 0.2597559 -0.050143003 -0.1128625 0.28153366 -0.11787557 0.10162788 0.43258512 -0.033128064 0.08887512 -0.26832268 0.103084914 -0.0056227697 -0.17904392 0.0016204998 -0.08958561 0.04176491 0.009619095 -0.045749575 -0.057536267 0.29680187 -0.10584561 -0.07797976 0.07410943 -0.025249423 -0.05117281 -0.05369992 -0.17708631 0.031228384 0.024493607 0.27053338 0.13690782 0.1972185 -0.081689194 -0.18387344 0.0921783
3 -0.42769772 -0.4143186 -0.1007994 0.0790772 -0.0539723 -0.640829 0.33979195 0.16386619 0.48078838 -0.020634012 0.041282523 0.4650061 0.018977981 -0.18564266 0.15664883 -0.19758984 -0.20021199 -0.5594977 -0.28633952 -0.032237884 0.22816126 0.17519696 0.20981435 0.21033703 0.08297398 0.0075686215 0.080459096 -0.07868814 0.08739585 -0.1644427 -0.20984058 0.015028442 -0.28722954 -0.020130385 -0.3199144 -0.2134197 0.17645334 -0.13550799 -0.22895736 0.016680147 -0.20882884 -0.19271019 0.37847358 0.43869385 -0.027099324 -0.090270564 0.27546734 -0.031776927 -0.21015862 0.14187269 0.166327 -0.0009060603 -0.110643595 0.25255933 -0.34320685 -0.3549028 -0.24502388 0.13848752 -0.090868354 -0.0703851 0.22147308 -0.19336705 -0.15673308 -0.045465056 0.1913336 0.1401881 0.105763935 0.028628407 -0.08378928 -0.3315104 0.13093235 -0.19421655 0.20279421 -0.05800633 0.19120587 -0.07730763 0.2775977 -0.046851438 -0.0345756 -0.13313313 0.21915844 0.024024135 -0.07893495 -0.07630115 -0.11301093 0.009570111 -0.14339076 -0.05047093 0.21638337 -0.09522956 0.0436132 0.21259208 -0.078407705 -0.016961461 -0.18499725 0.3111522 0.14271635 -0.2194076 0.045736678 0.17180483 -0.12169091 0.016529528 0.22413516 0.12342285 -0.4382337 -0.11359024 -0.12155582 -0.18803695 -0.12271627 -0.17054005 0.008241924 0.40339205 -0.06517915 0.123119004 -0.15787537 0.14257568 -0.11460425 0.4120645 0.05283134 0.061714604 -0.053564664 -0.14208454 -0.19971034 -0.02017945 -0.3501781 0.12853397 0.24828854 0.34364152
8 0.40960336 0.0673504 0.13279337 -0.22860987 -0.2571213 -0.121297516 0.1489832 0.20973325 -0.2872233 0.040825706 -0.41159058 -0.045140624 0.15926047 -0.03419691 0.2076474 -0.32445312 -0.13817094 -0.4814462 -0.060987554 -0.04599335 0.53342175 0.107689686 0.41217777 -0.12778224 -0.100142956 0.18594271 0.15934092 0.030352259 0.04687393 -0.1322332 0.036270108 -0.34983107 -0.0436437 -0.1700395 -0.04055286 -0.046521295 0.18181734 0.11834661 0.026850704 -0.5083207 0.18976408 0.20783357 -0.21985756 0.3763772 0.29083863 0.20251372 0.07361538 -0.11487591 0.36815596 0.36419776 -0.122978106 0.025719736 0.35543394 -0.1515113 -0.08285159 0.23126073 0.12910728 0.2535797 0.22422478 -0.117433846 -0.039254174 -0.019459454 0.14099045 -0.24506173 0.14703032 0.26172268 -0.15709138 0.017962776 -0.327838 -0.29574385 -0.053133555 0.08370279 0.16398744 -0.16580346 0.6252402 0.35404265 -0.14852597 -0.4929648 0.04674174 0.06479821 -0.085103214 -0.41375262 -0.029721385 0.021070981 -0.37559414 0.22959922 0.19688442 -0.23148933 0.64669514 -0.24793364 0.04719515 0.085474454 -0.062634245 -0.07188109 -0.10311641 0.34399274 0.045612283 -0.438486 -0.041467015 -0.13259038 -0.075406626 -0.032136556 0.343211 0.34296146 -0.15397485 -0.19920805 0.20917456 0.20280306 -0.3083664 0.000830031 -0.027245248 0.23049513 0.060762852 0.33180648 -0.11357156 0.20501254 -0.13202947 0.11546503 -0.2575557 -0.34435323 -0.2849316 0.40466988 0.055213258 -0.94236934 0.39608282 0.23595895 0.3291235 0.30860013
1 0.043009568 -0.10127799 0.080475755 -0.05164944 0.012104577 -0.36850414 0.24195088 0.05410148 0.41238666 -0.039076548 0.15846537 0.24907583 -0.07430484 -0.12729846 0.2860798 0.101193845 -0.12744394 -0.36361414 -0.1315936 -0.18444541 0.0018821987 0.03311679 -0.05790973 0.030912325 0.03810902 -0.054636724 0.19778655 -0.061122324 0.111314066 -0.08043343 -0.14595547 0.13954212 -0.15382698 -0.16604011 0.06883285 -0.16981226 0.21765986 -0.102943555 0.22427186 0.030711304 0.1712217 -0.22179079 0.18897548 0.40684018 -0.25877813 -0.30252683 0.08349035 0.20021868 -0.06761375 0.11056721 -0.04654417 -0.052597888 -0.106508724 0.07263942 -0.0073888036 -0.27321008 -0.06284546 0.021137053 -0.076093785 -0.13338153 0.051259317 -0.27298263 0.17653717 -0.025035169 -0.029881183 0.25547087 0.09084003 0.03647306 -0.05421061 -0.33699405 0.031640764 0.0290174 -0.0734889 -0.28366274 0.2200038 -0.0122493785 0.17431983 -0.14543566 -0.18032281 -0.40284157 -0.06916697 0.005928601 -0.057354134 0.20558152 -0.29180133 -0.09131996 0.000588641 -0.11958674 0.4866459 -0.039263766 0.17929628 -0.030188186 0.042308383 0.10027107 -0.18544722 -0.17225957 0.14572187 -0.093719296 -0.26100445 0.08414145 0.21318656 -0.042525012 -0.08460242 -0.056325503 -0.10622983 -0.26589316 -0.15516903 -0.06426517 0.12715441 -0.091045 0.2420123 0.16851497 -0.043866713 0.19339938 -0.15930548 0.11281051 -0.13946925 0.31573388 -0.13947274 0.18524346 -0.09806878 0.0073643946 0.12177152 0.09102467 -0.07422566 -0.06172632 0.1995467 0.4347849
9 -0.45126277 -0.40216374 -0.11983404 0.046467327 -0.054125898 -0.65493244 0.29619953 0.16985556 0.43796238 0.027330155 -0.007912106 0.5364798 0.076429166 -0.29847676 0.13081752 -0.22537887 -0.18013436 -0.45364308 -0.2611492 -0.018742133 0.2999808 0.1907189 0.20042387 0.23229493 0.14861692 0.025453437 0.107075036 -0.0373965 0.058766685 -0.20886262 -0.22508751 0.04891188 -0.34079218 -0.09889338 -0.31311917 -0.16793858 0.23919214 -0.1658763 -0.22870648 0.020072995 -0.14723738 -0.16363725 0.32325938 0.46484762 -0.004827342 -0.12513706 0.26792553 0.013122308 -0.16980135 0.13015917 0.1346225 0.026670469 -0.0927084 0.29770905 -0.3161991 -0.35072747 -0.321583 0.22040588 -0.09928468 -0.08155643 0.24987517 -0.1859431 -0.087209396 -0.013550335 0.19844335 0.19384514 0.05252782 -0.062117334 -0.05233794 -0.39305526 0.121788114 -0.19260973 0.30207086 -0.07498013 0.16695692 -0.07471196 0.3033886 -0.0347861 -0.04743795 -0.18840928 0.1800066 -0.021574298 -0.17735401 -0.01603435 -0.13055271 -0.0015196566 -0.18299028 -0.053744838 0.3238586 -0.042669922 0.051332913 0.21225438 0.011935334 -0.05860222 -0.23187035 0.19403535 0.14444229 -0.21291763 -0.031794943 0.2819698 -0.058121465 0.040556625 0.17991924 0.12058614 -0.43917075 -0.19626679 -0.0362134 -0.19495313 -0.1697388 -0.09165426 0.01351061 0.37548596 0.038292445 0.15137699 -0.13196097 0.20640384 -0.20282388 0.53828186 0.04084968 0.17098722 -0.036512114 -0.16578025 -0.2080962 -0.044757925 -0.30666906 0.074853085 0.30864942 0.38762555
34 0.38108927 -0.48080513 -0.1131288 0.015316592 0.06674354 0.008979239 0.08763739 0.0020524878 0.31078017 0.17678356 -0.64830405 0.2539801 -0.045161817 0.051958386 0.12960924 0.1388103 -0.31962323 -0.7825085 -0.3177894 0.16046631 0.3119358 -0.44920567 0.42537907 -0.2622191 0.05621656 -0.38263023 0.08253144 -0.33771318 -0.0010066974 0.118201 0.03520745 0.16429754 0.25488162 -0.3013087 -0.4601888 -0.09959106 0.35507086 0.4497169 0.02441131 -0.010531062 -0.09133784 0.15697823 -0.049705185 -0.050170466 0.033224754 0.6501722 0.060794674 -0.5062235 0.14856242 0.5913321 0.032150745 0.16607755 0.1435035 -0.29088002 -0.10270869 0.05016137 0.0013565366 0.30152985 0.28116688 -0.19278257 0.17708139 -0.49623847 0.2856123 0.13413689 0.19406503 -0.018622681 -0.12016886 -0.34512234 0.29990265 -0.13822775 -0.32337204 -0.32406697 0.009591584 0.020239284 0.6274754 0.07442 0.020873481 0.02247705 -0.051187985 -0.07018499 -0.25517026 0.19494754 0.10953262 -0.3794502 -0.51658523 -0.0590281 0.17938505 -0.13899416 -0.06517995 -0.25352377 0.2786302 -0.22660649 -0.049774237 0.30714676 0.07734623 0.24813502 -0.14784394 -0.018516947 0.5259311 0.24525645 0.121718824 -0.098546095 -0.1306079 0.020826275 -0.3195309 -0.37842464 -0.1805745 0.044115596 0.020092376 -0.28811088 -0.104380265 -0.180608 -0.26461056 -0.14368922 0.06852248 -0.043636467 0.13946849 0.051215485 -0.042305008 -0.20736146 -0.38627055 0.062334534 0.3622696 -0.30987436 -0.12364195 -0.00639713 0.10467012 -0.07216713
49 0.27535665 -0.44639677 -0.05370372 0.056196485 0.12444724 -0.058105424 0.09216526 -0.008328636 0.40024745 0.10117763 -0.38012502 0.2654854 -0.10311476 0.13231339 0.21231364 0.12842238 -0.44130784 -0.8623273 -0.3180096 0.13713957 0.20387208 -0.38988608 0.37621582 -0.19404249 0.030818556 -0.38058653 -0.005419783 -0.31015357 0.00599151 0.088405915 0.00034852664 0.13176487 0.20983596 -0.22850035 -0.4082519 -0.0777381 0.2983317 0.43863642 -0.0071549523 0.037124783 -0.13241129 0.08299113 0.0334676 -0.06908195 0.006211997 0.6149651 0.06470181 -0.39139268 0.061329123 0.5384384 0.034604937 0.19708143 0.058199737 -0.10064227 -0.19314533 0.050031595 -0.02138088 0.27279702 0.2610023 -0.13711433 0.20814753 -0.4183915 0.19344221 0.14876929 0.16167144 -0.0067961346 -0.08402775 -0.31721988 0.27144542 -0.1925262 -0.2051792 -0.28634667 -0.050595693 0.009992572 0.6113526 0.050724942 0.029479304 -0.013218683 -0.089244395 -0.06992696 -0.19341294 0.23378253 0.08634147 -0.30123 -0.45509082 -0.081779204 0.14111507 -0.15305151 -0.017849227 -0.26642245 0.20722766 -0.10041339 -0.036550317 0.2733874 0.06112254 0.34829995 -0.11061866 -0.020943113 0.4722584 0.14115624 0.06506136 -0.10205753 -0.16680564 -0.023932096 -0.3031853 -0.24140954 -0.15071116 0.032378327 0.04014687 -0.28035086 -0.04373234 -0.022479828 -0.24317451 -0.076076455 -0.003920616 -0.05319908 0.15772519 0.08672563 -0.060428083 -0.19959542 -0.30860874 0.017562164 0.28808323 -0.2251504 -0.24382524 0.023802225 0.12006773 -0.02329065
53 -0.40740448 -0.18971665 -0.08814474 -0.038835686 0.096545115 -0.44048992 0.1554724 0.14518753 0.41994184 -0.16589876 0.049357492 0.2101646 0.068801805 -0.037523586 0.1270195 -0.12136999 -0.17309399 -0.33136502 -0.33431482 0.038502168 0.108842775 0.19155553 0.13849339 0.025528854 -0.021576341 -0.04820412 -0.25087973 -0.11105215 -0.015667332 -0.14952688 -0.15629861 0.10639827 -0.21725255 -0.036367472 -0.30597365 -0.24614914 0.086609006 -0.12783122 -0.33517456 0.05489764 -0.25927788 -0.08794059 0.31614244 0.25383317 0.05808504 0.10339938 0.2270754 0.06457514 -0.25957882 -0.05269292 0.17030168 0.054269563 0.020965623 0.29164517 -0.37217927 -0.3041307 -0.20574129 0.11359935 -0.1146881 -0.12915322 0.34537333 -0.12709206 0.019770116 -0.060377426 0.24144304 0.27097914 0.12621208 0.03250776 -0.026892569 -0.22329804 0.13020249 -0.13655823 0.09783681 -0.25197563 0.29741526 -0.0145982215 0.15207762 -0.20805277 -0.051772915 -0.24377632 0.3174796 -0.03948017 -0.0017006114 0.08697085 -0.19277032 -0.022386774 0.0013219476 -0.09411116 0.3306313 0.03306704 -0.096086025 0.25755927 -0.029261138 -0.012952164 -0.24484017 0.22652657 0.10426393 -0.21828623 0.1437459 0.23910564 -0.11472416 0.07168454 0.26223403 0.108724885 -0.32147315 -0.1637171 -0.072102584 -0.070164554 -0.13496108 -0.18806219 -0.027787276 0.24995203 -0.016601453 0.06781571 -0.34132835 0.10833513 -0.08655615 0.42069352 0.009527709 -0.027285729 0.25118548 -0.08497059 -0.2335136 -0.08274788 -0.2975388 0.085258126 0.3094854 0.34598988
6 0.08471605 -0.095707975 0.048561778 0.34339154 0.28583202 0.21444605 -0.2117416 0.14335178 0.08526975 0.084594905 0.33492586 0.34193423 -0.037441213 0.14072147 0.39342013 -0.036619887 -0.46503046 -0.3846972 -0.1012986 -0.009878582 -0.03132332 0.16265053 0.12425366 0.017463664 -0.083451346 -0.022407126 0.23974405 -0.11063354 -0.086906254 -0.15611392 -0.042795576 -0.23177287 -0.253291 -0.14870556 0.15796968 -0.07126645 0.6244749 0.21760757 -0.077057436 -0.23908481 0.014748054 0.23586947 0.15309562 0.05292733 -0.022370296 0.5640091 -0.21367086 -0.1594077 -0.025089517 0.18804474 0.10144577 0.031449094 0.019085301 -0.083890915 0.013657059 0.29726645 0.13513663 0.3247338 0.05500337 -0.25267598 0.01432094 -0.18625134 0.090032116 -0.167115 0.0537462 0.048295714 -0.049694296 -0.118681006 -0.09172269 -0.21726358 0.4369517 -0.07453586 -0.22476031 0.045226265 0.6588847 0.41661307 0.018101718 -0.2346814 0.03488941 0.2670915 0.12699491 0.07991731 -0.06559759 0.27918562 -0.3247663 -0.17386867 0.12707908 0.09585583 0.43335995 -0.28246057 -0.12982799 0.2381304 -0.047152456 0.0008731366 0.10760374 0.20371263 -0.020921389 -0.36485243 0.08287873 0.06621678 0.1391041 -0.22748055 0.3561929 0.053349346 -0.6980956 -0.08473188 0.014086668 0.38801894 -0.08923244 -0.15938273 -0.25346482 0.26158538 -0.0008409763 0.14480571 -0.2341727 0.3712986 0.21673246 0.007968499 -0.2041049 -0.35363626 -0.022742776 -0.29870594 0.24606617 -0.4028764 0.005123882 0.039764427 0.107138015 0.18599337
47 -0.438131 -0.11442255 -0.18433358 -0.16291904 -0.217426 -0.32872656 0.08614925 0.083449 -0.16836771 -0.040180366 0.18693441 -0.2276317 0.05878902 0.11857495 -0.080557704 0.10016125 0.081684604 0.058185305 -0.057299912 -0.1399314 -0.10290244 0.11608611 -0.17567088 0.10890199 0.07132303 -0.18445235 -0.14856847 -0.013655012 -0.12742446 -0.14484414 -0.21344712 -0.16177306 0.046037298 -0.16588381 -0.1360559 -0.025859857 0.19306447 0.0052717826 -0.100795686 -0.04374639 -0.098820224 -0.16724813 -0.0069627985 -0.043703854 -0.3010884 -0.08412717 0.1671205 0.29558167 -0.07858072 -0.009240104 0.041691985 0.26286882 0.036360603 -0.14926238 0.08488009 -0.39958727 -0.16938555 0.16025397 -0.113562234 -0.20930828 -0.0024834955 -0.34036878 0.06080348 0.04032762 -0.44967806 0.30229655 -0.076748535 -0.046413165 0.078103326 -0.09970534 -0.3973737 0.02371611 0.13025227 -0.34833416 0.19607839 0.1407525 -0.15418376 -0.489357 -0.3644936 -0.39577657 0.2911747 -0.18358876 0.04960597 0.2895708 -0.38497686 0.01633853 0.54934466 0.041036047 0.6542102 -0.06490746 -0.086375 -0.15987365 -0.054018915 0.4422795 -0.2609726 -0.04319066 0.27347544 -0.19068183 0.18795983 0.64052814 -0.14522135 0.22513337 -0.23139006 -0.034477014 0.03449045 -0.21352753 0.2265773 -0.12743504 0.08661543 0.3610837 -0.17877866 -0.072205715 0.25112405 -0.13514812 -0.08907707 0.016989414 -0.2275227 -0.14266713 0.12515612 -0.316418 0.13884804 0.03915321 0.10649114 0.059818063 0.1339543 -0.071766265 -0.30391756 0.09602039
33 0.065104455 -0.09767774 0.16512889 -0.03889754 -0.16895194 -0.2676893 0.25412253 0.25696483 0.14629394 -0.04314855 0.07610814 0.105645955 0.33378977 -0.06675301 0.25832787 -0.13571416 -0.21894227 -0.12065325 -0.12150211 0.016295189 -0.04503716 -0.021526612 0.050782345 -0.30206683 -0.033118416 0.2787965 -0.275346 -0.19187331 0.3039719 9.4513045e-05 0.039925933 0.06575126 0.01883091 0.20290041 0.036667593 -0.2563181 0.09898978 0.24347953 -0.15750386 0.34657723 -0.011109973 -0.34514198 -0.08012395 0.31117842 -0.40740013 -0.31723872 0.345548 0.31243068 -0.19417559 -0.2093466 -0.36420223 0.060275417 0.25933576 -0.41767275 0.18248807 -0.28886545 -0.4632785 0.20239289 0.15653436 -0.24538304 0.35108638 -0.17416508 0.09576494 0.14965726 -0.26403147 0.24866611 0.07967207 -0.069842905 0.1948033 0.015035399 -0.19927911 0.035223383 0.022689968 -0.37215132 0.17418224 0.120345235 -0.1115691 -0.15149732 -0.025519362 -0.681209 -0.08577794 -0.16881125 0.16721897 0.13741 -0.003124558 0.05805331 0.21382709 -0.00012597984 0.5490077 0.35841283 -0.042296983 0.38922113 0.0723015 0.14799502 -0.30555975 0.0015434503 0.15809412 0.00044895412 0.040447347 0.18429942 -0.09686285 0.18039845 -0.25762954 0.31473947 -0.03189063 0.05658213 0.026972618 0.22348322 -0.079192854 -0.13564782 0.14924902 -0.09287116 0.088554814 0.16834274 -0.19280179 0.034781616 -0.2325339 0.1450403 -0.31418166 0.09987061 0.09207242 -0.07060254 0.08834696 0.29268697 0.07960421 -0.22988285 0.17861377 0.14047925
57 0.23017752 -0.061100055 0.04199721 -0.024317203 0.34230748 -0.055375315 0.18042323 0.18166201 0.15404423 -0.21685392 -0.054664407 -0.022583531 -0.050416373 0.10666139 0.12211057 0.17172663 -0.07631713 -0.30489144 -0.1347116 0.20673887 0.019119257 -0.17257464 0.23137552 -0.15694386 -0.05038707 -0.0656143 -0.41543615 0.03549486 -0.10620878 0.10252938 0.07163964 0.08150697 -0.05258525 -0.19210242 -0.06385941 0.13327481 0.2779336 0.20557584 -0.19487569 -0.14405437 0.29539695 -0.14742962 -0.1882403 -0.11357585 -0.12168225 0.31324 0.25808707 0.23461172 0.13704997 0.36968172 -0.050044518 0.24816303 -0.10388183 -0.35481563 0.122388616 -0.21932273 0.019514935 0.5162315 0.15028042 -0.3252892 -0.032866504 0.014016689 0.01519954 0.28247142 -0.05780503 0.22166915 -0.11229411 -0.24980105 0.16375788 -0.066362016 -0.014623659 0.09731536 -0.07162842 0.01535956 0.26575774 0.18757479 -0.12719274 -0.12766705 -0.08747259 0.10116037 0.05095643 0.14539638 -0.03906988 0.27879465 -0.15959541 -0.008463154 0.15341869 0.037086375 0.26810616 -0.28003225 -0.0049767336 0.074750535 0.19924812 0.20181952 -0.08651153 0.25403497 0.11734366 0.011856546 0.22930962 0.15267026 -0.17914133 -0.042637706 -0.2081221 -0.1241587 0.0013829615 0.0005060447 0.39317685 -0.13683857 -0.23487973 0.28911358 -0.2069445 0.19595335 0.012015684 0.07439838 -0.11207808 -0.09158639 -0.1366647 -0.019426694 0.13166347 -0.40231186 -0.18826605 -0.041620407 0.11072925 -0.1622843 -0.27166334 -0.026198754 -0.06549064 -0.008085697
45 0.2377778 -0.11912028 0.0133766 0.07248426 0.48969156 -0.19180056 0.34107447 0.22100116 0.2915323 -0.265449 -0.1576803 0.007504319 -0.11319829 0.2267905 0.1730589 0.14064619 -0.07087119 -0.38421145 -0.21884052 0.27775675 0.095259495 -0.23888038 0.32533643 -0.25466594 -0.075081445 -0.040324584 -0.45570615 0.0017228152 -0.13703929 0.20341875 0.15951532 0.15043822 -0.008116912 -0.042118657 -0.104512125 0.085378125 0.24977122 0.09839642 -0.24301969 -0.015621588 0.42435396 -0.14180768 -0.18552963 -0.13597465 -0.015884547 0.32746744 0.25821579 0.15855688 0.100215875 0.4344384 0.108565405 0.11987386 -0.095830366 -0.3457161 0.12277486 -0.119616754 0.12872066 0.531418 0.06679548 -0.36713275 -0.01162671 0.04369854 0.104240365 0.3141928 0.17021437 0.22879414 -0.07546152 -0.27789432 0.034816787 -0.06354647 0.13210449 0.055004194 -0.13939852 0.016955972 0.40850893 0.17747949 -0.0955921 -0.10055054 -0.005417358 0.23686895 0.026051033 0.21641766 -0.057243824 0.34243867 -0.05317407 0.013597686 0.0563129 0.060823124 0.32088566 -0.31962973 -0.04432665 0.096611425 0.16596471 0.20233685 0.016399492 0.28545576 0.070233256 0.0012798205 0.3085728 0.075886965 -0.13705078 -0.20796351 -0.031539515 -0.046314992 0.020795941 -0.09514182 0.32851267 -0.15804741 -0.26960006 0.19487847 -0.22840866 0.22105213 -0.08811687 0.060798973 -0.15345041 -0.038851544 -0.06390051 0.047092523 0.14211848 -0.35345554 -0.15456198 -0.1151176 0.08229695 -0.19878732 -0.27368456 0.006240425 0.114914685 -0.10337396
19 0.24475795 -0.43375576 -0.16114211 0.014939674 0.08195716 -0.1434248 0.13659257 -0.018118413 0.4412941 0.12800415 -0.6319983 0.13243112 -0.061387494 0.03286443 0.16897087 0.15224935 -0.31160167 -0.7895036 -0.32379478 0.13921532 0.34051374 -0.37294683 0.41775048 -0.17702422 0.021678323 -0.386002 0.047835134 -0.33039713 -0.038279265 0.09068308 0.0073108138 0.17935795 0.2282518 -0.29302347 -0.48761046 -0.17101566 0.1963045 0.38836583 -0.037670404 0.010020342 -0.09804446 0.16331443 0.018184725 -0.07711016 0.08966247 0.6050209 0.11729594 -0.4031006 0.11975662 0.58092767 0.048754126 0.21908107 0.12535001 -0.23801006 -0.17224117 -0.035128962 0.043525767 0.22321568 0.24370095 -0.22234863 0.22861522 -0.45969737 0.24042293 0.16088013 0.21708755 -0.010003323 -0.13540749 -0.24158251 0.2569383 -0.12953687 -0.28009874 -0.28551129 0.00027671142 -0.026054887 0.66265935 -0.0022039895 0.023665419 0.020617375 -0.039976016 -0.10241126 -0.22721751 0.22464664 0.13156036 -0.46294466 -0.48143485 -0.11013576 0.13461387 -0.18250059 -0.06680237 -0.14862868 0.28317216 -0.16825125 -0.0468444 0.24538049 0.06918028 0.27587458 -0.068604544 -0.013747501 0.50374097 0.21381454 0.05009631 -0.054592602 -0.13472389 0.03412084 -0.17691751 -0.37406087 -0.24159808 -0.024188668 0.065673694 -0.33242288 0.034868203 -0.15445009 -0.3109631 -0.08119587 0.024455061 -0.049550194 0.13891776 0.055917922 -0.031620808 -0.16867976 -0.33208734 0.09992526 0.31020254 -0.27632827 -0.060454153 0.046644993 0.1384344 -0.119172685
55 -0.22819486 -0.3390181 -0.08935039 -0.01983282 -0.2622445 -0.11781626 0.19568893 0.13351023 0.170579 0.024313437 0.023612272 0.059392836 -0.060640797 0.18537188 0.15909207 -0.431223 0.10018563 -0.35247326 -0.24277571 -0.18497998 0.43427604 0.042910438 0.08114836 -0.06164197 -0.1007573 -0.06930269 -0.044600297 -0.05793851 -0.036331907 -0.0524609 0.12935095 -0.032752123 0.27275735 -0.023037095 0.006641893 -0.25187746 -0.114456244 0.29190576 -0.22207102 0.027260318 0.031125195 0.19294731 0.06635584 0.12613758 -0.00944221 0.21456745 0.32761788 -0.22045343 -0.08987787 0.16076861 -0.1627138 0.14151305 0.21020865 -0.19965976 -0.12546004 -0.22892256 -0.024445018 0.023646329 0.21032383 -0.12796047 0.13245504 -0.020794543 0.010121816 -0.18617883 -0.13456164 -0.021045687 0.080455385 0.08309017 -0.1993954 -0.06492111 -0.2774129 0.15176721 -0.03829838 -0.021760771 0.32116893 -0.16631545 -0.21676238 -0.23407929 -0.17635179 -0.35736698 0.004503804 0.08015177 0.1257986 0.24706843 -0.2396635 -0.09963424 0.26320732 -0.11941406 -0.06836928 0.25029072 0.017091056 -0.03886254 0.1491694 -0.06628049 -0.027085679 -0.158605 0.18008848 -0.34164944 0.31284326 0.24351726 -0.011209001 0.08927332 -0.0030573902 0.11288628 -0.06353838 -0.35873312 0.12170774 -0.053451937 -0.02602841 -0.16113149 -0.022777656 0.009410179 0.12326825 -0.27389115 -0.015218061 0.019914731 0.24470259 0.067160964 -0.057594422 -0.3060662 0.010116256 0.34620774 0.16901164 -0.20774236 -0.29709205 -0.020839008 -0.11852484 0.24047567
12 0.092366934 -0.068709455 0.09944 0.24072085 0.22681215 0.12559013 -0.19380045 0.07884097 -0.07821427 0.053865362 0.28189287 0.303425 0.0005752735 0.18712108 0.34707132 -0.034690075 -0.40660235 -0.2637475 -0.028426964 0.058312073 -0.053231895 0.16752437 0.11923926 -0.11445838 -0.079507574 0.012154182 0.16207951 -0.1269098 -0.06732231 -0.22283477 -0.080360904 -0.2405589 -0.25907284 -0.13645872 0.08641728 -0.017556187 0.6591708 0.19195825 -0.09772389 -0.23728281 -0.035434674 0.21379688 0.17768286 0.06776471 0.004986121 0.5245607 -0.14968608 -0.16851911 -0.073695235 0.16972648 0.11625857 0.010530981 0.09667035 -0.18231942 0.03482334 0.22527756 0.12218192 0.40272227 0.03766055 -0.3585179 0.076601684 -0.25808206 0.13100195 -0.15721409 0.052382533 0.10881375 -0.13560385 -0.16264454 -0.07896231 -0.2351887 0.40265512 -0.14027825 -0.08787087 -0.072615035 0.6691548 0.40186632 0.10728927 -0.24146484 0.006423663 0.27028465 0.120173715 -0.06849849 -0.05084021 0.259244 -0.31076166 -0.06221704 0.22409607 0.09014949 0.52711105 -0.2576945 -0.2233262 0.31954178 -0.103916146 0.03599334 -0.0030604017 0.2780933 -0.06439084 -0.32067502 0.08496213 0.05638872 0.13141201 -0.15532543 0.4285356 0.027791083 -0.6520152 -0.09985357 0.060579874 0.46354663 -0.09585671 -0.11153125 -0.28294256 0.15763165 -0.026412679 0.19783701 -0.20328799 0.4115017 0.17587107 0.023618298 -0.24505763 -0.34556985 -0.071553715 -0.35437632 0.12961015 -0.40116343 0.14945196 0.067789055 0.1411122 0.070632815
0 0.09676871 -0.06269276 0.048303053 0.32523143 0.3919111 0.22236256 -0.2346386 0.16193786 0.02685524 0.026266342 0.38306978 0.25561905 -0.07132498 0.2258951 0.4685394 -0.029135535 -0.47660246 -0.37582102 -0.1506563 0.022121804 -0.10221988 0.18766999 0.1425686 -0.0175133 -0.13652653 -0.010920634 0.10854488 -0.10214931 -0.1408533 -0.14865659 -0.0019680187 -0.18828353 -0.3025534 -0.0820575 0.1883055 -0.079283535 0.62426776 0.19638969 -0.12303229 -0.21695255 -0.05801492 0.2374332 0.22579499 0.021243522 -0.015783306 0.60960174 -0.20623542 -0.14629164 -0.10340929 0.16581792 0.12283517 0.022283057 0.025577318 -0.008338349 -0.050305344 0.28610024 0.13949224 0.35972533 0.041225538 -0.28179568 0.06506503 -0.17909561 0.08321976 -0.18248142 0.052618403 0.0937452 -0.015538422 -0.1281542 -0.12678966 -0.23650844 0.4816735 -0.06718353 -0.26013198 -0.012787725 0.7611843 0.418378 0.022057582 -0.32024348 0.0035786144 0.21837288 0.19355625 0.058874052 -0.037654817 0.3812036 -0.31347483 -0.14391856 0.1649694 0.09553227 0.5056486 -0.28380132 -0.2194823 0.33466333 -0.049636293 0.003968854 0.033747725 0.28097004 -0.024626125 -0.39658046 0.13244157 0.1198576 0.12599777 -0.257707 0.42233303 0.022551367 -0.7465415 -0.09402993 0.07082451 0.48487875 -0.12662986 -0.16671117 -0.3125175 0.30849746 -0.01630162 0.14594266 -0.41411313 0.38243344 0.26063502 0.09540432 -0.25084224 -0.4204704 0.09230873 -0.33180666 0.22372146 -0.41509467 -0.08304052 0.07300289 0.15387492 0.25418755
36 0.14587586 -0.2840639 0.10515515 0.25626856 0.13230035 -0.31845874 0.23463845 -0.0657121 0.17552285 0.00426885 -0.372602 -0.14644846 -0.15085417 -0.15212308 -0.033088796 0.06736538 -0.28782955 -0.39108115 0.02245802 0.16418351 0.02700941 0.103237696 0.3409135 0.14135982 0.0067457133 -0.019608645 0.20684032 -0.2025304 -0.106643185 -0.012534189 0.04981075 -0.25665408 -0.14808474 -0.238113 -0.20289618 0.0133542055 0.26129 0.31486726 -0.27978876 -0.005440179 0.13403834 0.0581608 -0.032763556 0.112333566 -0.058088154 0.15221362 0.41226533 0.10007566 0.13732034 0.53150964 -0.1335266 0.2010366 0.08808111 -0.48871255 0.14418332 -0.42125896 -0.17935026 0.39086926 0.2148369 -0.37346083 -0.19395638 -0.034436036 -0.019142216 0.21612065 -0.26565304 0.05704682 -0.0921169 -0.14335795 0.15417708 -0.1579795 0.021612074 -0.16475758 -0.047338158 -0.01916728 0.11100148 -0.028184881 0.025116155 -0.14900361 0.053061385 -0.23977223 0.0013508965 0.14797279 0.16242456 -0.35258847 -0.18589067 -0.076867156 0.16506675 0.17745142 0.16746676 -0.061385304 -0.33084947 0.2582367 0.17008832 0.30099508 -0.16408828 0.47752887 0.1686226 0.24695745 -0.018586386 0.2479234 -0.15601778 0.2924085 -0.005023872 -0.103036664 -0.16932887 0.14722604 0.24615324 -0.16540128 -0.36446434 0.021294923 -0.17461623 0.22482458 -0.17249648 0.1515044 -0.072461866 -0.008595046 0.22082283 0.1668138 0.05124131 0.071939416 -0.15668799 -0.12112328 0.024792058 -0.11369202 -0.09508561 0.18209472 -0.1728761 -0.33985874
48 0.026461333 -0.098455146 0.112246975 0.15040895 -0.15841608 -0.25440967 0.19185416 0.12515703 0.10750606 0.017898254 0.049421184 0.019954728 0.3340214 0.015580583 0.2701441 -0.1875916 -0.1967229 0.014812945 -0.00750541 0.09062347 -0.09716834 -0.010096977 -0.010674145 -0.30755472 -0.061151378 0.3016383 -0.26718765 -0.2534767 0.20662083 -0.0044013658 0.13294975 0.04222371 0.039243553 0.29510033 0.09680273 -0.26581657 0.016493248 0.30973184 -0.19730552 0.38423198 -0.0255414 -0.21960017 -0.12983632 0.17218518 -0.23530044 -0.20534621 0.2940048 0.29196665 -0.17236076 -0.26014453 -0.3920882 0.09591765 0.3850423 -0.47851577 0.19398862 -0.10730155 -0.40424195 0.17481744 0.18085673 -0.30935034 0.41117874 -0.09422554 0.15795246 0.21886359 -0.28864682 0.16224104 -0.02548785 -0.06393171 0.20682314 0.045793857 -0.20332263 -0.012247806 -0.09041229 -0.3689888 0.335713 0.13645057 -0.21879207 -0.14421861 0.116032064 -0.6658524 -0.14430265 -0.11085312 0.25916278 -0.011307385 0.056462795 -0.063802235 0.15428837 0.040835805 0.51121765 0.49488318 -0.11623088 0.52270687 0.039679892 0.08591719 -0.19051433 -0.0073885275 0.14501749 0.03075013 0.06646885 0.18590973 -0.088632196 0.21344845 -0.19406535 0.35957325 -0.085658245 0.10104446 -0.0436466 0.2979365 -0.13563526 -0.22790577 0.20725305 -0.10530344 0.07691343 0.27929795 -0.30465382 0.10538704 -0.184576 0.2967956 -0.3512334 0.1802781 0.22383413 -0.023221023 0.07923192 0.2370171 0.14074638 -0.16092046 0.33364686 0.085927725
54 0.20261559 0.18038045 0.11423866 0.07222993 0.3045755 0.080954395 -0.15875466 0.0064385296 0.22807537 -0.105608605 -0.104331456 -0.122344375 0.024744237 -0.12845355 0.057881348 0.12037325 -0.37755835 -0.274989 0.037504412 0.18236208 0.015638016 0.13397601 0.2147041 0.22903709 0.06750541 -0.04884819 -0.07858562 -0.1553954 -0.099657066 -0.042375002 -0.03106859 -0.14047912 -0.15483859 -0.3774511 0.009670776 -0.08651242 0.16200894 0.28643566 -0.13200063 -0.10237583 0.028845746 0.07882954 -0.093763664 0.055675548 0.07932172 0.23200437 0.05666106 0.22015625 0.15467256 0.24696082 -0.14288074 0.26992378 0.13030058 -0.07838437 0.038083334 -0.07598245 -0.07478882 0.16024257 0.35683712 -0.15810917 -0.12888116 0.005437014 0.12676966 0.07849468 -0.12842304 0.15498684 -0.009430257 0.089294076 0.39783317 -0.017371824 0.1436618 -0.0037413253 -0.2325209 -0.17829044 0.23325175 0.19899371 -0.23874721 -0.28298566 0.038777534 -0.17966236 0.060043175 0.1040261 0.10961714 -0.31260917 -0.3186098 -0.18701464 0.16751847 0.1151282 0.08813584 -0.00197741 -0.12409672 0.091232516 0.08355122 0.16378255 -0.10721215 0.37793717 0.030793622 0.12392833 0.025880555 0.19251087 -0.2199169 0.36148375 -0.1544348 -0.04104766 -0.117058024 0.16632786 0.13294949 0.12428458 -0.25520158 -0.019616114 0.0601135 0.13834102 -0.12391192 0.23271753 -0.2789391 -0.10149998 0.020225946 0.02787928 -0.014165981 -0.12036646 0.1626012 0.09102772 0.09420051 -0.27226603 -0.007274441 0.06787372 -0.00802098 0.05823315
51 0.018303119 -0.3187305 0.047091864 0.29309052 0.0627585 -0.22747292 0.10486766 -0.11447712 0.13843037 0.050054718 -0.23410037 0.09008365 -0.03830957 -0.11257213 -0.12880255 0.015344016 -0.3359576 -0.24232443 0.09552515 0.20609362 -0.00625378 0.028527407 0.28449944 0.12122315 0.10691412 -0.03919501 0.14432256 -0.16943684 -0.06489113 -0.053737983 6.530592e-05 -0.28494245 -0.18521324 -0.25233498 -0.17672037 0.12886998 0.3481366 0.32416636 -0.28018782 -0.022886895 0.08033348 0.04101768 -0.11742057 0.005951412 -0.03804175 0.2381249 0.3273125 0.11128771 0.17016749 0.35898188 -0.16367424 0.19503304 0.13250528 -0.46626672 0.13358843 -0.27088872 -0.18401262 0.4237847 0.2113486 -0.3165006 -0.10299858 -0.036200196 0.004960717 0.24482909 -0.21592234 0.05366393 -0.17086618 -0.22610377 0.25540817 -0.12739007 0.027467946 -0.23864423 -0.00013717795 0.026221871 0.08142297 0.07745518 -0.0075801373 -0.09947662 0.10781699 -0.101562314 0.033745185 0.09709065 0.066971034 -0.40131414 -0.18364985 -0.10635372 0.12866548 0.17977662 0.105582274 -0.14761184 -0.3388044 0.28498867 0.16969447 0.26936832 -0.10048043 0.45718247 0.059276327 0.23164886 -0.010618376 0.2670853 -0.13518266 0.31345877 -0.052870687 -0.08772839 -0.29391998 0.22261061 0.27876234 -0.09806762 -0.37476987 0.08054735 -0.21664475 0.21787874 -0.039416533 0.16695891 1.7866245e-05 0.038912725 0.12104446 0.18744254 0.013343192 0.05140698 -0.09964151 -0.1727773 -0.00011502537 -0.14140126 -0.112500444 0.1467116 -0.179799 -0.3027728
18 -0.020835705 -0.06345908 0.06557067 0.09361288 -0.12478851 -0.31052235 0.16133608 0.22226903 0.113274544 -0.01817356 0.13009733 0.07826076 0.37056097 -0.013801934 0.32146963 -0.15263626 -0.19613409 0.022318846 -0.024447884 0.18502507 0.05640611 0.007178299 0.08531647 -0.20872834 -0.01071087 0.41465548 -0.27285445 -0.20473024 0.25143507 0.016401077 0.111703865 0.05074216 0.019268323 0.23872072 0.16934206 -0.3244159 0.0459171 0.23970325 -0.16464779 0.35371274 -0.017934816 -0.17226523 -0.18475841 0.16016866 -0.26178417 -0.16774873 0.16801678 0.29444465 -0.13111608 -0.2934281 -0.3598402 0.034620717 0.2855002 -0.48102373 0.26816157 -0.074968055 -0.30059108 0.13424349 0.19809161 -0.25374314 0.2706539 -0.056345932 0.18936592 0.18148908 -0.2213863 0.12790312 0.020377995 -0.0063094 0.24377339 0.14038527 -0.079972535 0.058743935 -0.1381457 -0.32496879 0.26352108 0.25367153 -0.20270734 -0.14977191 0.13156216 -0.56728244 -0.18302763 -0.014792277 0.23618363 0.013099258 0.00010687264 -0.09414023 0.16811426 0.032662675 0.46110854 0.43272263 -0.019285528 0.3382989 0.099769145 0.075655706 -0.17688635 -0.106756695 0.0957706 0.116211526 0.05355609 0.14800179 -0.057154294 0.1360197 -0.26220736 0.3747548 0.00043554767 0.10187821 -0.11720171 0.22639725 -0.094595335 -0.21861506 0.206773 -0.09581144 0.066952415 0.21343696 -0.23325509 0.10742851 -0.09771599 0.105266236 -0.24422365 0.095120266 0.18778613 -0.08586481 0.20719102 0.16036433 0.1702703 -0.2739807 0.159245 0.06604101
44 0.26088402 0.03917499 0.055544406 0.023691518 0.20597719 0.14008226 -0.08724558 0.13082029 0.26083618 -0.04849381 -0.16004102 -0.07341457 0.014922367 -0.04659913 0.15444739 0.054322276 -0.33906797 -0.4947695 -0.20080635 0.096137695 0.0859029 -0.00046328345 0.25779545 0.0037494348 0.0031315002 -0.11746258 -0.11943732 -0.13369168 0.008378233 -7.703596e-05 -0.03117446 -0.063097775 -0.021330208 -0.27800468 -0.14386496 -0.11889253 0.15384421 0.35908338 -0.14692599 -0.09549723 -0.06886223 0.056393698 -0.061008554 0.10343452 0.04975257 0.327935 0.08533594 0.03318606 0.100959 0.2526545 -0.10712517 0.24236031 0.09256958 -0.051083256 -0.061227806 0.020814601 -0.1256652 0.14085148 0.3770551 -0.08702073 0.01962419 -0.07002148 0.06438868 -0.0044384287 0.054083478 0.101390965 0.02541779 0.023236936 0.28510776 -0.09472522 0.036614247 -0.054336812 -0.14894441 -0.10703616 0.27363533 0.18113808 -0.17876789 -0.22005707 0.025387583 -0.15218133 0.062273167 0.13684914 0.08589079 -0.18971278 -0.35826126 -0.14230177 0.09294481 -0.014488255 0.053794682 -0.07460354 -0.0065943087 0.050714176 0.10117183 0.10742829 0.021745069 0.35932717 0.06345131 -0.024367066 0.115205295 0.06526036 -0.15758373 0.23345546 -0.065095626 0.14080435 -0.30606785 0.026930863 -0.088459276 0.028930882 -0.17209545 -0.26265034 0.040243443 0.1429974 -0.1476728 0.11467232 -0.14140983 -0.0645596 -0.010858938 0.013688021 -0.048869915 -0.22956374 -0.06257975 0.17312782 0.18533985 -0.23524 -0.06339533 0.022187652 0.072204374 0.15959924
14 0.35222292 0.009571008 0.15584126 -0.22444907 -0.05472299 -0.15643163 0.22251803 0.26719034 -0.11525833 0.051238306 -0.4524699 0.09833489 0.1342994 -0.08511887 0.2126815 -0.29772645 -0.15611266 -0.485576 -0.21192065 0.04964489 0.57973945 0.09334528 0.49757886 -0.0624386 0.024965998 0.22185194 0.041262064 0.07584073 0.0536503 -0.037018232 0.086917125 -0.17252131 -0.08868679 -0.06091035 -0.023378907 -0.12459617 0.100456044 -0.035767812 0.033037886 -0.30913246 0.10858114 0.1704223 -0.08565327 0.3681787 0.22617325 0.1366449 0.020579493 -0.12785192 0.25607777 0.3230637 -0.07158125 -0.016609672 0.28925928 0.040328544 -0.13834694 0.23272641 0.012723909 0.24901482 0.21300997 -0.08545984 -0.040701285 -0.00082933105 0.12064713 -0.22605841 0.2013675 0.26891264 -0.04217244 -0.001596287 -0.2002676 -0.24593796 0.01661314 0.06554039 0.18191805 -0.14126939 0.5227884 0.28689224 -0.07113743 -0.38346675 0.051141415 -0.06730197 -0.095097 -0.33789906 -0.064793244 0.01746518 -0.2757484 0.20383012 0.15635693 -0.18254659 0.49911183 -0.07537204 0.01625337 0.110647276 0.0428295 -0.117635936 -0.17146009 0.3050979 0.000308407 -0.32045808 -0.0025508106 -0.058483478 -0.0588477 -0.08209125 0.24801132 0.2811659 -0.057839897 -0.20853542 0.2045566 0.29813254 -0.37486464 -0.08704392 -0.019041184 0.11955675 0.016359514 0.24211334 -0.16499959 0.1380828 -0.07911848 0.113373585 -0.29470572 -0.2701079 -0.21459323 0.2337688 0.092603356 -0.69902045 0.31845623 0.15360546 0.35214368 0.25358123
10 0.14177476 0.034948055 0.08277113 0.06717735 -0.09876759 -0.17761643 0.17033425 0.03654837 -0.07603237 0.063573316 -0.16097738 0.093633525 0.045907076 0.10860892 0.31930995 -0.23909597 -0.17744139 -0.4050527 -0.021209022 0.0012028822 0.35468188 0.052742932 0.25653246 -0.1625263 -0.098303646 0.13058941 0.16413878 -0.020657232 0.08895655 -0.19435993 0.011217936 -0.21778081 0.049208697 -0.021168295 -0.01213793 -0.015360094 0.1753623 0.14898121 -0.06730733 -0.23305771 0.19116093 0.24546011 -0.021653557 0.18948458 0.3472799 0.1722575 0.06174832 -0.14861047 0.13350894 0.26763275 0.055525865 -0.019978479 0.33346722 -0.15235832 -0.016068066 0.385132 0.2527153 0.19747667 0.26033786 -0.2677144 0.10940887 -0.109449595 0.094523296 -0.104696505 0.1406217 0.091995135 -0.2864148 0.017834801 -0.22039074 -0.3050128 0.0145793585 -0.051080868 -0.01125576 -0.20486176 0.63925105 0.16009232 -0.15060881 -0.29920045 -0.04173846 0.04520651 -0.17614971 -0.1372595 0.017342327 -0.019107485 -0.13319355 -0.020844987 0.14067739 -0.047998585 0.42683864 -0.001972483 -0.039647363 0.05814103 -0.1092559 -0.018719563 0.1670381 0.18842694 -0.00388057 -0.25291365 -0.018837625 -0.13077645 0.09397294 0.01488951 0.2350605 0.23286244 -0.3265736 -0.15523587 -0.053526163 0.08811105 -0.23447749 -0.12497456 0.14293982 0.20993803 -0.015006292 0.27460924 0.066230915 0.28308788 0.119225256 0.18759559 -0.16223489 -0.24947621 -0.19918786 0.2787218 0.15965667 -0.5961116 0.27093735 0.10586589 0.27524585 0.18994
43 -0.11620764 -0.03907957 -0.031600375 -0.16139416 -0.10256611 -0.24861744 0.12266294 0.1434938 0.17990409 -0.17010646 0.010194133 0.015490204 0.1884066 0.07012731 -0.06386925 -0.065592825 -0.11013026 -0.07417233 -0.111758694 -0.011751884 -0.086072676 -0.008560315 0.03675728 -0.13252944 0.032567818 -0.029896965 -0.32244554 -0.19017877 0.010570079 0.0061216434 -0.07051482 0.0033968561 -0.07085983 0.001835971 -0.19855398 -0.19385548 0.12084397 -0.026580255 -0.23193175 0.09677678 -0.17435382 -0.31017572 0.07268206 0.22777553 -0.08901582 -0.070469156 0.22511743 0.14616904 -0.1366824 -0.17178637 -0.0018830895 -0.024406003 0.18490879 -0.04655438 -0.13485985 -0.308471 -0.19956765 0.0027611083 -0.10642402 -0.053948827 0.27322513 -0.14413022 0.15151846 -0.05751426 0.1628298 0.27122748 0.14012718 0.06865433 0.020077225 0.009970887 0.013567814 -0.10694097 0.11476535 -0.3349918 0.15957698 0.037449572 0.043788724 -0.1758026 0.016288634 -0.15615512 0.25012705 -0.2673574 0.09834498 0.031639837 -0.12407381 0.17568123 0.1528015 -0.10730709 0.25498584 -0.020950979 -0.13391839 0.19920793 -0.19491807 0.10720745 -0.3333094 0.1887023 0.017892865 -0.19800314 0.1737366 0.15200806 -0.17144464 0.13765402 0.24601036 0.15923354 -0.09406463 -0.06235119 0.022327626 0.12665366 0.026124403 -0.07835382 -0.073679976 0.042739544 -0.04346789 0.04881881 -0.35868666 -0.029316586 -0.28613925 0.21493286 -0.10972086 -0.0209914 0.34132767 0.07842669 -0.25991628 -0.048330143 -0.13170677 0.100383624 0.25193954 0.25451273
