210 128
0 -0.11022454 0.12078458 -0.10025816 -0.11479765 -0.38720548 -0.1538036 -0.19598974 0.052398905 -0.37742084 0.07134617 0.24897426 0.33934525 -0.42779806 0.12053357 0.11732432 0.22241275 0.19154294 0.51776814 0.49554667 0.15842207 -0.24731393 0.110712655 0.32482308 0.55191976 0.06359089 0.30144513 0.0371448 -0.03287107 -0.29699916 -0.018578181 0.1237759 0.21690248 -0.60280037 -0.37656772 -0.015400987 -0.8783159 -0.12620428 -0.20052515 -0.30092406 0.14786519 -0.37555805 0.18777949 -0.5129978 0.08606792 -0.28603524 -0.051184416 -0.09804651 0.20184998 -0.11390969 -0.27050424 -0.105467945 0.25696158 -0.11690373 0.110292494 0.21953857 -0.047909953 0.46586975 0.020455955 0.23203157 -0.30912676 0.1763285 -0.25416097 0.02503272 0.11094967 -0.21264417 -0.000886072 -0.32802498 -0.4030668 0.18143824 0.38538954 -0.22804977 0.32442573 0.08019583 0.024342071 -0.10341856 0.041349996 -0.090872474 -0.32186624 -0.382269 -0.30429754 0.2978192 -0.03146975 -0.013186802 0.5959238 0.14329407 -0.12727687 0.0021839426 -0.059430007 0.39719385 0.43257663 -0.05961773 0.2994122 -0.035259567 0.26752624 -0.11554127 -0.063023604 -0.37392193 -0.0044811997 -0.47613338 -0.33773777 0.29350856 0.070181705 0.09588588 0.012584586 0.14287259 -0.24856356 -0.46817964 0.37376904 0.29607877 0.17762654 -0.07536958 -0.27296105 0.2150752 1.0206828 -0.03571068 -0.09147917 -0.2939164 -0.21953666 0.059528783 0.06234641 0.1415741 -0.32211637 0.035911918 0.43894422 0.24350844 0.317874 -0.110929914 -0.21296835
1 -0.10601885 -0.030434968 -0.15040225 -0.11108431 -0.4089013 -0.11105911 -0.16083033 0.14893582 -0.33018723 0.08996687 0.27092266 0.36050797 -0.41192624 0.053922206 0.18981445 0.28756282 0.22774915 0.66558695 0.529285 0.00483654 -0.048075084 0.27431414 0.27399665 0.45491812 0.3441733 0.33738452 -0.05367278 0.18226905 -0.16323054 -0.029536964 0.09783914 0.30123496 -0.3803703 -0.37830588 0.0067646517 -0.84651387 -0.13215803 -0.2087262 -0.36757463 -0.004248525 -0.18747865 0.16887926 -0.5927975 -0.060505833 -0.09178282 -0.10066026 -0.04582762 0.0997941 -0.0907116 -0.31786707 -0.07467237 0.36558682 -0.015643427 -0.04065861 0.16302931 -0.1409048 0.44501078 0.009809804 0.16109353 -0.40520066 0.073036276 -0.2865225 -0.054720026 0.1174836 -0.125722 -0.022101177 -0.15123212 -0.547777 0.027010307 0.19374126 -0.076465294 0.2040075 0.18731803 0.08641149 -0.16262735 0.0031312802 -0.21885902 -0.2854491 -0.3259257 -0.28548437 0.18656588 -0.0784168 -0.16852534 0.5783123 0.09772379 0.044222277 -0.051701434 -0.09688015 0.528442 0.5282342 0.013292384 0.41825768 0.16021371 0.21568026 -0.13729177 0.13662994 -0.30957788 -0.1140204 -0.29666618 -0.3162553 0.20245193 0.21944824 0.19669406 0.1662008 0.079898134 -0.21383505 -0.7606654 0.41123372 0.18631689 0.1288196 -0.30210322 -0.041205835 0.12139342 0.9254801 -0.13609213 -0.06987433 -0.26125172 -0.04119998 0.0011010077 -0.08666001 0.15088628 -0.06462875 -0.105648175 0.4622656 0.20801581 0.19796303 -0.24930382 -0.23425974
59 -0.22024836 0.2207374 -0.22046475 -0.25972274 -0.34120432 -0.054527603 -0.22684902 -0.085745305 -0.38947895 0.27578938 0.27991468 0.2508305 -0.30312374 0.04177717 0.104189776 0.14061876 0.19439533 0.49458596 0.20825154 0.099575244 -0.24274452 -0.03755169 0.2004021 0.62599915 0.009346911 0.12946154 0.038562775 -0.15471315 -0.4137216 0.07080763 0.12594125 -0.025755575 -0.39344501 -0.32308587 0.04950609 -0.76707286 -0.14976744 0.007327053 -0.4028133 0.11408605 -0.36893314 0.25217524 -0.503743 0.06935653 -0.22882567 -0.0018529658 0.04171692 0.11801357 -0.097958446 -0.25272334 0.053203415 0.2954031 -0.17898677 0.13934839 0.1257128 0.08040461 0.6425637 0.04326331 0.10597728 -0.2368297 0.06930691 -0.35678515 -0.1750436 0.20161158 -0.110444926 -0.06576556 -0.17764391 -0.5926568 0.110324845 0.44499972 -0.3193928 0.43782488 -0.015005708 0.024946442 0.007960539 0.03519077 -0.0013530061 -0.25835517 -0.44508857 -0.5691655 0.082133144 -0.07705965 0.19805706 0.6279498 -0.11697039 -0.1575237 0.05496771 -0.10190762 0.25396627 0.3571883 -0.1166799 0.3206175 -0.08559568 0.14604883 -0.24347644 -0.14478233 -0.36051953 -0.037108622 -0.6015081 -0.28321725 0.34903145 -0.0069333278 0.099543884 -0.13980371 0.06849325 -0.2895461 -0.29491615 0.20084569 0.19928746 0.028798498 -0.23762003 -0.32302147 0.24296287 0.8941111 -0.1699867 0.049420618 -0.3467235 -0.11503813 0.081196964 -0.04591417 0.17246446 -0.2637172 0.09309052 0.24099807 0.22046182 0.29842266 -0.11234193 -0.18953249
60 -0.039730225 0.06625789 -0.07735637 -0.08530997 -0.23718509 -0.21878015 -0.3366557 -0.26824468 -0.29820675 0.18616326 0.0042560534 0.17728145 -0.50038075 -0.016008586 0.025075104 0.16740021 0.27723575 0.35574052 0.6382419 0.34474847 -0.35646984 0.11971058 0.31681126 0.6433804 0.19461428 0.51144826 -0.036610782 -0.11968283 -0.26850048 0.09174013 0.11510857 0.3289595 -0.75842416 -0.30502632 -0.07931568 -1.0597008 0.053402066 -0.3197641 -0.36070773 0.12475969 -0.24172044 0.21497221 -0.44153494 -0.021700528 -0.35115048 0.0938296 0.04083174 0.16374654 -0.10209321 -0.2836936 -0.16546102 0.41419664 -0.18820198 0.063979834 0.4228314 0.11420419 0.42575905 0.1624991 0.11961396 -0.103475586 0.124867834 -0.19945146 0.11564868 0.18300875 -0.43234566 0.037669234 -0.2396109 -0.3710018 0.026904771 0.53422326 -0.061759576 0.34716156 0.1425472 0.028803032 -0.019892942 0.17967981 -0.19879612 -0.29754952 -0.474799 -0.2502985 0.28048766 0.031727243 0.013236574 0.76713157 0.034710366 -0.306362 -0.27680016 0.09540462 0.4546403 0.38189754 -0.09546433 0.041392453 -0.16471994 0.2571409 -0.2803124 -0.41202074 -0.6092983 0.19111454 -0.5304833 -0.28935573 0.40267822 -0.0077557205 0.042362377 -0.15256932 0.10783265 -0.35806093 -0.40980545 0.30724344 0.2317962 0.1258537 -0.09083351 -0.26010525 0.24898808 1.1325873 -0.024535473 -0.15937012 -0.31980735 -0.3056542 0.030441094 0.0056919605 0.22739835 -0.31738114 0.058459528 0.28237402 0.096218966 0.123507276 0.011858119 -0.25780505
2 -0.03960905 -0.19430986 -0.2640032 0.04184212 -0.5357182 -0.42374125 -0.16328982 0.23784925 -0.11778266 0.12984551 0.31483686 0.55385995 -0.35053068 0.14608657 0.108221434 0.31478962 0.15675431 0.8513377 0.5115523 0.12878323 -0.2022591 0.3383779 0.26748726 0.3612794 0.47143444 0.17700066 0.010201338 0.35678232 -0.1930721 -0.071279675 -0.12574187 0.10875917 -0.22812651 -0.3080984 -0.18520588 -0.7737221 -0.25835615 -0.20244262 -0.3229655 -0.020576369 -0.09142979 0.12821707 -0.5016541 -0.10634161 0.0075658998 -0.1388101 -0.03548356 0.026848316 -0.19003631 -0.28193745 0.0020629927 0.37316984 -0.111292236 -0.063949026 0.21249157 -0.046796598 0.48000088 -0.03044578 0.19760427 -0.44870096 0.0798771 -0.1981682 -0.009998486 0.09312495 -0.14055532 0.19073659 -0.08941097 -0.37933984 0.10647164 0.11887786 0.023581821 -0.19339597 0.04524065 0.17965174 -0.23863699 0.036380578 -0.2940268 -0.18588543 -0.4163285 -0.21885364 0.34995317 -0.070995145 -0.14110969 0.4250826 0.07419689 0.13988285 -0.13208902 -0.07903289 0.46601188 0.37999904 -0.06272496 0.5001252 0.13783741 0.13575166 -0.09035959 0.15397722 -0.26583564 -0.1416404 -0.16849405 -0.2004843 -0.024307964 0.28883138 0.08292418 0.15490057 0.20727637 -0.13534388 -0.8434755 0.4436214 0.10624949 0.04132866 -0.248873 0.0085081225 0.27608997 1.0635797 -0.10273893 -0.013838242 -0.31777477 -0.007873192 -0.12604158 -0.1575596 0.25701195 -0.058909353 -0.18449345 0.45872357 0.13054897 0.0810784 -0.2516014 -0.30336362
3 -0.13278067 -0.21549796 -0.3509081 0.13701996 -0.51133716 -0.35136685 -0.15251167 0.3640379 -0.09705191 0.051417783 0.23852357 0.4271282 -0.29582858 0.025304243 0.20600632 0.40575823 0.15987349 0.79384166 0.43578902 0.1886545 -0.044998787 0.30328283 0.2656104 0.22187558 0.36918035 0.2648971 0.092991225 0.39887917 -0.12021968 -0.09297419 -0.13992499 0.2995309 -0.29412955 -0.30340663 -0.06873142 -0.6646009 -0.096518435 -0.25665942 -0.28138548 0.06120335 0.001998998 0.060647003 -0.56309706 -0.14407516 0.0091968905 -0.20973082 -0.1067575 0.042777725 -0.3569095 -0.12396592 0.013973279 0.30182472 -0.1431837 -0.0909355 0.11097019 0.0099805705 0.4250328 0.16835685 0.12781271 -0.34460464 0.21570067 -0.16634023 -0.09778056 0.0022845292 -0.22333038 0.170674 -0.19817051 -0.43640098 0.12191759 -0.12808235 0.169606 -0.44711134 0.014949107 0.064059705 -0.27867338 0.002186175 -0.35928997 -0.2707601 -0.54955435 -0.2826781 0.28959876 0.015519274 -0.27231324 0.5228796 0.25647503 0.11332168 -0.13465893 -0.072298445 0.5912719 0.33881852 -0.11197609 0.35106093 0.20972072 0.16715343 0.024377393 0.29994303 -0.18035688 -0.24032107 0.20368503 -0.15220656 -0.13961916 0.36772025 -0.07676457 0.4019371 0.12481102 0.022168549 -0.6766893 0.6757274 0.15939693 0.0825542 -0.18007743 0.24857415 0.25227827 1.0179693 -0.025180405 -0.0057471422 -0.20789328 0.050941065 -0.22155192 -0.19417644 0.2181531 -0.14384636 -0.18072708 0.50050765 -0.0024662497 0.05517186 -0.0568435 -0.15223905
65 0.000907645 -0.39251772 -0.20178 0.028229106 -0.50007635 -0.567498 -0.09608222 0.25490198 -0.08342674 0.08536599 0.3787042 0.67372525 -0.44352457 0.30402282 0.03738796 0.2490519 0.15461364 0.9068167 0.57274866 -0.037010923 -0.38214725 0.5043385 0.09489433 0.30866042 0.7171487 0.30049306 0.1042114 0.5062779 -0.10915241 -0.077505715 -0.12960248 0.02858476 -0.24499679 -0.24377537 -0.13789472 -0.90818506 -0.37592897 -0.26500362 -0.29929733 0.12580158 -0.084550746 0.08264415 -0.4002615 -0.23334372 -0.0076545845 -0.20199947 -0.05674277 -0.07408507 0.18106411 -0.2084976 0.11856694 0.3269477 -0.17418526 -0.17859189 0.23937969 -0.05375209 0.42783695 -0.25334355 0.39375415 -0.63825077 0.058996987 -0.01574146 0.101391174 0.095469885 -0.28738263 0.04439193 -0.14654936 -0.4615283 0.042879585 0.18880764 -0.14126436 -0.08955876 -0.00013938129 0.11328737 -0.18768613 0.02522965 -0.31519884 -0.21349509 -0.2350274 -0.03330711 0.60592484 -0.2244494 -0.08374919 0.22765653 0.19580987 0.31496033 -0.3970502 0.088143215 0.5303662 0.5906288 -0.17417906 0.42616042 0.037677 0.13203892 -0.19384274 0.2722118 -0.33282164 0.027406793 -0.13897163 -0.31130525 0.1035913 0.4307553 0.2133719 0.21838498 0.10263174 -0.10374274 -1.0148869 0.21617143 0.18866473 0.27052653 -0.3562079 0.045325235 0.2788365 0.9716141 -0.11324472 -0.122224234 -0.4111993 0.12547052 -0.1075913 -0.27430558 0.2224052 0.03673372 -0.27972218 0.63853145 -0.007151379 -0.031044666 -0.32486627 -0.3285893
4 -0.46652028 0.028160216 -0.42124283 0.19477692 -0.5768295 -0.2903686 -0.21185362 0.37093273 0.020339813 0.20233262 0.085988395 0.48930258 -0.19411 -0.042449106 0.156934 0.47458625 -0.046057448 0.90315324 0.45247447 0.28899354 0.058777682 0.12747703 0.27448195 0.13454817 0.20921613 0.2091416 -0.07756586 0.29324636 -0.11099414 0.10275239 -0.19329423 0.29619816 -0.18356727 -0.03257176 0.11292133 -0.5792153 0.047189426 -0.22169796 -0.25866297 0.02778529 0.27646166 0.02884572 -0.39242947 -0.20060788 -0.2702381 -0.13615307 -0.088983566 0.05182396 -0.36413822 -0.31370845 0.056984108 0.19905408 -0.20780978 -0.26242867 0.167307 0.06852071 0.29021695 0.2338739 0.24686679 -0.1901254 0.25740632 -0.10999827 -0.12240515 0.12922618 -0.2881672 0.30426234 -0.2170078 -0.45736647 0.09674576 -0.32406053 0.21709435 -0.53181505 -0.15923344 -0.2011135 -0.33622238 0.23685338 -0.2643306 -0.18045364 -0.58558047 -0.45913726 0.24665575 0.18446957 -0.5196532 0.6256739 0.1916445 0.08411142 -0.16725725 -0.10919823 0.51754904 0.15226899 -0.11144986 0.069184676 0.18905316 0.033726472 0.081928834 0.08367165 0.09930293 -0.2425173 0.43420994 -0.2593447 -0.20427656 0.35576326 -0.25603834 0.37467384 -0.013269302 -0.008539259 -0.32440513 0.7249417 0.11466707 -0.057154957 -0.16154982 0.25741836 0.24045642 0.9661701 -0.038050115 0.15043753 -0.3127588 0.017621635 -0.24720368 -0.08270573 0.060396995 -0.2992191 -0.10209754 0.09950656 0.0024493523 -0.008403677 -0.030018205 -0.082256354
5 -0.27320775 -0.057266343 -0.3134829 0.0624962 -0.40335894 -0.15122153 -0.17236719 0.4500229 -0.04094052 0.14590497 0.09373933 0.51290613 -0.1654166 -0.12733755 0.29758257 0.36653143 0.09166706 0.754496 0.24536872 0.23716241 0.02217321 -0.04651952 0.116030715 -0.054647528 0.051096685 0.41792768 0.15699622 0.3309584 -0.115336984 0.12583639 -0.13813467 0.20691656 -0.20083573 -0.034559015 0.061177984 -0.67409647 0.014409177 -0.19015047 -0.20393929 0.15701169 0.23795518 0.03635657 -0.4983969 -0.20282324 -0.4373542 -0.16673326 -0.13692725 0.112807065 -0.5096985 -0.38437828 0.064676985 0.16170621 -0.19658783 -0.30679724 -0.14673132 0.22173023 0.24434374 0.30431807 0.22932762 -0.233588 0.29395053 -0.23182116 -0.1480164 -0.005543067 -0.18734507 0.34248072 -0.12022108 -0.40921757 0.032964244 -0.40137383 0.24477243 -0.6324434 -0.08756697 -0.21049413 -0.49607885 0.24666427 -0.06265926 -0.20830098 -0.7117318 -0.53398347 0.2306837 0.13713974 -0.4121584 0.46450427 0.19330417 0.16066922 -0.13018292 -0.16704796 0.38111782 0.05815729 -0.10206577 0.032389015 0.4188653 -0.06696088 0.21129964 0.24766032 0.06941407 -0.09236157 0.4024393 -0.3776488 -0.22612616 0.35091472 -0.45638326 0.25118026 0.14238667 -0.015516942 -0.18129122 0.76828325 0.022246923 -0.21246831 -0.054296225 0.30174923 0.270565 0.8290207 0.017777577 0.09153893 -0.20672236 -0.0634567 -0.3621526 -0.0064339684 0.0033028764 -0.17551829 -0.09949125 0.15462378 0.011056872 0.116490364 0.24305935 0.0460726
70 -0.5222428 -0.13159144 -0.4569095 0.53001934 -0.35220513 -0.39723966 -0.031503327 0.41469952 0.23351255 0.3845681 0.042218365 0.4062789 -0.06934508 0.18312784 0.18367893 0.43932638 -0.024276122 0.7939166 0.6423058 0.54423535 0.12609273 0.4439061 0.15017053 0.29800922 0.19719689 0.16228123 0.04751649 0.019638794 -0.13247506 -0.107610375 -0.22777964 0.389269 -0.28407666 -0.015594746 0.010785288 -0.62959087 0.062081855 -0.24051534 -0.26766455 -0.025544751 0.33426964 -0.15573257 -0.38621625 -0.20836672 -0.1370473 -0.27047995 -0.13802975 -0.010440406 -0.45459872 -0.25272986 -0.06918168 0.47075012 -0.32256645 -0.17321944 0.49384844 0.051811766 0.4558481 0.21646631 -0.08486831 -0.22698727 0.21967797 -0.21965483 -0.086205184 0.24697568 -0.41370502 0.34478304 -0.210703 -0.5339432 0.119291425 -0.2642985 0.37050372 -0.76491565 -0.17165212 0.037111245 -0.07631453 0.3859497 -0.33246118 -0.1093554 -0.68325293 -0.39499867 0.30970824 0.22837901 -0.60667807 0.601564 0.09268356 -0.020486949 -0.16364512 -0.23403534 0.7094909 -0.04472628 -0.2219636 0.1391238 0.017135438 -0.19972262 0.28205448 -0.22597037 0.3025851 -0.10813566 0.46017095 -0.11257518 -0.28858483 0.5015605 -0.30628148 0.44647077 -0.04155331 0.103251055 -0.364179 0.7769121 -0.015253874 -0.17722437 -0.014440886 0.34234425 0.24317604 1.0928054 -0.11197789 0.16389476 -0.27073172 0.022810442 -0.44270077 0.028660294 -0.05138614 -0.553452 -0.094516024 0.16952439 -0.19392958 -0.26464155 0.25593248 -0.07397457
6 -0.25963032 -0.09713748 -0.16749288 -0.05207488 -0.29445127 -0.053243916 -0.29417813 0.4053977 -0.057523776 0.007910644 0.2783573 0.6334508 -0.27945116 -0.21312754 0.107735515 0.21802628 -0.102998346 0.75840425 0.13420743 0.38918212 0.020718172 -0.1348948 0.10589114 -0.12710226 0.028475065 0.07318564 0.30179387 0.49414018 -0.2303544 0.18386641 -0.23021421 0.12584123 -0.316291 -0.05518974 0.078189835 -0.57659847 0.077973805 -0.13633156 -0.25541717 0.17426945 0.23601641 0.030510396 -0.4845353 -0.28975284 -0.65332496 -0.13527979 -0.15561502 0.1722748 -0.4377499 -0.44048735 -0.021165894 -0.055999316 -0.20747145 -0.45960692 -0.23270372 0.30434 0.023675151 0.41090602 0.2592113 -0.2113193 0.4324755 -0.08097983 0.009259862 -0.09183739 -0.23630074 0.26205757 -0.054345082 -0.27161205 -0.04468792 -0.5060025 0.122974195 -0.55284613 -0.064763375 -0.15202601 -0.6360122 0.31708845 0.105591625 -0.105217665 -0.6392243 -0.6538905 0.23493527 0.14113018 -0.3518568 0.34413224 0.112025514 0.22519422 -0.08198871 -0.20330739 0.38053268 0.10186833 -0.20827995 -0.05164449 0.38733673 -0.18273033 0.35937306 0.3083559 -0.10594027 0.12062442 0.2640507 -0.6464712 -0.3205823 0.123102725 -0.4423598 0.02828196 0.10472573 -0.013176531 0.04585882 0.7133039 0.12493634 -0.21131167 0.15440524 0.15447532 0.3643539 0.61269337 -0.015197163 0.067089304 -0.076015286 -0.01529007 -0.28459954 -0.06757195 -0.06686191 -0.018849371 -0.055456586 0.34113944 -0.05201813 0.25547928 0.4998169 0.042450584
7 -0.21342593 -0.18487424 -0.0631212 -0.24391346 -0.17802982 0.058179673 -0.1931318 0.3213997 -0.07037083 -0.038563877 0.2894378 0.48921436 -0.18484652 -0.1560887 0.26887038 0.13538434 -0.10854576 0.6055983 0.11265245 0.20138451 0.09641884 -0.23729907 -0.06896289 -0.15198427 0.17539345 0.030103095 0.29033816 0.53400165 0.122618854 0.09107276 -0.2589382 0.17075175 -0.24131402 0.06277357 0.065181136 -0.5798597 0.20059842 -0.18577497 -0.18336342 0.24247678 0.2349016 0.021853613 -0.64647794 -0.39144534 -0.57391375 -0.09649151 -0.11339857 0.18767254 -0.57415515 -0.3926873 0.07659799 0.03502924 -0.06247772 -0.3805034 -0.19344698 0.3354528 0.0634883 0.39277214 0.15297501 -0.19297174 0.27717316 -0.15970682 -0.028868536 -0.168352 -0.13518824 0.21350843 0.16439725 -0.25545138 -0.3077847 -0.22089472 0.061621122 -0.37665832 0.12117824 0.027486844 -0.49214798 0.3019413 -0.0034972008 -0.021119392 -0.49919775 -0.72091174 0.11775118 0.16896681 -0.26022097 0.22433044 -0.10977674 0.11500567 0.013673696 -0.18751296 0.34064615 0.06442954 -0.03402441 0.060518466 0.37868363 -0.25701973 0.24742834 0.29169428 -0.07763737 0.18596579 0.20239578 -0.37727678 -0.36604002 0.04808734 -0.3777543 -0.04892229 0.13543288 0.09013877 -0.10698741 0.56269175 -0.05383135 -0.2490979 -0.042504784 0.13644011 0.25593397 0.54949504 0.042094506 0.19197124 0.13093497 0.18004861 -0.35426667 -0.057125457 -0.34749016 0.30876303 -0.22326171 0.42844436 -0.17141458 0.14193885 0.47758296 0.025824837
75 -0.35056567 0.025808766 -0.23018932 -0.011502044 -0.30643097 -0.10813858 -0.3678331 0.62681025 0.039574362 0.039650463 0.1976062 0.7636332 -0.23358531 -0.3833919 0.093556955 0.11074501 -0.09854774 0.77873254 -0.22218767 0.63670725 -0.06961093 0.07064414 0.15136208 -0.0049205837 0.11402601 0.113478996 0.33835027 0.49826774 -0.35453555 0.26224902 -0.0126904985 0.10350378 -0.19488421 0.05437928 0.18295518 -0.64570236 -0.16273186 0.22989728 -0.10709162 0.1627426 0.23657455 -0.11527957 -0.36856988 -0.19645359 -0.48364142 -0.09118171 -0.11516861 0.058229618 -0.49283183 -0.4062447 0.046816345 -0.14177924 -0.3356915 -0.59556395 -0.40241948 0.37735733 -0.119149074 0.47151276 0.11798516 -0.11978283 0.17298587 -0.09063445 0.14379767 -0.15773319 -0.31100905 0.23188122 0.12300308 -0.18071222 -0.10754559 -0.39175424 0.12517081 -0.72843254 -0.29734844 -0.23259306 -0.66973406 0.4183316 0.16889504 -0.1308015 -0.92876554 -0.4765221 0.1364497 0.13677548 -0.2993825 0.40071648 -0.022949731 0.29466584 -0.3062589 -0.14318125 0.3635991 0.139182 -0.24460386 -0.124028176 0.35601354 -0.09238412 0.265877 0.16805108 0.012463381 0.16627577 0.24696194 -0.57464486 -0.29958645 0.30387777 -0.5146747 -0.2006874 0.2188612 -0.09997857 0.03867925 0.5382095 0.05882885 -0.49703193 0.04703921 0.3092232 0.5002268 0.8720679 -0.31657153 0.14269099 -0.2663547 -0.012798081 -0.23749502 -0.30969003 0.15313867 -0.10622112 -0.04327432 0.24735864 -0.049246415 0.32103735 0.4974225 -0.06395663
8 -0.38612184 -0.11695368 0.06110322 -0.34602207 -0.0022180073 -0.044156123 -0.25819203 0.21320595 0.15162027 -0.10285935 0.41135395 0.47204125 -0.23831247 -0.15195668 0.2033664 0.013217815 -0.18105252 0.5904377 0.14977445 0.2497924 -0.02637892 -0.19125858 -0.17100033 -0.20845886 0.35538954 -0.082469895 0.26411065 0.5051488 0.25528878 0.0217428 -0.3285388 0.07918826 -0.40451822 0.11824412 -0.06728284 -0.526857 0.3766947 -0.022352422 -0.17290075 0.14629401 0.42544985 -0.012779989 -0.49026623 -0.3983081 -0.600772 -0.08400222 -0.061648447 0.2175888 -0.41534021 -0.3348229 0.10112034 -0.021148518 0.064833865 -0.31450945 -0.024215512 0.3399652 0.13628645 0.2545394 0.24645816 -0.17865968 0.32369545 -0.13555953 0.09803905 -0.072785266 -0.22025907 0.06395247 0.3606798 -0.22051635 -0.5059323 -0.13822587 -0.04135252 -0.22791676 0.024162168 0.0011032547 -0.40404177 0.39419988 -0.015297565 -0.039461236 -0.3604981 -0.78872347 0.18989708 0.14027378 -0.23585199 0.1686902 -0.21988834 0.14718609 -0.19103816 -0.32060218 0.26354796 0.04632033 -0.068516634 -0.054821275 0.1398424 -0.43665335 0.2553611 0.20623082 0.048556644 0.25155413 0.11221791 -0.2179443 -0.4050034 -0.0684313 -0.4294966 -0.18872413 0.043764777 0.13113089 -0.038806614 0.38060793 -0.02229385 -0.2153596 -0.12981847 -0.05267094 0.32573196 0.51253444 0.25647542 0.36811677 0.20031035 0.14748259 -0.32923636 0.0038696795 -0.6333324 0.36531338 -0.29628357 0.379694 -0.2662248 -0.0044631287 0.39433914 -0.045553844
9 -0.44891325 -0.22165944 0.080401905 -0.27421165 0.023305222 0.02635999 -0.23531564 0.3501506 -0.090537496 -0.30547813 0.55976063 0.10452246 -0.17402512 -0.15843688 0.21226212 0.08741746 -0.37998742 0.4312254 -0.041133676 0.27030057 -0.04471954 -0.14822377 -0.07261031 -0.17771941 0.3790909 -0.07581773 0.23963466 0.32685354 0.5113096 0.057188716 -0.109789446 0.16994226 -0.3828848 0.14166985 0.036798522 -0.5359172 0.2810011 0.0051776175 0.05949698 0.3043899 0.23553884 -0.02329584 -0.4531908 -0.43967918 -0.5026512 -0.11567531 -0.13075691 0.22427374 -0.30725336 -0.26144344 0.19318716 0.06156002 -0.046553444 -0.25654757 -0.07436607 0.36089867 0.19154975 0.22087362 0.13958964 -0.14257354 0.2856829 -0.11756867 0.028383892 -0.048843984 -0.2475936 0.10634534 0.37571043 -0.16425943 -0.6408578 0.1408818 -0.09930172 -0.21310067 -0.010735922 -0.1188749 -0.23348616 0.2965686 -0.2387379 0.028669275 -0.3793157 -0.69674647 0.19937794 0.09238444 -0.086478315 0.10479331 -0.25555968 0.070788935 -0.31703585 -0.3501859 0.19582975 0.06418241 -0.013777573 -0.115221694 0.044409093 -0.49274084 0.16241595 0.2342881 0.021374892 0.4094648 0.1702796 -0.18301252 -0.37903675 0.11832487 -0.41351825 -0.13840851 0.058586955 0.05274421 0.041327614 0.19631614 -0.10874507 -0.41959083 -0.18801129 -0.14110337 0.38668868 0.6359832 0.3817106 0.41339928 0.27771163 0.19730577 -0.55066085 0.049812466 -0.80395263 0.4411731 -0.3720454 0.46955392 -0.41833216 -0.2061856 0.21531522 0.1370319
80 -0.47036362 -0.030758161 -0.23561235 -0.2942773 0.19946952 -0.18507995 -0.45529118 0.39054394 0.17557462 0.14723755 0.4128641 0.5392485 -0.2559884 -0.24269815 0.16608016 -0.18231724 -0.20707864 0.4779614 0.09432072 0.25751972 -0.07276696 -0.2066566 -0.37322932 -0.16140679 0.54911804 -0.15908295 0.61691844 0.5549873 0.114028275 0.10839664 -0.31828687 -0.039575715 -0.44871515 0.18638815 0.12141032 -0.35114324 0.6995185 -0.08737236 -0.3199069 0.20096388 0.33129883 -0.09935241 -0.50344014 -0.47375816 -0.7473296 -0.22283871 -0.065062895 0.34085858 -0.36750653 -0.28203768 0.21366958 -0.3251694 0.12306983 -0.29495293 -0.0633649 0.2098808 0.39024287 0.25405917 0.2953394 -0.19652767 0.14596055 -0.22357711 -0.13718836 -0.15089755 -0.13179334 -0.033755217 0.4921724 -0.39763883 -0.5602302 -0.2551211 0.0144082345 -0.2102871 -0.1365869 -0.073184125 -0.26358896 0.20955086 -0.14060871 0.059028737 -0.15939093 -0.80865794 0.08392816 -0.03427461 -0.370704 0.32376158 -0.21469174 0.29906616 -0.4174471 -0.47692162 0.1464634 0.11709415 0.029778203 -0.06040789 0.19393231 -0.40971166 0.48576868 0.21259335 -0.016160836 0.23821561 0.22941323 -0.12156192 -0.499731 0.05001465 -0.40427884 -0.23736347 0.055702668 0.18678853 -0.13960183 0.4127088 -0.17761047 -0.21818294 -0.1931455 0.044616926 0.20572102 0.4507994 0.28674868 0.335626 0.09475427 0.23254447 -0.18625344 0.09942109 -0.6714733 0.46914947 -0.34625107 0.46383053 -0.35848534 -0.088034146 0.3320724 -0.12850854
10 -0.47953367 -0.27305248 0.117053114 -0.4048716 0.04420451 0.04467243 -0.2626601 0.24553074 -0.25035176 -0.34117737 0.54507947 -0.14030915 -0.34065673 -0.13909054 0.24899122 -0.05531655 -0.39295757 0.40337583 0.090093 0.30789635 -0.06150363 -0.19195044 0.25205576 -0.047230482 0.5265151 -0.1357642 0.19678886 0.15441687 0.63818055 0.028347109 -0.0600399 0.032491863 -0.442883 0.1998452 0.030012988 -0.31510016 0.17517896 0.14078856 0.26372272 0.3970627 0.20943017 0.033761375 -0.2959268 -0.47401816 -0.43159533 -0.107343934 -0.15407974 0.25396472 -0.36187723 -0.4664663 0.22461613 -0.045871235 0.007396993 -0.23397885 -0.1727763 0.2135768 0.18165134 0.064853474 -0.05861516 -0.06532633 0.19058606 -0.120898515 -0.049147204 -0.059434075 -0.32077858 0.17557898 0.39416265 -0.06884185 -0.623738 0.36953056 -0.18515694 -0.03225377 -0.1360775 -0.25446033 -0.3343233 0.32629445 -0.23246793 0.3238397 -0.39856717 -0.74573034 0.028335793 0.1434346 -0.088851616 0.059881836 -0.1819147 -0.16156685 -0.4283333 -0.26595703 0.13281439 0.050757524 -0.20448604 -0.10643665 -0.21636656 -0.5238622 0.08630696 -0.032219194 -0.009802863 0.3544192 -0.005557481 -0.1551386 -0.20926312 0.08484695 -0.2748103 -0.1259706 0.10969451 0.12861341 0.16519587 0.04996383 -0.14827569 -0.39964846 -0.15311825 -0.29540226 0.37684384 0.53610486 0.4068188 0.37825868 0.21361816 -0.0046082083 -0.4050509 0.117188945 -0.7858025 0.20318162 -0.18750687 0.24401915 -0.2999332 -0.22707291 0.12626013 0.23564085
11 -0.41440603 -0.14244497 0.15065704 -0.31075558 0.07265127 -0.0588521 -0.252787 0.35540083 -0.28273657 -0.28831822 0.37799627 -0.3418813 -0.47948876 -0.1452752 0.037072178 -0.065222114 -0.39156294 0.30856267 -0.019087637 0.3100808 -0.29727545 -0.2385735 0.29552972 -0.09719351 0.35447305 -0.18825057 0.17125565 0.08643012 0.7064218 0.20708156 0.19204053 0.13331503 -0.49600443 -0.014116888 -0.010869251 -0.09581459 0.19275677 -0.07356613 0.27695328 0.35077554 0.28174227 0.093853995 -0.18594837 -0.47038388 -0.10373174 -0.162701 0.053375524 0.20838362 -0.41037536 -0.3936463 0.17579198 0.043473225 0.04567693 -0.25607052 -0.029279036 0.30170515 0.19017017 -0.048949633 -0.24843383 -0.12516549 0.120701425 -0.05499324 -0.24439187 -0.2098534 -0.27264938 0.14101821 0.43335536 -0.26546878 -0.40270257 0.36498275 -0.059558038 0.014604131 -0.14148468 -0.23095636 -0.40815145 0.38682398 -0.16467822 0.35131362 -0.46222135 -0.82456225 -0.08400363 0.22652854 0.08947575 -0.0479098 -0.22501387 -0.22584616 -0.33186537 -0.14215824 0.035285227 -0.12272326 -0.23637702 -0.11530741 -0.2424374 -0.4991288 -0.030619545 0.084084615 -0.021568516 0.30739975 -0.13066792 -0.14664687 -0.06846407 0.21204875 -0.1776185 -0.14313027 0.25822186 0.15346727 0.1817717 0.017551102 -0.14098063 -0.27302453 -0.36369225 -0.29550505 0.5076366 0.5298104 0.4019219 0.4743704 0.30891705 -0.1825415 -0.2971638 0.017040325 -0.7375702 0.08237178 0.02050279 0.2384269 -0.34702384 -0.35804746 -0.0250841 0.43505841
85 -0.33998 -0.3089353 -0.08742054 -0.2998936 -0.11188492 0.20403491 -0.29982427 0.12800705 0.05615558 -0.32093593 0.40458235 -0.2084383 -0.34358007 -0.3265435 0.039139938 -0.038576387 -0.40882933 0.15858492 0.24200016 0.38056743 0.033970755 -0.06411861 0.11507975 -0.017701922 0.5352532 -0.3324425 0.17903246 0.3522721 0.45107946 0.07297691 -0.30427408 0.11127451 -0.59846056 0.108188085 0.011947355 -0.5568756 0.23520619 -0.046118446 0.12378412 0.44759744 0.088704884 -0.082969256 -0.30356768 -0.7359609 -0.46304747 -0.3481509 -0.17418742 0.22241184 -0.34964988 -0.48097774 0.12904558 -0.078155205 -0.09304737 -0.20698781 -0.12357903 0.29774466 0.30180702 0.18879926 -0.15025076 0.097289786 0.20277242 -0.099009454 -0.15069322 0.15593284 -0.3996414 0.334705 0.46091038 -0.1975619 -0.7119131 0.37374792 -0.18337812 -0.30470082 0.02421948 -0.37834388 -0.16623329 0.19483745 -0.40887335 0.37473047 -0.48843175 -0.7214813 0.08270105 0.2098278 0.1433427 0.05647934 -0.31860182 -0.28452566 -0.51354665 -0.18329209 0.057552714 -0.10730632 -0.26954868 -0.04525206 -0.2920228 -0.54904693 0.06508174 0.11731919 -0.082331575 0.36805534 -0.09604095 -0.18680762 -0.15615362 0.17280287 -0.3448536 0.18108575 0.18672301 0.14623983 0.08247562 0.10006505 -0.17539795 -0.44469285 -0.06837293 -0.45190373 0.398363 0.7838214 0.6312879 0.22165437 0.23985066 -0.07451365 -0.5695145 0.2312468 -0.82761085 0.26702508 -0.15449302 0.23795553 -0.48797262 -0.38194695 0.25107053 0.27933106
12 -0.5497665 0.05041852 0.36410674 -0.26944497 0.14835979 -0.025972407 -0.24275368 0.40251043 -0.38160977 -0.2665733 0.34536335 -0.23438355 -0.63486916 -0.15449648 0.100520834 -0.077099204 -0.41065916 0.30075157 -0.1497285 0.33469298 -0.2553856 -0.32389942 0.3426353 -0.15149206 0.20626618 -0.30097416 0.070385724 -0.07676174 0.6845817 0.43042403 0.23904948 0.1478874 -0.47430906 0.019311676 0.119752824 -0.12251303 0.21874149 -0.09469469 0.31590068 0.18322761 0.23769642 0.14529492 -0.18874793 -0.3872592 -0.18236949 -0.056275025 0.07921639 0.23464571 -0.35278052 -0.37859237 0.29329365 0.054863393 0.03646538 -0.26371714 -0.23905507 0.22969264 0.10173325 -0.08343485 -0.2993715 -0.0955823 -0.0029861955 -0.030665154 -0.3109414 -0.065445535 -0.18819663 0.01775208 0.26207522 -0.27055952 -0.2871812 0.40234813 -0.02328867 0.17047638 -0.12480267 -0.14200668 -0.5905146 0.48126745 -0.18073803 0.49235943 -0.38041306 -0.8058364 -0.05190103 0.3580169 0.05941616 0.0058440636 -0.26708484 -0.19814949 -0.17226116 -0.14212947 -0.0030165194 -0.18047716 -0.22352642 -0.17589784 -0.2612232 -0.50501305 -0.12105108 0.016112149 -0.012284439 0.33544043 -0.20260577 -0.3264411 0.075729676 0.13076201 -0.08002877 -0.26740882 0.086410776 -0.0042416104 0.20313111 -0.137699 0.0012631721 -0.10690922 -0.45914343 -0.45299247 0.45067266 0.596508 0.19856037 0.57042503 0.31023383 -0.14519654 -0.030913029 -0.10748609 -0.7082345 0.025253834 -0.07049124 0.23584951 -0.4299439 -0.27001005 -0.082046196 0.57788146
13 -0.5823528 0.03584834 0.3515692 -0.21612549 0.20251048 -0.11148778 -0.1714868 0.31738526 -0.20595524 -0.16220379 0.38405308 -0.026653681 -0.61486655 -0.0030521601 0.2863073 -0.18083844 -0.482923 0.3724262 -0.27269652 0.27309358 -0.37026173 -0.13087851 0.35644573 -0.11094913 0.13699135 -0.33303893 0.041888807 -0.10606256 0.78641987 0.19914408 0.15504207 0.021044523 -0.3169979 -0.19582911 -0.013444941 -0.011716214 0.24697267 -0.27128184 0.48856562 0.32122666 0.06976164 0.20339894 -0.08861606 -0.3644788 0.018134534 -0.12711541 0.0914992 0.26105407 -0.34455913 -0.22340314 0.38418362 0.016048351 0.23793176 0.042797495 -0.30485186 -0.08199331 0.08683395 -0.15736069 -0.38841164 0.09209948 -0.0242532 -0.05339745 -0.46616438 -0.2115247 0.002041441 -0.05271076 0.1733033 -0.15437074 -0.1517492 0.28105116 0.20923145 0.09843143 -0.21794994 0.009650832 -0.57917047 0.46272418 -0.12357879 0.48606598 -0.24060003 -0.7957737 -0.22050434 0.16185854 0.103155576 -0.08935679 -0.14081998 -0.36074385 -0.1013212 -0.10916281 -0.15025628 -0.11199982 -0.21899205 -0.13734978 -0.25381893 -0.30919242 -0.17815213 0.029226793 -0.18625526 0.32150388 -0.23143372 -0.24590358 -0.030118417 0.057598893 -0.08219933 -0.05259519 0.06158352 0.26325822 -0.026266115 -0.0002505203 0.085382126 -0.013616653 -0.49984416 -0.2526073 0.40587863 0.3934788 0.25574455 0.5144412 0.34328485 -0.30064166 0.0259801 -0.18369626 -0.56321776 -0.109630264 -0.1286988 0.3831668 -0.50939524 -0.33130962 0.09774584 0.54309785
90 -0.3340674 0.023047235 0.5066243 -0.24668859 0.08930985 0.024106948 -0.124927424 0.5471511 -0.33063623 -0.3805144 0.21616451 -0.24417274 -0.69031787 -0.28631026 2.4895746e-05 -0.14643072 -0.38785076 0.3937162 -0.115013815 0.386265 -0.21621121 -0.35200763 0.15149425 -0.27507186 0.25873458 -0.25736058 0.08746879 0.08570812 0.66689163 0.49045843 0.2789319 0.30171674 -0.6863677 0.049514726 0.12497192 -0.08963887 0.08586872 -0.093943074 0.11822579 0.056839064 0.19894251 0.12228083 -0.20493929 -0.34935912 -0.09580516 0.008939288 -0.004246679 0.043261185 -0.5603988 -0.24151403 0.08875754 0.14130394 0.09463704 -0.27120122 -0.12044879 0.29962704 0.0084332405 -0.07768802 -0.34888443 -0.13119213 0.0035569621 -0.08764999 -0.25545552 -0.20375672 -0.22836843 0.048754428 0.28236133 -0.2756715 -0.32777965 0.4937689 -0.077323586 0.17831515 0.05897968 0.0021254267 -0.70919967 0.43408775 -0.15024835 0.47008315 -0.5185132 -0.9402878 -0.14164577 0.4872109 0.045482714 0.06179526 -0.39528668 -0.3370658 -0.15379836 -0.07681802 0.13084607 -0.004259914 -0.1668852 -0.04517703 -0.2641107 -0.5364205 -0.071699925 0.071035214 -0.028349215 0.36711657 -0.43429896 -0.30720893 0.24331327 0.2921238 -0.2569919 -0.18779223 0.18637383 0.094555765 0.052129798 0.037452925 0.025563294 -0.015556514 -0.5680797 -0.37580797 0.4422456 0.7631555 0.26845703 0.4870597 0.50517875 -0.1263555 -0.11510626 0.015270951 -0.85756165 -0.125941 0.0083631 0.40253073 -0.37219283 -0.13567653 -0.08773583 0.5157498
14 -0.46830907 0.207054 0.24016386 -0.16547409 0.21905804 -0.2165905 -0.13956057 0.50504977 -0.12007645 -0.18072142 0.37553984 0.17638895 -0.5695405 -0.020947436 0.3396359 -0.04381298 -0.51944715 0.41294256 -0.20980003 0.36551607 -0.5108674 0.044046897 0.35583156 -0.18980315 0.24320038 -0.58576006 -0.0013825378 -0.07745633 0.75246954 0.19407992 0.0027193576 -0.12177514 -0.14320795 -0.21022385 -0.11397608 0.018468315 0.1882445 -0.39751205 0.5823697 0.17737846 0.15245582 0.18279982 -0.10856107 -0.3626405 0.17744616 -0.063762985 0.09046424 0.29030555 -0.26201013 -0.054431748 0.31761578 -0.03915749 0.12523869 0.17098169 -0.45592964 -0.10664054 0.052173436 -0.1310095 -0.3433177 0.06311459 -0.106443904 -0.01256134 -0.48724672 -0.02702387 0.2897373 -0.118917875 0.22267401 -0.07270914 0.0053547677 0.22051856 0.29298642 0.0909136 -0.28067395 0.09314321 -0.6763256 0.54387575 -0.037344266 0.4518946 -0.16460805 -0.7939779 -0.15455371 0.15697621 0.16047296 -0.123344235 -0.1814098 -0.14450282 -0.07942327 0.017012492 -0.38517588 -0.22453143 -0.2157209 -0.15353665 -0.09547934 -0.32105395 -0.22665237 -0.00064201414 -0.2801549 0.31935567 -0.15611729 -0.3547673 -0.08146188 0.118556075 0.056806233 -0.057872538 0.024235316 0.2858524 -0.19478023 -0.086710334 0.1824875 0.10040965 -0.6564986 -0.1345909 0.3836309 0.39831248 0.09404356 0.4402831 0.109562755 -0.25182286 0.07031163 -0.30177107 -0.23826846 -0.206471 -0.2635029 0.41974184 -0.5129519 -0.2116313 0.20010194 0.38235098
15 -0.3197488 0.2648727 0.2343816 -0.118807696 0.16570888 -0.17437612 -0.027255287 0.33470318 -0.072215974 -0.03999344 0.36030993 0.38970616 -0.38997123 0.033500757 0.49353203 -0.034353778 -0.42925784 0.4535658 -0.38272926 0.42618144 -0.15710157 0.1478874 0.14279161 0.06403563 0.1332569 -0.40556344 0.05153464 -0.14888318 0.7442844 0.055539865 0.15102646 0.050706066 0.021664163 -0.17017348 0.016397266 -0.00028404724 0.10360707 -0.37632886 0.54914737 0.2539952 0.121037185 -0.03876426 -0.08908352 -0.4438379 0.17197633 -0.08205228 0.1330374 0.15208478 -0.3523343 -0.1423656 0.2571536 -0.09831344 0.16860218 0.08615662 -0.5271904 -0.042554058 -0.029687932 -0.20838317 -0.5172976 0.14832558 -0.13028806 0.0793887 -0.45329612 -0.09939258 0.2652471 -0.13549629 0.20617846 -0.08303841 -0.07464422 0.14860252 0.2740542 0.0049648667 -0.1372899 0.27986297 -0.5511516 0.36358517 0.04696237 0.45714906 -0.054905687 -0.7062325 -0.07825319 0.18559918 0.10861961 -0.075887695 -0.097805865 -0.122377194 0.050104212 -0.06784025 -0.4801087 -0.20811154 -0.1356056 -0.11992657 -0.053070232 -0.35827535 -0.40899825 -0.07680313 -0.20412901 0.28856048 -0.2869101 -0.3152443 0.054058246 0.2409082 -0.015883503 0.10798465 -0.07990131 0.29677337 -0.38191128 -0.10809152 0.09251031 0.2135471 -0.73804194 0.084946446 0.19748688 0.28060302 0.053805318 0.40837646 0.13938677 -0.26665887 0.25423783 -0.22943875 -0.27789295 -0.099909835 -0.36517268 0.49395582 -0.51131177 -0.2561826 0.30824405 0.28953034
95 -0.6366196 0.2333795 0.21936175 -0.03436067 0.23087554 -0.21064669 0.02803286 0.48965967 -0.074737646 -0.3319983 0.30388588 0.15116875 -0.6007054 0.15340854 0.31254065 -0.09717946 -0.5480377 0.4492097 -0.28524444 0.35250735 -0.63443875 0.11672635 0.2703781 -0.2363362 0.19160052 -0.68357795 -0.17661944 -0.21656835 0.596055 0.1829445 -0.060705196 -0.26134408 -0.15829721 -0.1799082 -0.083075404 0.20671014 0.33208862 -0.50041384 0.60721534 0.22784182 -0.024582038 0.15540393 -0.057015214 -0.36390552 0.20445557 -0.12587665 -0.13196069 0.40750134 -0.14526421 -0.056602627 0.3468204 -0.3094786 0.08287067 0.16267936 -0.5062297 -0.18840438 0.11897316 0.01359336 -0.39572963 0.13511367 -0.12337484 -0.050598927 -0.43426257 -0.15798953 0.40093228 -0.18312645 0.5527892 -0.11024707 0.0075941477 0.21100725 0.2619559 0.19711345 -0.44408637 -0.0644582 -0.67064816 0.63296634 -0.027425924 0.62673444 -0.0057384297 -0.89549387 -0.28232598 0.12641616 0.1605778 -0.086149774 -0.30365318 -0.049394324 -0.3257181 0.1732494 -0.53384954 -0.06381724 -0.20275247 -0.15011089 -0.016855538 -0.31303844 -0.15915439 0.030148787 -0.5174202 0.27568 -0.09850969 -0.50910753 -0.067656234 0.18735553 0.34238538 0.075804934 0.13552319 0.37698755 -0.37497398 -0.10909041 0.23536979 0.20453942 -0.78296053 -0.064836495 0.3567304 0.38896292 0.012510628 0.41439757 0.21647228 -0.12885778 0.1172108 -0.42098686 0.0020298082 -0.16558948 -0.31365168 0.6113531 -0.7110019 -0.10448462 0.32772234 0.32979068
16 -0.21962495 0.17274855 0.20145372 -0.05980385 -0.013877581 -0.22592737 0.056703802 0.5866355 0.11096683 -0.121959716 0.3182045 0.44340706 -0.2776582 -0.008334384 0.24374089 0.21259727 -0.37138698 0.3572887 -0.28013793 0.62336963 -0.085354865 -0.040075384 0.21977378 0.124720186 0.13702182 -0.39800203 0.29350892 -0.049911305 0.7415114 0.13248453 0.3089053 0.12241678 0.033668663 -0.3211964 0.10020596 -0.008601819 -0.08134011 -0.36399254 0.53113586 0.088661395 0.06579092 -0.18490899 -0.0839226 -0.44202733 0.22326834 -0.36760366 0.19974962 0.064327255 -0.30456653 -0.28157547 0.072645225 -0.020764176 0.008661687 0.0063367183 -0.35384765 -0.06631201 -0.17141269 -0.31050432 -0.45522016 0.09703821 -0.27415055 0.22814892 -0.52694046 -0.10353655 0.46088392 -0.0636702 0.045094434 0.00034940377 0.013528513 0.13811532 0.20170611 0.039319925 -0.1485746 0.32384777 -0.45268658 0.21364625 0.05823901 0.33270407 -0.10537853 -0.66866213 -0.10262665 0.2514465 0.10870304 -0.0878 -0.0015984825 -0.0733397 0.15884581 -0.13192037 -0.6264274 -0.25734845 -0.112360634 -0.16801493 -0.2209744 -0.4495265 -0.46785757 -0.06729061 -0.09933678 0.25499615 -0.34972596 -0.20703809 0.14740053 0.46366888 -0.04748897 0.16149777 0.06680158 0.21277715 -0.26996705 -0.1448343 0.108251825 0.24756975 -0.6909183 0.16492163 0.20941572 0.29378128 0.109149486 0.43413782 -0.13489787 -0.22675355 0.1937189 -0.051601727 -0.05992571 -0.16762257 -0.2097909 0.47070786 -0.293613 -0.15879034 0.3727525 0.28187793
17 -0.049981143 0.032638177 0.19205385 0.059083767 0.014285464 -0.24376081 0.19680189 0.52833253 0.25606328 0.0023058807 0.18258137 0.4167518 -0.057137787 -0.11192833 0.17334831 0.40214562 -0.092519976 0.3743991 -0.29671973 0.7052653 0.0058237957 0.23584944 0.017959112 0.34359506 0.08821685 -0.17722186 0.37883082 -0.0923067 0.6936543 0.10057275 0.46019274 0.35969797 -0.0061495164 -0.17037915 0.09420024 -0.056773923 0.025627008 -0.44856313 0.5548339 0.097172685 0.22299998 -0.21074143 -0.09440743 -0.58401453 0.04425694 -0.2598534 0.21420968 0.065476045 -0.16674414 -0.33999106 0.0028992142 0.0757574 -0.11317324 -0.05750236 -0.17897022 -0.03970273 -0.18721452 -0.46611243 -0.39787635 0.093529485 -0.24582279 0.41298464 -0.39212808 0.043223083 0.48140812 -0.014678838 -0.013774181 -0.10454738 0.027550206 0.12543903 0.26165938 -0.10541073 -0.15900296 0.4413289 -0.52432805 0.27738693 0.059803084 0.33365235 0.012366478 -0.65978897 0.0163996 0.43520427 0.10849577 -0.19714573 -0.08955111 0.19897895 0.3507562 -0.1546247 -0.60903406 -0.3349538 -0.023101823 -0.2408442 -0.26193213 -0.71457905 -0.46299902 -0.18648297 0.02848069 0.16475876 -0.17783366 -0.023191476 0.16934144 0.40752885 0.012661587 0.1644312 0.14166851 0.22778998 -0.33794755 -0.08648513 0.02464098 0.3474341 -0.73787427 -0.016426904 0.088433705 0.2403863 0.12431071 0.38246587 -0.10821535 -0.119875856 -0.09362577 0.10875539 -0.27465937 0.011887698 -0.16777301 0.36658758 -0.2766837 -0.27415362 0.5971688 0.15042494
100 -0.09814435 0.1620286 0.29536825 -0.18181854 0.0014273941 -0.08369989 0.031162234 0.5619739 -0.041559614 -0.18254904 0.3819824 0.38380957 -0.17555633 -0.0866394 0.36828044 0.21703981 -0.33449143 0.29629773 -0.23156703 0.7206633 0.037498187 0.16815302 0.08553544 0.025547618 -0.06765597 -0.5489828 0.3947492 -0.09772132 0.6838313 0.037834357 0.32271156 0.04555196 -0.1113487 -0.36943105 0.11344614 -0.031661045 -0.23748471 -0.4115824 0.490217 0.14422014 0.042680256 -0.29982758 -0.22825235 -0.32220635 0.17591877 -0.38799796 -0.012494252 0.030895976 -0.50850964 -0.33541867 -0.062714145 0.045817096 0.021466333 -0.16772442 -0.54062086 -0.013718127 -0.01865197 -0.40927154 -0.7022687 -0.15398426 -0.3968869 0.042310443 -0.55393535 -0.009695214 0.30200574 -0.080102645 0.062777296 -0.0038012753 -0.14902987 0.053362753 0.1817611 0.03574873 -0.16076955 0.1964369 -0.40768936 0.25467387 0.32659516 0.3595239 -0.18845281 -0.6845938 -0.17759497 0.20372964 -0.036610287 -0.053336725 0.1857112 -0.01809251 -0.0046699457 -0.359075 -0.630318 -0.1520925 -0.04226546 -0.15118322 -0.030351754 -0.6259393 -0.5038426 0.041690122 0.16299278 0.20084031 -0.59132063 -0.41489607 0.3264927 0.77562296 -0.28152648 0.4322085 0.06677219 0.17635508 -0.36929622 -0.19295165 0.14574128 0.21861179 -0.73340815 0.03768035 0.25337753 0.31239676 0.0809031 0.33566198 -0.090387784 -0.39369857 0.15597677 0.081161 -0.052891552 -0.2446488 -0.43235916 0.47902274 -0.19086549 -0.25525153 0.4116421 0.3613991
18 -0.16524109 0.07372478 0.059978087 0.2535546 -0.13119826 -0.37030953 0.23423956 0.62672323 0.39593217 0.10286984 0.24644703 0.57634115 0.103396386 -0.20903964 0.035340313 0.6655223 -0.0051598996 0.5598565 -0.1636191 0.80315816 0.047826976 0.16460907 0.120693654 0.47823283 0.013455619 -0.12855285 0.341706 -0.1971231 0.7616207 0.083194375 0.6650885 0.42052415 0.14364035 -0.050137587 0.21242705 -0.104961 0.14785473 -0.3777976 0.51596004 0.21938524 0.1680858 -0.21454774 0.00021336609 -0.33413327 -0.17149521 -0.14008424 0.22057404 0.17669073 0.0597446 -0.30632395 0.089121826 0.043896668 -0.10206608 -0.14231423 -0.09887397 -0.050461594 -0.13645877 -0.57523704 -0.14141914 0.028891454 -0.16383098 0.50067836 -0.33961526 0.21113715 0.3244436 -0.047376797 -0.10979118 -0.021615032 -0.0057349107 0.26806527 0.24384144 -0.14193152 -0.20938341 0.18106991 -0.5030462 0.33110285 0.029802728 0.19620706 -0.12010403 -0.64826256 0.022652386 0.36117038 0.07723851 -0.27296793 -0.09721145 0.2994669 0.5072713 -0.015393511 -0.6018618 -0.42571706 0.040413942 -0.4592715 -0.27574402 -0.77387446 -0.45835382 -0.19634077 0.21360466 0.19928882 -0.115087144 -0.007032398 0.23558842 0.28801706 0.029533861 0.09687699 0.12843326 0.05545851 -0.044729892 -0.25653812 0.10917562 0.37232324 -0.72709936 -0.28758892 0.17406057 0.15445827 0.17491594 0.47164926 -0.20244218 0.021387499 -0.16311458 0.026997989 -0.4176673 0.08987264 0.05827143 0.28558192 -0.16229936 -0.12853293 0.5364339 0.2478711
19 0.012959801 -0.116132006 -0.106598526 0.31111324 -0.24057858 -0.32937604 0.14781101 0.5216686 0.44813797 0.020111633 0.05234074 0.3849996 0.20970899 -0.37369227 -0.15875515 0.6464998 0.026650464 0.45060384 -0.1516631 0.85669494 0.17337207 0.29279253 0.16354047 0.25570956 -0.11804522 -0.0060751718 0.23919125 -0.13963096 0.7365259 0.23300429 0.6883425 0.50215614 0.053344704 -0.2180162 0.27702388 0.047978483 0.12847468 -0.35610956 0.3858972 0.035482906 0.014279779 -0.13873404 -0.011112152 -0.3352298 -0.1524003 -0.19086395 0.24816561 0.14063492 0.119458474 -0.28793228 0.06717846 0.036449756 -0.18432342 -0.023262227 -0.029943129 -0.06735962 -0.092198096 -0.39858082 -0.20819086 0.029155128 -0.18971783 0.4969856 -0.23570906 0.08716943 0.26247638 0.0675311 -0.07310062 -0.12297819 0.06799475 0.22629598 0.12925588 0.025129335 -0.049766954 0.15931174 -0.38582334 0.36525542 0.0798296 0.15566193 -0.04571807 -0.60773027 -0.069568306 0.38326707 0.123320036 -0.15295029 -0.121109135 0.27454716 0.34384093 0.2364195 -0.5580095 -0.3830377 0.12588571 -0.295621 -0.19865455 -0.8329608 -0.4863411 -0.2349251 0.05421536 0.0012511737 -0.1176211 -0.07105573 0.230789 0.2748621 -0.016005008 0.014911384 0.111989975 0.08340337 -0.14816254 -0.07912387 0.0855079 0.35875505 -0.7273304 -0.20676786 0.1038376 0.30423203 0.061110392 0.36842805 -0.14798719 0.08207171 -0.23210086 0.21110302 -0.17004332 0.16834325 -0.14965373 0.14640877 0.012285126 -0.12761742 0.6312544 0.26763183
105 -0.16009547 0.117684156 0.16600858 0.14515924 -0.100187756 -0.23131122 0.2973259 0.43879527 0.28993613 0.0103767635 0.24382977 0.59943354 0.20997857 -0.062016938 0.21389769 0.70469075 0.027119592 0.5271306 -0.07222407 0.6711823 0.033796325 0.10377019 0.022718426 0.3614685 -0.10066251 0.058832504 0.31246462 -0.21656118 0.98997 -0.0154070165 0.6107367 0.4644295 0.111938044 -0.078087956 0.15461624 -0.2949957 0.32128072 -0.4755358 0.6928121 0.31064624 0.1903422 -0.3246889 -0.019174363 -0.45380202 -0.23309688 -0.19402602 0.12478091 0.3525103 0.0025560136 -0.35003975 0.24793993 0.13469447 -0.13652816 -0.20029943 -0.2564112 0.070951425 -0.19245267 -0.44763187 -0.10559746 0.0133972 -0.011242035 0.5774305 -0.014640261 0.28169295 0.216167 -0.1291542 -0.13488817 -0.03916221 -0.059468556 0.24606621 0.096233085 -0.112320945 -0.07841468 0.2328873 -0.50115514 0.35502207 0.3246076 0.0965098 -0.06809578 -0.67712843 0.21293952 0.22464597 0.15716285 -0.39438778 0.06749989 0.27700922 0.5137374 0.10577774 -0.54642904 -0.44700527 -0.20161721 -0.53834826 -0.19500548 -0.74248075 -0.25928274 -0.20652704 0.09807237 0.30832386 -0.113869034 -0.19317652 0.20179854 0.23659176 -0.03336042 0.434467 -0.02090016 0.36088887 0.0243121 -0.23733851 0.32478592 0.6421107 -0.6185435 -0.28220567 0.21394485 0.14026275 0.25683787 0.29787326 -0.25971043 0.13762043 -0.07066575 -0.039763875 -0.37505704 -0.09977888 -0.02318994 0.18667263 -0.12562162 -0.015588741 0.6838455 0.23752916
20 0.09099674 -0.23375672 -0.30423626 0.3267177 -0.119255975 -0.14816704 0.067003585 0.43135673 0.30696627 0.0065646814 0.21909435 0.41686273 0.21195869 -0.5224329 -0.14334634 0.51986784 0.18280791 0.47836187 -0.10922231 0.7472424 0.38019156 0.27904513 0.33816412 0.1381284 -0.28981355 0.14513564 0.30800605 -0.025163293 0.59675884 0.24512331 0.7855308 0.4154029 0.077947676 -0.18672925 0.26697028 0.11975921 -0.05982115 0.057931356 0.30524272 -0.10034005 -0.15762909 0.04350492 0.09147221 -0.06037979 -0.1987256 -0.11190739 0.24628067 0.15130344 0.23101388 -0.40272054 -0.065140374 -0.15096514 -0.13679102 -0.025483362 -0.10788734 -0.14285015 0.037417673 -0.3971582 -0.19985647 0.09964421 -0.13440372 0.467815 -0.020600324 0.11236365 0.16188961 0.05190695 0.09154792 -0.07350272 -0.036777526 0.32788998 0.112421446 0.0022089663 -0.111227244 0.124792255 -0.22901857 0.28452125 0.13814451 -0.019694356 -0.09207418 -0.5504876 -0.0074422695 0.3174459 0.11311392 0.10106723 -0.2521168 0.18453093 0.39250368 0.44891447 -0.58109355 -0.36476105 0.097088724 -0.21824615 -0.17249168 -0.9166902 -0.63872206 -0.37280363 0.20443723 0.09787234 -0.08558525 -0.15116374 0.13380197 0.12167552 0.08170428 -0.037637834 0.08385341 0.012637328 -0.09006428 -0.027674695 0.0650731 0.15833272 -0.6212443 -0.15763046 0.17027508 0.41649324 -0.12228207 0.38996404 0.19515425 0.17655341 -0.30622014 0.15856439 -0.04702825 0.39267775 -0.26154682 0.09653748 0.038487487 -0.06351011 0.55901194 0.09393084
21 -0.057682622 -0.30677003 -0.40355596 0.4153283 -0.1947712 -0.1684957 -0.0007066887 0.31045586 0.3057275 -0.018310793 0.066687636 0.07749807 0.16080584 -0.6007609 -0.2214172 0.63017654 0.38830563 0.31382507 -0.016360981 0.724653 0.3825678 0.23251481 0.26445684 0.106038086 -0.13737088 0.33133948 0.6353352 0.018637476 0.45849627 0.21753182 0.5931983 0.40648344 -0.07344479 -0.25160602 0.33716577 0.1713707 -0.04436093 0.040178284 0.05807682 0.021990692 -0.38066894 -0.11382577 0.0027028357 -0.06622993 -0.13242218 -0.23477466 0.022750143 0.13696687 0.45987785 -0.18217807 0.04154426 -0.15187918 -0.09042618 0.11920189 -0.058512125 -0.33075407 0.22450209 -0.4954082 -0.15499067 0.017291741 -0.04564903 0.45404115 -0.14392635 -0.012314424 0.092902854 -0.021111974 -0.00919964 -0.051436763 -0.031651367 0.28740746 -0.15206796 0.1411071 -0.24889314 0.36455294 -0.17910671 0.10229676 0.088081576 0.012205242 0.039472625 -0.5755607 -0.028658668 0.30244482 0.07016582 0.2828834 -0.27927974 0.29853603 0.34067354 0.35240898 -0.400443 -0.14105132 0.0034735275 -0.0069312495 -0.18158968 -0.96427923 -0.41022572 -0.13593099 0.115923755 0.12594345 0.14613909 -0.14747593 -0.051392995 0.13134168 0.040764503 0.0846889 -0.05164743 0.20332307 -0.12688671 0.059658933 0.24904926 0.24403054 -0.51937675 -0.12040413 0.14319731 0.16053222 -0.25114322 0.2243991 0.3769462 0.442319 -0.21638702 0.16934998 -0.022208191 0.41648257 -0.30517352 0.14094397 -0.040882904 -0.03100129 0.59279615 -0.14942065
110 0.027736155 -0.0928101 -0.35145646 0.1770961 -0.0600726 -0.111717984 0.029068671 0.39707303 -0.09698905 0.057313554 0.3516454 0.36970848 0.10150162 -0.3568407 -0.17426194 0.3685722 -0.060182273 0.6150576 -0.0025852676 0.7065074 0.28001186 0.46779782 0.33342457 0.346557 -0.5191665 -0.07405786 0.255847 -0.25021708 0.5993642 0.38070846 0.8673839 0.69146365 -0.28315145 -0.23285113 0.32659194 0.09135804 -0.102868676 0.08269416 0.36030585 -0.18863012 -0.10355855 -0.10126086 -0.012547343 -0.02695199 -0.32582802 -0.11928531 0.33175293 0.29782927 0.2930838 -0.50520134 -0.24286737 -0.31435156 -0.0044168816 0.059648953 -0.20767944 -0.1332264 0.09871206 -0.41436136 -0.18736792 -0.2373511 -0.055130105 0.40056217 0.1525171 0.18202539 0.12294573 0.08939421 -0.015584817 -0.120257676 0.10413277 0.31526217 0.0027157043 -0.03247003 -0.046371058 -0.036965653 -0.19528536 0.47787726 0.45240468 0.02564632 -0.20742004 -0.65218484 0.10602617 0.124353826 0.26674148 -0.049372267 -0.15843597 0.29471618 0.3994573 0.48302317 -0.6403116 -0.48025894 0.026498066 -0.041003823 -0.2654287 -1.0730516 -0.5790012 -0.45141095 0.44729722 -0.029207598 -0.020641077 -0.39261347 0.28812802 0.0631289 -0.10242919 0.06550261 0.07597774 0.09226792 -0.12613858 -0.02819053 0.15806915 0.25209814 -0.46018156 -0.3255097 0.14352699 0.5425606 -0.44464248 0.31524992 0.2771372 0.1559649 -0.31210038 0.08234373 0.14588878 0.28612 -0.39801142 -0.0026009844 0.15351874 -0.21477701 1.0131984 0.061016813
22 -0.12101989 -0.30480894 -0.29633218 0.4773131 -0.24416448 -0.21353874 -0.08540106 0.18999097 0.49083456 0.019553376 -0.16580498 0.19585973 -0.030522926 -0.57592386 -0.20177414 0.4719479 0.57113343 0.3195496 -0.072469965 0.6648175 0.32125655 0.052505586 0.19862683 0.10463672 -0.08273933 0.6318112 0.648373 0.101542994 0.20197573 0.25248417 0.48558137 0.29023358 -0.14502764 -0.0791873 0.34662393 0.18538639 -0.15300313 0.10986227 -0.065283634 0.04728967 -0.36676234 -0.11255105 0.11017603 -0.12924485 -0.26462153 -0.36435768 0.0011716716 0.077196404 0.46207675 -0.26646915 0.0407216 -0.2913128 -0.072210796 0.06213428 -0.043283578 -0.3089945 0.21509255 -0.5217521 -0.048793975 0.13079652 -0.02173694 0.4825729 -0.25416237 -0.16055907 0.006979018 0.09274923 0.09876384 -0.044702195 -0.038957052 0.17750868 -0.3232667 0.13979973 -0.35467023 0.43041572 -0.20485729 0.062214464 0.119486526 0.04462139 0.12651432 -0.3489153 0.04881105 0.43249005 0.041791923 0.4075926 -0.40254748 0.21395168 0.22505815 0.34122536 -0.39901125 -0.008757782 -0.09846741 -0.010155558 -0.1473314 -0.85552996 -0.3448926 -0.026237464 -0.08459049 0.22519794 0.13663349 -0.15148184 -0.10881205 0.24482651 -0.0073499694 0.00267264 0.0054261913 0.2077265 -0.069927245 0.12770265 0.28976429 0.26581782 -0.52475744 -0.03831083 0.21870735 0.127271 -0.28312516 0.23026463 0.43719172 0.5770996 -0.20510067 0.27730733 0.051619057 0.3977592 -0.29658335 0.12742798 -0.17436568 0.07199727 0.4544802 -0.36736426
23 -0.11899115 -0.42494234 -0.3899694 0.5501565 -0.04215301 0.083716586 0.027808836 -0.009199746 0.5146397 -0.025036814 -0.16738084 0.044737026 -0.12845446 -0.5760813 -0.11230611 0.31582665 0.7250773 0.36893767 -0.04208104 0.51352954 0.35978743 0.06705617 0.030371437 0.16030589 -0.096220486 0.73421514 0.7606958 0.03946497 0.054325126 0.21722215 0.38677296 0.093697995 -0.08388236 -0.003044333 0.35948858 -0.028106352 -0.08170963 0.0071267704 -0.14340772 0.093544394 -0.55219495 -0.07914252 0.21667078 -0.01480719 -0.3744589 -0.23619159 -0.13817234 -0.03992525 0.5797602 -0.10446716 0.1799787 -0.22674255 -0.052227214 0.229801 -0.16365488 -0.3711241 0.29519397 -0.5196706 -0.08058485 0.14365257 0.20560119 0.36568493 -0.2701396 -0.20827852 -0.032457393 -0.09596275 0.042510986 -0.090645395 0.11214541 0.16170399 -0.28898108 0.03042531 -0.3060939 0.32636467 -0.12462588 -0.036447536 0.02343923 0.039670754 0.13864163 -0.30577028 -0.08340791 0.37716362 -0.0021347525 0.56041795 -0.5080208 0.3032541 0.29128626 0.20518185 -0.20806569 0.13209487 -0.11110228 0.07496269 -0.10329958 -0.69636035 -0.35373104 0.08298229 -0.19835117 0.5144171 -0.007998287 -0.39738676 -0.035864502 -0.014366807 -0.10025271 0.029160157 -0.05527625 0.27051228 -0.25479573 0.18931971 0.29383072 0.38537797 -0.52015436 0.020943373 0.024304647 -0.01701237 -0.41971967 0.17659947 0.51376265 0.4579138 -0.32324678 0.019528216 -0.15370513 0.20933783 -0.08755317 0.46935114 -0.37871513 0.09864243 0.70695025 -0.5337982
115 0.11751233 -0.5058999 -0.5280991 0.46896926 -0.36817074 -0.34773433 -0.1446937 0.14366142 0.48023686 0.023092411 -0.032921232 0.21326452 -0.095408626 -0.46953475 -0.13608852 0.5398782 0.72549206 0.3647146 0.21782212 0.49029872 0.18697506 0.019081445 0.21291964 0.19325486 0.40469062 0.8199433 0.7412133 0.2236237 0.3585209 0.12780772 0.52696216 0.19814406 -0.22436738 -0.18618542 0.43762776 0.16841176 -0.32882938 0.22505528 -0.15364133 0.04623718 -0.3982365 -0.10482621 0.10223584 -0.16411214 -0.18755414 -0.36596873 -0.15127985 0.058236748 0.5380359 -0.16143459 -0.006416767 -0.24444152 -0.2113424 0.1929496 0.05906781 -0.33140108 0.25504124 -0.6881543 -0.03038831 -0.06440858 -0.088226065 0.74253553 -0.019381333 -0.21733259 -0.057646856 0.032835893 0.111203976 0.096005104 -0.10290687 0.2871636 -0.2986208 0.15297896 -0.35247985 0.46434566 -0.1832198 0.04573441 -0.11840398 0.016961772 0.08481747 -0.40028515 0.12671085 0.53373235 -0.04968514 0.3940332 -0.16548726 0.13240688 0.22575215 0.56190413 -0.30405727 0.006880761 -0.11787282 -0.01662815 -0.009248457 -0.85608983 -0.33781147 -0.03861658 -0.4468355 0.2027667 0.054797173 -0.22289549 -0.2608737 0.31451938 0.11730201 0.1231524 -0.054400392 0.14990586 -0.022249889 0.16982502 0.3205594 0.38744128 -0.56590164 -0.03175282 0.2472917 0.17958865 -0.15856302 0.14988485 0.38915288 0.6433539 -0.3368371 0.3706214 0.07078427 0.16340993 -0.44459575 0.11646069 -0.19972384 0.15570125 0.15540965 -0.39181542
24 -0.082352445 -0.21255127 -0.2036547 0.4458367 -0.13734463 0.181349 -0.010012675 -0.15121381 0.43752465 -0.063031025 -0.27361104 -0.03994662 -0.30968666 -0.55542636 -0.23736541 0.2239028 0.4647054 0.44744158 -0.043823943 0.47991246 0.05964141 -0.21171598 -0.15790233 -0.0022059751 -0.22472252 0.49988353 0.57919526 -0.038358636 -0.2510853 0.44484028 0.20635718 -0.28809536 -0.06330216 0.030115062 0.2276627 -0.06787384 -0.05517881 0.069738746 -0.26569143 -0.03379067 -0.39745346 0.04498751 0.33680168 0.09329279 -0.4348863 -0.21950848 -0.28517503 -0.08568857 0.5525472 -0.0788644 0.16786477 -0.28103107 -0.15326753 0.16815743 -0.008736993 -0.17475747 0.5392812 -0.3850846 0.13619822 0.27729577 0.085426606 0.32414588 -0.2600375 0.054758 -0.07952637 -0.025421936 0.09136696 -0.0393336 0.09982418 0.012729288 -0.1451006 -0.20879109 -0.5081958 0.05276338 -0.14034137 0.18459113 -0.1739212 0.12663357 0.15674151 -0.31660226 0.08031643 0.5431981 -0.029168433 0.4789836 -0.5357242 0.28991506 0.21065573 0.23489644 -0.26347524 0.085924424 0.0019669372 0.027536351 -0.19204724 -0.58164984 -0.4025009 -0.017786238 -0.033147976 0.4865618 -0.013446101 -0.3432112 -0.16259238 -0.11498706 -0.058349997 0.26468405 -0.11387283 0.23503676 -0.24407353 0.2320452 0.21632461 0.41577244 -0.3647918 -0.03045309 0.107141934 -0.0873478 -0.24613982 0.1972093 0.35578084 0.17071056 -0.4654842 0.00048318025 0.018880218 -0.12714374 0.10205468 0.64800084 -0.20702188 -0.1213866 0.8911512 -0.7417975
25 -0.18711597 -0.059422817 -0.13715756 0.26385516 -0.11459106 0.10539341 -0.011191172 -0.089472115 0.47928384 0.17915265 -0.40508366 0.090038165 -0.21054783 -0.6611146 -0.10747661 0.045284387 0.471252 0.39431503 -0.037262287 0.34408242 0.12439708 -0.32666168 -0.2145449 -0.04198728 -0.17900684 0.43722573 0.5308832 0.07171206 -0.24528056 0.31843883 0.16112225 -0.42942476 0.007759225 0.15353881 0.14652745 -0.04249192 0.090101585 0.056452747 -0.49312705 -0.0047147055 -0.2643171 0.1417925 0.40033725 0.14407857 -0.42212042 -0.32941112 -0.11127919 -0.074547276 0.279855 -0.16576265 0.3141289 -0.2933811 0.06057587 0.051985487 -0.012122703 -0.20710643 0.78711176 -0.47814623 0.03712107 0.38402715 -0.070017315 0.09302853 -0.57952476 -0.042433538 -0.10425798 0.0355704 0.13545808 -0.28222236 0.03306618 -0.05029659 -0.21624057 -0.17350075 -0.5824038 -0.14910339 -0.07367983 0.13378379 -0.09675279 0.21101695 0.18545872 -0.22744438 -0.118908554 0.43459418 -0.044163857 0.54660594 -0.6324923 0.15039593 0.17522596 0.26652488 -0.350316 0.08129542 -0.036406923 0.11417787 -0.2093068 -0.5681917 -0.44868487 -0.15825716 0.08469856 0.40846083 -0.26365098 -0.24558808 -0.05691194 -0.18942688 -0.10552079 0.287534 -0.047145672 0.31407118 -0.2791423 0.32375064 0.123020954 0.27321395 -0.40607938 -0.020478645 0.1121847 -0.06126503 -0.24271877 0.26248202 0.27991167 0.10402357 -0.27975097 -0.2538112 -0.017387852 -0.12943475 0.2526349 0.46792328 -0.20236108 -0.104245275 0.7357474 -0.64068836
120 -0.14747742 -0.27739856 -0.42842275 0.44243047 -0.23372208 0.13169993 0.047173433 -0.36420527 0.46485662 -0.020568745 -0.31466338 -0.070281446 -0.32033277 -0.5974707 -0.19430771 0.08457531 0.41567156 0.54101694 0.10844748 0.39960462 0.080105744 -0.05188832 0.008838339 0.20213336 -0.08611739 0.63896227 0.5283677 -0.03812929 -0.14157408 0.42675367 0.19106235 -0.41267416 0.063339435 0.07704466 0.2764443 -0.11156563 -0.2995902 0.19938901 -0.11621173 -0.084556855 -0.2901077 0.0035607198 0.41075116 -0.007944589 -0.3788124 -0.19655393 -0.22403423 -0.17599747 0.45470592 -0.07857855 0.23240209 -0.31367105 -0.05000605 0.35313752 -0.1135665 -0.26901206 0.6255928 -0.45092455 0.10584281 0.30147234 0.13265969 0.30927292 -0.34553546 0.17039858 -0.20711045 0.040325552 0.23478413 0.008275906 0.06130889 0.1564106 -0.09341494 -0.4119987 -0.51538 0.011667277 0.006313152 0.23005308 -0.3137858 0.09517513 0.07185214 -0.17690238 0.022545286 0.52153957 -0.07330108 0.60358304 -0.63453054 0.28626496 0.1801529 0.053506605 -0.42568135 0.03206478 -0.015937842 -0.021969331 -0.16322158 -0.59696084 -0.6067707 0.010801711 -0.07056083 0.6162814 -0.27965674 -0.5457655 -0.101055816 -0.09449209 -0.19924466 0.32083243 -0.060522605 0.15944898 -0.42180303 0.025600145 0.27165636 0.40256926 -0.5589362 -0.22280096 0.055043954 0.051341902 -0.29632053 0.41667157 0.14678088 0.1626242 -0.68471766 -0.11772818 0.06754172 -0.26686493 -0.015690496 0.5314768 -0.3602432 0.09810207 0.70249075 -0.84225965
26 0.047193255 -0.12326975 -0.114414506 0.27267307 0.03337332 0.10408447 0.029483283 0.14050879 0.19075659 0.20624697 -0.3969649 -0.03623525 -0.1712779 -0.47688237 -0.054365728 0.13542877 0.480066 0.13500412 -0.046142872 0.14477782 0.08881579 -0.4999527 -0.35332346 -0.2599782 -0.13765948 0.2927207 0.5055424 0.10465333 -0.3139077 0.2694164 -0.012418441 -0.4192972 -0.027115684 0.27638847 0.14065298 -0.055851012 0.26096585 0.0809498 -0.6041625 0.0055832956 -0.20742746 0.18544765 0.31550595 0.18222462 -0.50639933 -0.36557618 -0.22143179 -0.051673383 0.28340432 -0.037710715 0.41715685 -0.22636037 -0.10124223 -0.015952375 0.0024565982 -0.12533964 0.78297025 -0.50393265 0.005834104 0.37797517 -0.1665449 0.0782033 -0.5536151 -0.12269428 -0.059700854 0.015973331 0.018943092 -0.34189913 0.10102518 -0.09200041 -0.16626863 -0.060976155 -0.54605025 -0.22768885 -0.11151528 0.091000855 -0.026411667 0.35751247 0.319642 -0.18031532 -0.029048175 0.44553545 -0.07116855 0.4488723 -0.6084432 0.3358082 0.05887957 0.27616033 -0.40113607 0.033632625 0.07433717 0.092023164 -0.11548793 -0.61247754 -0.2162649 -0.3184334 0.032646265 0.53931576 -0.18676078 -0.33296978 -0.055389307 0.011979369 -0.021968266 0.4800666 -0.01194868 0.4100618 -0.35758132 0.37161258 0.09656103 0.24523465 -0.3634565 0.004700356 0.15491796 -0.030421656 -0.11724225 0.03412987 0.26550087 0.10409066 -0.2425503 -0.24275148 -0.05320785 0.010272003 0.2732111 0.5842651 -0.26478976 -0.27671528 0.96595925 -0.4697419
27 -0.061886203 -0.054842494 -0.13767183 0.13901027 0.08613967 0.17579317 -0.19011685 -0.08444018 0.40840405 0.34537825 -0.23608243 0.08766679 -0.23624466 -0.32303646 0.0064492626 0.00985336 0.43747216 0.16741717 -0.12916471 0.007662354 -0.030087663 -0.34098092 -0.37026125 -0.18879405 0.052069023 0.4047625 0.23815599 0.12751617 0.003891831 0.17116673 0.10711458 -0.25049108 0.061831106 0.26398432 0.12294434 -0.05519896 0.45843723 0.18721169 -0.4607086 -0.047084253 -0.21505186 0.31700736 0.5119589 0.23216072 -0.37513867 -0.37264514 -0.025606496 -0.030384209 0.31648314 0.08330807 0.5906615 -0.16938901 0.031602472 -0.063499495 0.1624255 -0.15417328 0.57642806 -0.42625827 -0.013985186 0.6501686 -0.15620011 0.14544944 -0.3895735 -0.13283418 -0.26813647 0.13404183 0.0005736738 -0.29418883 -0.08413187 -0.08126986 -0.25753313 -0.055279624 -0.5292037 -0.42740747 -0.0008903386 0.15845849 -0.088648275 0.34072962 0.051051013 -0.21839143 -0.05864745 0.38122177 0.0028096894 0.24685359 -0.36781597 0.31382787 0.025168288 0.54753006 -0.20085882 0.1444191 -0.053263094 -0.087348774 -0.2669995 -0.44503286 -0.22394453 -0.4341372 -0.08167016 0.297004 -0.24090357 -0.07964895 -0.23443511 -0.05531591 -0.065604374 0.61326015 -0.05129175 0.61659485 -0.40962192 0.45354804 0.008195275 0.23709317 -0.29554635 0.002259307 0.30138046 -0.006498344 0.042168755 0.03818026 0.12545462 0.10428644 -0.10295044 -0.32377595 -0.17099364 -0.038479444 0.35173437 0.6154435 -0.21687703 -0.24748683 0.8333431 -0.5263925
125 0.20770584 -0.279319 -0.04727122 0.20716743 0.087614186 0.10519972 -0.07579966 0.16976725 0.37655345 0.10593751 -0.67470694 -0.13818838 -0.099998385 -0.68279546 0.07931412 0.15693898 0.8593681 -0.076297626 -0.026698437 0.30128106 0.04162098 -0.53610593 -0.3539911 -0.60278505 -0.24186508 0.5014241 0.672683 0.22294317 -0.008319403 0.21521148 0.045536146 -0.44823733 0.108755015 0.32504454 0.09902222 -0.045898106 0.22719635 -0.18789706 -0.50646824 0.22725278 -0.38152617 0.046240136 0.2784847 0.21088569 -0.39491236 -0.5311909 -0.1811851 0.0015221054 0.18929853 0.029011682 0.64939195 -0.16976187 0.09713922 -0.09272138 -0.16190562 -0.1950786 0.825662 -0.5329463 -0.070087604 0.3092062 -0.4005337 -0.035286468 -0.76024115 -0.25242126 -0.30873358 -0.02187464 0.021674365 -0.4254158 0.017831314 0.028550692 -0.27720335 0.13871759 -0.6102065 -0.26901883 -0.078692526 0.25248852 0.082545176 0.3008539 0.13854173 -0.297205 -0.03237397 0.40899393 -0.03637558 0.61486995 -0.43948552 0.4337934 -0.32976314 0.14304689 -0.4655192 0.16221833 0.18789735 0.029591007 0.014062518 -0.47090092 -0.3585465 -0.30317342 0.034262557 0.5565792 -0.3189848 -0.3040025 -0.122775026 0.15462159 -0.20388894 0.61814964 0.046376165 0.4331499 -0.64872473 0.44664413 0.028105577 0.20775415 -0.33843055 0.10575399 0.21110503 0.11703326 -0.015100924 0.029645182 0.0859486 -0.0045583197 -0.25992656 -0.18542609 0.14344235 0.21472247 0.0510441 0.69434863 -0.21960406 -0.36832315 0.8531263 -0.58667254
28 -0.060299635 0.042525403 -0.099356495 0.057876017 0.13591534 0.07055953 -0.07841233 -0.023005474 0.25472352 0.23106194 -0.060702913 0.12298781 -0.13537633 -0.00079115445 0.053839676 -0.06663622 0.320278 -0.15427841 0.013901852 -0.1971115 -0.020867597 -0.026830317 -0.2607589 -0.040156573 0.2412685 0.19692585 -0.07189334 -0.0693434 -0.0128893275 0.042140365 0.15764399 -0.118814774 -0.044716958 0.06447185 0.14045314 -0.20209575 0.52015644 0.03898942 -0.2655559 -0.12006294 -0.29324996 0.32905087 0.5397852 0.08935896 -0.38672346 -0.4629563 -0.052462485 0.06599924 0.379336 -0.004001924 0.47885764 -0.034212865 -0.11562321 0.09803667 0.2223855 -0.16402291 0.50761974 -0.25230512 0.026590884 0.6867066 -0.13470642 0.017773401 -0.29004082 0.08067963 -0.18808416 0.119707316 0.0425306 -0.34228358 -0.08367099 -0.029759085 -0.23999622 -0.03543247 -0.3736243 -0.5765821 0.2099727 0.06578356 -0.15924641 0.31117806 0.24314542 -0.05539364 -0.013223804 0.21687621 -0.14934787 0.18211894 -0.35240227 0.2820172 -0.075979404 0.5989522 -0.18067388 0.034938816 -0.067903794 -0.07060905 -0.38299218 -0.63855845 -0.13303006 -0.4684522 -0.050023973 0.21184345 -0.070780754 -0.2620854 -0.21052319 0.018335765 -0.09775796 0.67692894 -0.099320605 0.5808161 -0.21974878 0.3230868 0.05737332 0.31942558 -0.26399675 -0.1920758 0.29661492 0.07280286 0.030863393 0.088517085 -0.030430283 0.22509342 -0.34766895 -0.20602255 0.021602074 -0.1464234 0.25933704 0.5496129 -0.25162053 -0.15554027 1.1038861 -0.4312988
29 0.07382718 0.26208875 -0.09362691 0.020612791 0.19569954 0.16095096 0.082594395 -0.22234102 0.38551068 0.3321623 -0.031934366 0.36447674 -0.071820684 0.21940775 0.1273131 -0.19318646 0.3308164 -0.15780792 -0.11322159 -0.20612997 -0.108927324 0.0017684076 -0.0851229 0.029039437 0.31192112 0.38845807 -0.2924157 -0.19523144 0.031877488 -0.02681893 0.32896075 -0.13742653 -0.18101592 0.040737335 0.028380023 -0.50672305 0.44198993 0.011869654 0.06525025 -0.057494614 -0.2877788 0.39996603 0.5944645 -0.04383949 -0.36638346 -0.40893182 0.14695875 0.10418624 0.24708134 -0.18233004 0.43068644 0.2217483 -0.04807662 0.07529013 0.22990887 -0.2135933 0.3065679 -0.2667268 -0.18155147 0.76186186 -0.11849829 -0.058568504 -0.31243217 -0.014316836 -0.07204753 0.20525412 0.115790956 -0.2864145 -0.112017415 0.022705369 -0.2408858 0.011320048 -0.31363207 -0.52642715 0.3097275 -0.10608409 -0.13761438 0.25927985 0.19749677 0.07928881 -0.16034648 0.20063356 -0.23244575 0.088961594 -0.28635904 0.33248192 0.032034226 0.37672636 -0.1333992 0.10459533 -0.09778894 -0.1873559 -0.42728132 -0.5051994 -0.1313193 -0.6496181 -0.07970571 0.20941252 -0.22343104 -0.2599369 -0.100806504 0.19220904 -0.102052495 0.49211955 -0.0069148154 0.37052742 -0.18700391 0.20152783 -0.04083599 0.2009436 -0.32454795 -0.21191305 0.26904058 0.06691159 0.015990498 0.22096445 -0.25025135 0.28213337 -0.5335953 -0.26841643 -0.016059939 -0.13707165 0.32168797 0.5499523 -0.26043066 0.0874671 0.99090815 -0.3502452
130 -0.24837643 0.07081097 -0.10101152 0.04591434 0.10898781 0.17203729 -0.13145259 -0.1751305 0.42504478 0.24468347 -0.09839986 0.1594898 -0.27483818 0.3272151 0.084672034 -0.08669273 0.3587154 -0.09047691 -0.0013005813 -0.4339211 -0.08982522 0.09371313 -0.04255596 -0.010809662 0.4051892 0.1367137 -0.22215123 -0.0007999867 0.09356076 -0.004327084 -0.051931363 -0.12047369 -0.12562737 0.034640383 0.103578866 -0.36485347 0.27248526 0.27060047 -0.15773351 -0.2119527 -0.1358683 0.19161835 0.650803 -0.08028539 -0.16127883 -0.64131737 8.984878e-05 -0.10200869 0.49240395 -0.071886204 0.4309059 0.036846794 -0.04899929 0.1076358 0.2898634 -0.2997538 0.2774893 -0.3782478 0.0672394 0.5272664 -0.06892625 0.2081543 -0.14447944 0.04427044 -0.20519562 0.13673355 -0.07191548 -0.41537124 0.14903799 -0.09586178 -0.55239576 0.030279657 -0.4716151 -0.7865326 0.3198168 -0.0025797025 -0.27748084 0.35596424 0.15175758 0.04794063 0.07425213 0.2898926 -0.20369826 0.15905486 -0.39528462 0.31015447 -0.08427318 0.7508092 -0.13388671 -0.019917447 -0.17745756 0.0014877309 -0.5806641 -0.69144684 -0.20923968 -0.44767657 -0.08406991 0.101527505 -0.22046284 -0.45603767 -0.30450085 0.215729 -0.14854966 0.849133 -0.0880915 0.71527 -0.3979514 0.49679998 0.21194984 0.21069686 -0.4184077 -0.0957871 0.36002612 0.33456087 0.22601868 -0.016367462 -0.01471547 0.19034627 -0.39324397 -0.07670787 -0.25536433 -0.2737871 0.15578791 0.48360446 -0.21502322 -0.16907242 0.93776494 -0.31515464
30 0.042052135 0.13683529 -0.24647002 0.030338224 0.18906471 0.1519623 -0.010561715 -0.17321305 0.2449295 0.18659781 0.03596555 0.30665514 0.018392738 0.36483085 0.16401559 -0.097432 0.25063413 -0.08003199 -0.20934905 -0.32195008 -0.3004342 0.046216194 -0.01541343 -0.11076053 0.33527347 0.5535003 -0.3163937 -0.28775078 0.19567274 6.935617e-05 0.44288117 -0.21873473 -0.30625096 -0.007628074 -0.05999329 -0.55760574 0.42266652 -0.22851236 0.18770947 -0.07428267 -0.4064195 0.44470575 0.55210495 0.00451138 -0.34470558 -0.414194 -0.11962985 0.2341943 0.30613083 -0.21424481 0.39025795 0.33396804 -0.27837548 -0.003957125 0.27107885 -0.19709732 0.26020733 -0.17768738 -0.123508506 0.622533 -0.09746555 -0.064044945 -0.04705528 -0.030802757 0.08323689 0.31671768 0.18080495 -0.20922954 -0.0063841036 -0.035487715 -0.12869619 0.13239792 -0.24091856 -0.5565441 0.15055944 -0.00081204664 0.096297845 0.1505713 0.13620608 0.042170808 -0.26861492 0.14085507 -0.27922738 0.04657116 0.02297417 0.468069 -0.08034663 0.4735726 -0.20643032 0.118814416 -0.13221134 -0.28452224 -0.23211895 -0.48572963 0.099794686 -0.71472484 -0.04862785 0.10225449 -0.019855287 -0.4209795 -0.20230828 0.38590792 -0.034058206 0.69837344 0.20602547 0.4395087 -0.021561777 0.24213916 -0.1105738 0.20836553 -0.22443414 -0.20212215 0.29027298 -0.051411755 0.04385998 0.21595454 -0.15812564 0.22150464 -0.6212284 -0.08082107 0.2030549 -0.26392752 0.18179451 0.27583304 -0.22350247 0.04458853 0.8928186 -0.15905587
31 0.12838393 0.35627332 -0.2749283 0.021769648 0.3330568 0.23136999 -0.057033006 -0.22914389 0.15967537 0.46982294 -0.014635271 0.41402087 0.03834018 0.36622006 0.17886148 -0.17667833 0.34393317 -0.08021289 -0.4030549 -0.3151031 -0.24263474 0.0028073078 0.058202934 0.013007319 0.35488752 0.586979 -0.23598167 -0.36157876 0.033960417 -0.034748297 0.5080615 -0.37312815 -0.41498402 -0.028651984 -0.017926449 -0.50820005 0.4238348 -0.20360449 0.16060026 -0.2055695 -0.34603474 0.31244552 0.46951923 -0.03147863 -0.294655 -0.302062 0.028374054 0.18767291 0.22876462 -0.18361515 0.33000338 0.34322357 -0.2896169 0.020675307 0.20948435 -0.22385705 0.1937774 -0.177658 -0.21927948 0.52420604 -0.067930244 -0.059708964 -0.05127343 -0.029140154 0.060955632 0.25191835 0.13139176 -0.20234224 -0.018538047 0.045741707 -0.048161864 0.11179294 -0.08911709 -0.40559417 0.08060901 -0.045687612 0.0781407 0.22083436 0.19137104 0.12296143 -0.3665289 0.1701958 -0.34849483 0.0734915 -0.029637603 0.44265035 0.0730171 0.34836006 -0.059197277 0.022766586 -0.22803937 -0.22545922 -0.41389272 -0.51403403 0.12125192 -0.8135993 -0.0023868287 0.24452382 -0.08645387 -0.3614961 -0.20965694 0.35123378 -0.16494417 0.48654318 0.23332365 0.38376337 0.03049534 0.12861623 -0.13174714 0.29106826 -0.21522348 -0.24248213 0.24330176 0.009855763 -0.21163194 0.37114522 -0.21854131 0.28083357 -0.43416968 -0.11502998 0.14143069 -0.17460658 0.24845108 0.2006783 -0.10926884 0.01958135 0.83328414 -0.14066753
135 -0.025316885 0.44075522 -0.31324303 0.06944089 0.022419736 0.2720949 0.12495702 -0.17686076 0.46429884 0.19101302 -0.07828601 0.43124124 0.06851943 0.5182657 0.26641577 0.052987095 0.41022024 0.01918023 -0.43151003 -0.1714636 -0.22202525 0.13889594 0.18063536 0.07721978 0.3958242 0.51133835 -0.24452278 -0.29075775 0.085143074 -0.14948437 0.3427401 -0.30790848 -0.21023941 0.032978114 -0.17387296 -0.593298 0.42073888 -0.23817582 0.20474365 0.19479218 -0.61407655 0.35513702 0.6112124 -0.090818 -0.2687498 -0.41432953 -0.0631405 0.3230045 0.34176025 -0.2897003 0.3938623 0.16794334 -0.42183354 0.11612054 0.12505871 -0.24651748 0.22607738 -0.1507546 -0.19064958 0.6547536 -0.05094761 -0.06965111 -0.03912779 -0.15884708 0.16523115 0.24362631 0.2729303 -0.24985631 0.07606285 -0.016830597 -0.26897818 0.12544635 -0.351108 -0.62117916 0.20308934 -0.20138736 0.16744961 0.15845326 0.087532826 0.036115922 -0.39247093 0.114691846 -0.20386943 0.100389354 -0.08118551 0.53301686 -0.15396635 0.61995023 -0.3223514 0.09706797 -0.20945506 -0.27754602 -0.25918102 -0.49199072 0.18803851 -0.9466644 -0.29503626 0.20411319 -0.024818752 -0.49517196 -0.25938907 0.4706378 0.052421756 0.67327 0.3661338 0.41400307 0.030115148 0.43191674 -0.15637589 0.08653345 -0.22624585 -0.067703746 0.22682402 0.10283688 -0.07208059 0.15155366 -0.286726 0.41587245 -0.60429245 0.03239625 0.24521336 -0.058367036 0.20849821 0.1370901 -0.31694978 0.2106195 0.8855493 -0.11186652
32 0.27928627 0.334851 -0.28596345 0.10854369 0.3492612 0.21131308 0.007071538 -0.0045666434 -0.18644473 0.5079194 -0.05646058 0.39923796 -0.051204525 0.047544528 0.300706 -0.053403985 0.15070593 0.03803726 -0.6192295 -0.18616048 -0.19290769 -0.026485616 -0.0144505175 -0.1981879 0.22327182 0.5323236 -0.063658334 -0.31209213 0.17383878 0.04159418 0.5911082 -0.37167075 -0.3871692 -0.08114931 -0.033527642 -0.44157875 0.43844554 -0.38475084 0.05761222 -0.4378758 -0.37626263 0.16484143 0.21300294 0.10210219 -0.08885889 -0.3066777 -0.092270926 0.20078562 0.16064315 0.013165565 0.21617779 0.40025744 -0.33649296 -0.041528475 0.20543693 -0.23454744 0.2778777 -0.14697117 -0.11851891 0.35595444 -0.06905108 -0.04821929 -0.009079697 -0.01220031 0.122850396 0.19416438 0.09400233 -0.1003228 -0.027938314 0.088460475 0.016761718 0.18499382 0.08246174 -0.26229668 -0.057007127 -0.15464543 0.10130974 0.033183224 0.13132675 0.046830174 -0.46210933 0.13031623 -0.34296843 0.23521417 0.17010637 0.49639368 0.10403729 0.3814371 0.006173248 0.13229866 -0.24388428 -0.12436388 -0.33025673 -0.39116576 0.14718823 -0.6190887 0.109189 0.15921289 -0.03943562 -0.23442675 -0.24185567 0.4121151 -0.22293112 0.6732059 0.37022874 0.40263006 -0.058240548 0.11071116 -0.17349449 0.51916736 -0.31597447 -0.22681572 0.17153226 -0.18479946 -0.32741565 0.44920862 -0.18541527 0.17287253 -0.13625377 -0.039089665 0.31987572 -0.18399405 0.27536964 0.11504132 0.10145129 -0.0668858 0.53265744 -0.31414863
33 0.331676 0.2613925 -0.32282245 0.26535743 0.45098993 0.31041622 0.06056653 -0.08432669 -0.15376315 0.58137006 0.0020469134 0.38658646 0.100658886 -0.1770163 0.3798706 -0.1378612 0.14506987 0.13823631 -0.77433777 0.0094986865 -0.041949328 0.096166246 -0.10370163 -0.20502271 0.21381441 0.4484788 -0.045001492 -0.21564563 0.23780225 0.04491636 0.5496615 -0.29448646 -0.39041996 0.058877904 0.008401142 -0.39833102 0.3876034 -0.44713995 0.017999798 -0.27568275 -0.32512206 0.031290267 0.052771155 0.07676378 -0.10042594 -0.1786031 -0.08553139 0.16117743 0.009766108 0.1938837 0.24351655 0.40227804 -0.16154978 -0.080880895 0.014994917 -0.24952643 0.1667148 -0.018401684 -0.23225775 0.34493145 -0.0382568 -0.027516657 -0.014435917 0.20582637 -0.050850492 0.18629065 0.07312124 -0.12293107 -0.22424498 0.18559681 0.082240894 0.09936306 0.27990407 -0.0900204 -0.14900543 -0.1950644 0.0136238085 0.09123315 -0.07107868 -0.0329222 -0.4398994 0.15046461 -0.2033703 0.36788532 0.21584108 0.39592627 0.06249076 0.058293223 0.12982483 0.19744168 -0.3099185 -0.052535206 -0.3954326 -0.24259737 0.11651076 -0.43611798 0.17984957 0.17041722 -0.18570305 -0.13259678 -0.15681194 0.3226303 -0.32350308 0.86158824 0.27875847 0.37201065 -0.0031989885 -0.03848961 -0.22163118 0.6011266 -0.15261221 -0.36843982 0.15559603 -0.22770968 -0.2745696 0.5215302 -0.1443887 0.08377546 -0.026695987 -0.030820383 0.3086633 -0.14363357 0.20364895 0.0023207732 0.08761041 -0.2213273 0.3447818 -0.37229502
140 0.07936553 0.2775308 -0.5149535 0.1398697 0.47097164 0.094696365 -0.3850631 -0.2291268 -0.08016597 0.9180968 -0.058206595 0.60801375 -0.18573397 0.12094395 0.5515847 0.031269737 0.5266575 0.3615142 -0.64467454 -0.22057159 -0.17921712 -0.055393837 0.19957365 -0.058582447 0.29623085 0.88819116 0.12277117 -0.46124974 0.2619218 -0.052227434 0.5344398 -0.47028217 -0.33994514 -0.08955418 -0.14987859 -0.31357095 0.4701191 -0.39117947 0.14964917 -0.40590897 -0.31599918 0.257167 0.0941015 0.20836978 0.008983349 -0.1841678 -0.021314658 0.22463083 0.27296713 -0.021722214 0.3195934 0.5795053 -0.3501883 0.027511356 0.31685928 -0.2790003 0.40532497 -0.23272449 -0.20490827 0.3476484 -0.02658778 -0.16486982 0.022095168 0.04119389 0.07441879 0.0384372 0.13069302 -0.17075713 -0.019824471 0.13899343 0.17605154 0.37827772 0.18216671 -0.077217124 -0.019630734 -0.13931242 0.3442388 -0.1529757 0.14140947 -0.12176229 -0.64361596 0.14999096 -0.3885319 0.38106772 0.18001823 0.35077283 0.12935068 0.4721171 0.08366468 0.08904928 -0.41803578 -0.21561189 -0.4243055 -0.40114135 0.0013409448 -0.8921877 0.07248652 0.39223653 -0.1931095 -0.23228946 -0.26969406 0.35879725 -0.0753871 0.619672 0.39350662 0.42101765 -0.09825469 0.042785898 -0.19690263 0.534053 -0.3061639 -0.12208161 0.21156557 -0.12176419 -0.552698 0.4034342 -0.10606635 0.11159121 0.20441696 -0.04105622 0.28809375 -0.17323866 0.23841184 -0.16464204 0.07481122 -0.09510457 0.35784474 -0.2237511
34 0.6392364 0.28840795 -0.24276067 0.41317642 0.40287063 0.36628243 0.15830848 0.048163265 -0.13476129 0.5069722 -0.1142702 0.39577582 0.12630363 -0.31410912 0.33147097 -0.03707465 0.11672195 0.13387735 -0.65914077 0.069380455 0.06839909 0.07621859 -0.23280808 -0.534811 0.1280816 0.37132353 -0.15540273 -0.17902619 0.2431692 0.10448609 0.47096518 -0.2426679 -0.515181 -0.020271052 -0.09637297 -0.52397734 0.31875554 -0.5173747 -0.07879359 -0.39665344 -0.38770103 0.044019952 0.0040318123 0.14605758 -0.10924995 -0.17294866 -0.17436822 0.21787855 0.089471504 0.29249975 0.11579384 0.5185995 -0.070920065 -0.04058379 -0.13880406 -0.22677897 0.22805332 -0.04239974 -0.19599421 0.15210234 -0.10480616 -0.055806253 -0.099922255 0.45265347 -0.0014074444 0.16670878 -0.042790443 -0.13825582 -0.19353753 0.19682533 0.13746831 0.13200554 0.44928166 -0.01722418 -0.1528551 -0.16051815 -0.09914502 0.1362965 0.0020127988 -0.087649934 -0.22667736 0.19365284 -0.13391924 0.47876123 0.0967198 0.49825862 0.014261943 -0.08998074 0.17761603 0.15270317 -0.25657737 0.092283875 -0.13971704 -0.36728078 0.26661202 -0.29705495 0.13250813 0.32062918 -0.23118046 -0.27829334 -0.226169 0.49262574 -0.2802267 1.0955827 0.24387942 0.28723592 0.12829399 0.021403853 -0.3005189 0.5751909 -0.103468806 -0.37188268 0.21159175 -0.25922802 -0.18025446 0.49554446 -0.15360096 0.10190768 0.031092005 0.024968278 0.34316328 -0.014882443 0.29390275 -0.07755441 0.107650355 -0.31146842 0.32751524 -0.19767539
35 0.4083217 0.22707559 -0.17648152 0.36824656 0.33726186 0.3983449 0.24746609 -0.18269725 -0.022768945 0.4464491 -0.115143105 0.38324887 -0.06511116 -0.41144723 0.38544005 -0.28762108 -0.10408306 0.22180814 -0.7126594 0.20177984 0.076073684 0.08190661 -0.0334881 -0.3559867 0.30765474 0.44776642 -0.071133755 -0.1194101 0.44558668 -0.04793156 0.35075742 -0.12428678 -0.37818226 -0.020823503 -0.32264313 -0.5196339 0.19698806 -0.37549865 0.03381908 -0.25554988 -0.34210923 -0.064767875 -0.048811954 0.050010797 0.06798983 -0.29828998 -0.16471754 0.22067177 -0.009722445 0.060827505 0.06847667 0.38771704 0.16652957 -0.16906139 -0.3192452 -0.23055132 0.24879473 0.115454406 -0.117754705 0.07060338 -0.04651486 -0.2152857 -0.11954173 0.5058968 -0.021342525 0.11376177 0.21502213 -0.124448165 -0.3243755 0.22315682 -0.18771474 0.19017524 0.3603193 -0.18083546 -0.062660865 -0.25452605 -0.22150409 0.1853269 -0.15303183 -0.024411071 -0.3290911 0.14523605 -0.033580463 0.49348336 -0.018212924 0.3043722 -0.0005302315 -0.032080732 0.17663285 0.073186435 -0.52904683 0.180336 -0.1233533 -0.30875644 0.34823728 0.10834025 0.014614247 0.2602366 -0.35814905 -0.34671474 -0.22721688 0.29133728 -0.1303353 1.1431422 0.50412935 0.28038207 0.1810192 -0.036813885 -0.2775328 0.54035556 0.08027626 -0.5129996 0.20661983 -0.27959913 0.03564446 0.43976614 -0.17676342 -0.102421634 0.0057395524 0.14830442 0.40467352 -0.107789025 0.5272043 -0.1308821 0.1991673 -0.13420168 0.12093844 -0.29749358
145 0.49863878 0.19545603 -0.12496864 0.34999663 0.49826527 0.20827338 0.14132273 0.2338636 -0.104051836 0.59284717 -0.28002393 0.45249954 0.19157475 -0.5222381 0.38498706 -0.13407567 -0.03203041 0.1282584 -0.58342975 0.1522483 0.32341293 0.16445601 0.08800538 -0.6681231 0.20880064 0.30968922 -0.26619825 -0.06844268 0.34899133 0.17596845 0.31332058 -0.18689178 -0.36784714 0.08747064 -0.00036002026 -0.4546783 0.13927045 -0.7650139 -0.10233626 -0.56579345 -0.36818236 -0.0497112 -0.11997329 0.12732211 0.047386784 -0.05777686 -0.02477537 0.11909934 -0.0601859 0.44633228 0.20409447 0.6582704 -0.09373147 -0.09108779 -0.1253656 -0.29130083 0.21636018 -0.1096139 -0.12571305 0.1544745 -0.34263152 -0.054341305 -0.31237125 0.65082866 -0.07747826 0.1942615 -0.12935376 -0.18513224 -0.13701573 0.17155384 0.06357295 0.21767393 0.55917066 0.24661976 -0.20504227 -0.04767221 -0.08577709 -0.049399063 -0.038114656 -0.061956994 -0.31583598 0.3958762 -0.29083174 0.93830377 0.088655695 0.6057641 -0.023197232 -0.23476703 0.22801042 0.28735113 -0.2619219 0.029265635 -0.35470918 -0.33972356 0.07357239 -0.2979971 0.21392308 0.3202231 -0.3267107 -0.2555713 -0.09393212 0.5032879 -0.42164078 0.8449269 0.18023321 0.19683309 -0.041604128 -0.17844707 -0.17634492 0.68962 -0.2841312 -0.59449255 0.17074172 -0.30072045 -0.20009664 0.6408207 -0.44944042 0.17430699 -0.20235154 -0.01417424 0.35513812 0.08827155 0.26958957 0.07306942 0.0038559497 -0.20358048 0.28481534 -0.41656193
36 0.2671723 0.39341974 -0.10792433 0.37790963 0.23374419 0.29853737 0.3353293 0.06833867 -0.060309064 0.4453726 -0.16016439 0.41524544 -0.2320858 -0.23311888 0.2909125 -0.24355671 -0.22222231 0.17354994 -0.5867101 0.17620079 -0.0049146414 -0.04364303 0.059263192 -0.35406208 0.2875346 0.39066958 -0.021247711 -0.072767295 0.23478135 0.10325465 0.12689395 -0.011565711 -0.52790344 0.053522233 -0.27605495 -0.51860327 0.005540493 -0.19531521 0.052192144 -0.15986982 -0.31918523 -0.09965787 -0.18036146 0.014912626 -0.030881628 -0.2975511 -0.20640045 0.32164127 0.10900621 -0.14927502 -0.0879497 0.1457626 0.023660637 -0.30072045 -0.2228861 -0.29130146 0.056594137 0.032108344 0.19743411 -0.034342337 -0.13989238 -0.12977107 -0.06742993 0.69061553 0.015055129 0.25813687 0.14110161 -0.11062511 -0.3161146 0.21497504 -0.30046916 0.21704364 0.22263591 -0.23189174 -0.19902544 -0.14305161 -0.20313306 0.19814992 -0.20219438 -0.04055211 -0.112352274 0.254179 -0.042537745 0.4548909 -0.04223631 0.31391641 -0.067561135 -0.038350984 0.018344762 -0.067930594 -0.47014207 0.11875266 -0.117168 -0.25780752 0.44977567 0.23943089 0.1688999 0.22060728 -0.12317012 -0.29703853 -0.19694787 0.4059632 0.21227282 1.1652577 0.6709938 0.17773575 0.124678515 -0.12212362 -0.2685117 0.4073864 0.205156 -0.7090264 0.27899054 -0.28112638 0.07828101 0.25186354 -0.24453971 -0.14127187 0.059164513 0.3385013 0.38235 0.07371728 0.6469457 -0.2176805 0.25083834 -0.106494926 0.15934063 -0.2546765
37 0.33866072 0.40577593 -0.201607 0.46633595 0.2078139 0.14776182 0.3599549 0.14772695 0.025185008 0.5927367 -0.17057478 0.56252384 -0.40031233 -0.21719716 0.17900659 -0.36392564 -0.47357714 0.27730367 -0.55202544 0.42472237 -0.12327351 -0.0021028712 -0.18566373 -0.31648237 0.27521202 0.2609122 0.13316481 -0.009882636 0.14972603 0.1065078 0.024366232 0.036687847 -0.6382931 0.02824494 -0.2310002 -0.42132175 -0.028014516 -0.18912216 -0.050012503 -0.066657044 -0.32383564 -0.10531777 -0.19240211 0.004527997 0.048925456 -0.32848313 -0.23371431 0.24180394 0.058821805 0.0010355274 -0.26199704 0.0015764915 0.104303986 -0.2942311 -0.18467657 -0.40576845 -0.08081152 0.07123984 0.045778237 -0.04791069 -0.32210433 0.08509857 -0.11242486 0.56797713 -0.07896415 0.40003505 0.034928925 0.000718499 -0.28197795 0.21336213 -0.22719762 0.14464654 0.27924982 -0.15281394 -0.12682638 0.08279429 -0.37307867 0.3476932 -0.29569444 0.10265351 -0.08211084 0.38117817 0.018599007 0.39621428 -0.14749245 0.16074462 -0.036678508 0.17964976 0.11811192 -0.21075694 -0.41773325 0.106011875 -0.03751238 -0.21846993 0.4521646 0.20356771 0.020006377 0.28827572 -0.16536985 -0.23831956 -0.24052961 0.4470073 0.24026504 0.9892768 0.76429594 0.081574365 0.065016724 0.05417698 -0.4098322 0.25152054 0.38489118 -0.58118695 0.32308948 -0.0870273 -0.003015416 0.24873456 -0.17406103 -0.28201807 0.12390868 0.3211768 0.18494101 0.0061405143 0.80523074 -0.09459396 0.12878728 -0.22750105 0.18826063 -0.030508092
150 0.42136323 0.48064944 -0.10142671 0.21699421 0.2113716 0.2591302 0.31585774 0.21501543 -0.11827629 0.38787025 -0.14262666 0.45931536 -0.33364514 -0.17581317 0.34553716 -0.25144222 -0.18298893 0.113913335 -0.68530995 0.08577201 -0.09428314 -0.101468936 0.2469909 -0.42697665 0.6399196 0.38150048 -0.033548832 0.081709094 0.2526988 0.11666972 0.03845348 -0.07806433 -0.5699512 0.106731966 -0.42620257 -0.6504972 -0.17014064 -0.15707465 -0.01430304 -0.16468632 -0.28049663 -0.11202408 -0.068660945 -0.035110723 0.17359918 -0.31223074 -0.12476678 0.33210915 0.020941857 -0.07578794 -0.1337852 0.1576746 0.08517935 -0.21433279 -0.2644375 -0.23389769 0.036556184 -0.09641667 0.1567999 -0.03665894 -0.1667074 -0.022634082 -0.04846753 0.55286074 0.012306107 0.25423297 0.15946358 -0.014862418 -0.20466125 0.20384459 -0.29374745 0.07356639 0.14829738 -0.13429345 -0.30509663 -0.28433424 -0.14772642 0.28967348 -0.2802424 -0.111466415 0.0033101111 0.2759014 -0.014045474 0.31814992 -0.018424673 0.21741018 0.05387663 0.17507528 0.062970504 -0.18722378 -0.6499983 0.27575997 -0.15170346 -0.24483497 0.48165193 0.13659741 0.16318946 0.20485938 -0.076602764 -0.3232995 -0.29705682 0.4575365 0.17133094 1.2324231 0.7519815 0.23703672 0.25842616 -0.041511204 -0.24161446 0.38680035 0.16012163 -0.71577984 0.4341696 -0.10164909 0.08012335 0.2512202 -0.19925459 -0.15755694 0.04287624 0.38882458 0.4710069 -0.0393232 0.6626085 -0.2973433 0.24407364 -0.10014789 0.19892904 -0.31160498
38 0.25825885 0.4506886 -0.26659635 0.5968486 0.20285797 0.010941139 0.42569616 0.1807203 -0.17701514 0.581298 -0.15861471 0.7474436 -0.4969142 -0.19420174 0.07090126 -0.38059005 -0.6251671 0.3930239 -0.5563181 0.5264236 -0.1858026 -0.06254951 0.06050263 -0.06327194 0.36377114 0.14735563 0.15390767 -0.012349909 -0.05988067 0.19475599 0.06861482 0.10443078 -0.65319353 0.17639801 -0.057541527 -0.34797555 0.15504922 -0.1616631 -0.03560824 -0.049784515 -0.19438109 -0.17573845 -0.27608675 0.03443736 -0.08409035 -0.3351818 -0.1647088 0.24370492 0.016941838 0.032005098 -0.36086696 -0.13797532 0.15299244 -0.4029538 -0.1804764 -0.44046995 -0.071910575 0.12989992 0.1550161 0.029913258 -0.37928036 0.21501 -0.17650549 0.4356146 -0.11719051 0.40394542 -0.1919812 0.21237968 -0.2668978 0.2897139 -0.3132693 0.18623088 0.1794044 -0.27429616 -0.016062116 0.08411697 -0.45290065 0.31253946 -0.36550298 0.2733976 0.028830077 0.400718 -0.11465958 0.42819345 -0.08263639 0.12651533 -0.013752686 0.2305313 0.22290389 -0.05238565 -0.30501774 0.10269195 -0.18581322 -0.17380148 0.34983173 -0.03021836 0.10449394 0.4401556 -0.15478468 -0.26102564 -0.29284915 0.433522 0.07026309 0.6616312 0.60284317 -0.024726445 0.20702064 0.01683948 -0.32844067 0.069807954 0.49854305 -0.5458428 0.22518094 0.063676596 -0.020735117 0.24353091 -0.18106738 -0.13566753 0.22089231 0.30949026 -0.12512526 0.22747402 0.7489194 0.03719065 0.07292518 -0.10442675 0.15351403 0.11367464
39 0.32651412 0.28372687 -0.3510718 0.40645754 0.25773114 -0.14309207 0.3543983 -0.11397902 -0.1334031 0.57943565 -0.064395286 0.6024867 -0.39439905 -0.16059583 -0.07424735 -0.475527 -0.56067914 0.27530468 -0.54549557 0.42008618 -0.31079665 -0.041127816 -0.29011482 0.046069056 0.22190472 0.43259427 0.29163042 -0.053538263 -0.08029259 0.27062687 0.078709185 0.2053299 -0.893502 0.061180513 -0.0966789 -0.40372646 0.39458182 -0.3605209 -0.054078866 0.24844874 -0.06047345 -0.07576427 -0.31974012 -0.12831098 -0.030937238 -0.14056236 -0.07464981 0.27405095 -0.029049885 0.24820532 -0.31684273 -0.15259886 0.2077137 -0.41115478 -0.2754406 -0.24776162 -0.024080627 0.16044354 0.09434215 -0.04683499 -0.47940952 0.44078586 -0.16834019 0.28792056 -0.23051983 0.26291838 -0.05102607 0.26930428 -0.38695267 0.26015347 -0.04210364 -0.02379352 0.101033874 -0.18218978 0.08908929 0.078622326 -0.49389267 0.3365958 -0.2554782 0.16885789 0.17461735 0.307796 0.04447857 0.13185424 -0.14848043 0.008612532 -0.2512173 0.30692783 0.18485564 0.06854138 -0.2148777 0.07279558 -0.22843222 -0.011759889 0.22559093 -0.09389467 -0.1499955 0.60849 -0.15452217 -0.03186061 -0.29186657 0.36639678 0.0031794298 0.51265323 0.604653 0.0010902919 -0.0077075763 -0.052775607 -0.36376348 0.13959122 0.48746538 -0.45874774 0.2417245 0.08088708 -0.28787965 0.062424254 -0.083366744 -0.21794592 0.26435706 0.27237135 -0.26196605 0.29579774 0.4795635 0.04294866 -0.065237835 -0.29513714 0.21308279 0.15300529
155 0.06588926 0.3319717 -0.4058929 0.45624283 0.5427843 0.19449526 0.2946717 0.2937285 -0.2780722 0.75518024 -0.11887865 0.61164325 -0.5322461 -0.16704758 0.4300321 -0.43172148 -0.5908868 0.35370663 -0.34954864 0.51288867 -0.26595122 0.22719759 0.048621513 -0.09111617 0.29443744 0.043247584 0.30464008 -0.12098685 0.29624057 0.09572692 0.039674558 0.11007153 -0.6978276 0.27140644 0.07110965 -0.18426509 0.0033543976 -0.31614974 0.1503809 -0.0825268 -0.21394344 -0.3225323 -0.48529378 0.20978472 -0.0071809413 -0.39658096 -0.31051332 0.27647555 0.024904799 0.28436828 -0.3216493 -0.023085294 0.17602558 -0.35227072 -0.26285633 -0.6843032 -0.14683723 0.01729842 -0.044495348 -0.21117865 -0.41074088 0.18161878 -0.28610003 0.4782378 -0.304866 0.5942026 -0.37208238 0.12868074 -0.20988968 0.18948781 -0.5653108 0.23268409 0.15402517 -0.2805909 -0.014669955 0.62968296 -0.33550984 0.23309182 -0.61026967 0.42131704 0.0053452756 0.48569316 -0.16040675 0.66436964 -0.0704231 0.22340967 -0.030790156 0.3398376 0.3778549 -0.08925664 -0.2850437 0.12982763 0.046990592 -0.25501177 0.20866978 0.10535779 0.096764885 0.23899686 -0.17846818 -0.24880432 -0.4166787 0.35203332 -0.03722548 0.6186054 0.64980227 0.12855752 -0.083345465 0.23807171 -0.25866076 -0.13449588 0.6083717 -0.73942035 0.2397209 0.24308954 -0.17559835 0.10003546 -0.12202558 -0.16572735 0.048931494 0.2845219 -0.39492494 0.19960473 0.52058953 0.12254357 -0.10752878 -0.14353245 0.30266276 0.20811343
40 0.14993961 0.39705545 -0.2732021 0.24979483 0.16653356 -0.4811616 0.20417956 -0.26981008 -0.16635936 0.5155414 -0.10086708 0.59834033 -0.33765534 0.13147962 -0.19626412 -0.68164307 -0.72605133 0.3214381 -0.39536497 0.052425705 -0.3353358 -0.022036238 -0.33603853 0.15762338 0.054995473 0.55163 0.26688018 -0.013902435 -0.013064384 0.25326887 0.12857114 0.3537963 -0.7235188 0.1108199 -0.05888495 -0.29673028 0.5214033 -0.42845795 0.019420393 0.48676842 0.044256844 -0.072997905 -0.19688767 -0.1114126 0.10646824 0.047952875 0.10786996 0.21963951 -0.019304385 0.18670939 -0.18595564 -0.1667845 0.2781426 -0.40951982 -0.1266169 -0.30393082 0.08259512 0.05885465 0.33366308 -0.07892823 -0.5386667 0.5471031 -0.06972115 -0.050367475 -0.3008082 0.19083792 0.13156267 0.20373574 -0.3393063 0.35684997 0.17854424 -0.1966218 -0.021497881 -0.40979165 0.22059837 0.071849436 -0.48912895 0.14595495 -0.17985272 0.16860093 0.036080346 0.15252684 -0.17750567 0.14221819 -0.1510481 0.018950442 -0.23588765 0.4874109 0.07737969 0.17642246 -0.19098498 -0.15472448 -0.445222 0.103516266 0.16943634 -0.3794983 -0.23172638 0.8571274 -0.24790663 -0.05868874 -0.07847393 0.35136214 -0.06906765 0.3282021 0.7614185 0.07634273 -0.14461702 -0.12512939 -0.2366601 0.29623458 0.3272513 -0.26444724 0.16034177 0.11658289 -0.39127752 0.038303655 0.010671608 -0.16352686 0.15799995 0.0829176 -0.33988616 0.30536222 0.38478702 0.16292071 -0.1613391 -0.03489006 0.11569073 0.20640744
41 0.11496836 0.21856447 -0.26550576 0.2466689 0.09349859 -0.45595923 0.27989382 -0.09199532 -0.20444551 0.4312529 -0.3646684 0.45802516 -0.13049127 -0.02294497 -0.1280849 -0.59902114 -0.5853937 0.151521 -0.4261226 0.05469118 -0.1862341 -0.11740307 -0.15128635 0.086807445 0.02389828 0.62268686 0.37230837 0.035043243 2.7655242e-06 0.10436009 -0.0037263623 0.3858404 -0.4785204 0.076297075 -0.07122362 -0.30585542 0.45300853 -0.38589227 -0.014920865 0.52690864 -0.018995095 -0.22091357 -0.3715314 -0.07637326 0.32392403 -0.07398594 -0.11075497 0.18893702 -0.10727266 0.18824072 -0.058238637 0.01221403 0.3228992 -0.3918678 -0.22750734 -0.454053 0.0812296 0.016205892 0.30960724 -0.20829691 -0.7395394 0.4094885 -0.13624465 -0.16688271 -0.18470077 0.16782387 0.10799701 0.23921885 -0.11500391 0.36427328 0.21486616 -0.16185777 -0.064889744 -0.23907198 0.14065763 0.06417434 -0.41466877 0.09338048 -0.24515244 0.14034045 -0.082346715 0.16442159 -0.32376686 0.13183503 -0.25757986 0.049146287 -0.23963259 0.49562606 0.12457315 0.17581153 0.06459927 0.09985248 -0.4036726 -0.18630879 0.18180884 -0.461864 -0.029976575 0.70277405 -0.11249178 -0.086041495 -0.21603207 0.36496204 -0.2600682 0.1741346 0.79475284 0.118285224 -0.31767124 -0.0052999863 -0.13711295 0.1652336 0.21637379 -0.084644616 0.062076394 0.22049679 -0.44803372 -0.085728 0.10174345 -0.37593085 0.039288286 0.38101095 -0.18260714 0.35241842 0.08812211 0.107428916 0.21613266 -0.011201803 0.14695467 0.36777166
160 0.1457567 0.33768108 -0.37179375 0.27874398 0.13586833 -0.6416567 0.34171173 -0.33121574 -0.1300738 0.39283374 -0.07577332 0.65975565 -0.43304887 0.262985 -0.3463691 -0.7978803 -0.8944037 0.55039364 -0.48248827 -0.065127224 -0.7952173 0.086011745 -0.5058865 0.06065549 0.054715224 0.4936225 0.1147714 -0.15560128 0.10998393 0.28594536 0.29673043 0.028083563 -0.7934909 -0.011777092 -0.16834733 -0.4554121 0.69760364 -0.6166279 0.13856143 0.50082237 0.06004553 0.080569245 -0.21819128 -0.19145332 -0.014030884 -0.023071053 -0.04812145 0.4292762 0.12537065 0.23060922 -0.12223517 -0.22532946 0.22724023 -0.32771933 -0.06421329 -0.29236004 0.35475722 0.054304007 0.37358084 -0.16369718 -0.6668275 0.54800993 -0.06612945 0.07170811 -0.061397698 0.32410598 0.32410654 0.12371033 -0.30706802 0.28161266 0.2585178 -0.14159419 -0.060108535 -0.3617148 0.27375817 0.3619677 -0.43629396 0.019588798 0.0022149277 0.13657087 0.1548657 0.008818244 -0.008498376 -0.042852726 -0.15362369 0.25010496 -0.4440071 0.528586 -0.118939586 0.2971056 0.053795196 -0.16300333 -0.20525326 0.16188684 0.20133358 -0.4050119 -0.48567277 0.9273743 -0.15311414 -0.12996307 -0.18301958 0.44348785 0.11497083 0.43353188 0.9459758 0.0442927 -0.4655403 -0.18191904 -0.32644793 0.2550598 0.2837229 -0.36556107 0.06393172 0.059173726 -0.24932626 -0.121718146 0.044365145 -0.16100305 -0.17992508 0.09511579 -0.29945186 0.41988063 0.20137446 0.14270318 -0.26820093 -0.10998898 -0.025505848 0.34597296
42 -0.18395528 0.050987933 -0.2728966 0.3167702 -0.09616565 -0.39891848 0.05930562 -0.030469904 -0.08173329 0.4125584 -0.44975686 0.44326106 -0.06773972 -0.13378756 -0.0060454006 -0.32423568 -0.378312 0.17807157 -0.36730832 -0.058747437 0.011047685 -0.1957807 0.017652255 -0.028800512 -0.017149685 0.4929535 0.2249243 0.062286824 0.17800815 -0.081823975 -0.2401191 0.45714885 -0.23151487 -0.09983132 0.01738028 -0.2021357 0.4145568 -0.20047429 0.11317022 0.56146365 0.028189203 -0.31146586 -0.38043272 -0.08521555 0.4956913 -0.16133693 -0.27550963 0.05689513 -0.024202596 0.22267102 0.12518401 0.13065286 0.4314009 -0.3096313 -0.2976025 -0.65986633 -0.025048606 0.16608118 0.31230935 -0.19644137 -0.6857013 0.3987449 -0.038939904 -0.20062953 -0.39768395 0.07279767 0.14302109 0.22275797 -0.09035938 0.4735127 0.16016012 -0.05283508 0.13527818 -0.5101935 0.12005578 0.1327136 -0.46225956 0.0007686652 -0.33106065 0.15893964 -0.3087593 0.20875224 -0.39948443 0.2679844 -0.27206147 -0.021441344 -0.2511934 0.60558796 0.2855207 0.16620404 0.07612918 0.07334761 -0.46974775 -0.24269946 0.0251132 -0.36681804 0.046695817 0.6604949 -0.18746215 -0.23320258 -0.24683845 0.1184154 -0.3595886 0.09848222 0.5627141 0.16268827 -0.38891804 -0.05816359 0.098860994 0.13344093 0.18866657 0.0353715 0.010364375 0.28246948 -0.42309183 -0.22741258 0.10808429 -0.56437564 0.038144745 0.23662557 -0.09844577 0.19509949 0.01849637 0.16263328 0.36519805 0.08982885 0.21906891 0.44348174
43 -0.09826249 -0.02099253 -0.30206737 0.31950116 -0.10961672 -0.4960051 -0.06736694 -0.017711021 -0.12708308 0.3363647 -0.21420644 0.34476054 -0.03135956 -0.08600704 0.05834221 -0.34316856 -0.32129702 0.07109307 -0.40048203 -0.014874438 0.15740669 0.0536754 -0.048079472 0.17576474 0.005414868 0.26405326 0.31279737 0.09625547 -0.043139488 -0.19225927 -0.4325984 0.6446339 -0.15549155 -0.10822184 0.03265155 -0.11229305 0.33911142 -0.23099478 -0.05559024 0.6749007 -0.11896365 -0.32001522 -0.47020644 -0.049247753 0.46441197 0.014954722 -0.20165022 0.18141107 0.015665194 0.27994922 0.05548191 -0.10905036 0.3970518 -0.13879445 -0.32375228 -0.55452937 0.06093309 0.1615372 0.30632123 -0.22154008 -0.60197693 0.26947305 -0.050494276 -0.0036084673 -0.44331086 -0.026252098 0.105561085 0.21922311 0.0027125913 0.3622612 0.31011048 -0.10025992 0.079857066 -0.6139618 0.1832067 0.015122699 -0.47642392 0.1422486 -0.285514 -0.042534355 -0.245783 0.20605096 -0.4031909 0.34233457 -0.14880022 0.012587763 -0.28386724 0.3830228 0.18779148 0.014422348 0.21836556 0.13535273 -0.57601446 -0.32358298 -0.045039475 -0.48649976 0.1015425 0.55124044 0.024998983 -0.3600298 -0.2630734 0.026970034 -0.3604922 0.20507032 0.40774167 0.049391694 -0.36039394 -0.04200763 0.11861964 0.23956402 0.16123284 -0.023743827 -0.02137378 0.18156911 -0.48247752 -0.17402376 0.18805316 -0.52623 -0.048356503 0.38038594 0.190899 0.3294523 -0.16983494 0.096417695 0.30341914 -0.046318993 0.5485151 0.2336174
165 -0.17443964 0.21744955 -0.32742226 0.19327083 -0.124840274 -0.39885762 0.10262113 -0.13603255 -0.32211336 0.52805924 -0.5157906 0.26465288 0.087512 -0.27287334 -0.031020967 -0.28018013 -0.7417204 0.1736348 -0.38943824 -0.18381754 -0.04694036 -0.15413922 0.067610465 -0.057795897 0.069800876 0.19687104 0.13135926 0.03449476 0.18753831 -0.19506 -0.40438902 0.20048258 -0.18826422 -0.31149513 0.16383636 -0.39039156 0.4903768 -0.24856426 0.03858835 0.6022587 0.025181212 -0.62823784 -0.65924513 -0.22530448 0.619043 -0.37421998 -0.6102545 0.06167616 0.057989698 0.25987458 0.25506163 0.45231655 0.2869558 -0.29715475 -0.21500877 -0.74491924 0.26013094 0.13065879 0.26550683 -0.27285457 -0.7977692 0.612183 -0.023804998 -0.075398296 -0.29116976 0.11914674 0.08515041 0.3395026 -0.1761993 0.49763793 0.08880139 -0.23875289 0.063713856 -0.22962405 0.114961565 0.16554181 -0.6282966 -0.10800732 -0.27273107 0.18415128 -0.27879545 0.20266038 -0.44192973 0.30935997 -0.42935115 0.009036351 -0.150299 0.6323133 0.22011505 0.16522248 0.13986142 0.11715005 -0.4827199 -0.5894095 -0.010379946 -0.43520686 -0.013711006 0.6446658 -0.30572945 -0.17244615 -0.49380362 0.13728213 -0.45441085 0.10560699 0.4928039 0.32618058 -0.34325814 -0.05467397 0.31619275 -0.03888573 0.039355814 -0.064199686 0.11003975 0.27578062 -0.24826051 -0.35013172 0.16430853 -0.4621879 -0.18180987 0.32129854 -0.31472576 0.18501322 -0.14950712 0.116303325 0.5213695 0.14863946 0.23564361 0.3754493
